[
  {
    "name": "INP",
    "activation": "ELU",
    "neurons": [
      {
        "weights": [
          0.2553584873655509,
          0.012205327186046229,
          0.02493975121934405,
          0.039228647521944514,
          0.06188993389023102,
          0.0411071807367282,
          0.03362469162175845,
          0.033372010914969524,
          0.0347296896550288,
          0.03543363801103951,
          0.034540395699943396,
          0.03329391993600141,
          0.03363229036127862,
          0.032225080453951595,
          0.03232193115578695,
          0.03281860881545053,
          0.04046186695645609,
          -5.009420103454102E-4
        ],
        "bias": 0.006682070352483831
      },
      {
        "weights": [
          -0.41611571637546285,
          0.42742147388702156,
          0.392123706604494,
          0.366088951930682,
          0.3258740000316419,
          0.3849733857991983,
          0.39965981322301264,
          0.3990827055143915,
          0.39970370756556645,
          0.3993779071011166,
          0.3995164792049151,
          0.40057536960130896,
          0.4011473879825448,
          0.40088369797955203,
          0.40114752277592947,
          0.4003617777921573,
          0.38454446710085816,
          9.634653018898975E-5
        ],
        "bias": 0.0187455799973422
      },
      {
        "weights": [
          -0.4376682331775375,
          0.40935246196346614,
          0.37144234449916463,
          0.34381540381865094,
          0.3035979457554943,
          0.3636192207027922,
          0.37758374319531984,
          0.37744384967535793,
          0.3783786018538576,
          0.37819222975988354,
          0.3773579149609741,
          0.37893275299594814,
          0.3788775102941522,
          0.3781714707943282,
          0.37833861868285146,
          0.37782084036568697,
          0.36360451448632036,
          -2.0009113109548563E-4
        ],
        "bias": 0.018136459256156826
      },
      {
        "weights": [
          -0.13612553740379657,
          -0.03731465186427292,
          -0.08298484695574378,
          -0.15262502337155145,
          -0.17021022512507208,
          -0.17018344563124535,
          -0.164873927942322,
          -0.157972667125644,
          -0.154895191466298,
          -0.1531086875977119,
          -0.15197346352711322,
          -0.151043213461744,
          -0.15235459855034836,
          -0.15308241980216156,
          -0.15574389652090445,
          -0.1612166399619961,
          -0.165651023157582,
          -2.93040103206111E-4
        ],
        "bias": -5.408255988894738E-4
      },
      {
        "weights": [
          0.01412586153276767,
          -0.013658237537076215,
          -0.024640012541508622,
          -0.04059268644752802,
          -0.03073300132399184,
          -0.04615763211341921,
          -0.0501382998721381,
          -0.04673132275816946,
          -0.04599806168090989,
          -0.04548480668107324,
          -0.04590663738361423,
          -0.04570949053295138,
          -0.046465842976192724,
          -0.04648843550343578,
          -0.04763850929294424,
          -0.04998489843764025,
          -0.0463986737257262,
          3.6204077052122423E-6
        ],
        "bias": -4.2426703347100956E-5
      },
      {
        "weights": [
          1.3429278402702534E-4,
          -0.03490097310369764,
          -0.07113145986399572,
          -0.1350547083044941,
          -0.12937806451534495,
          -0.1633327694312523,
          -0.167503624586565,
          -0.15484629253335966,
          -0.15224117817537025,
          -0.14946325371165625,
          -0.14844138644972285,
          -0.14793519513501938,
          -0.14814152178578302,
          -0.15071862479545398,
          -0.15390017910748371,
          -0.16543254808196392,
          -0.15908472201249113,
          2.3798192680425282E-4
        ],
        "bias": -1.8307108393771172E-4
      },
      {
        "weights": [
          -0.08768084005242742,
          -0.035847800664023294,
          -0.08038357419733431,
          -0.15306715118049688,
          -0.1656049608857173,
          -0.17440457208108873,
          -0.1716222213548653,
          -0.16232461311953292,
          -0.15896414954656546,
          -0.15677972502345217,
          -0.15552106808248392,
          -0.1554483241349892,
          -0.15594229572139112,
          -0.15688255076523144,
          -0.16056312857338348,
          -0.16792968315121834,
          -0.16872082297037175,
          -1.638304271582047E-4
        ],
        "bias": -3.298447839609601E-4
      },
      {
        "weights": [
          -0.42331848254682714,
          0.4239567712993934,
          0.38689534701383993,
          0.35921394784160315,
          0.3191263381181847,
          0.3796431880935311,
          0.3941378480744171,
          0.3939095609475885,
          0.3941426954094258,
          0.39424698097219385,
          0.39402358507226437,
          0.3939030839164155,
          0.39509519573372576,
          0.3943958854536544,
          0.3943114733415765,
          0.3941824015554423,
          0.37957140496569153,
          3.7988242832735265E-4
        ],
        "bias": 0.018711873570610577
      },
      {
        "weights": [
          -0.4398281757267442,
          0.40487812128712286,
          0.3687334547456812,
          0.3400928326827749,
          0.3008848453454602,
          0.3603059507188826,
          0.3737441996130237,
          0.37438997053755696,
          0.37439073599576395,
          0.37359763071862795,
          0.3738191742777235,
          0.37466297008078087,
          0.37422601687619306,
          0.3746926060465141,
          0.3749371989776006,
          0.37457573929794935,
          0.3601088104854503,
          -4.0537708198566745E-4
        ],
        "bias": 0.017782347411176628
      },
      {
        "weights": [
          -0.4269221711281782,
          0.41574741562174367,
          0.38118887171942334,
          0.3539749589351756,
          0.3147821078432765,
          0.3717110952537842,
          0.3866472917361182,
          0.38697092189123483,
          0.387355686491626,
          0.38592020778527864,
          0.3859419481993497,
          0.3865788115699237,
          0.3869799636267607,
          0.3879534426980591,
          0.3885230524521658,
          0.3876384821681696,
          0.37252231604957625,
          1.1705909782030317E-4
        ],
        "bias": 0.018499010902094437
      },
      {
        "weights": [
          -0.12489920413062686,
          -0.04135608935285305,
          -0.0881646888370783,
          -0.15954361384917287,
          -0.176203592259676,
          -0.1778010049868103,
          -0.17381169665703364,
          -0.16650654433378767,
          -0.16430287591938847,
          -0.1626489260343259,
          -0.16110090878161581,
          -0.1608646325485639,
          -0.16149045448636315,
          -0.16192409095258378,
          -0.16435291346153438,
          -0.171122801797068,
          -0.1742006784616511,
          -3.1024820132727674E-4
        ],
        "bias": -4.7158234549203213E-4
      },
      {
        "weights": [
          -0.4322365166290173,
          0.4138700157357694,
          0.3775441523613151,
          0.350443644630237,
          0.31026060097809427,
          0.3695722215715637,
          0.3845190600414738,
          0.38532942244135454,
          0.38489102106096557,
          0.38485408793400805,
          0.38426289584631834,
          0.3846948966882853,
          0.38456644797744555,
          0.384628933337284,
          0.38439642400785917,
          0.384018932389264,
          0.37051905150226966,
          -2.357386633734034E-4
        ],
        "bias": 0.018148884773172645
      },
      {
        "weights": [
          0.0011420193667211046,
          -0.03508418715281935,
          -0.07058080164854887,
          -0.13411034254262708,
          -0.12710090718177314,
          -0.16053367441940722,
          -0.16476655485830682,
          -0.15317699911770608,
          -0.15038150039685086,
          -0.147487410373205,
          -0.14612184650197627,
          -0.14574292380733395,
          -0.14629328992606455,
          -0.14822442822681722,
          -0.15308939783935277,
          -0.16293894166819975,
          -0.15643253006602034,
          -2.315978250266693E-6
        ],
        "bias": -1.8167681300281308E-4
      },
      {
        "weights": [
          -0.4263324569180169,
          0.41745474634791735,
          0.381667158412817,
          0.35403456284240786,
          0.31479356220236854,
          0.37370095163027034,
          0.3884377540262535,
          0.389036139891274,
          0.38933194207383626,
          0.38829639845901764,
          0.3880651558195252,
          0.38871617398209646,
          0.38847147871342536,
          0.3890510593583364,
          0.38982587992042844,
          0.3884255030092027,
          0.3734497990267861,
          -1.3439857955106546E-4
        ],
        "bias": 0.018476436108220827
      },
      {
        "weights": [
          -0.05417116450497443,
          -0.043584521736161855,
          -0.09059415686561847,
          -0.17381312662256787,
          -0.18347624780563937,
          -0.19920836807192438,
          -0.19704026466262647,
          -0.18479959592607242,
          -0.1818797355635814,
          -0.17893774565755086,
          -0.17763565400164227,
          -0.17695409534950438,
          -0.1776334399686852,
          -0.17950784609354525,
          -0.18366703993485764,
          -0.19322131452978494,
          -0.19370567652494122,
          1.1968226747608277E-5
        ],
        "bias": -2.8039935286849324E-4
      },
      {
        "weights": [
          -0.0858526172688504,
          -0.03666036457050352,
          -0.08062774825449737,
          -0.1544520080502156,
          -0.16616333784520892,
          -0.17609395882293377,
          -0.1731309514596753,
          -0.1632399605826969,
          -0.1612878091707219,
          -0.1589381009108249,
          -0.15699043523636322,
          -0.15653655600606234,
          -0.15748063379967067,
          -0.1586026715731147,
          -0.16170316840973245,
          -0.1702640413149274,
          -0.17080934766248065,
          4.842486276489268E-4
        ],
        "bias": -3.3187944441786366E-4
      },
      {
        "weights": [
          0.5413757873404301,
          0.08715961451243173,
          0.11727566116878523,
          0.14370872532327317,
          0.173908522931956,
          0.14393950328380695,
          0.1338262054732986,
          0.13394571675702524,
          0.13537519760302222,
          0.1354316221293471,
          0.13561687351138624,
          0.13534050105591516,
          0.13440208967022532,
          0.13419138497299588,
          0.13412606912249628,
          0.13399453411255102,
          0.14535757178647962,
          -3.6990507434184184E-4
        ],
        "bias": 0.013649105976062491
      },
      {
        "weights": [
          7.319478733435073E-4,
          -0.03455545795537767,
          -0.07088825657784144,
          -0.13549755779799924,
          -0.12970005734262016,
          -0.16337063573016697,
          -0.167724804359252,
          -0.15594259805732577,
          -0.1524434015900142,
          -0.14902689620233475,
          -0.14834278473109608,
          -0.14855558801953336,
          -0.14856822692205482,
          -0.15049383047242465,
          -0.15535434919056088,
          -0.1650123323195367,
          -0.15933606365471792,
          -4.1937398242829427E-4
        ],
        "bias": -1.8529712152487158E-4
      },
      {
        "weights": [
          -0.11915979469062687,
          -0.04103072410642246,
          -0.08839387724137883,
          -0.16046767300311243,
          -0.17717593879363217,
          -0.17899992398716535,
          -0.17451484351669125,
          -0.16722302199751699,
          -0.1638712080192444,
          -0.1609973938615982,
          -0.1600303173061789,
          -0.1595139016151542,
          -0.16021443718542594,
          -0.16140277414948945,
          -0.1640415939083727,
          -0.1709817387353474,
          -0.17428427035326097,
          1.608147099971123E-4
        ],
        "bias": -4.7331814900861043E-4
      },
      {
        "weights": [
          0.0035713137867662823,
          -0.03457045091891364,
          -0.06844352827167907,
          -0.1272955552546958,
          -0.11946292233105832,
          -0.15383356464820672,
          -0.15749426417807239,
          -0.146994961304116,
          -0.14467192435604692,
          -0.14242940562321077,
          -0.14063252027144887,
          -0.14015463052966917,
          -0.14143043544431383,
          -0.14345111664192528,
          -0.14723708249352646,
          -0.1556725553150515,
          -0.15027640725461094,
          -3.231896430320629E-4
        ],
        "bias": -1.8062288062439707E-4
      },
      {
        "weights": [
          -0.42836370894610476,
          0.41631242390345796,
          0.38024282574162166,
          0.35239137511244145,
          0.31303269870514366,
          0.37318409357973925,
          0.38710913904561095,
          0.3876726430194387,
          0.3878376941273128,
          0.387228949914674,
          0.3866387768083073,
          0.38735452941561205,
          0.3872793695592544,
          0.38828877425444247,
          0.38868574040146786,
          0.38763581507020495,
          0.3723175987866987,
          -1.5432013227511388E-4
        ],
        "bias": 0.018106664885897565
      },
      {
        "weights": [
          -0.1979905240686054,
          0.30422810813872037,
          0.3330951626744511,
          0.34417628261773175,
          0.3186751599462324,
          0.3522853877108903,
          0.361626465160606,
          0.3589157819847959,
          0.35885523634322714,
          0.3589469911025554,
          0.3582235302031797,
          0.3579599201652481,
          0.3582176943201976,
          0.3597749095326786,
          0.3615105447121067,
          0.3642347604718672,
          0.35442957713711,
          1.842830225683012E-4
        ],
        "bias": 0.004441328761344589
      },
      {
        "weights": [
          -0.11671020382998512,
          -0.04010211874235032,
          -0.0845792934665471,
          -0.15661438755691293,
          -0.17304768042905855,
          -0.17511998765444994,
          -0.17075951945695028,
          -0.1628867049986919,
          -0.15984610050627607,
          -0.15746905055552657,
          -0.15662360810373283,
          -0.1559204249249823,
          -0.15663332867798377,
          -0.15720701154026337,
          -0.16061187258603257,
          -0.16689330519554924,
          -0.1706011614949139,
          5.004771645810404E-4
        ],
        "bias": -4.557404655146135E-4
      },
      {
        "weights": [
          -0.07888130817978384,
          -0.03262121803974539,
          -0.07357710994289267,
          -0.14515996731650127,
          -0.1561778683427291,
          -0.1664252929013577,
          -0.1647823625189954,
          -0.15401168583990396,
          -0.15138155751882648,
          -0.14838202002325782,
          -0.14670336804215417,
          -0.14637189156853098,
          -0.14732888522993431,
          -0.14873676485487447,
          -0.15158558891966256,
          -0.16003701841909912,
          -0.16139353071524165,
          -1.5591626685724385E-4
        ],
        "bias": -2.975928450798384E-4
      },
      {
        "weights": [
          -0.43707562202855577,
          0.4080298486259269,
          0.3722241842914054,
          0.34303128405332683,
          0.3048048693172636,
          0.36325791303493,
          0.37823931709672676,
          0.3782412519425581,
          0.3778137609000136,
          0.3771756639642105,
          0.3766463684379888,
          0.3771248630789077,
          0.3774381803663816,
          0.3785838977529691,
          0.3783846363823963,
          0.3777540444032322,
          0.3630328609258948,
          2.2998240509314552E-4
        ],
        "bias": 0.018326347500395107
      },
      {
        "weights": [
          -0.06336564268335629,
          -0.04501902649911641,
          -0.09433273558169263,
          -0.17583298792693572,
          -0.18628564567098985,
          -0.19944758998730533,
          -0.19757697415409,
          -0.18624408437045006,
          -0.1828904988493443,
          -0.1810194230344235,
          -0.17896891901820147,
          -0.17872514228321149,
          -0.1796035256281012,
          -0.1804765276988094,
          -0.1842026622100432,
          -0.19383627835028375,
          -0.1941324982821214,
          1.97255130749854E-4
        ],
        "bias": -3.0477981978455684E-4
      },
      {
        "weights": [
          -0.2609208622343415,
          -0.03920994455417067,
          -0.07755841267439478,
          -0.13409758848261022,
          -0.15934572334286995,
          -0.14795780815755985,
          -0.14054687606061628,
          -0.13752435936498064,
          -0.13567926397692792,
          -0.13460506851881432,
          -0.13409144170484902,
          -0.13407725494035966,
          -0.13364246014569472,
          -0.13428730957607307,
          -0.1349303009524525,
          -0.13697168206417346,
          -0.14465631166729667,
          -4.2562909964079736E-4
        ],
        "bias": -0.0012280518589223807
      },
      {
        "weights": [
          -0.14520761237080837,
          -0.039539559302686475,
          -0.08536287289740378,
          -0.15515931789204312,
          -0.17364322078121508,
          -0.1721965260561394,
          -0.16678871443586965,
          -0.15972937042218624,
          -0.15814589331702247,
          -0.15633046626208932,
          -0.15503403270743288,
          -0.1548286838118362,
          -0.15499318800954479,
          -0.1555227878356954,
          -0.15811805099642062,
          -0.1632711437389282,
          -0.16817450533949904,
          -2.412789359579546E-4
        ],
        "bias": -5.870679549776254E-4
      },
      {
        "weights": [
          -0.14135971896423996,
          0.296482204672114,
          0.3387840044745587,
          0.36352325717988027,
          0.3407694681554117,
          0.3747465208645758,
          0.38215665748335526,
          0.3786271889072243,
          0.3771885929847212,
          0.37544017878154257,
          0.3759282497763656,
          0.375939086043524,
          0.3753866709958617,
          0.3767214931536537,
          0.37894222803851885,
          0.38165752881233844,
          0.3725011445134631,
          8.555107250136547E-5
        ],
        "bias": 0.004605133555185352
      },
      {
        "weights": [
          -0.038175074159515314,
          -0.036368059592845906,
          -0.07841760963710045,
          -0.15614330639476018,
          -0.16231827106391392,
          -0.1835475206743212,
          -0.18214768875984783,
          -0.16996989957266326,
          -0.16648210206793668,
          -0.1631542296235141,
          -0.16139293864982932,
          -0.16139630097958352,
          -0.16174540140500873,
          -0.16395444571140222,
          -0.16780396986965043,
          -0.17896842114115835,
          -0.17808456095231615,
          -6.834524388151035E-4
        ],
        "bias": -2.1727314048924757E-4
      },
      {
        "weights": [
          -0.42834142744529263,
          0.4169228385062983,
          0.38178611123315104,
          0.3548575756082806,
          0.3145170452427975,
          0.37389415818768734,
          0.3879781126109301,
          0.3889182716717424,
          0.38801199396296693,
          0.3872927205918972,
          0.38800398841211103,
          0.3889372356190611,
          0.38811995808477595,
          0.3885103723162097,
          0.388887775490397,
          0.3888913067758286,
          0.3735217999227984,
          -2.0494150825842812E-4
        ],
        "bias": 0.01824397111573057
      },
      {
        "weights": [
          -0.4230910978869547,
          0.4235084145736506,
          0.3869321178337196,
          0.35993805148301583,
          0.32008101834802766,
          0.3794716709831385,
          0.3933825752778606,
          0.3948160021696325,
          0.39447151556410587,
          0.3949020477885456,
          0.3933081140828882,
          0.39426244312643705,
          0.3947763769958176,
          0.39496380802149766,
          0.3944881888035031,
          0.39392854059174626,
          0.3796770161796809,
          -6.488886020257484E-4
        ],
        "bias": 0.019296894933725026
      },
      {
        "weights": [
          -0.039506591970417004,
          -0.03721176518515409,
          -0.0797790207666103,
          -0.15855407418380071,
          -0.1647690586487296,
          -0.18486383258608707,
          -0.18402319026454084,
          -0.1720682533137703,
          -0.16799153233944558,
          -0.1645215702874934,
          -0.16363141131576753,
          -0.16273291153554634,
          -0.16404350987418279,
          -0.16563198274402707,
          -0.16993803445653877,
          -0.18006056165973366,
          -0.17996045354964935,
          4.0285692610084385E-4
        ],
        "bias": -2.2634923755834762E-4
      },
      {
        "weights": [
          -0.43426436523019,
          0.4105074630401441,
          0.37345750889821355,
          0.34559371424358,
          0.3060714617813726,
          0.36463100097431994,
          0.37887715637780756,
          0.3796706805909499,
          0.3794182542793479,
          0.37917320155747186,
          0.3780878293388904,
          0.37939077099561214,
          0.38000282406238833,
          0.38089291009550125,
          0.38078291201606834,
          0.3798938388225007,
          0.36517375121115025,
          -1.589082380823537E-5
        ],
        "bias": 0.01813386522598162
      },
      {
        "weights": [
          -0.4324069191436015,
          0.4130458388449213,
          0.3773457921051903,
          0.3496742277405321,
          0.3092302195177937,
          0.36831902338059047,
          0.38230781581348344,
          0.3831787713491613,
          0.3828454169402045,
          0.38384610647362166,
          0.382900030757071,
          0.3830434236086972,
          0.3839833377830297,
          0.38374165086634415,
          0.383817132570653,
          0.3830927948017702,
          0.36909281104109465,
          -1.9558340446020793E-4
        ],
        "bias": 0.01854622698618859
      },
      {
        "weights": [
          0.0015337858615968995,
          -0.03450456187806386,
          -0.07120320309466388,
          -0.1340351532701543,
          -0.12767828622137473,
          -0.16123951604000847,
          -0.1653750154104335,
          -0.15341951045768837,
          -0.15133197749965466,
          -0.1483875445499968,
          -0.14681903806571067,
          -0.14682751111922557,
          -0.14778633215732065,
          -0.14930085576629643,
          -0.15343128515237142,
          -0.1637294874154735,
          -0.1570750398404115,
          -2.978188813809663E-4
        ],
        "bias": -1.8328692136637266E-4
      },
      {
        "weights": [
          -0.05900710424217874,
          -0.04385616194663063,
          -0.09219432359714615,
          -0.17376581455731496,
          -0.183856694394586,
          -0.19798206735121449,
          -0.19702282162766122,
          -0.18507237920206515,
          -0.18156946222347115,
          -0.17907496856599708,
          -0.17779731813581834,
          -0.17708530440414422,
          -0.17786276928157793,
          -0.17893891243184565,
          -0.18323153256525754,
          -0.19269018977147964,
          -0.1926438758692289,
          -1.0883691791247445E-4
        ],
        "bias": -2.908547310566384E-4
      },
      {
        "weights": [
          -0.03581851282513144,
          -0.034948680235029735,
          -0.07549438009176927,
          -0.15218588236498337,
          -0.1579479913187377,
          -0.18018974052875472,
          -0.17924556501985467,
          -0.16661686718062133,
          -0.16260615702442746,
          -0.16039173989498912,
          -0.1578801014075292,
          -0.15724374777303166,
          -0.15815314721517174,
          -0.16036496078101442,
          -0.1644355714119441,
          -0.17527018152836002,
          -0.17378370612717614,
          -6.062779568548011E-5
        ],
        "bias": -2.089170108042783E-4
      },
      {
        "weights": [
          -0.09527961848246588,
          -0.044921016427632555,
          -0.09177743965556866,
          -0.1691295731417668,
          -0.18208461411498467,
          -0.18959541037335023,
          -0.18686850545846082,
          -0.1769429285639236,
          -0.17539130132091899,
          -0.1724174702402339,
          -0.17073408795346265,
          -0.17076762622203673,
          -0.1718111970955706,
          -0.17203445113272314,
          -0.17535800552632091,
          -0.18304999924476884,
          -0.18437433338289974,
          3.879743155404081E-4
        ],
        "bias": -3.793615733671713E-4
      },
      {
        "weights": [
          -0.4291891484785184,
          0.4150816963443558,
          0.37921684835977565,
          0.35234890797689244,
          0.31201372472907585,
          0.3712564524922092,
          0.38520712280303776,
          0.3862365466875708,
          0.3856688546209615,
          0.3853868908012315,
          0.385320900378398,
          0.38625512097602394,
          0.38583837484360733,
          0.38610460571928357,
          0.3870328123081882,
          0.3862242194048951,
          0.37161226093443167,
          5.72546898119274E-4
        ],
        "bias": 0.01826658139526532
      },
      {
        "weights": [
          -0.18628734372482308,
          0.2892280918348498,
          0.32309637254938706,
          0.3403611428495679,
          0.3155350976036567,
          0.34959987507982093,
          0.3584606547738565,
          0.35608908534431183,
          0.35440102882174906,
          0.35358314965098897,
          0.3528998905712337,
          0.353931061297617,
          0.35456922980453337,
          0.3562658697842147,
          0.35746441000366425,
          0.3603607998478504,
          0.3516330431962952,
          -2.870317455700783E-4
        ],
        "bias": 0.004262767529306155
      },
      {
        "weights": [
          -0.43359975027206327,
          0.41022308549131276,
          0.3730285323340394,
          0.3458164587672944,
          0.30615727799998393,
          0.36526426939927337,
          0.37963137912172495,
          0.3801954222704145,
          0.37966632903505804,
          0.3798083624555878,
          0.3796925100716386,
          0.37985041995517554,
          0.3797563468422361,
          0.3804047855475717,
          0.38026798791589855,
          0.3796643758669492,
          0.3653598655952306,
          -3.657958927979932E-4
        ],
        "bias": 0.018177730007242186
      },
      {
        "weights": [
          -0.14138007290671223,
          -0.048352186484220606,
          -0.09914692371798936,
          -0.1731132536817343,
          -0.19233545918318207,
          -0.18972777823712303,
          -0.1848428497664913,
          -0.17764788917074237,
          -0.17556115785295415,
          -0.17380013441633904,
          -0.17274779437462667,
          -0.17246162192089334,
          -0.1726012741803978,
          -0.17336128964251254,
          -0.17628800516713605,
          -0.18190622611089233,
          -0.18706501225984493,
          5.773166794851598E-4
        ],
        "bias": -5.785717206861496E-4
      },
      {
        "weights": [
          0.018501967339662966,
          -0.011318409959458431,
          -0.018861277969443462,
          -0.028529895535284323,
          -0.017680631178009613,
          -0.03277411881454443,
          -0.03628486598542657,
          -0.034173079124918196,
          -0.033359193154081014,
          -0.032827572166208734,
          -0.032505372783003014,
          -0.03340758259364911,
          -0.03289953718686327,
          -0.03318325622768615,
          -0.0350331429088174,
          -0.03661276600063761,
          -0.0319492548431553,
          -5.317716686956558E-5
        ],
        "bias": -2.03357677584472E-5
      },
      {
        "weights": [
          0.032057280795807476,
          0.3523779844812436,
          0.4342953076848847,
          0.4822774060627655,
          0.46744321215555024,
          0.4926592599779861,
          0.49974821694483273,
          0.4957554970508025,
          0.4952241501919402,
          0.4936180719931672,
          0.491416202237737,
          0.49310509914499284,
          0.4946147748956121,
          0.49571291470402523,
          0.49916387015667496,
          0.5031591747170812,
          0.49340313851319395,
          -2.8491059503146814E-4
        ],
        "bias": 0.006309317394867588
      },
      {
        "weights": [
          -0.07769043816285665,
          0.3110524406015497,
          0.36508295730421525,
          0.3954017850094188,
          0.37596613974259313,
          0.402664408482557,
          0.4106111064592811,
          0.40669877614142363,
          0.4059303135718922,
          0.4052627736548938,
          0.4053109336024959,
          0.40602457219755067,
          0.4077643781083437,
          0.40948767022664473,
          0.41139234584974044,
          0.4143027172479668,
          0.4049176038788548,
          4.462458358683582E-5
        ],
        "bias": 0.0053472690638071245
      },
      {
        "weights": [
          -0.11666860414294954,
          -0.0395112738679644,
          -0.0849834601837362,
          -0.15782720659411775,
          -0.17325995877105171,
          -0.1760179051814908,
          -0.1717785017139393,
          -0.16368065344520794,
          -0.16177682660713805,
          -0.15941588245773888,
          -0.158810791071385,
          -0.15850908350114598,
          -0.15834777978473083,
          -0.15916080271584215,
          -0.1618617754082656,
          -0.16860495642314824,
          -0.17188695751671404,
          6.375032728633611E-5
        ],
        "bias": -4.4086350610711937E-4
      },
      {
        "weights": [
          7.814141746518915E-4,
          -0.0349541632815333,
          -0.06986356712547849,
          -0.1329616598653012,
          -0.12635744684121475,
          -0.1605519654153183,
          -0.16455638822062466,
          -0.1525769277635993,
          -0.14967030163471154,
          -0.14682596350624555,
          -0.14513681516092838,
          -0.14545204817681817,
          -0.14619184615980074,
          -0.1474664305021039,
          -0.1514494787432562,
          -0.1619183558778746,
          -0.15604368959995496,
          7.081641046800407E-4
        ],
        "bias": -1.8032756200803314E-4
      },
      {
        "weights": [
          0.0084855514469272,
          -0.0364341516433401,
          -0.06873660444373737,
          -0.12092363863699217,
          -0.11171208979634575,
          -0.14648589666141534,
          -0.15172146809402473,
          -0.141837241562038,
          -0.14000932944399133,
          -0.13791079971092812,
          -0.13637098279087043,
          -0.13671997522918075,
          -0.13715459227534615,
          -0.13864525732316885,
          -0.1422942198972137,
          -0.1510466993714261,
          -0.14358542711873484,
          -5.513666254833467E-4
        ],
        "bias": -1.8081872225953423E-4
      },
      {
        "weights": [
          -0.4229423401555373,
          0.4234515362912376,
          0.3876508394105321,
          0.35989379470839866,
          0.3198065357753983,
          0.37988971076571715,
          0.3939563702716702,
          0.3945482557414748,
          0.3946630203146281,
          0.39485685628928674,
          0.3934688299178554,
          0.3943568213860202,
          0.39492640537918716,
          0.39526633353822277,
          0.3949290020658864,
          0.3953882014305633,
          0.37979715624549326,
          -6.160979865941995E-4
        ],
        "bias": 0.01880408253603396
      },
      {
        "weights": [
          -0.4358093045801209,
          0.4083364249364996,
          0.3709135336759214,
          0.3428265434004753,
          0.30378840654028594,
          0.3626400104364006,
          0.37727999957287073,
          0.3781482782810731,
          0.3771974835858504,
          0.3768909288383017,
          0.3772601007128191,
          0.3774795317119946,
          0.3775566685396389,
          0.37818946128534514,
          0.3783225205216248,
          0.37816894126016337,
          0.3638748400451562,
          3.911298202735501E-4
        ],
        "bias": 0.017500129625237344
      },
      {
        "weights": [
          -0.4379536232163779,
          0.4110021639689532,
          0.37330455882831104,
          0.34426571686182955,
          0.3047362887485498,
          0.36501519014019634,
          0.37948164382684074,
          0.37959001726147334,
          0.3792661572939773,
          0.37948396448624955,
          0.37967558615286445,
          0.3798845860129259,
          0.3807159565896601,
          0.38027423539867233,
          0.38022686196426414,
          0.3799789715991795,
          0.3651344746007679,
          3.070593557501567E-4
        ],
        "bias": 0.018626436361654362
      },
      {
        "weights": [
          -0.4246945758058035,
          0.4219374078354201,
          0.385901279357398,
          0.35763046554598493,
          0.31841602930891827,
          0.37858279906522796,
          0.39201368455397506,
          0.3928907118205151,
          0.3925190718992854,
          0.39244196515584673,
          0.3915179589040368,
          0.39223862162671513,
          0.39254161366495055,
          0.39263808486427515,
          0.3928731587640166,
          0.3926902633485537,
          0.37778836681176126,
          1.104013102629511E-5
        ],
        "bias": 0.019429088147320816
      },
      {
        "weights": [
          -0.12242447368507325,
          -0.039991680769155886,
          -0.08610820820632835,
          -0.15891333606514996,
          -0.17506637234088443,
          -0.17749179713181396,
          -0.17335644412374096,
          -0.16536044762201715,
          -0.16271106029480073,
          -0.16116134043948963,
          -0.16011248024097824,
          -0.1594186903032151,
          -0.1597922549791043,
          -0.16092199890064907,
          -0.16333658784535124,
          -0.1700162831572263,
          -0.17307274740430162,
          -5.571516294346725E-4
        ],
        "bias": -4.69231195381492E-4
      },
      {
        "weights": [
          -0.0674073134498265,
          -0.04051152428172145,
          -0.08560045487373678,
          -0.16341499120233183,
          -0.17338492506018435,
          -0.18674785106734432,
          -0.18475825257557604,
          -0.17410901620210564,
          -0.17130571033871958,
          -0.16804572859747036,
          -0.16669852877855829,
          -0.16620927540840555,
          -0.1675351211336755,
          -0.16886233481113044,
          -0.17199595733045595,
          -0.1806896220092111,
          -0.18124383419329426,
          -1.1784382624147384E-5
        ],
        "bias": -2.855084141412317E-4
      },
      {
        "weights": [
          -0.4404650414147409,
          0.4052597752505081,
          0.36744356411604795,
          0.33995195301519504,
          0.29954379003544346,
          0.3595248385062299,
          0.373759609246761,
          0.37394022379057,
          0.3734552180422753,
          0.3738223631896837,
          0.3742016261488433,
          0.374674236999676,
          0.3743654053806933,
          0.37493044393298397,
          0.3745638589272443,
          0.37404444987919644,
          0.35970056444487974,
          3.545305545074118E-4
        ],
        "bias": 0.017205942391517282
      },
      {
        "weights": [
          -0.09370968397080484,
          -0.04025876921249978,
          -0.08592602982627459,
          -0.1603678064843306,
          -0.17395822936859415,
          -0.1808354414794429,
          -0.1769992541895761,
          -0.16850465173848508,
          -0.1662619007724851,
          -0.16364433863408784,
          -0.16210805978071577,
          -0.16204332925527293,
          -0.16300340076137076,
          -0.16326739854981429,
          -0.1666529010550525,
          -0.17395657562894457,
          -0.17546274723679015,
          -9.110404118188959E-5
        ],
        "bias": -3.6127884200795997E-4
      },
      {
        "weights": [
          3.5597694986778505E-4,
          -0.03421631235358914,
          -0.07061056234845335,
          -0.13437987056853992,
          -0.12882499847702306,
          -0.1620798789708037,
          -0.16590651429859743,
          -0.15333710056357772,
          -0.15025403981138874,
          -0.14764323368192472,
          -0.14626273783873167,
          -0.14617110783191403,
          -0.14732104069689805,
          -0.15011425663006886,
          -0.15385302565587627,
          -0.1640188098890058,
          -0.15797500888177746,
          5.2445207169880226E-5
        ],
        "bias": -1.851133145773065E-4
      },
      {
        "weights": [
          -0.4280296310704036,
          0.4161254445102163,
          0.3809292362550281,
          0.3519763638475656,
          0.3135725884370882,
          0.3721108146224429,
          0.38587125809961575,
          0.38676980751716705,
          0.3869226997710983,
          0.386750095161886,
          0.38627722147121163,
          0.3869226464385482,
          0.3878264839479726,
          0.38791364895005237,
          0.38756628257245745,
          0.38673823485111897,
          0.37227380086487216,
          3.543228730243101E-4
        ],
        "bias": 0.01856738257515911
      },
      {
        "weights": [
          -0.43011632824047397,
          0.41488882025313456,
          0.37912609243723877,
          0.35161869263448736,
          0.31221995808765796,
          0.37080022876131097,
          0.38522932842956437,
          0.38598006639675225,
          0.3856795128350564,
          0.3856456915542705,
          0.3850880944372215,
          0.3858110665478152,
          0.385525067145844,
          0.3867237238551562,
          0.3860571069181394,
          0.3859516601716559,
          0.3714815894968608,
          -8.397934247936808E-5
        ],
        "bias": 0.018146372337835493
      },
      {
        "weights": [
          0.003306182005364998,
          -0.03563431063989589,
          -0.07026455572938174,
          -0.1296699387827261,
          -0.12256198591801537,
          -0.1571583258871954,
          -0.16108208702197027,
          -0.15025049324617573,
          -0.14806658182694218,
          -0.1455668422744662,
          -0.14356850107266253,
          -0.1437411571510415,
          -0.14491718190611,
          -0.14689094911468012,
          -0.150027658254741,
          -0.15955962123628367,
          -0.15340845912290602,
          7.911632035616982E-5
        ],
        "bias": -1.828792296905915E-4
      },
      {
        "weights": [
          -0.03847051539799636,
          -0.03742439487362078,
          -0.08041729904263506,
          -0.15995253872354706,
          -0.1656206058056175,
          -0.18640285236265183,
          -0.18606008588488804,
          -0.1735766883525458,
          -0.17052754830307124,
          -0.16624110384989824,
          -0.16532028058603818,
          -0.16423796155267847,
          -0.1644800116780227,
          -0.16701387330411396,
          -0.17132933690488347,
          -0.1815701797868356,
          -0.180652543777243,
          -4.8563254934993214E-4
        ],
        "bias": -2.2521049704773147E-4
      },
      {
        "weights": [
          -0.0348950839635759,
          -0.03405147825853162,
          -0.07432109446304536,
          -0.15163158119725992,
          -0.1560888904152746,
          -0.17827697618013877,
          -0.17817009198557668,
          -0.16558407999619798,
          -0.16224831928173697,
          -0.1582453301967857,
          -0.15680720156416744,
          -0.15612754504715712,
          -0.15709760195017944,
          -0.1593473059130375,
          -0.163490030635322,
          -0.17442449177791575,
          -0.17242087483272078,
          4.056801480548391E-4
        ],
        "bias": -2.0688947137630274E-4
      },
      {
        "weights": [
          -0.4150370540245656,
          0.4258059617874942,
          0.39392352117400076,
          0.36588449159589836,
          0.32651244066813695,
          0.38497057000950535,
          0.39916263299938404,
          0.4004060301720024,
          0.39963935223507896,
          0.3999656140369235,
          0.39895824288451337,
          0.40016548496049387,
          0.4006656335277671,
          0.4006718434013721,
          0.4013925921154109,
          0.4014073132469246,
          0.38489686947890234,
          3.304817546158513E-4
        ],
        "bias": 0.018405909125619773
      },
      {
        "weights": [
          -0.07438332640977172,
          -0.04434465006233928,
          -0.09053397875591027,
          -0.17027300717800092,
          -0.18116723284427738,
          -0.19305398645107108,
          -0.19056393219536308,
          -0.17979763559700665,
          -0.17725288041781476,
          -0.17497605360545362,
          -0.17289350080746238,
          -0.17284714856105243,
          -0.17349384938867618,
          -0.17488163570192616,
          -0.17853193912430687,
          -0.18677167777120987,
          -0.18779098965217578,
          -4.2437924695213627E-4
        ],
        "bias": -3.1237018152526007E-4
      },
      {
        "weights": [
          -0.4313321850634326,
          0.4149331293742962,
          0.38048228793134015,
          0.3524966964494314,
          0.31204234595904673,
          0.371077025729524,
          0.3857445725866921,
          0.38562187381500346,
          0.38596180277005915,
          0.3855513060362456,
          0.3850724551279561,
          0.38590094287810195,
          0.38626157046884585,
          0.3859045029019339,
          0.38734768397798197,
          0.3868042256608416,
          0.37138695774587466,
          -1.0627830351389586E-4
        ],
        "bias": 0.018922573188754753
      },
      {
        "weights": [
          -0.2636605074689393,
          -0.051219062156149575,
          -0.09362233722377954,
          -0.15378240229985837,
          -0.17788324487527615,
          -0.16653697485668778,
          -0.15894278233514292,
          -0.1558612157337922,
          -0.1544400889823887,
          -0.15354036565086923,
          -0.1535792530716184,
          -0.15211299251869329,
          -0.15219042518435166,
          -0.1527861550965551,
          -0.1531947203382206,
          -0.15573408954070778,
          -0.16413582363096424,
          -3.4025338302608903E-4
        ],
        "bias": -0.0013367078919719188
      },
      {
        "weights": [
          0.007441170307338489,
          -0.03652587402839006,
          -0.0694522583435136,
          -0.12264588824766927,
          -0.11358979320365743,
          -0.14824734625374125,
          -0.15335518511531304,
          -0.14313946849171172,
          -0.14187953662962993,
          -0.13862627704677802,
          -0.13731864880157288,
          -0.13749380494846075,
          -0.13781747530387875,
          -0.13994415905110683,
          -0.1435870812513581,
          -0.15198721856665093,
          -0.14539814034292567,
          2.1196932540588475E-4
        ],
        "bias": -1.7926481246032075E-4
      },
      {
        "weights": [
          -0.4392125593691877,
          0.40323616497332776,
          0.36821752947208347,
          0.3400489006987543,
          0.30043151152982095,
          0.3601772223657242,
          0.37273844105199194,
          0.37343833599135723,
          0.3725663227052105,
          0.37259053129869146,
          0.37268911664455934,
          0.3728078526582836,
          0.3732322807617871,
          0.3734040658262778,
          0.37301120608387295,
          0.3739047165693405,
          0.3591624171483845,
          -2.026894666722888E-4
        ],
        "bias": 0.01773662777973381
      },
      {
        "weights": [
          -0.1734665473727564,
          0.3107018036369975,
          0.34385752275357045,
          0.35925032162567266,
          0.3345176435307091,
          0.3697978040801382,
          0.3789992741623132,
          0.376350553770518,
          0.3746107436495036,
          0.37428797053936796,
          0.37402847190848343,
          0.37462508038086323,
          0.3749081460986845,
          0.37616697379638536,
          0.37730504976871193,
          0.3798532863024145,
          0.37052410855547796,
          -5.2276566788164646E-5
        ],
        "bias": 0.004774641933987139
      },
      {
        "weights": [
          0.0011988964420361443,
          -0.033627417660601795,
          -0.0695371936983244,
          -0.13282433153113565,
          -0.12633913297263671,
          -0.16000103357428078,
          -0.16340053170224872,
          -0.15191855741230384,
          -0.14893138844799136,
          -0.14596535815471326,
          -0.1445162304557056,
          -0.14466205837745486,
          -0.14513946047294188,
          -0.1479625216155426,
          -0.15146116481935515,
          -0.1615286677515617,
          -0.15553135336409343,
          3.731558208086445E-4
        ],
        "bias": -1.8198997431592224E-4
      },
      {
        "weights": [
          0.6965980816719486,
          0.2577677384980769,
          0.325384585841177,
          0.371623289389134,
          0.4044006074685447,
          0.37536064487311555,
          0.3645962313943754,
          0.36421968601642735,
          0.36457873562354537,
          0.3640676754250589,
          0.36323194032862843,
          0.3626169087446094,
          0.3627046910352827,
          0.3617577567001514,
          0.36197533282554206,
          0.36308397188575464,
          0.37421175574707,
          -4.5670471135591904E-4
        ],
        "bias": 0.016237652364064426
      }
    ]
  },
  {
    "name": "H1",
    "activation": "ELU",
    "neurons": [
      {
        "weights": [
          -0.018783080208673735,
          0.006830207687211412,
          0.007699678549540693,
          0.02755373740571198,
          3.948500871216307E-5,
          0.007653675905127275,
          0.018978371300879503,
          0.007092272833442467,
          0.007802618389011866,
          0.00745818440088064,
          0.026782232792913772,
          0.0075079762187470825,
          0.007379507033429868,
          0.007419481309304164,
          0.017854014065379287,
          0.018924763372086997,
          -0.01529211452658135,
          0.007498547103710628,
          0.025779390951544433,
          0.00594959997713711,
          0.00726218024293978,
          0.001066252653527271,
          0.024757059947714224,
          0.016656359703850324,
          0.008220580066830125,
          0.019418830942087944,
          0.058905633359862535,
          0.0291495982381313,
          7.041269092515062E-4,
          0.013842022355347592,
          0.007596306928727019,
          0.007363711523925432,
          0.014818124673384267,
          0.007703219668553999,
          0.007570174259137627,
          0.00740957524470032,
          0.018054424403635503,
          0.01363206133966617,
          0.022114163953685945,
          0.007515410198786105,
          0.0012434434779852086,
          0.007544606176053842,
          0.03270446886370847,
          -0.0017940486601261013,
          -0.0012619761669621942,
          3.558979269366933E-4,
          0.024226880530458798,
          0.006986739592174914,
          0.004302704751379098,
          0.0073123813879534165,
          0.007741379104564372,
          0.007658922804743231,
          0.007508332950413696,
          0.025317602388034537,
          0.01772111062117316,
          0.0078114433377503584,
          0.02126307153043226,
          0.007403696740955521,
          0.007535557066204492,
          0.007331271825005094,
          0.005906777535219349,
          0.014108424067221235,
          0.01364430501368923,
          0.007077157829273798,
          0.01944133059998053,
          0.0078390879513181,
          0.06821533112117596,
          0.0046963716670903165,
          0.008003384747505365,
          0.0012093389264208139,
          0.006709531019192659,
          -0.012549892858124027
        ],
        "bias": -0.014740317233433553
      },
      {
        "weights": [
          0.18118338353559674,
          -0.31668387842932155,
          -0.3173535504974048,
          0.19675656819799178,
          0.30749218566551645,
          0.29625512292498124,
          0.24121376533178612,
          -0.3169349907002066,
          -0.3175160872672872,
          -0.3167997925419789,
          0.20867194033985703,
          -0.31705254741034655,
          0.2963094741600975,
          -0.3169661545927917,
          0.2688270376599811,
          0.24248895330190368,
          -0.04116376704636484,
          0.29590288864066217,
          0.2138936279023143,
          0.29674586675537534,
          -0.3166627349595435,
          -0.28907276089897815,
          0.21349209735920888,
          0.2444848377960882,
          -0.3176086412624725,
          0.2642426042680706,
          0.06125527991200557,
          0.19316771518771894,
          -0.2712701386883066,
          0.27597744414868114,
          -0.3170792240221372,
          -0.3169533596540744,
          0.27495579226498507,
          -0.3173259612140525,
          -0.31748179744965194,
          0.2961837360249722,
          0.26545264727450385,
          0.27665935547831355,
          0.23940157901835665,
          -0.3171234794482041,
          -0.2798188942762066,
          -0.3174018800724209,
          0.20171697328772284,
          0.30928966936853997,
          -0.25819258592571553,
          -0.26298028403400964,
          0.21678470433710034,
          0.29671558776744034,
          0.29915586147404954,
          -0.31711702167497435,
          -0.3170576740538807,
          -0.3169475959273937,
          -0.31720980777852087,
          0.21169235189713345,
          0.25805965501089445,
          -0.31713049121176395,
          0.2396093793428669,
          0.296041478559685,
          -0.31726531199079233,
          -0.3173905174654347,
          0.2977157114950068,
          0.27638692523010266,
          0.27664356647400273,
          -0.3168088062045958,
          0.25618421690794624,
          -0.31715804852493884,
          0.06159317260767016,
          0.2986395284715756,
          -0.3173014870609178,
          -0.2840719393006695,
          0.2969726964223449,
          -0.15962902678365892
        ],
        "bias": -0.13235030418951357
      },
      {
        "weights": [
          0.16859053481659472,
          -0.30414652911234313,
          -0.3044369040118352,
          0.18626604251038412,
          0.29436384391951637,
          0.2833040551507996,
          0.2278621330363345,
          -0.30403118823565495,
          -0.30446407982522966,
          -0.30385921777610575,
          0.19840298325435465,
          -0.30453758268012104,
          0.28351434333023623,
          -0.30410400777419927,
          0.25518894386888763,
          0.22890741728376374,
          -0.03442455161839706,
          0.28327010390413593,
          0.20172933062094636,
          0.2843582554046985,
          -0.30355823845239543,
          -0.274698895388176,
          0.20184186944478547,
          0.23077346524294584,
          -0.30490348142630835,
          0.2500691697822064,
          0.059785887911294196,
          0.1826615234658316,
          -0.2570155212002515,
          0.2621446780305948,
          -0.3045720209250635,
          -0.3044926517908537,
          0.26159704249554655,
          -0.30437322090378927,
          -0.30411230292572305,
          0.2833547368389986,
          0.2513421891942342,
          0.2626937564852956,
          0.22529011960464718,
          -0.30432553948455876,
          -0.2662780599030101,
          -0.30457714153395965,
          0.19034671245170484,
          0.29634318705369145,
          -0.24628415485684088,
          -0.25061673085165065,
          0.20465827534578107,
          0.2840490457162577,
          0.2865022238332386,
          -0.30428441392944494,
          -0.30400186159724124,
          -0.304496639985682,
          -0.30465808894116353,
          0.20041519224530957,
          0.2438994307189831,
          -0.30459798884818484,
          0.22533955651903487,
          0.2832814258540288,
          -0.30445954955862714,
          -0.30442467679189705,
          0.284865381043376,
          0.26245498003693524,
          0.2629259707597438,
          -0.30396121607032417,
          0.24213183034352473,
          -0.3045454858066087,
          0.05903829792494718,
          0.2859712832838866,
          -0.3045467915009742,
          -0.26997460232006965,
          0.28388498631407305,
          -0.15375381647076683
        ],
        "bias": -0.12390844244923294
      },
      {
        "weights": [
          -0.01906462445898589,
          0.0069014075870142974,
          0.007430655605452593,
          0.027482954778663738,
          -1.6449955136224633E-4,
          0.008065216032242197,
          0.01910437999969451,
          0.006708407864213203,
          0.007653734439647639,
          0.007099444551667999,
          0.026095105201411173,
          0.0071727700893556585,
          0.007964748352758115,
          0.006900749455554611,
          0.018904227802488776,
          0.019646170915533223,
          -0.018190157891908434,
          0.007812086510892245,
          0.025671197962788304,
          0.007368528454517458,
          0.006341806506361267,
          3.3799549555421583E-4,
          0.024507467103965366,
          0.01685476185316974,
          0.007457791010496513,
          0.020826641934379532,
          0.05981136954025528,
          0.029276390611935484,
          3.035660441609005E-4,
          0.015463421914594771,
          0.007231809093058663,
          0.007245368175770948,
          0.015488147579332985,
          0.007213334615948385,
          0.0069836932654112425,
          0.00806496073997468,
          0.01951006759210578,
          0.014724373157401436,
          0.022821071757682398,
          0.007001842978442713,
          4.8046256563511646E-4,
          0.007059567660253581,
          0.03246747099166572,
          -0.0014809107479264768,
          -0.0012855655586218233,
          -4.119890877470656E-4,
          0.024518702064665453,
          0.007659440694124016,
          0.004918118720140141,
          0.006713632279411507,
          0.007248921604439729,
          0.007233265470704626,
          0.007209983024631575,
          0.025117082899180247,
          0.018483703818157532,
          0.0072527927561965265,
          0.021696400940145487,
          0.007897898525089209,
          0.007077669280645925,
          0.006941537687924151,
          0.006885232124677015,
          0.015649385686582713,
          0.014127936210123726,
          0.006560642054146055,
          0.020279171416693692,
          0.007408961186239167,
          0.06905269237648119,
          0.00552520216615212,
          0.007282922358013223,
          2.953724877616314E-4,
          0.007824713672940553,
          -0.01388105051083063
        ],
        "bias": -0.01545779662085993
      },
      {
        "weights": [
          -0.020894229697366463,
          0.006597683648327361,
          0.007380153976671811,
          0.027845299595131833,
          0.0010027458629941442,
          0.008727826228904757,
          0.01973483882099734,
          0.006619319682742472,
          0.007046651402340276,
          0.006852029075659758,
          0.027277081412327084,
          0.007264210684418672,
          0.008539452893390108,
          0.006993683814947021,
          0.01986506571827054,
          0.020258491531292108,
          -0.016804546262992524,
          0.008783783498864656,
          0.02648689977597533,
          0.0072897906118184206,
          0.0067037083077494865,
          1.5222593129886927E-4,
          0.025421614510814355,
          0.018388480408164026,
          0.007165080188572234,
          0.021301826126909843,
          0.059421350552696775,
          0.030034732484056203,
          -2.440156815984983E-4,
          0.015497923391353712,
          0.006841291977099982,
          0.0069755218941646635,
          0.016112399625738863,
          0.007287107716822604,
          0.0075099884278614385,
          0.008666782661288076,
          0.020015245600029048,
          0.014808869536596022,
          0.02387766371686553,
          0.007047215199874899,
          2.4754006952484793E-4,
          0.007040935907437973,
          0.03275359101939136,
          -8.882806571344438E-4,
          -0.00174240059461483,
          -0.0010357884568239373,
          0.025326770110246425,
          0.008261219638296454,
          0.005545153352398221,
          0.0063776677398444,
          0.006828881101598108,
          0.007043676729531727,
          0.007001973469871282,
          0.02582948754191878,
          0.019124239107392634,
          0.007218083299733206,
          0.022394257784720314,
          0.008881390018780303,
          0.006983969640666215,
          0.007089391365468512,
          0.007456677551510317,
          0.015903573356783725,
          0.01488919747490948,
          0.0065381880036519124,
          0.020989701162757474,
          0.007383855771828537,
          0.06928934609991977,
          0.0058904023316169824,
          0.0070849832866237104,
          2.2238973271382484E-4,
          0.00815642478189147,
          -0.014173949178770398
        ],
        "bias": -0.017191075946298085
      },
      {
        "weights": [
          0.1767287872421508,
          -0.31402737910019307,
          -0.3149077110781152,
          0.19370307835374392,
          0.3040019313957344,
          0.2945231334251161,
          0.2374764399395825,
          -0.3143432216211929,
          -0.31479869508766134,
          -0.31398367268728195,
          0.20600797988895694,
          -0.31429799487063026,
          0.2946550094816529,
          -0.3142591854574614,
          0.2660037377208661,
          0.23897685538810953,
          -0.032132243858196366,
          0.2946697272888364,
          0.21029851177571202,
          0.29490780209783196,
          -0.3141770624099201,
          -0.28566903895214946,
          0.2103525774317287,
          0.24075259141341407,
          -0.3147144076605136,
          0.26193304678989954,
          0.05610323002893209,
          0.19005837586537308,
          -0.26814345434406467,
          0.2738001010183006,
          -0.3143777367076698,
          -0.3147083147367853,
          0.2726718265784211,
          -0.3145177458769002,
          -0.3146506342204078,
          0.2945673459242795,
          0.2628294925489469,
          0.27435579927329506,
          0.23518716975116244,
          -0.3141724058625546,
          -0.27740967424089935,
          -0.31499101263746154,
          0.19682143368694646,
          0.30606670815298176,
          -0.25419413537888885,
          -0.25916557585287975,
          0.2143223973447171,
          0.2946918409269349,
          0.29704732713889914,
          -0.31425854865148145,
          -0.31445125189375556,
          -0.3143913114041717,
          -0.31436364739971295,
          0.20844452270111244,
          0.2553280249186689,
          -0.3145867785810439,
          0.2352674593654443,
          0.29419132191272346,
          -0.3144154135911783,
          -0.31412291466703973,
          0.2955504507424712,
          0.27373982377244427,
          0.27397642310723086,
          -0.31386185370842945,
          0.2535984547456316,
          -0.3142129478580304,
          0.05826797732379865,
          0.29685043123102767,
          -0.31470537733740955,
          -0.2811223059196432,
          0.29490275464271576,
          -0.1566957625709836
        ],
        "bias": -0.13021220198267194
      },
      {
        "weights": [
          -0.016839214524861167,
          0.0069427873549561606,
          0.0071962363264123095,
          0.02849525595136942,
          1.5496920341644712E-4,
          0.00846830427031479,
          0.01922416196946881,
          0.007010291782240574,
          0.007368576894259988,
          0.006748234147230832,
          0.02664485983219587,
          0.007211696760294976,
          0.008028699097788973,
          0.007056605726399969,
          0.018945059878911492,
          0.02025425240491846,
          -0.016549099773683573,
          0.008801020744388892,
          0.026310478308671056,
          0.007064424062911864,
          0.006703117586726954,
          6.616764445457544E-4,
          0.025429177630082848,
          0.017730869632378694,
          0.007436268242338719,
          0.020285440650079735,
          0.058577761174828,
          0.03067003267319547,
          4.985513004573816E-4,
          0.014974006761746716,
          0.006938244176452207,
          0.007276717122961058,
          0.01565875442130889,
          0.007065717121240107,
          0.006943871752990093,
          0.008096126010498812,
          0.019557797888070855,
          0.014231256242069943,
          0.02279019151202384,
          0.006812415163131538,
          6.527308574559751E-4,
          0.006916747682694192,
          0.032196765370697586,
          -0.0018980874589843426,
          -0.0017935292572252124,
          -7.333438378938095E-4,
          0.024728376518395566,
          0.00781475179157786,
          0.004828053015628958,
          0.0066929162811330935,
          0.007226623493726202,
          0.0073574287712536695,
          0.007384033922858427,
          0.02576409298787058,
          0.018589010393519272,
          0.006837980734514544,
          0.022168023343068534,
          0.008376288108533993,
          0.006975616444046827,
          0.006930618030805278,
          0.007255216409811586,
          0.015210470565651769,
          0.014367212083987165,
          0.0067098910314266616,
          0.020705512930013364,
          0.007213823039640234,
          0.06747620862152952,
          0.005755077696714894,
          0.007324903733969273,
          1.402265868961147E-4,
          0.007601165509610163,
          -0.012812709174789166
        ],
        "bias": -0.015398224942174374
      },
      {
        "weights": [
          0.17341772900941455,
          -0.31353390729634173,
          -0.31373055875358136,
          0.19188713182886316,
          0.30372344850772487,
          0.293009777233754,
          0.2371016430465505,
          -0.31362608677080206,
          -0.3139969785734199,
          -0.3135301639968181,
          0.20582070399306074,
          -0.31379601311613964,
          0.2928341020346572,
          -0.3134797989984704,
          0.26480954014399066,
          0.23843256525017587,
          -0.028394140390745327,
          0.29275442119337247,
          0.20985559389680863,
          0.2938458010800428,
          -0.3135382898241014,
          -0.28587040348695936,
          0.20912248002232223,
          0.2404125418872163,
          -0.31396776422265715,
          0.2604726306234959,
          0.05360864254913332,
          0.18830721329160305,
          -0.2683228683604453,
          0.27234561255887024,
          -0.3137445362001211,
          -0.31385320868393457,
          0.2714783479751022,
          -0.31397677306945987,
          -0.3135275500533517,
          0.29302568326071704,
          0.2616284836852955,
          0.27299472804056407,
          0.23472474310441876,
          -0.31354251778868963,
          -0.2775504931739038,
          -0.3139263672909722,
          0.19710238666381497,
          0.3056171376780008,
          -0.2546317205044917,
          -0.259627578619518,
          0.21251051140450788,
          0.2932790037932502,
          0.29594384579410143,
          -0.31368894155529126,
          -0.3135170461155596,
          -0.31367499629401296,
          -0.3140044356938268,
          0.2078722523225047,
          0.25462839775931373,
          -0.31406993959895496,
          0.23505240888552703,
          0.2925128643921174,
          -0.31393455696001654,
          -0.3137001667179592,
          0.2940995132616713,
          0.27231419833364606,
          0.272874783918509,
          -0.31330610206015025,
          0.2525104802588453,
          -0.31344068840529377,
          0.054344475069500714,
          0.29572858521996487,
          -0.31386863736199827,
          -0.2807361210821066,
          0.29356828890013675,
          -0.15738625534414782
        ],
        "bias": -0.1281338017438516
      },
      {
        "weights": [
          0.1651676740542666,
          -0.30890488918674924,
          -0.3095230087024969,
          0.1902949496898273,
          0.29973594182212515,
          0.28892008011970116,
          0.23362087166529513,
          -0.3093215249313536,
          -0.3097519885914099,
          -0.30936585677285355,
          0.2030856468051895,
          -0.30964859278528156,
          0.2892371992728059,
          -0.30920477732315366,
          0.26183813930561706,
          0.23468902536944705,
          -0.03263831047801705,
          0.28909341921781284,
          0.20748542174088158,
          0.289803242632082,
          -0.3088136529430452,
          -0.2812871128233489,
          0.2077334462252426,
          0.2368960808635979,
          -0.30979888109643694,
          0.25728542529121695,
          0.05815821508548412,
          0.18624597069228463,
          -0.26350660750904936,
          0.2682780182668835,
          -0.30918476118160576,
          -0.30943356282489387,
          0.26772210617089925,
          -0.30944447396764346,
          -0.30941768375188233,
          0.2889550355232182,
          0.25864756879174483,
          0.2692226904195466,
          0.23185027344747586,
          -0.30920927466635445,
          -0.2730232773283827,
          -0.30936539400004576,
          0.1953667992419247,
          0.3020776834732122,
          -0.2507072345452818,
          -0.25547443187318863,
          0.21051452164910547,
          0.28933415247149813,
          0.2917467888852202,
          -0.3092010786079384,
          -0.3092648990524296,
          -0.3097501572640189,
          -0.30975193915688753,
          0.20561418286505098,
          0.25150092834080046,
          -0.309912846120086,
          0.2311968048395312,
          0.28927587483017847,
          -0.3095699194993146,
          -0.30937160572916345,
          0.29050572657417006,
          0.26862992292786636,
          0.2691751600467727,
          -0.30875266126671813,
          0.24919017878332644,
          -0.3095536194804846,
          0.059812725772940195,
          0.2913595199006403,
          -0.3099688409974658,
          -0.2770085347611349,
          0.28953241867018464,
          -0.1596018488759818
        ],
        "bias": -0.12802532201593014
      },
      {
        "weights": [
          0.17712742280287805,
          -0.3119270063180345,
          -0.31279050784399004,
          0.19296155457368935,
          0.3024004193528779,
          0.2914533335261609,
          0.23608133656485705,
          -0.3123852862111891,
          -0.3130464507418131,
          -0.312583046437473,
          0.20579671894893198,
          -0.31247799758636957,
          0.29191560253692705,
          -0.31246936064893704,
          0.264284164116666,
          0.23736881964259346,
          -0.04330361854928227,
          0.2916646317165408,
          0.20980784539780484,
          0.292481760680744,
          -0.3123850446139179,
          -0.28419486720841053,
          0.21050149864436885,
          0.2389985509388849,
          -0.31268739688584307,
          0.2597218671351719,
          0.06137173456622306,
          0.18907452747774559,
          -0.26628032365477666,
          0.2707309881788402,
          -0.3124818383372818,
          -0.3126187622464819,
          0.26993249111031614,
          -0.3128384509464076,
          -0.31254302476439877,
          0.29210794162040055,
          0.26077372697953094,
          0.27116938123640844,
          0.2343310372812469,
          -0.3123478454637573,
          -0.27561433157099,
          -0.312660898889257,
          0.19758893664731905,
          0.30467670919578654,
          -0.2540235278258751,
          -0.2586089828945685,
          0.2126144642241783,
          0.2919434767637867,
          0.2944141815603113,
          -0.312055228885263,
          -0.3128758287615041,
          -0.31273387669788355,
          -0.31261888569815455,
          0.20821083620483263,
          0.25316279285305693,
          -0.31265183387874995,
          0.23366998934158836,
          0.29152143367480426,
          -0.31264007073617056,
          -0.3123450068202649,
          0.2926723571550013,
          0.27108329292182787,
          0.27089837846062903,
          -0.31216129550849686,
          0.25076098179622003,
          -0.3124585281283506,
          0.06221323122075094,
          0.2944789525866899,
          -0.31263392867165224,
          -0.27938481272992405,
          0.291870388876711,
          -0.15456658365211856
        ],
        "bias": -0.1297527056568427
      },
      {
        "weights": [
          -0.018178354310456047,
          0.0063442534752110626,
          0.006914748247028673,
          0.02810924479674073,
          0.0016653799914213177,
          0.009010425766534836,
          0.020162866656952005,
          0.006564356277446073,
          0.006803106765528228,
          0.0065292634608218915,
          0.027063732736861072,
          0.006938632884157605,
          0.008853444101896217,
          0.006729395267175746,
          0.019726342159325474,
          0.020477516908293688,
          -0.016759590457434775,
          0.008826928609475818,
          0.026925011108961006,
          0.007798134952300316,
          0.006213054538844404,
          2.445625253120917E-4,
          0.02588421701522113,
          0.018569780917307138,
          0.0072095998203797005,
          0.021009127054746328,
          0.05993891860924222,
          0.03024854071304658,
          1.1366464661204856E-4,
          0.01588527849485006,
          0.00675272036337377,
          0.006426742016937718,
          0.01632142560590521,
          0.006836505325433133,
          0.006823586125248965,
          0.008997082718020038,
          0.020460658688822814,
          0.015545134551238387,
          0.023972223560366667,
          0.006664187892380645,
          3.103962991608446E-4,
          0.007110475315977489,
          0.0336884437284882,
          -8.357465957564733E-4,
          -0.00171074847518769,
          -6.990137887891434E-4,
          0.02568519010681749,
          0.009034444195108416,
          0.006759260126678506,
          0.006189145312149256,
          0.006572361399283134,
          0.006759355449365889,
          0.006879995294974108,
          0.026424921976862678,
          0.019645207041910365,
          0.00717464026596007,
          0.02295358890982131,
          0.009200423518562933,
          0.006771647607199541,
          0.006763360332397612,
          0.008271451141862467,
          0.01624766968600287,
          0.014974999100710337,
          0.006543038354982225,
          0.020974533322430076,
          0.006867494607670688,
          0.06988969114102,
          0.006965834478769176,
          0.00691316791724923,
          3.4280257469317826E-4,
          0.008626455091947186,
          -0.012429491765014372
        ],
        "bias": -0.015800981907543452
      },
      {
        "weights": [
          0.16223712683675462,
          -0.31597334506577357,
          -0.3161621678392991,
          0.19545053292399311,
          0.3050363470951665,
          0.29454143115991205,
          0.23936061163864775,
          -0.31595695584358624,
          -0.3161260514088437,
          -0.316076210156987,
          0.2082699400624892,
          -0.31588374931867275,
          0.2947112067726235,
          -0.31594070745460756,
          0.2665051983883154,
          0.24040827440872914,
          -0.02842277365014809,
          0.29410563135739937,
          0.21264091656342565,
          0.2954100166044155,
          -0.3159660778738192,
          -0.2877756630427568,
          0.21178567682881194,
          0.24231183581129295,
          -0.31646652976143613,
          0.26155415747412836,
          0.05914741679245486,
          0.19218624622285907,
          -0.2708268717742754,
          0.2733554517020393,
          -0.31591469415455325,
          -0.3161450601400264,
          0.2727582664038622,
          -0.3163012316360551,
          -0.31639639555623095,
          0.29449266617373576,
          0.26278529807901246,
          0.2742630903277831,
          0.23709112075940153,
          -0.31611972060027294,
          -0.2789201785318217,
          -0.31617028012484427,
          0.19943580902365948,
          0.30769937037386624,
          -0.2583470041798782,
          -0.2624412231895523,
          0.2157148836091384,
          0.29466665131335396,
          0.2978074078777078,
          -0.3157606938644742,
          -0.3163428784185167,
          -0.3163248111847752,
          -0.3163962874612568,
          0.21048774975523732,
          0.2555099152280716,
          -0.3161683745422647,
          0.237052045801873,
          0.29439483079999107,
          -0.3161059329043772,
          -0.3159328997865042,
          0.29607605385898655,
          0.27375226397260904,
          0.2746925894668232,
          -0.31578265395768473,
          0.2533619749921207,
          -0.316034147659336,
          0.05798465420388555,
          0.2971072819896108,
          -0.31611711058869685,
          -0.2830168125992822,
          0.29504984341560836,
          -0.1557469406179355
        ],
        "bias": -0.13245882338997522
      },
      {
        "weights": [
          0.18463715687315402,
          -0.3055343066509886,
          -0.3063747627358269,
          0.1883181006965817,
          0.2951131977047597,
          0.2844696215521454,
          0.23088465750539514,
          -0.3062377688183531,
          -0.30659712921752363,
          -0.3061110745625773,
          0.20219605905446988,
          -0.30661059936474655,
          0.28459025267886945,
          -0.3062562097473339,
          0.25766711330387476,
          0.23184516172330294,
          -0.027768844760580183,
          0.2845544561357388,
          0.20576856898444237,
          0.2845021022317536,
          -0.30589453884040935,
          -0.27773649175414267,
          0.20599926796678503,
          0.23387305053733295,
          -0.30676194253368905,
          0.253434689643004,
          0.05128406837697019,
          0.18524448046800956,
          -0.2601683389820829,
          0.2647790205101668,
          -0.3062917402221707,
          -0.3062747909511991,
          0.2640976469625446,
          -0.30621680355078157,
          -0.30626036533387757,
          0.28431611392427913,
          0.25467416374225965,
          0.26541979439292185,
          0.2284907529384483,
          -0.3063494055858861,
          -0.26912498129774143,
          -0.306294950924022,
          0.19311750872070127,
          0.29750346186696003,
          -0.2497063536503178,
          -0.2540859522801187,
          0.20908728515733616,
          0.2849849972933926,
          0.2870658420108872,
          -0.3057690506134183,
          -0.30620460758339263,
          -0.3060282272537051,
          -0.3063054969373839,
          0.20461316921573375,
          0.24694258681596426,
          -0.30628190485366175,
          0.22850973427591142,
          0.2844410637404516,
          -0.3063838547302083,
          -0.3062598993691213,
          0.2855612210397699,
          0.2649351466376147,
          0.2652239662263456,
          -0.30589082859333155,
          0.24538985938300534,
          -0.3061830050756624,
          0.05263232427725194,
          0.2870098479179023,
          -0.3065776052562379,
          -0.27276013491557266,
          0.2848290907680803,
          -0.15324546949001727
        ],
        "bias": -0.12357389203881816
      },
      {
        "weights": [
          0.16691923100725561,
          -0.3162156197966247,
          -0.31653004830211184,
          0.19565532812259112,
          0.3067000065239853,
          0.29552083349325114,
          0.23929165820613968,
          -0.3164167716917173,
          -0.31664857451510253,
          -0.3167162048254772,
          0.20740917634907102,
          -0.31652325746913024,
          0.29603820244736123,
          -0.3166404593571436,
          0.2679783164858219,
          0.24026006213556397,
          -0.03962254815931917,
          0.29615335585456287,
          0.21122251944398152,
          0.29670633477569286,
          -0.31627662210675034,
          -0.2876217080254691,
          0.21148217713628703,
          0.2419733733418956,
          -0.31648129910644357,
          0.26299460551494946,
          0.06885705813428188,
          0.19204676084860345,
          -0.2695410314723055,
          0.27465691790459446,
          -0.31657529896467884,
          -0.31631575043570037,
          0.2740310061212513,
          -0.31665591880571914,
          -0.3167756594418627,
          0.2957687815607586,
          0.263997483633507,
          0.2751455179766797,
          0.2370906501289643,
          -0.3161858697034268,
          -0.27895744421557317,
          -0.3166168966343259,
          0.19927245963461396,
          0.30867766043101263,
          -0.25612451747105863,
          -0.2613623853715702,
          0.2152433029939377,
          0.29662851296768483,
          0.2992338229699901,
          -0.31635872414303856,
          -0.3165231721573805,
          -0.31666128473198635,
          -0.31623572740418654,
          0.21011060794680173,
          0.256843580670642,
          -0.3167284745869756,
          0.2372562374624523,
          0.29607395023680483,
          -0.3165806714460784,
          -0.31682412492239753,
          0.29717356570152975,
          0.2750245230306404,
          0.2748472467774872,
          -0.31614537154524863,
          0.25468390394272894,
          -0.3165190048820563,
          0.06804593949810409,
          0.2989050328782784,
          -0.3166421925517334,
          -0.2824140242629816,
          0.29672022506075674,
          -0.16155609412040556
        ],
        "bias": -0.1318952273890991
      },
      {
        "weights": [
          -0.02078577210316394,
          0.006558478817672285,
          0.007020382752535788,
          0.028442444360072,
          0.0011533545243101058,
          0.008809319749114254,
          0.020565113993715974,
          0.006687141576692149,
          0.007330926400381049,
          0.007287770413959455,
          0.028436198590124175,
          0.006979682474750646,
          0.008312355012448461,
          0.006805212152344637,
          0.019610462136801465,
          0.020699090293626567,
          -0.01595995099613894,
          0.008427887956721359,
          0.027673631094642687,
          0.008097425281705066,
          0.006917340536757872,
          3.4149706250612724E-4,
          0.02717176824236093,
          0.01815291711795459,
          0.007224997122799086,
          0.021529675562895083,
          0.05992476653910953,
          0.03094205321007203,
          3.128485317407102E-4,
          0.016424956902372587,
          0.006845603576199015,
          0.0067785619769410235,
          0.017070023438335757,
          0.006851761621554367,
          0.00715732918352124,
          0.008656578662801217,
          0.02001993903245902,
          0.0157728437960169,
          0.023784620136870886,
          0.007005930113643663,
          6.379770382376065E-4,
          0.007154499909776934,
          0.0340189466349399,
          -0.001378305887195029,
          -0.0021360984080308876,
          -6.500525183066199E-4,
          0.02607128382804705,
          0.008095893018295849,
          0.0062847459271389485,
          0.006757802317563994,
          0.007120272940445658,
          0.007132336487362259,
          0.006946781597401572,
          0.027199750283365704,
          0.019677359204922248,
          0.007087827348241904,
          0.022821331434028536,
          0.008541891777395453,
          0.007461455052158103,
          0.006901360669270111,
          0.007873551917815547,
          0.017033465453477916,
          0.015696322649383,
          0.006657410171936962,
          0.021033689649478892,
          0.006854745554521854,
          0.07013700902104497,
          0.0066963138470095655,
          0.006967828798353737,
          -2.3289428857287112E-4,
          0.008026196213229088,
          -0.014148534490200265
        ],
        "bias": -0.017122348032990207
      },
      {
        "weights": [
          -0.01905446293384208,
          0.006668632472172586,
          0.0072735124373581005,
          0.02655977608371591,
          -1.7082164330871677E-4,
          0.0076098549534864245,
          0.019106915920651783,
          0.007099258510694944,
          0.007321661642320428,
          0.007072033065699893,
          0.026174251725301304,
          0.00724371210086824,
          0.007684365933506302,
          0.007293494504451822,
          0.019078412514016006,
          0.01951372458844219,
          -0.014773627510822025,
          0.007922341416068164,
          0.02611887008512477,
          0.006326242174159842,
          0.006898475606219317,
          9.250262366442329E-4,
          0.0244938784476929,
          0.017152204828949715,
          0.007156931129825716,
          0.020416421094887834,
          0.05990287237408985,
          0.02916188793731408,
          4.82945540307044E-4,
          0.0153676877821518,
          0.007023456972431319,
          0.0074170532910010694,
          0.015446801673949507,
          0.007366238862846789,
          0.006877490718212173,
          0.007586273744938613,
          0.019465877605945456,
          0.01443694420234955,
          0.022894881198354186,
          0.007233856545371909,
          7.07905572692899E-4,
          0.007385856447723599,
          0.03196107854603238,
          -0.0020533925729742373,
          -5.539195449541444E-4,
          5.394672448810892E-5,
          0.02410183040223501,
          0.0075527764205186535,
          0.00468976910347232,
          0.006866375088892011,
          0.007302051433710338,
          0.007511833917400505,
          0.0073102454486736876,
          0.025260888748329467,
          0.018785597557574675,
          0.00690952174272718,
          0.02160480269140478,
          0.0078022467304828666,
          0.007236606339677678,
          0.006888556427603931,
          0.006508027354883815,
          0.01520706291047167,
          0.014593934082228434,
          0.006424566770477981,
          0.020642754095131364,
          0.007523548671552016,
          0.0678240768918226,
          0.005041778545110594,
          0.007368413496016527,
          6.898802400856234E-4,
          0.0073432604312361665,
          -0.012038863153748658
        ],
        "bias": -0.01524230341422161
      },
      {
        "weights": [
          -0.017384011207766392,
          0.006798243307821758,
          0.007315100951781896,
          0.02806534714145687,
          4.3827945759655876E-4,
          0.0077093151902248224,
          0.019210211679120993,
          0.006925590701846775,
          0.007635896700923114,
          0.007127316844124365,
          0.026996240012092217,
          0.007014666690903032,
          0.007731380928102045,
          0.00675767742040857,
          0.018619740786522874,
          0.019290605847804676,
          -0.016005423403346698,
          0.007666279814236301,
          0.026482001530990014,
          0.006472701632626387,
          0.007173910136987208,
          7.371892210154587E-4,
          0.02551968164951548,
          0.01778300494366504,
          0.007132642766870969,
          0.020239643141149514,
          0.05851914321267271,
          0.030310756411954975,
          3.795635423410821E-4,
          0.015224141124169347,
          0.007152007465652029,
          0.007251473609353538,
          0.015447820601447336,
          0.007287646726132144,
          0.007370095790134878,
          0.007604755218824479,
          0.019436686105715275,
          0.014551014876526365,
          0.023619594865895082,
          0.007237940132341481,
          8.455121233425627E-4,
          0.00727485647369523,
          0.03275360231507884,
          -0.001517599444997988,
          -0.0012491233794138577,
          -5.315283511353182E-4,
          0.025127009524220235,
          0.0076077628335097566,
          0.004271124532283678,
          0.006839307192276881,
          0.007090171176546804,
          0.007259981138671804,
          0.007762014990020531,
          0.025574675928275947,
          0.0188699146665428,
          0.007415642509368907,
          0.022620179071234186,
          0.007670693952516272,
          0.007295097754845149,
          0.00709950140070606,
          0.006755534050530278,
          0.015316289915705744,
          0.014477921938811308,
          0.006784311349551077,
          0.02053313787003078,
          0.007213229917984214,
          0.06824635505830981,
          0.005192841779528897,
          0.007388570008407149,
          6.665857120446684E-4,
          0.0075405456960044945,
          -0.01254564959967162
        ],
        "bias": -0.013446289850372486
      },
      {
        "weights": [
          0.16469729214252932,
          -0.32714250709344267,
          -0.3277682141673906,
          0.20352809800895913,
          0.31645812385401967,
          0.30490475617039936,
          0.2477686280451966,
          -0.3272388265219886,
          -0.3277179573778593,
          -0.3275268505273784,
          0.21747410161322514,
          -0.32752252365022094,
          0.305397206647958,
          -0.3273000980915946,
          0.2760743114360275,
          0.24937072473394487,
          -0.04639807955333943,
          0.3047646139678988,
          0.22109418478428303,
          0.30554043043260404,
          -0.3270915028943141,
          -0.29816203728295115,
          0.2214143303375544,
          0.2507332217446608,
          -0.32764217194453743,
          0.271707800909498,
          0.07196347395763505,
          0.2002456252523382,
          -0.28022928094224514,
          0.28378270586726645,
          -0.327387664373464,
          -0.3274965009619173,
          0.2828819997211863,
          -0.3277407230440966,
          -0.3276639232685817,
          0.30485109145600797,
          0.2724454833665919,
          0.28426749797936,
          0.2460706602413426,
          -0.3273673811708915,
          -0.2889819247566016,
          -0.3273774154955524,
          0.20894446352995416,
          0.31905497008702394,
          -0.2664790030112719,
          -0.27198283705948517,
          0.22423900036894331,
          0.30531975055384175,
          0.30756867371947366,
          -0.32729732677460455,
          -0.3273939633631288,
          -0.32766270737286496,
          -0.32768417292037605,
          0.21974377745589357,
          0.2653228018674849,
          -0.32770564712736444,
          0.24577512984257976,
          0.3048988248651845,
          -0.3274659324968407,
          -0.3272994189467608,
          0.30613772345299967,
          0.28416481918364933,
          0.28424683676233714,
          -0.3277386537557067,
          0.26291742523206085,
          -0.3276268856762362,
          0.07266729702520336,
          0.3073902165168505,
          -0.3276158561338717,
          -0.2926858386615152,
          0.30499425184825435,
          -0.17024882530412372
        ],
        "bias": -0.13761289846672897
      },
      {
        "weights": [
          -0.020012170822048845,
          0.006118083673122967,
          0.0064564616338443044,
          0.029336545168145364,
          5.730818382136698E-4,
          0.009354795963385057,
          0.02124290402127353,
          0.006569937226403246,
          0.00657496790306094,
          0.006527350181033765,
          0.027870192909452522,
          0.006530991024198073,
          0.009066070766481566,
          0.006562110545758239,
          0.020297426650579337,
          0.02144074808959016,
          -0.016338604711857427,
          0.009318948065003016,
          0.027374604621465008,
          0.007340073960504845,
          0.006353129472007386,
          8.1166853517311E-5,
          0.026424480400354562,
          0.01898122525025288,
          0.006808859451200576,
          0.022189240448064793,
          0.061194084409108174,
          0.031817296761295716,
          -5.375986703833619E-4,
          0.016874460287353517,
          0.006505052215359621,
          0.00660647401454769,
          0.017410589384763645,
          0.006658566521658795,
          0.006690932348870556,
          0.00937783349781621,
          0.020978501431216198,
          0.015529713494300938,
          0.02537694920078539,
          0.006750457144111773,
          -2.0106912698396648E-4,
          0.006757323915104293,
          0.03468343996802068,
          -0.0017544714016918925,
          -0.001986586758244451,
          -6.717831325665912E-4,
          0.026267926804401796,
          0.008721452468564875,
          0.005487887300054445,
          0.006313290133559844,
          0.006573497719380729,
          0.006714950758300559,
          0.006657216217176791,
          0.026950413456315575,
          0.020556201533327677,
          0.006764449101060384,
          0.023824811826251065,
          0.009391438721313098,
          0.006488580815186136,
          0.00669426396928281,
          0.008065828528857372,
          0.01723584504028611,
          0.01581800540875878,
          0.00600682794378274,
          0.02263306621840644,
          0.006714659871936889,
          0.06989860493484808,
          0.006021299709484645,
          0.006656525164677371,
          -9.253167380492017E-5,
          0.008352407072526985,
          -0.012830456496187482
        ],
        "bias": -0.01727974165388431
      },
      {
        "weights": [
          0.158006364372869,
          -0.3086600043753678,
          -0.30919826956307167,
          0.19295403115866008,
          0.2990957793809633,
          0.288620284072045,
          0.23323807354929393,
          -0.30906278313416274,
          -0.30929430942084074,
          -0.30932320265744434,
          0.20402869373690516,
          -0.309303938864331,
          0.2890661447461638,
          -0.3088824901532757,
          0.2621610420247673,
          0.2350914091881105,
          -0.038413062953707174,
          0.2884444922886358,
          0.2077978688132935,
          0.2895894531100622,
          -0.30876079902308773,
          -0.28139274258859986,
          0.2078056229400046,
          0.23617299092062724,
          -0.30973391207743034,
          0.25718074651398404,
          0.06286142794129623,
          0.18904904880871007,
          -0.2639772151855067,
          0.2683995364296284,
          -0.3090787964974385,
          -0.3092335736097861,
          0.2676550313850148,
          -0.30959288827863257,
          -0.30930198857035607,
          0.2886402153078652,
          0.2584529849681252,
          0.2696928037520995,
          0.23126127391438878,
          -0.3095222956967051,
          -0.2729860304958592,
          -0.30917719089247186,
          0.19640886222014367,
          0.3015365749844237,
          -0.25029707355791697,
          -0.2556344875841518,
          0.2111346848097217,
          0.2889989962823137,
          0.2915569917202837,
          -0.30896119799384947,
          -0.3089381389057459,
          -0.30926619486900275,
          -0.30951965595580194,
          0.20640732441364665,
          0.2506414054722496,
          -0.3094983571241134,
          0.23141425441074703,
          0.2886544952015813,
          -0.30922529273459937,
          -0.30903927050179225,
          0.2899560885702791,
          0.26879840134871774,
          0.2692718143336193,
          -0.30879041521604855,
          0.24878288336425267,
          -0.3094516670926393,
          0.06111767797546408,
          0.29161880053438016,
          -0.3093704550337971,
          -0.27662617510294646,
          0.2895210571734086,
          -0.15712130270566624
        ],
        "bias": -0.13020532879111746
      },
      {
        "weights": [
          0.1731041741685788,
          -0.31206742863134906,
          -0.3129274953998171,
          0.1929814697473192,
          0.3029315815928675,
          0.2928429070940043,
          0.23762969595048888,
          -0.3126649327064346,
          -0.31291800921068214,
          -0.31260990762224017,
          0.20682706544042118,
          -0.3125819626959857,
          0.2927008311241352,
          -0.31257272647124007,
          0.2639547974874578,
          0.23844249783529123,
          -0.03215916136400698,
          0.29233955268947004,
          0.21174897209037846,
          0.2930720709643319,
          -0.3122303870695,
          -0.28422638515218696,
          0.2115823357888901,
          0.24050915723577287,
          -0.31288358067311994,
          0.2598959283482441,
          0.05678890929541175,
          0.1891957913084827,
          -0.2667178307900848,
          0.27102837315851513,
          -0.3126720982450686,
          -0.3125215577079705,
          0.2703006082232181,
          -0.31260313256910793,
          -0.312777595964822,
          0.2928288403817836,
          0.2611684898952644,
          0.2716965364055484,
          0.23570353154155485,
          -0.31257473335501446,
          -0.2758102578195562,
          -0.31295460287529864,
          0.19742662906361597,
          0.3048913366197613,
          -0.2545161813120318,
          -0.25917738119782,
          0.2138617639461909,
          0.2933486950143019,
          0.2951423506084106,
          -0.31278825400691496,
          -0.3126400389081834,
          -0.312533262646373,
          -0.3129547241698727,
          0.2098850786809415,
          0.2533823269651807,
          -0.31287038232592224,
          0.23599524150436524,
          0.2924169165666436,
          -0.31280300169768116,
          -0.3126988506332864,
          0.2941249344271541,
          0.2711154670351267,
          0.2715527832746463,
          -0.3123332078259991,
          0.25114695851337443,
          -0.31276439212026586,
          0.055661183666037194,
          0.29525866833497694,
          -0.3129555811059292,
          -0.2793632302238549,
          0.29322006084215513,
          -0.15449301684670358
        ],
        "bias": -0.12712583721188433
      },
      {
        "weights": [
          -0.016070055645225893,
          0.006522613617113444,
          0.007335081386704264,
          0.027667843072310152,
          0.0012339669139683855,
          0.007876705484682438,
          0.019216419429588117,
          0.006908360354091276,
          0.007379011239381672,
          0.007146870168720332,
          0.026466965923311304,
          0.00735221228850811,
          0.0075920275445146195,
          0.007079535413506261,
          0.018146297138383616,
          0.018935386150062152,
          -0.01741344976015877,
          0.008243428078981192,
          0.02519660225964642,
          0.006704432655962311,
          0.007332397622396172,
          2.812108404802336E-4,
          0.024919800138115775,
          0.017161150513509846,
          0.007262022340678569,
          0.01930567687895041,
          0.05948434697278284,
          0.02963497339109486,
          -2.6887633799747704E-4,
          0.014333131554943182,
          0.0071832780204168604,
          0.0071437616123447584,
          0.014879431291917029,
          0.007563886253285416,
          0.007020466420262552,
          0.007867455871974625,
          0.018646689950041692,
          0.014337843279712168,
          0.02274539735571648,
          0.007173837831202731,
          6.863254750570005E-4,
          0.007410099670380844,
          0.03178115797988183,
          -0.0011161436897757532,
          -0.0020768334904552573,
          -0.0013669360782750898,
          0.0243277470367693,
          0.0074808434298176685,
          0.004950484638680751,
          0.0067384054288662535,
          0.007204061041744868,
          0.007805038929966317,
          0.007238389737928244,
          0.025321078417864386,
          0.018439919312340458,
          0.007285877932080848,
          0.021229592509956093,
          0.007841659642204056,
          0.007222461905922685,
          0.007176886465576291,
          0.007074526758993222,
          0.014895445382797688,
          0.014069286340445535,
          0.006508940873223748,
          0.01982543717326898,
          0.007448202153331621,
          0.06761435477233035,
          0.005524865950906079,
          0.007013628538082874,
          3.6188769490761114E-4,
          0.007842433988812044,
          -0.012702337757207437
        ],
        "bias": -0.013678496212300651
      },
      {
        "weights": [
          -0.019721176079728956,
          0.005735521480486781,
          0.006830948972311203,
          0.02930369115189995,
          7.121400927784264E-4,
          0.008652218154266589,
          0.01975338952430096,
          0.005982941621585492,
          0.006494872924581083,
          0.0064772948120860275,
          0.028128994179289078,
          0.00642870539596629,
          0.008540358909536834,
          0.006256573445638098,
          0.019676851827350378,
          0.019280221863457774,
          -0.01661972887990598,
          0.008858675301837133,
          0.027251653145165016,
          0.007939976925622424,
          0.0060820581127678805,
          6.920927748234482E-5,
          0.026651977841964047,
          0.01842290794473936,
          0.00636029581227339,
          0.021165459320424254,
          0.061234514885983735,
          0.03158846394796004,
          -4.442510591962358E-4,
          0.016522757515267265,
          0.006538267583839848,
          0.006218595870106424,
          0.016484274739634312,
          0.0067373526072221565,
          0.006145418293737864,
          0.008670547365411375,
          0.020185339654292724,
          0.015179667409521537,
          0.0234110469868587,
          0.006265341688608813,
          -8.66439749639006E-5,
          0.006542022937889049,
          0.0341638354815886,
          -6.332003661788825E-4,
          -0.0021854964019998794,
          -7.623610785168649E-4,
          0.025904738330710234,
