[
  {
    "name": "INP",
    "activation": "ELU",
    "neurons": [
      {
        "weights": [
          -0.29216796436474124,
          0.30998608303281094,
          0.19509144006732962,
          -0.3393648558287809,
          -0.4569848634612575,
          -0.233671082153551,
          -0.16223497737961756,
          -0.1620185061683315,
          -0.2017864334110675,
          0.1856006206587931,
          -0.41144597368241953,
          -0.17800346279128978,
          0.20893437404122175,
          -0.1075505666401638,
          0.13814844053271894,
          0.44069832372189277,
          -0.01853964950368571,
          0.27130658637595034
        ],
        "bias": 0.2984706929867996
      },
      {
        "weights": [
          -0.27388889772501984,
          0.14926747340476557,
          0.23111890947324368,
          0.13272757318228345,
          0.057605795366493705,
          0.24275510473946235,
          0.2581026289506251,
          -0.25467698378486353,
          0.060094678055718664,
          0.023094663601471645,
          0.34583764184934984,
          -0.26488051705499027,
          -0.28188608173545127,
          0.200596476995267,
          0.07037203096247474,
          0.1231271254644324,
          -0.1017229709483861,
          -0.18099097245938825
        ],
        "bias": -0.15269430697040176
      },
      {
        "weights": [
          -0.1212520604913321,
          -0.12486248438089766,
          0.15433937277382442,
          -0.010224531604388236,
          0.21565677043064613,
          0.20313205941352788,
          -0.10588778863631276,
          -0.2372830679551398,
          -0.4521611175504239,
          0.3119580106618468,
          -0.012856211720670047,
          0.04035341662653786,
          -0.47537290506306157,
          -0.03666318490877578,
          -0.1879413018406146,
          -0.09573478918490193,
          -0.29420159521111006,
          0.22609600511863834
        ],
        "bias": -0.1987470549953437
      },
      {
        "weights": [
          -0.4042852422437799,
          -0.3713580908617153,
          0.37442101203124206,
          -0.34679805996259516,
          0.14316157012919065,
          -0.20710466977816464,
          0.056770637920189645,
          0.4080266361293682,
          -0.32484114383303686,
          -0.0032901241249661405,
          0.2506240182713466,
          -0.272548071811804,
          -0.1761489259614086,
          -0.21579063246202385,
          -0.25186015402290884,
          -0.01641902138057449,
          -0.09849439399620402,
          -0.25803431292734363
        ],
        "bias": 5.68988127849272E-4
      },
      {
        "weights": [
          -0.4555709378040726,
          -0.19872235127572,
          -0.22821153389570836,
          -0.28163444307693336,
          0.23292295187349954,
          0.003757863105806277,
          0.023820141399210307,
          0.0389758318855422,
          0.11330676472147116,
          0.028338607269289502,
          0.0682289339187332,
          -0.5609418064126624,
          -0.3099143311429183,
          -0.19323592741944057,
          0.20407392924081016,
          -0.022987830403155596,
          -0.4994102571732156,
          -0.2326214828827121
        ],
        "bias": -0.2923714058046615
      },
      {
        "weights": [
          -0.07589200956964895,
          0.10299863732003904,
          -0.5722127979071049,
          -0.05785802745740594,
          -0.0033428689771724546,
          -0.12917684160071435,
          -0.03721337126543925,
          -0.15395668094417223,
          -0.41939921443784556,
          0.03576243709932201,
          -0.17425710715253145,
          0.2765206031195729,
          0.10208191326141802,
          0.17949459422754271,
          0.3372860086995128,
          0.23112456879331422,
          0.2595254562640848,
          -0.3233177733974961
        ],
        "bias": 0.24963038790384082
      },
      {
        "weights": [
          0.16346051902858866,
          -0.2965212773758044,
          0.004830285395682773,
          0.1624433883553314,
          -0.06711868892830568,
          -0.02811785512134283,
          -0.04151073836625866,
          0.03849033320018496,
          -0.30012747840232945,
          0.4463463603321731,
          -0.4176181174525319,
          -0.10232655708560925,
          -0.5300990049213155,
          0.007449025492660967,
          0.11576552275147706,
          -0.019203248302319693,
          0.029930490795569534,
          -0.3108712098285129
        ],
        "bias": 0.004353777021391365
      },
      {
        "weights": [
          0.12710564380521042,
          0.09958789241922264,
          0.06380465584966004,
          -0.3243391123259904,
          0.12621565455680048,
          0.0021629591667985935,
          -0.1700666600802187,
          -0.18430591037061178,
          -0.06382253028869207,
          -0.307142510605893,
          -0.5222865709489861,
          -0.3640111987688792,
          0.20310038789415394,
          -0.23100270467011907,
          -0.1931696941426518,
          0.10377889282203918,
          -0.17086903849470142,
          -0.38055757467911294
        ],
        "bias": -0.29704236043795884
      },
      {
        "weights": [
          0.35275510910161323,
          -0.20866819348160404,
          0.3510325653655399,
          0.3325285126729585,
          -0.20602266703366306,
          0.14239851622707556,
          0.2357555700726713,
          0.18450211936302388,
          -0.30590959184750005,
          0.23292311000730676,
          -0.10153102451277239,
          0.290732237268251,
          0.014531207625171547,
          0.10878346173625618,
          -0.0379930731634654,
          -0.07120446166190755,
          5.699848321335429E-4,
          -0.13691046222797312
        ],
        "bias": 0.10939090888443548
      },
      {
        "weights": [
          -0.10186063069033209,
          0.39572944011378675,
          -0.001008940086038188,
          0.15491607236307364,
          0.06339793381601828,
          0.08496556225279152,
          -0.08304110365304979,
          0.18515978751529044,
          -0.43879053404581536,
          -0.2606318301758963,
          0.1629237204935109,
          0.4605120238742582,
          0.1990193788486585,
          0.3396092077234353,
          -0.5462160287936808,
          0.07408386224396175,
          -0.3918592330578299,
          -0.05567585747409751
        ],
        "bias": 0.046231451325827025
      },
      {
        "weights": [
          0.41041852165669335,
          0.41247006963183036,
          -0.09200022324956182,
          -0.09916939493734105,
          -0.3432003556643249,
          0.5819249907487305,
          0.18773359479646878,
          0.35114038821661187,
          -0.14854591696283814,
          -0.138318640543276,
          0.022283705549490634,
          0.8545043427507042,
          0.24818038748631197,
          -0.20825633174480349,
          -0.03960223191582106,
          -0.024876811835942383,
          -0.2603698489154689,
          0.029160357280621996
        ],
        "bias": 0.01979854484867742
      },
      {
        "weights": [
          0.10379917296082941,
          -0.0037889864387847115,
          -0.1279327144805951,
          -0.2771690663077205,
          0.25011411597863853,
          -0.3938929675428967,
          -0.41580743175243406,
          -0.16131359513466811,
          0.3232182576186168,
          0.274227190784198,
          0.11736298429385343,
          0.20285563118370054,
          -0.2129273494137412,
          -0.38544830192971496,
          -0.03371759408394997,
          -0.2208963343249342,
          -0.6679317581496301,
          0.33815641014130765
        ],
        "bias": -0.37801447253231596
      },
      {
        "weights": [
          -0.3016558515653276,
          0.06461317344419922,
          0.5046544673473803,
          0.03466970836416745,
          0.09253296107509945,
          -0.03042712054813289,
          -0.424889419823295,
          0.0013521408452831347,
          0.324616840917785,
          -0.141190382636302,
          0.27032839680623705,
          -0.20666466550150503,
          -0.3791788497282732,
          0.07141323805138378,
          0.2525300922917891,
          -0.1359584524542777,
          0.2130951963532234,
          -0.19376208104911677
        ],
        "bias": 0.08006932433328359
      },
      {
        "weights": [
          -0.403505192270211,
          -0.30049120165753523,
          -0.00591841324390976,
          -0.28887820726209523,
          0.213823954026836,
          -0.007901195917407806,
          0.45707694272377003,
          0.22180808863008677,
          0.4199110117632171,
          -0.3632307109393079,
          -0.0875958925103733,
          0.04941616457489117,
          -0.1225755162420281,
          -0.3521615722220655,
          0.018860505133441088,
          0.42910111813649715,
          0.48524905101663024,
          0.18219888714000643
        ],
        "bias": -0.2271497192110312
      },
      {
        "weights": [
          0.14693659023859285,
          -0.1712175481735182,
          -0.273633821960765,
          0.7220054214514111,
          0.08049352099026963,
          -0.005129758661819357,
          0.06116852036247092,
          0.23243563380050594,
          -0.24362193626157716,
          0.1191281531088786,
          -0.05251059035622105,
          -0.19946357649267848,
          -0.019495911959379962,
          0.2928292155839524,
          0.2841151150672321,
          0.2547919347295719,
          -0.16299995539740408,
          0.07933605970401916
        ],
        "bias": -0.17850568644343096
      },
      {
        "weights": [
          0.13984541702044131,
          0.4576085044974771,
          -0.15794208189110612,
          -0.2553737651847974,
          0.09012679848406334,
          0.48788374814582364,
          0.3513142256121315,
          -0.3516085059982585,
          0.06180683596239122,
          0.5130786306323936,
          -0.178557363235675,
          -0.12375854120951316,
          0.11959923684560758,
          0.17787228315762357,
          -0.13787667077329793,
          -0.2501380376605496,
          0.2845232780703082,
          0.6296923052381163
        ],
        "bias": 0.2883674056159155
      },
      {
        "weights": [
          0.14432166510651803,
          0.04717648020386016,
          0.3592575205916433,
          -0.23799942168480218,
          0.2549341069871563,
          0.20825584661696214,
          0.0351005158623151,
          0.3537797489971962,
          -0.11837089681871611,
          0.3983424963720474,
          0.12467856343293776,
          -0.0948768621748333,
          0.06754318421608119,
          0.03586341409860913,
          0.26601327937924407,
          -0.25083920519049224,
          0.04678658827300612,
          -0.28971340910282967
        ],
        "bias": 0.0018404288816404005
      },
      {
        "weights": [
          -0.35840249010027336,
          0.43735191008514346,
          0.15732853080582818,
          -0.08593401542476783,
          0.3490799350990721,
          0.050873104043318865,
          0.05027871546980975,
          0.20167161154663438,
          0.12846324587977523,
          0.36095778536739476,
          0.08864936549484158,
          -0.24329977665261138,
          0.1808828445869047,
          -0.0089088011563923,
          0.10486989607478597,
          0.2837992624468214,
          -0.041540760320036105,
          0.18029946551379525
        ],
        "bias": 0.20909218335225485
      },
      {
        "weights": [
          -0.012509329986028403,
          0.44450049994113705,
          -0.42493785876713763,
          -0.23637793244152058,
          -0.17928145912797389,
          0.10088079746491964,
          0.2484815171618174,
          -0.05183815658944524,
          0.23373016513151204,
          -0.3349350765102994,
          -0.32720757361556146,
          0.31294701720885115,
          0.3926834431706484,
          0.038724935303373585,
          -0.5471578468735532,
          0.24244398892891825,
          -0.4165058717251742,
          -0.18252311911684063
        ],
        "bias": 0.06741353832563433
      },
      {
        "weights": [
          0.25222643213731205,
          -0.331158151181654,
          0.006174549249449865,
          -0.15406571732913782,
          -0.06769463751200004,
          -0.2988110491393149,
          -0.07961030900632385,
          -0.06103102539694061,
          -0.5911667242014689,
          -0.22588291227816956,
          0.18096343564774206,
          0.31964407995234406,
          -0.4140358050930044,
          -0.148382498560536,
          0.009421711006242062,
          -0.1803037880370281,
          -0.3916313237502503,
          -0.23347307852338872
        ],
        "bias": -0.10137113262219015
      },
      {
        "weights": [
          0.19793133777443908,
          0.21540936748131884,
          0.5683424883498818,
          -0.1787768058841537,
          -0.2093737036730447,
          0.20236002280354443,
          0.45474490502194964,
          -0.11509950843045372,
          0.48358774246761504,
          0.3127550484586242,
          -0.19950854516930996,
          -0.23184408649119767,
          0.10072622026466459,
          -0.1293573381195231,
          -0.3370781602955863,
          0.03458438867933896,
          0.0145107378756967,
          0.2958072927000928
        ],
        "bias": 0.0958601282144795
      },
      {
        "weights": [
          -0.02917499330687591,
          -0.10703716057159193,
          0.08572851583794065,
          -0.06856845275011249,
          0.022850349075510756,
          -0.12069152366779498,
          0.3531687395735067,
          -0.30560467734209573,
          -0.11817757650990479,
          -0.2513981826239612,
          0.33736855228046536,
          -0.2952992720124858,
          -0.4393940621173475,
          0.4725271139117416,
          -0.13577064271506972,
          -0.004334209159236746,
          0.5399493687210891,
          -0.3007301509527326
        ],
        "bias": -0.12186792139133111
      },
      {
        "weights": [
          -0.38428434134769307,
          0.05181856954411043,
          -0.2163270772279109,
          -0.22367618034189396,
          -0.03750756331504617,
          0.05744057061470612,
          0.18960418338194188,
          -0.3204088646743192,
          0.19756839727770384,
          0.3133254758019127,
          0.4718372280987603,
          0.22330038569737157,
          -0.04352558201371693,
          -0.18306609209994415,
          0.0562174626264587,
          -0.6206516424742342,
          0.023870647434787024,
          0.2023699249767713
        ],
        "bias": 0.06551667164876573
      },
      {
        "weights": [
          -0.061706814117696136,
          -0.04766278571534761,
          0.08172466305386371,
          -0.022527221019530575,
          0.26127644405184414,
          0.42768594795260095,
          0.0705218466282473,
          0.3754038341565471,
          -0.14792553496805508,
          -0.07428446123330198,
          0.13940522258674032,
          -0.04900176301496992,
          0.10766097175926363,
          0.43432206167238246,
          0.3170321713832855,
          -0.25865805278962345,
          0.29838315252042735,
          -0.1311071640835487
        ],
        "bias": -0.35428116375894847
      },
      {
        "weights": [
          -0.31277597505925414,
          0.0912363446108776,
          0.2775483496658438,
          0.45902995911063,
          0.04693672239856513,
          -2.3916758763297067E-4,
          -0.06051026716485323,
          -0.04481298522646615,
          -0.19738672729586554,
          -0.12110844306743207,
          -0.04440259250277531,
          -0.13388334244374736,
          0.4375378807614651,
          0.06858574475434012,
          0.15569418861611828,
          0.03435288595462666,
          -0.11385760295284693,
          -0.46595920488081644
        ],
        "bias": -0.07463558787449431
      },
      {
        "weights": [
          -0.29664078367259294,
          0.16622093537960905,
          0.2688600964252386,
          0.3271177910535869,
          -0.19757646678235824,
          -0.13967101055157158,
          0.23270179086281836,
          -0.37097651073394117,
          -0.21158826195680625,
          0.28463523608391356,
          -0.1548216686171834,
          -0.5008254916272913,
          0.5307611022715306,
          -0.4105070401219036,
          -0.028899002910922903,
          0.03607239625243075,
          0.03915168912271334,
          0.12743674839120547
        ],
        "bias": 0.3113180692360783
      },
      {
        "weights": [
          -0.04001549237993022,
          0.32765174716453427,
          -0.023935408183227775,
          0.08935033105628438,
          -0.084448970912556,
          -0.048972994148592616,
          -0.28252903368407956,
          0.08427626027105012,
          -0.6640460008699371,
          0.767754615790613,
          0.5618464337285038,
          0.021028168328934872,
          -0.3842094363036222,
          0.18706010411347512,
          -0.2151261805941613,
          0.22771064311177974,
          -0.3222146652622452,
          0.20111780700032814
        ],
        "bias": -0.5072510320983435
      },
      {
        "weights": [
          0.06979319318401685,
          -0.24002946594419702,
          0.5962279124672243,
          -0.5075112904538103,
          -0.14732598539933142,
          0.2115915238193278,
          -0.29992198623163324,
          0.4144796402363037,
          -0.21314794972949083,
          -0.12685248373532565,
          -0.2022243563338474,
          -0.08429015641318872,
          0.10008497147992869,
          -0.10741062351856472,
          0.017295380183691717,
          -0.17813695755169665,
          0.25864878301784616,
          0.4276109464416282
        ],
        "bias": 0.05770496323446826
      },
      {
        "weights": [
          0.30595544314027706,
          -0.21871282440764767,
          -0.15898337453245354,
          0.6702601159785517,
          -0.5012018034155503,
          -0.1639361190945159,
          -0.30421828659840766,
          -0.03278754049620995,
          0.14729649980119397,
          -0.3369350381414315,
          -0.0714896113820263,
          -0.1746522298635969,
          -0.3628907598422621,
          0.052420387243719536,
          -0.06745482807098824,
          0.36760744797575645,
          -0.10299591098673964,
          -0.3714069686618265
        ],
        "bias": 0.09525772915921174
      },
      {
        "weights": [
          0.04074630805432928,
          0.007026683761329446,
          -0.2627411381489625,
          0.021916246409289488,
          -0.1813046652030568,
          -0.1911959821358435,
          -0.45618773050006894,
          -0.08083884488082027,
          0.2493986212502155,
          0.40100201441074956,
          0.1940385035981778,
          -0.547813951567476,
          -0.05775004178898734,
          0.11033685931564771,
          -0.14722406067707824,
          0.14646876629993727,
          -0.0380437695968775,
          -0.36754529801502717
        ],
        "bias": -0.07192438073852345
      },
      {
        "weights": [
          0.7880476765699982,
          0.2726470227332113,
          -0.06843981425480768,
          -0.27292328213089156,
          0.0932345556695476,
          -0.2582302536310728,
          -0.018250349077512107,
          -0.10348222977663313,
          0.013374427195267985,
          -0.2615878906537189,
          0.25360855371755453,
          0.17938453505068205,
          -0.13711964497320614,
          0.30942746575604735,
          0.11320498852610902,
          0.11452635003150526,
          0.17275000500661036,
          0.1268814259972995
        ],
        "bias": -0.41597781915671644
      },
      {
        "weights": [
          0.12281139375302459,
          0.35836351198369026,
          -0.22843167271816725,
          0.526474610971244,
          -0.7947677389379649,
          -0.04681747816457812,
          0.05033401270615027,
          0.2227098299454394,
          0.04628904042932213,
          0.24558030177765314,
          -0.37643768607176914,
          0.0100253864697742,
          0.5272347716693377,
          -0.215731394693826,
          -0.060513765906649024,
          0.6101098473275556,
          0.21259099820353908,
          -0.18904064227196976
        ],
        "bias": -0.28408699804251364
      },
      {
        "weights": [
          -0.08113129983771171,
          0.15231610848788618,
          0.5143719661500102,
          -0.0751835636317923,
          -0.5282261112030981,
          -0.3301054785002433,
          -0.003933551730212063,
          0.3534401858207286,
          0.3330555820903874,
          0.16969175841595546,
          0.07108873884171311,
          0.19062126571960206,
          -0.0374551109835786,
          -0.3387143045354407,
          -0.12406184315020047,
          0.19861896041498422,
          -0.35520371185337357,
          0.7181186527750644
        ],
        "bias": 0.27636351576389373
      },
      {
        "weights": [
          -0.011913884722186265,
          -0.4507324527462467,
          -0.4744314322110065,
          -0.048340148583118754,
          -0.2003679563372244,
          0.1798394721797173,
          0.12477107776730162,
          0.17288182795350823,
          0.13239958425932677,
          0.0037461086761566152,
          -0.1982713137257842,
          0.11228181815722095,
          -0.6449952237829658,
          0.05673456452762106,
          0.4202595536320133,
          0.14767021564993155,
          0.053286800857473005,
          -0.3108062841742358
        ],
        "bias": -0.33273999563556644
      },
      {
        "weights": [
          0.09733443023165671,
          -0.01200989773526664,
          -0.6295202244925271,
          -0.3029452169943619,
          -0.10344490783906697,
          -0.004739989342971967,
          0.3025725218910072,
          -0.4064973836240115,
          -0.12810749646967923,
          -0.22432817333517271,
          0.04321422396897627,
          0.2603853832371289,
          -0.35527565318163423,
          0.0044227451104096125,
          0.03474924647512278,
          -0.021359095548434612,
          -0.0775014893002478,
          0.21664769602079842
        ],
        "bias": -0.131521896087972
      },
      {
        "weights": [
          -0.3817836902659964,
          -0.3424657822307808,
          0.13249911149884766,
          -0.5830568707134086,
          0.2658071009867564,
          0.20832177921433345,
          0.08121150188673842,
          0.29027213531437723,
          0.14214714935543635,
          0.06321692861123816,
          -0.21883522920382484,
          -0.015849403403022374,
          -0.45515256079209376,
          -0.015625491051269643,
          0.10022141134158571,
          -0.06231872134136505,
          -0.22726520653900364,
          0.05641507391506586
        ],
        "bias": 0.11649814387593811
      },
      {
        "weights": [
          0.5374023994610433,
          0.3527826475894987,
          0.1886850817239713,
          0.23409478050819216,
          -0.4553776417957008,
          0.06018233377488864,
          -0.05443240957741976,
          -0.34810383203798484,
          0.2352376459106805,
          0.09819777665847503,
          -0.3357340436385198,
          -0.3008418444588328,
          0.43050007424519926,
          -0.522327585447997,
          -0.04688231467761732,
          0.23498766146001002,
          -0.03726416807480984,
          0.06399174469386039
        ],
        "bias": 0.02411773546662091
      },
      {
        "weights": [
          0.08248176107403282,
          0.15128648106089007,
          0.3252435042509911,
          0.10541296234836939,
          0.3152987313781685,
          -0.09048582465983528,
          -0.14552160222631322,
          -0.01579502538208913,
          -0.01770127309232312,
          -0.5527753601837805,
          0.3544754453301414,
          -0.09142558191853216,
          -0.32231084540725013,
          0.24923112305756862,
          0.1566025166060417,
          -0.2128131188685973,
          0.5365103576167215,
          0.025245847987955955
        ],
        "bias": -0.25601427212345224
      },
      {
        "weights": [
          -0.3526732671411006,
          0.06303055080605781,
          -0.6263579860913886,
          9.760414269428452E-4,
          0.17537452995588718,
          0.022464484323613896,
          0.03781585146642736,
          -0.28479238670454604,
          0.3751345619047356,
          0.21791093941476863,
          0.2275523722430439,
          0.09655332701102345,
          -0.11914151096701588,
          0.17369292296430117,
          -0.37454093268462463,
          0.2797072267607453,
          0.012690533671149742,
          0.10538300724494315
        ],
        "bias": -0.39122019215885523
      },
      {
        "weights": [
          0.22741695160610295,
          0.09697229369692582,
          0.19654197309102778,
          -0.10705504821739202,
          -0.20903411553494558,
          0.30242168384190166,
          -0.10862271425208472,
          0.31526947065267785,
          0.14322971503286314,
          0.07495965146675178,
          0.4558321072789038,
          -0.4865862333009354,
          -0.5185201797041882,
          0.1711698923779667,
          -0.14509961465017046,
          0.2618699786613257,
          0.27701027205911344,
          -0.23189134988149224
        ],
        "bias": -0.19069736149467736
      },
      {
        "weights": [
          -0.19751723965583246,
          -0.23542590533439273,
          -0.2832069605135203,
          -0.21410524892451513,
          0.0768345793927312,
          -0.25038082239407256,
          0.18929199133347355,
          -0.012362598735733886,
          -0.26526682153783554,
          -0.04626759663030798,
          0.007699795291022849,
          0.011996999903289514,
          -0.3153112574830981,
          0.047264786366934736,
          -0.14025222726864298,
          -0.27287797912991163,
          -0.09835459477714731,
          0.22429198777627143
        ],
        "bias": -0.5640924287067759
      },
      {
        "weights": [
          -0.24025739529563858,
          -0.3910790473929631,
          0.41847571042918674,
          0.0477068365735823,
          -0.6585497033978239,
          -0.5088859055413877,
          -0.38761604603156025,
          0.10191217425021139,
          0.06744351957594372,
          -0.4626470589474614,
          0.17058758427217363,
          0.23832177694261986,
          -0.10901238855912518,
          0.2586986841581331,
          0.3196509289616133,
          0.36605596967428733,
          0.43658848583861953,
          0.14817227830444238
        ],
        "bias": 0.4309379379716331
      },
      {
        "weights": [
          -0.018188767924951204,
          0.2662638481766086,
          -0.16205483607008375,
          0.06885041030193988,
          0.5061138566077861,
          0.07930102207827205,
          -0.09102757246166886,
          0.47583396144776074,
          0.30713329656360655,
          0.12074041735042715,
          0.06653424587805762,
          0.3721259060191539,
          -0.09427921387373424,
          -0.06479068273493266,
          -0.05201550629591753,
          -0.3285782710193034,
          -0.6230044742763174,
          -0.0552487540658173
        ],
        "bias": -0.31059459959764074
      },
      {
        "weights": [
          0.363602570964293,
          0.0615359040893725,
          0.03937895880796064,
          0.28959068911029906,
          -0.07293142947210723,
          -0.2128122716023098,
          -0.08785561531688564,
          0.0474593801170121,
          -0.3121772909820339,
          -0.010942534212313143,
          -0.36965587710946685,
          0.18814444598535865,
          0.07330517976497344,
          0.06261858167738324,
          -0.054234943879961466,
          0.0774877876932868,
          -0.07258682441114987,
          -0.15436285316361034
        ],
        "bias": 0.08827537671657841
      },
      {
        "weights": [
          -0.34919023616335454,
          -0.1858958743011667,
          0.288732512620035,
          -0.058468187735439554,
          -0.32951876434597954,
          0.08195855185787004,
          -0.45465945265595675,
          0.07515049869536865,
          0.05261570135665563,
          -0.2153317569530101,
          -0.007807809793859005,
          0.16394861402664715,
          0.19164565580799295,
          -0.06951005555332938,
          0.11258370011960663,
          -0.19436407185767798,
          -0.13520697312414146,
          -0.36930593856497895
        ],
        "bias": -0.2109588549479113
      },
      {
        "weights": [
          -0.01792670050250869,
          -0.3751792766621403,
          -0.4605750036655235,
          -0.29568905836553694,
          0.39003583927493424,
          -0.11210676861363685,
          0.15727014244072063,
          0.16424802106009265,
          0.5675919567498727,
          0.1401179835839206,
          -0.13756730619749416,
          -0.224239424543315,
          0.014024456701479273,
          0.3142434759606863,
          -0.14160663094920806,
          0.009322906477213793,
          -0.2099183158492883,
          -0.5207938132281531
        ],
        "bias": -0.33074081457323007
      },
      {
        "weights": [
          0.07251659097601906,
          -0.4211331537432949,
          0.41226870011867006,
          -0.0201773706439842,
          0.018702813501432672,
          0.3132753116009354,
          -0.3705328646323997,
          -0.19265772375664356,
          -0.13796059001520725,
          0.48622013523000335,
          0.1453339414546443,
          0.15431165990407672,
          0.12964598934743912,
          0.13583087818684061,
          0.09557742797554625,
          -0.2884910154932948,
          0.0016211052294837316,
          0.041256596193680266
        ],
        "bias": 0.3597092855963875
      },
      {
        "weights": [
          -0.4530422498875696,
          0.16859685293054522,
          -0.7258129113395994,
          0.3739229378819182,
          0.2652110697850357,
          -0.24436297706338886,
          0.30043346315156444,
          0.28636416766134926,
          -0.30926238759117053,
          0.29627149065905994,
          -0.05221153147660324,
          -0.44322755879450443,
          0.13091744419755016,
          0.08377165605934539,
          -0.2520390442709955,
          0.03357014187178716,
          0.4452068056544152,
          0.1910031338349148
        ],
        "bias": 0.1943511170843185
      },
      {
        "weights": [
          -0.23536515369853245,
          -0.18705039651420544,
          0.19412928618619077,
          -0.06600204859443423,
          0.4740696815561561,
          0.05308954345260596,
          0.2195829499835727,
          -0.20565344246483575,
          -0.10796818693453808,
          0.02246995022053767,
          0.08863212166579672,
          0.24149672504148356,
          0.0298722714537363,
          0.044235326082981294,
          -0.36462885968578257,
          -0.059598827339171725,
          0.01193823557359998,
          -0.08736417575064365
        ],
        "bias": 0.14245512449785946
      },
      {
        "weights": [
          0.19123024924306478,
          -0.22164678483464378,
          0.10579347667224034,
          -0.2055354721037372,
          0.1403024900512046,
          0.18214426436257894,
          0.09110013606123082,
          0.0035742214679182617,
          0.2034285273404106,
          -0.28403398259775775,
          -0.031122784137942276,
          -0.0445507644312348,
          -0.2950865731364732,
          -0.284712318467109,
          -0.38292535385569315,
          -0.4634799937114994,
          0.39504653766562026,
          -0.37617462407985136
        ],
        "bias": -0.1421807541503261
      },
      {
        "weights": [
          -0.14187899683526642,
          -0.018195041557724976,
          0.3663779255149809,
          -0.19519355669195337,
          0.13713722123510486,
          0.35818492117349615,
          0.21600551612999808,
          -0.3359091330327262,
          0.10793914054675424,
          0.6026948311385731,
          -0.290512417863891,
          0.26273647072568285,
          -0.40036337878469747,
          0.3771057851684132,
          0.06505620834119522,
          0.11962374665105467,
          0.2646305244994148,
          0.22164267591550904
        ],
        "bias": 0.4114521118018847
      },
      {
        "weights": [
          0.026660744286806055,
          -0.05282194192798532,
          0.02118840735828131,
          0.5017801689978163,
          0.10914358722373349,
          0.12152464028498532,
          -0.1704048677401569,
          -0.04301044812724032,
          0.4128435076140504,
          0.43121336128458426,
          0.29797124409407555,
          -0.06238621106063617,
          0.09509361304019165,
          0.3397277306406134,
          -0.5103106824794328,
          0.3232281187102343,
          0.13982983739924926,
          0.33302175513530025
        ],
        "bias": 0.16567023755246263
      },
      {
        "weights": [
          0.4278182221154598,
          0.043064697203733265,
          0.17556946155318237,
          0.19398447698637183,
          0.1543421571787702,
          0.005223334781033528,
          0.06107408863477914,
          0.24305875208758365,
          -0.01597973629052132,
          0.24593550415723023,
          -0.10891392405894712,
          -0.4748425721520942,
          -0.013561985450975157,
          0.112591010689869,
          0.6779568796089823,
          -0.10307805837596075,
          -0.34507875275921013,
          0.14090076461013562
        ],
        "bias": -0.3701439869147219
      },
      {
        "weights": [
          -0.2929142080764344,
          0.14196100538334436,
          0.5173039088569008,
          -0.02323016797102411,
          -0.21874273133784666,
          0.08525355603681589,
          -0.3140219090383036,
          -0.19602198352676797,
          0.23922600589018542,
          -0.16717521895823015,
          0.05081445082753731,
          -0.08273774658166055,
          -0.15398413838848216,
          -0.010386460817397001,
          -0.11905916149342753,
          -0.15637013044705936,
          -0.3041327336277381,
          0.2508068251890527
        ],
        "bias": -0.09100716760148506
      },
      {
        "weights": [
          0.17822208700144862,
          0.16393277948478976,
          0.3746504807593718,
          0.06816633767851286,
          -0.21960909486867575,
          0.09322429973376181,
          -0.30910342818033015,
          -0.14007271433661,
          -0.19238967759090966,
          -0.46838461703472684,
          0.01752903182627581,
          -0.12616041006617817,
          -0.26565967738018004,
          0.09063241506466155,
          -0.2591744329308293,
          -0.20343352382950128,
          -0.27612689187421513,
          0.3395587306961515
        ],
        "bias": 0.014921348969701069
      },
      {
        "weights": [
          0.13266803069809324,
          -0.6028242045916669,
          0.035855362128973764,
          -0.12182839404702758,
          -0.29792979554985777,
          0.04568919585013952,
          -0.04776831429596138,
          -0.1877453953849176,
          -0.345231112760592,
          -0.4674744542242615,
          -0.09187601456207563,
          0.4814008229788362,
          0.17457082691018277,
          0.005199102091750971,
          -0.004311380938159763,
          0.2521940986965509,
          -0.07172623446612304,
          -0.24960676338758137
        ],
        "bias": -9.580302552670047E-4
      },
      {
        "weights": [
          -0.1383642324582911,
          -0.5585591624966023,
          -0.23655701288050496,
          0.05678507570015269,
          -0.06476370667916874,
          0.21309466165487956,
          -0.4187161456899684,
          0.19506410615742154,
          -0.3967247905729886,
          -0.4205608379632583,
          -0.08550965498275731,
          0.14161873030362618,
          0.08016028219890659,
          -0.05747108018018842,
          0.5223460430669954,
          0.21847451356503214,
          0.12691908199531943,
          0.0273194069246261
        ],
        "bias": 0.43349219305536135
      },
      {
        "weights": [
          0.4089709936975122,
          0.14119674183893274,
          0.05036286973983432,
          0.1544011781119264,
          -0.5680914061594984,
          -0.03681737548792203,
          0.42764840266671056,
          -0.7137091692804011,
          -0.4265682799145147,
          0.48420254262653767,
          0.04504457982606866,
          0.3145001414612728,
          -0.7281735033935675,
          0.11534250792257351,
          0.05518187449290402,
          -0.08403026968322268,
          0.1329906001498896,
          -0.09300661750886662
        ],
        "bias": 0.03084145871775951
      },
      {
        "weights": [
          0.31968390182187867,
          -0.1777215868079469,
          0.46187834771086206,
          0.4127180195743737,
          -0.21971157516285117,
          0.14084763200616982,
          -0.19173688644871872,
          -0.3675710288202979,
          0.08129077665428867,
          -0.09931298774354566,
          0.20815141269052403,
          -0.0069617711906081025,
          0.049079182044918485,
          0.19977794251387268,
          0.25686872803605126,
          -0.03628626027457245,
          -0.09633513493125866,
          -0.2080451956030528
        ],
        "bias": 0.22053797271098724
      },
      {
        "weights": [
          -0.15066781518089659,
          0.1971554167240176,
          0.05399726532006817,
          0.22473032639045468,
          0.07766259713172796,
          0.6541035136220218,
          -0.16686721584717085,
          0.025291267889761375,
          -0.48135165698865345,
          0.09357640908988082,
          -0.06610133982133853,
          -0.17254886569315145,
          0.013169551716556776,
          0.29404923490537643,
          0.1668084632065518,
          0.35758595776937036,
          0.08397003990985617,
          0.07041453734905043
        ],
        "bias": 0.33350487928165296
      },
      {
        "weights": [
          0.10871053946845793,
          0.03886934863966644,
          0.3341097045725022,
          0.009815014562262392,
          -0.2594824972832696,
          0.43412998181073825,
          -0.23397664776267169,
          -0.20004064063348925,
          -0.031416827036015525,
          -0.7243144743745424,
          -0.4167163522952642,
          0.3404765294273065,
          0.022535422949205006,
          0.17840839429108252,
          0.18275473985067092,
          -0.07416779252496691,
          0.0013105465879903809,
          0.2879836331251319
        ],
        "bias": 0.2752423783924057
      },
      {
        "weights": [
          0.11898370098213787,
          0.11011706329489994,
          0.13627791819101995,
          0.13342167181340223,
          0.11445447638385921,
          0.44801484513223017,
          0.14102599355246903,
          -0.1022340576982112,
          0.1953115485581094,
          -0.10284833713535473,
          0.2655141381016815,
          -0.2577026456185029,
          -0.13633869873967674,
          0.7105334028417019,
          -0.275343974208044,
          0.3749093825274467,
          0.41287369322221334,
          -0.05144614662290978
        ],
        "bias": -0.34267840815613465
      },
      {
        "weights": [
          -0.34013644229791296,
          0.2593385419640521,
          -0.42140441565266223,
          -0.2444425055579993,
          0.09981398555542703,
          -0.2785293793777366,
          -0.23056805377321662,
          -0.12314432314578432,
          0.33714063609059386,
          0.29586077281841205,
          -0.05461059908538183,
          -0.10504687590443723,
          -0.08629772132286538,
          0.11395036149543485,
          0.049096731122455994,
          0.14432503182909542,
          -0.1695185537080578,
          0.21389331774284043
        ],
        "bias": -0.059256540566432384
      },
      {
        "weights": [
          0.010971786446686456,
          -0.09963523690865587,
          -0.11471996923475705,
          0.11509008503207886,
          -0.2363712781097619,
          -0.10850467636934506,
          -0.09523765174471267,
          0.14793661287128587,
          -0.17714468360901212,
          0.3519616456619609,
          0.4610569783505856,
          -0.008696751167993394,
          -0.13016465235344452,
          0.27084960650464657,
          0.005743389278376279,
          0.01091676163494552,
          -0.012164222964150477,
          0.2745010890692632
        ],
        "bias": 0.13076870449152825
      },
      {
        "weights": [
          0.08227280432383223,
          0.33915297335872996,
          0.02825657343512896,
          0.3303916626755854,
          0.083784424731512,
          0.19944737090672832,
          -0.08537707056888326,
          -0.01359711342680806,
          -0.1679684182270772,
          -0.06354209166130884,
          0.0063160366649573675,
          -0.1943207614163597,
          0.5914002477446377,
          -0.24667710241737809,
          0.28647542368283285,
          -0.2559957324335607,
          -0.15670720185137954,
          -0.05476915150662188
        ],
        "bias": 0.23623305202408448
      },
      {
        "weights": [
          0.07735519149827207,
          -0.006577552247568239,
          0.10876211721308766,
          -0.23796429277196077,
          -0.0011268718365239842,
          -0.26455238441932605,
          -0.7606167777320114,
          -0.25978259445156704,
          0.3509744130920039,
          -0.024463877003124558,
          -0.35768001541968875,
          -0.13608826212409592,
          0.0737922287963036,
          -0.016965457664936682,
          0.0628073609885291,
          -0.5728127654893093,
          -0.3287850140697319,
          -0.04851527350740063
        ],
        "bias": -0.006780276908117986
      },
      {
        "weights": [
          0.1781728258364579,
          -0.2193310178613466,
          0.06906638385637637,
          -0.04365740663553744,
          0.4570615776040359,
          0.1265363136464776,
          0.16225064021254237,
          0.13170008375796347,
          -0.005652859859452867,
          -0.2702396289182312,
          0.14549408151260418,
          0.004280233290440986,
          5.891649094494235E-4,
          0.48803882957508415,
          0.008008495899867473,
          0.04091171055585477,
          0.09235740014234171,
          -0.03988721316900956
        ],
        "bias": 0.18528801391984315
      },
      {
        "weights": [
          0.23250745247684335,
          0.18204497127876126,
          -0.06890850560678576,
          -0.18341682182523797,
          0.15799817901952062,
          -0.11993421197278874,
          -0.2667585043820677,
          0.29230495205207285,
          -0.5332945961963779,
          0.10204811568471268,
          0.047419813367002156,
          0.055812911471580684,
          0.07904073783442989,
          0.4066370580568081,
          -0.21661926284100202,
          0.25015810297066954,
          0.5286024707481678,
          -0.2818673047946227
        ],
        "bias": -0.13003135993894852
      },
      {
        "weights": [
          0.11731406701815965,
          -0.09149669984839291,
          -0.1516962398783229,
          0.3055914927055519,
          0.09491193236227907,
          -0.12373973564904867,
          -0.25738729814514255,
          -0.2503149414450359,
          0.24006405839168446,
          -0.07573314846342295,
          -0.22193726686231952,
          -0.1051687566826937,
          -0.15489605439352183,
          0.34052805597477354,
          -0.3619480621809611,
          -0.18212138314170823,
          -0.4215854651406939,
          -0.05609869162621484
        ],
        "bias": 0.17520053350852022
      },
      {
        "weights": [
          -0.13453521509462862,
          -0.026435395102780018,
          -0.040274869122585225,
          -0.004221597739663675,
          -0.1914939502608008,
          0.010393756175290453,
          0.17641454914639848,
          0.16052050101845142,
          -0.3579103386096524,
          -0.3731142333563326,
          0.21445802634443786,
          -0.08745679701715593,
          0.3222965596968693,
          -0.04261730590834013,
          -0.41984759906155356,
          0.6662401269473153,
          0.0832988798429881,
          -0.14170313553801905
        ],
        "bias": -0.08956378411770491
      },
      {
        "weights": [
          0.3035563569684414,
          -0.24861414733291665,
          0.03412479479355401,
          -0.027478519060644545,
          0.16026377367385522,
          0.35697759277956065,
          -0.14984676779594633,
          0.031216727062436594,
          0.0033460731844690947,
          0.35541791436927767,
          -0.03898389514769187,
          -0.002688665042672327,
          -0.11044920958198623,
          0.8564138890362188,
          0.14236735907904122,
          -0.3301205488942566,
          -0.170641302338366,
          0.27272671626132683
        ],
        "bias": 0.1447030349725619
      },
      {
        "weights": [
          -0.36159939742465425,
          0.015229139209049954,
          -0.03826745039917212,
          -0.042847803914311026,
          0.11575968269055317,
          0.38130311455245697,
          0.39187638057990626,
          0.4331463370719533,
          -0.021645439698571727,
          0.5027695718204231,
          -0.1518474312014908,
          -0.25174215068342487,
          0.11820620443980644,
          -0.0010248276512234912,
          -0.3319369194917996,
          -0.35922079101452187,
          0.1319846205040032,
          0.07724939004272341
        ],
        "bias": 0.07863316633023044
      },
      {
        "weights": [
          0.09058964187020656,
          -0.00528143911690005,
          0.11630315061185652,
          -0.13076962615615575,
          0.3517754564590729,
          0.005507542133607946,
          0.5921123361350938,
          0.20683512015600727,
          0.32452802300365213,
          -0.0894040013648808,
          0.23533093762545904,
          -0.2894328392332041,
          0.43469143363717694,
          0.04676816035916908,
          0.009340890636091512,
          -0.5718630193087916,
          0.035904417819412136,
          0.2805147491141353
        ],
        "bias": -0.1240370950120414
      },
      {
        "weights": [
          -0.20969150692937477,
          0.18711911703011472,
          0.06408908423062053,
          -0.037975226085394005,
          0.06960569057656076,
          0.20168466445434982,
          0.1900271627315176,
          -0.6063102297110338,
          0.012534516545000832,
          -0.30159836357032893,
          0.3346789289758519,
          0.14108067114487063,
          0.3006923929160959,
          -0.29180946524283097,
          0.17480795821763273,
          0.2074755044702991,
          -0.0809610032721849,
          0.29710128744404035
        ],
        "bias": -0.01451042665641592
      },
      {
        "weights": [
          0.13808651457761753,
          0.19808631468306576,
          0.6705170874638402,
          -0.2718386480127577,
          0.1604630447655335,
          0.1451171760282256,
          0.5123074750935074,
          -0.1716943872610562,
          0.21074360949956863,
          0.4579489830682542,
          -0.26731947174552684,
          -0.10563626195305405,
          0.17111842434384408,
          -0.3621077794241837,
          0.48731647509536724,
          0.34739989026905305,
          0.31307484551159553,
          0.11641627222564792
        ],
        "bias": -0.12920582675008996
      },
      {
        "weights": [
          0.13428681568488185,
          -0.10618762692155657,
          -0.07188262406108004,
          0.010118296754557594,
          0.3106457442435417,
          0.01904788852500288,
          0.11355784771925165,
          0.43117420103271537,
          0.044936028335948286,
          0.27038198750737197,
          -0.2661926790325751,
          0.16941652392381612,
          -0.06113048100571826,
          0.04269206293255115,
          0.057111018188178674,
          0.4300092793255175,
          -0.32707322808007616,
          0.4290286199703201
        ],
        "bias": 0.051194307785877295
      },
      {
        "weights": [
          -0.038976759543788486,
          -0.23702636643001265,
          -0.2734321780980105,
          -0.043597565748278576,
          -0.07179901585499018,
          0.1928910451702695,
          -0.374288103154829,
          -0.7330980744323935,
          -0.1480017307887346,
          0.10367129352193036,
          -0.12052730913332417,
          0.42382821258937686,
          -0.3425865374050353,
          -0.007846014866547063,
          -0.1401141142749759,
          -0.24340935944599768,
          -0.280857520851441,
          -0.3461728631096971
        ],
        "bias": -0.07820632185162874
      },
      {
        "weights": [
          -0.13278244219261226,
          0.03994185338696517,
          -0.32727632424159087,
          0.12113330837286519,
          -0.35370115777744987,
          0.6371808954480105,
          0.30505034731596986,
          0.45854020992566874,
          -0.05144784755382756,
          0.18932540248567906,
          0.18136980722115315,
          0.6782937594210711,
          0.322769345048267,
          -0.1621080960620651,
          0.13685231859770383,
          -0.21355645803674844,
          -0.04146625808036197,
          0.5303813305050507
        ],
        "bias": -0.1195720596843385
      },
      {
        "weights": [
          0.2909998534101371,
          0.04261760280462353,
          -0.1891094566412345,
          -0.7792987742478822,
          0.13519689728080117,
          0.39497150549619076,
          -0.17038596960998528,
          -0.33568727854822394,
          0.1049817244540911,
          0.5236433383934309,
          -0.45849729348778523,
          0.5191475146956226,
          -0.2681621403842041,
          -0.5198064991046591,
          0.005625580706819898,
          -0.4909358386559271,
          0.34870578629359616,
          -0.18718964665676024
        ],
        "bias": -0.15359248854472798
      },
      {
        "weights": [
          0.08885638125354339,
          0.006691904124466841,
          -0.17299563103216467,
          -0.15839383858215283,
          -0.06697616675214836,
          0.04184068167730183,
          -0.07516174903273168,
          -0.1112439728148016,
          0.03486644637283461,
          0.07181591700026412,
          -0.15551575247898936,
          0.38448015445795103,
          0.3652883486251826,
          0.16753962430795305,
          0.34265981334485573,
          -0.1320869140671411,
          0.43095534172396893,
          0.6542034590052426
        ],
        "bias": 0.3223937726770002
      },
      {
        "weights": [
          0.437376373742681,
          0.049960391340684085,
          0.026153088544695276,
          -0.0864594472588332,
          -0.4010748107075929,
          -0.1304930033907622,
          -0.21621720442351808,
          -0.06527919576131189,
          0.08294599966956506,
          -0.007988890477636006,
          -0.016177050399868293,
          0.4301734177647785,
          0.7771447326742493,
          0.2918702516756056,
          0.10515048634954069,
          -0.11050253522071107,
          -0.12226120865979757,
          -0.19888294497554457
        ],
        "bias": 0.3710056155597743
      },
      {
        "weights": [
          -0.08971104907156412,
          -0.1664688848120136,
          -0.2749359692810602,
          0.12077586137163364,
          -0.3418448427078049,
          0.07026715474268354,
          0.016849309043724822,
          -0.1533545198755258,
          0.23106645500669246,
          0.6154138916488433,
          -0.10740040071173294,
          -0.022504386672334026,
          -0.31263619572120177,
          0.04747147729445457,
          -0.007045460008953494,
          0.23724360778309456,
          -0.06327217386182662,
          0.07783739923776996
        ],
        "bias": 0.21878441014673294
      },
      {
        "weights": [
          -0.02452567526397693,
          0.03701466167726911,
          -0.08626170760998098,
          -0.07412339911110345,
          -0.2999659752099874,
          -0.158151186443966,
          -0.2512146963771453,
          0.2305901718644121,
          -0.02305045314327802,
          0.1268769088151662,
          0.04231590346201123,
          0.32664367193004396,
          0.18570850794333313,
          0.2779134863930578,
          0.008740949843583458,
          -0.1128900608568778,
          -0.08162616311864017,
          -0.08573566200903136
        ],
        "bias": -0.3769453859591815
      },
      {
        "weights": [
          -0.07622219274489202,
          -0.23588324011285222,
          -0.30362591525941185,
          0.2620716721249923,
          0.23053684995219878,
          0.03930958755576811,
          0.3327300008104822,
          0.10071335982039605,
          -0.020656032387805123,
          -0.025751873702108047,
          -0.11448348732085012,
          -0.1992155018036765,
          0.16506643482754627,
          0.32084449508449375,
          0.11600942178721099,
          0.32419287609591524,
          -0.005260549647723147,
          0.11312065126579875
        ],
        "bias": -0.018936093667268474
      },
      {
        "weights": [
          -0.04894062010668159,
          0.3989808173226372,
          -0.14732541135069493,
          -0.05488645997086331,
          0.3554901777046854,
          -0.20834658335331066,
          -0.3049745548657245,
          0.041212053324247815,
          -0.09839645712456477,
          -0.021265021236639495,
          0.11140133393688276,
          0.20819645760038386,
          -0.3350389444848363,
          0.11901808417149298,
          -0.23131295884792083,
          0.39367933450078124,
          0.22877217796152366,
          -0.01811132385913342
        ],
        "bias": 0.45415205958620775
      },
      {
        "weights": [
          0.02759819134863679,
          -0.2609419456311029,
          -0.1443915320545479,
          0.17978140590845987,
          0.041504802368413383,
          0.12534314434504323,
          -0.2581037111176163,
          0.02472938161737314,
          0.29071774898847935,
          -0.4839882266584766,
          -0.022721984792834753,
          -0.24212936091660306,
          -0.22429883197506226,
          0.2441271420789953,
          0.32163386833463375,
          -0.08464713873549472,
          -0.11923124920843499,
          -0.5023925413629414
        ],
        "bias": -0.3066764469556115
      },
      {
        "weights": [
          -0.02091645723194495,
          -0.11194731082996177,
          0.01023662039159262,
          -0.012351358689351524,
          0.037276099595782534,
          0.17951958343084443,
          0.25550892873673653,
          0.07254708752798171,
          0.12978858330890433,
          -0.22833969725765924,
          0.27021143846666057,
          0.1367935493815763,
          0.3820310585730255,
          0.2850373824709268,
          0.182196452064289,
          0.16396923701240912,
          0.2728826930899854,
          -0.07321793489110762
        ],
        "bias": -0.05880811354666944
      },
      {
        "weights": [
          0.07553169044141875,
          -0.018123244914950612,
          0.4231959913938308,
          0.2584679423267553,
          -0.09113926698364659,
          0.20661959573306626,
          0.01314269212233355,
          -0.0022153079826861266,
          0.46614395692817095,
          0.16236378904140902,
          -0.22445780183054415,
          -0.6465075884380653,
          0.13329127350776043,
          0.3018582992712528,
          0.37278590473037515,
          -0.12240831338037846,
          0.13026194330805643,
          0.07876423861755685
        ],
        "bias": -0.056351888078395265
      },
      {
        "weights": [
          0.13097127571356196,
          -0.6697647022615439,
          -0.0950402595524885,
          -0.5599321798711095,
          0.22085896007458275,
          0.15173144520998041,
          -0.11373698055626537,
          0.20718670173656373,
          0.12675539108220613,
          -0.015032523212770354,
          -0.09132110616105514,
          -0.3661516101426791,
          0.22015769318179657,
          -0.4367111984796538,
          0.10880335391218691,
          0.22086199755715205,
          -0.20344855421212013,
          -0.0362801885625442
        ],
        "bias": 0.11735153440666996
      },
      {
        "weights": [
          0.10251019975520007,
          -0.27133072141713066,
          0.14873776027710853,
          0.03258968732811079,
          0.08397264715996218,
          -0.03636308115737659,
          -0.5967024890311681,
          0.17296397549499654,
          0.312694795354176,
          0.20060032339295153,
          -0.7306724094098954,
          -0.3357362246230416,
          -0.2726428149531114,
          -0.025348561187610173,
          -0.19433157642288115,
          -0.015289485648825712,
          -0.6062855373702442,
          0.1289710978222
        ],
        "bias": -0.2101765562552805
      },
      {
        "weights": [
          0.008699468813604016,
          -0.17383796828323075,
          0.273249721439542,
          0.6877419185811936,
          0.02399028925292305,
          0.001419039633907432,
          0.7140932296344352,
          0.05679070961707009,
          0.3375184323857354,
          -0.06562421377489437,
          0.18130921136340714,
          -0.14590931809318997,
          0.0033317126297004998,
          0.24938049427945364,
          0.005718755184763142,
          -0.12207417447658292,
          -0.10433289930937095,
          0.29681898369013393
        ],
        "bias": 0.284104905527217
      },
      {
        "weights": [
          0.31214301316407417,
          0.04468463525811749,
          -0.16957342456196786,
          -0.37845199582009564,
          0.0889277179906257,
          -0.12816243649376255,
          -0.10609878708681274,
          -0.15649888110292598,
          -0.5052864707646456,
          -0.5903591519288575,
          -0.15162682220990809,
          -0.07828107974337814,
          -0.06266404668944693,
          -0.2872086884269742,
          0.04434087257419788,
          -0.623300168888452,
          -0.37613630608130744,
          -0.1504276751615312
        ],
        "bias": 0.362022282583143
      },
      {
        "weights": [
          -0.25106519931762616,
          0.21987648439814877,
          0.4385028329644293,
          0.2212249138117927,
          -0.15583631737780773,
          0.217309437473974,
          0.17121362788827835,
          -0.13490571270470522,
          -0.2911973536073649,
          -0.09268397127308674,
          0.36375599173409817,
          -0.08734932362190126,
          0.15812387002701678,
          0.10867060784840782,
          -0.12020410906149778,
          -0.12777435715611934,
          -0.19094896124053845,
          -0.3124403055876651
        ],
        "bias": 0.03230328661738644
      },
      {
        "weights": [
          0.29570410059694313,
          0.3692561395722807,
          0.08115340732310368,
          -0.23500877878401016,
          0.18270253098667275,
          -0.13187826906297984,
          -0.17926181710011901,
          0.05287165860027765,
          -0.07143821418057669,
          -0.25172144609797503,
          -0.3010288675641462,
          0.07813990362057834,
          -0.046415046613242625,
          -0.12873137268159782,
          0.29764558008033837,
          -0.18035840484980437,
          -0.16047923555982446,
          -0.35592930352720614
        ],
        "bias": 0.037359956281450654
      },
      {
        "weights": [
          0.04200022580168369,
          0.0745626020472594,
          -0.18498421167958343,
          -0.030863139711264635,
          0.09854038071922894,
          -0.2994289767822668,
          -0.30919269840730734,
          -0.37553702142835893,
          0.12869773623945002,
          0.2545905589878801,
          0.03870165784857082,
          0.09117160032384383,
          -0.17391652849170997,
          -0.11766515209965316,
          -0.055594409099230455,
          0.1359841515543438,
          -0.10838213875022105,
          0.1427227509624672
        ],
        "bias": 0.08132477863391242
      },
      {
        "weights": [
          0.07377037978392055,
          0.08400051394264463,
          0.23467887663778964,
          -0.0784478022924942,
          -0.1877267506538829,
          -0.22108370735111207,
          -0.31652931820170704,
          0.43069364769461477,
          -0.6550552226881082,
          0.20569826413904116,
          -0.10880818689445589,
          0.3222313035156225,
          0.3150149836408265,
          0.3156271749763929,
          -0.16052042679548464,
          0.15639681720377663,
          -0.38501786485441664,
          -0.013935770153686649
        ],
        "bias": 0.24213749851534153
      },
      {
        "weights": [
          0.053121087161991966,
          -0.05173881509750048,
          0.05201820273369666,
          0.014317206518473893,
          -0.27447482274017176,
          0.051882804923499636,
          -0.48480523896050426,
          0.14357894679741312,
          0.403395851262843,
          -0.23313374075102636,
          0.029552825435815215,
          0.11869402723765818,
          -0.028114095105943145,
          -0.2560184068119211,
          0.05861269873202049,
          -0.3224154037615242,
          0.11291892250710024,
          0.010377345250468321
        ],
        "bias": -0.13751419079372051
      },
      {
        "weights": [
          0.36660748468238163,
          -0.19621433517793502,
          -0.1031134668716523,
          0.5921224140462819,
          0.1811273753853137,
          0.06622497166834784,
          0.1487166670948576,
          0.004389796655923109,
          -0.0332632416107027,
          0.18553809985690198,
          0.18502417732013954,
          0.24549493054279878,
          0.044868133597932215,
          0.16745989592889104,
          0.5882944668658165,
          -0.12307083200833265,
          -0.006138518123595067,
          0.544190116622636
        ],
        "bias": -0.36285119202290733
      },
      {
        "weights": [
          0.2549493400167159,
          0.129159008313044,
          -0.016182540130334547,
          0.4578981337375272,
          -0.04441586766067867,
          -0.30002582878540845,
          0.2046947802825115,
          0.1596750852814203,
          0.04484065622323507,
          -0.1757199533162589,
          -0.0023056340034075394,
          0.4723018596267125,
          -0.24938008798855552,
          -0.273437056112883,
          0.0442367127345944,
          -0.17929959131797282,
          0.055893929250085225,
          0.4277693612090917
        ],
        "bias": -0.25308150469338964
      },
      {
        "weights": [
          0.034941112621433824,
          -0.06828256301231365,
          0.08930335839311579,
          0.10114483843045025,
          -0.35231407846122736,
          0.12157272662799931,
          0.4089359999284969,
          -0.3650386431040372,
          -0.08227091919932168,
          0.2944182442090503,
          -0.09343201179332677,
          0.2616966144383778,
          0.30541119884971546,
          -0.1504488967707105,
          0.14504656529137547,
          -0.3733097362183316,
          -0.05244917235692369,
          -0.42082655746932596
        ],
        "bias": -0.12057326807607845
      },
      {
        "weights": [
          -0.6530201518663318,
          -0.3717208043924271,
          0.27724611194188786,
          0.3984821764818464,
          0.45778384836624575,
          0.4107392372360437,
          0.2987616549237805,
          0.17782662325960863,
          0.009598124632501313,
          -0.5253189503647996,
          0.0278989202182823,
          0.07382254271000753,
          0.4207413779480199,
          0.17976929454265062,
          0.013301871279842557,
          0.20721533658241692,
          0.312056229289448,
          -0.26739743675157074
        ],
        "bias": -0.21267638112493803
      },
      {
        "weights": [
          -0.1485678894786713,
          -0.30761859927338053,
          0.017913680927416145,
          0.18906633294390526,
          -0.2102175132345904,
          -0.027631793294855603,
          0.585843019041214,
          0.005732613303073223,
          0.25011546794137396,
          -0.12618918124652845,
          0.29768943544340987,
          0.7423681874071877,
          0.11174504969496747,
          -0.5735421201899472,
          0.1375209290458664,
          0.37396883533182557,
          0.7228518057352902,
          0.17082929523370788
        ],
        "bias": -0.3588691853972862
      },
      {
        "weights": [
          -0.7339920106106098,
          0.1827423538489849,
          -0.683781497012962,
          -0.06400698131832598,
          0.17369543864999532,
          -0.6068331528158654,
          -0.19104876718605568,
          0.4265134110757809,
          0.21143212022684843,
          0.5111547114438051,
          -0.2455126668771281,
          -0.0865330265008703,
          -0.059141222832603244,
          0.03124329346876788,
          0.191891075342924,
          -0.12045662138685206,
          -0.14346210182170493,
          0.017676557419057715
        ],
        "bias": -0.07784483232139859
      },
      {
        "weights": [
          -0.18998757356171161,
          -0.10962969408747884,
          0.013702730005883798,
          -0.2720103842920257,
          -0.11075346091996655,
          -0.12573378563952284,
          -0.3457984398736693,
          0.35287352477808737,
          0.2935074989462765,
          0.005140091311634494,
          -0.12574485979758912,
          0.4969843559024981,
          0.16092890843357302,
          -0.19731024998321592,
          -0.037506822183601726,
          -0.07380118193525584,
          0.21132049869978473,
          0.24189065136993443
        ],
        "bias": -0.06379857883496547
      },
      {
        "weights": [
          -0.06448686053873824,
          -0.09075374070610422,
          0.2130801521629848,
          -0.20576115664567268,
          -0.07921978925364076,
          -0.20370172424949232,
          0.10369211797863924,
          0.16415453153265297,
          -0.041159536004561216,
          0.17364344969609727,
          -0.1752305262889605,
          -0.3428486046066589,
          0.3843328114262098,
          0.6839417526098119,
          -0.2089719425278675,
          0.21875182137851154,
          -1.0904291072830583,
          0.20509855460125054
        ],
        "bias": 0.09733428270169502
      },
      {
        "weights": [
          -0.314822294676059,
          0.3366401021779625,
          0.2599365815698522,
          0.06940402851565948,
          -0.3793364394601939,
          -0.07040536982036091,
          -0.18613485999631044,
          -0.029757094105377704,
          0.19620124484963816,
          0.1967981738250267,
          0.10555567155392112,
          0.36499528855326685,
          -0.17156201531968668,
          0.321585755980182,
          -0.1706400891700705,
          0.05470226899227982,
          -0.33433017321857544,
          -0.5358868918527787
        ],
        "bias": -0.23990073429285047
      },
      {
        "weights": [
          0.05551273658710835,
          0.12444517055303762,
          -0.4051835297326484,
          0.01724479302494764,
          0.14383882515240679,
          -0.06232277986379833,
          -0.4440545369066962,
          0.20873879888010016,
          -0.07684741349884228,
          0.03479841287022314,
          -0.18443004513209246,
          0.253040699685871,
          -0.23797512922464487,
          -0.043490587759692945,
          0.03471608625168151,
          0.1255717740176932,
          0.0964724634019789,
          0.05624205708481622
        ],
        "bias": -0.1771472138816558
      },
      {
        "weights": [
          -0.1703247792245025,
          -0.21662815531250298,
          0.17178993703269807,
          -0.39849525130810254,
          -0.0987493041383579,
          -0.45255619713094886,
          0.09509520718750203,
          -0.2742660036554285,
          -0.189518434225065,
          -0.26525724215037966,
          -0.3336457949964674,
          -0.14703624128410966,
          0.08812937352913928,
          -0.10134118881563853,
          0.28579059731490836,
          0.20142014267921035,
          0.30593854436471823,
          -0.09910761047606059
        ],
        "bias": 0.1533157520018737
      },
      {
        "weights": [
          0.5244475928946042,
          0.05467059559754849,
          0.04250900671793022,
          0.3923967978696469,
          -0.1321728626698007,
          0.0288731622307877,
          -0.020993220206721674,
          0.4409511855540202,
          0.10453552874322233,
          -0.20209346499432707,
          0.3389787429974777,
          0.0035995955908905185,
          0.09046506070110975,
          -0.27121064113703874,
          0.1246177974267087,
          -0.09690248595062667,
          0.22259260339906342,
          0.07677219709023278
        ],
        "bias": -0.08954054249751803
      },
      {
        "weights": [
          -0.09585871583478939,
          -0.20024490584938096,
          0.29844038245018173,
          0.21090511503656956,
          0.44247898010976866,
          -0.22868131873659708,
          -0.04753985076082402,
          0.161026100971203,
          -0.2501223173453823,
          0.05971349864525153,
          -0.016205827839670218,
          -0.04942760560099759,
          -0.38087148180835634,
          -0.41886992001733575,
          0.322009162793417,
          -0.17094410616319225,
          0.1335891358058347,
          -0.11970267789269783
        ],
        "bias": -0.11731728251413076
      },
      {
        "weights": [
          0.2134972194390361,
          0.48017748472849353,
          -0.11401188934265241,
          0.030239246726690493,
          -0.17010134354101497,
          0.14141872774730466,
          -0.298366457012555,
          -0.13929143262304342,
          -0.08629948845072594,
          0.12645615404277893,
          0.22466197732660925,
          0.09390534126626475,
          -0.5124587940295258,
          0.12206876148473926,
          -0.12223703151960884,
          -0.20313176931073623,
          0.10596808552252276,
          0.030035251821740147
        ],
        "bias": -0.530857158992961
      },
      {
        "weights": [
          -0.10535849549692924,
          0.26082010606220635,
          0.005903539126136677,
          0.1349094193700517,
          0.2477808514277996,
          -0.34224642469440736,
          -0.16810603506020638,
          -0.04269477863683239,
          -0.19538680283943408,
          0.00815410471903506,
          -0.19254910011804838,
          -0.08112183358285889,
          0.3856723583219605,
          0.21045403728713138,
          -0.2791189007623084,
          -0.105927004380299,
          0.13054539912647464,
          -0.06384149375017267
        ],
        "bias": 0.1463377323871681
      },
      {
        "weights": [
          0.45653863785330395,
          0.08685988774667194,
          -0.01520695954766309,
          0.07001953104067841,
          -0.4827598625974472,
          0.1385527215372522,
          -0.025968241735297107,
          -0.06551793848289587,
          0.44909928839475094,
          -0.20403854249568962,
          0.058759988442716925,
          0.059690837271051886,
          -0.10130746752569922,
          -0.10754971729673297,
          0.14657992829353272,
          0.012950246636777688,
          0.08800586632657663,
          0.09516602504423222
        ],
        "bias": 0.2260286384437188
      },
      {
        "weights": [
          -0.19917777639896542,
          -0.058939056054172455,
          -0.5643303860347972,
          0.12439231474298784,
          0.6555594717394216,
          -0.15122563165040748,
          -0.1266690513521579,
          0.3875776616262819,
          0.28024798937064854,
          -0.04871982572793206,
          0.16676514524578193,
          0.006096711513409069,
          -0.07425006478527958,
          -0.135964659985033,
          0.4220235872963181,
          0.43902056391847716,
          0.42843275218113497,
          -0.6524063449217593
        ],
        "bias": -0.014525358625872837
      },
      {
        "weights": [
          -0.08272659258647277,
          0.4639121435038564,
          0.06249512202437467,
          0.32968993872847,
          0.3050834021975257,
          -0.19505865180366389,
          0.2192642853737476,
          0.009672856024171353,
          0.07447412784244724,
          0.13175284779826166,
          -0.08113483726751346,
          0.03370743780725023,
          0.21632451779340184,
          -0.07511315289873595,
          -0.014153271427292379,
          0.35397474438969695,
          0.3009878978042805,
          -0.30291972903497566
        ],
        "bias": -0.3270497194694321
      },
      {
        "weights": [
          0.16260881723143178,
          0.23627284113377836,
          0.05697448669820971,
          -0.16490823448899852,
          0.6040219293885779,
          -0.07965508365047752,
          -0.46656823112743206,
          0.3716217917543622,
          0.15461444221977838,
          -0.028448897860144713,
          0.025628036256867433,
          0.21858707003280142,
          -0.22009291505250986,
          -0.10809392533366399,
          0.15362110083922353,
          -0.42015464756999504,
          0.020201412030905527,
          0.26179567184354485
        ],
        "bias": 0.0011943798345020323
      },
      {
        "weights": [
          0.06186610646594741,
          -0.08072775339506283,
          0.02263362942533442,
          0.22720511788787517,
          0.12698629621304813,
          0.0635276784615431,
          -0.13304361465900177,
          -0.11650791489390684,
          0.14587442649616478,
          0.1342614915327862,
          0.5488815803194785,
          -0.656704213655831,
          0.20514998792839453,
          0.12957006515700978,
          -0.24981950224688046,
          -0.11379225994359653,
          -0.052817090351517736,
          0.21712989453769982
        ],
        "bias": 0.23905126507860788
      },
      {
        "weights": [
          0.15471638982058025,
          0.2041538389328999,
          0.08165773298436381,
          0.25917940837348113,
          0.05983407454204749,
          0.03459941536267,
          0.5064273339312304,
          0.13120864446080951,
          -0.14456570783091147,
          0.06825778291056507,
          -0.10622925179534809,
          -0.08860202853580773,
          -0.34578121324122724,
          -0.03792264612826596,
          0.16728792356444064,
          -0.2396246039357481,
          -0.06051413224267531,
          0.03441037504361121
        ],
        "bias": 0.06357008263446787
      },
      {
        "weights": [
          -0.2003871434945869,
          -0.10283250427215726,
          -0.20173680280492015,
          0.251657994656486,
          0.10601372834159146,
          -0.19069965132317657,
          0.00823904827151085,
          -0.3054390353099042,
          0.05840172061708141,
          -0.24511310126238703,
          -0.31585943208624273,
          0.14224670878185292,
          0.025732468057875976,
          0.014854663155368954,
          0.10424649579575711,
          0.17872845067447027,
          0.18051847161854773,
          0.028675721346393818
        ],
        "bias": 0.22409970058998782
      },
      {
        "weights": [
          -0.053330837099773064,
          0.0077674352573233576,
          0.22671531154607558,
          -0.08938752676477926,
          0.35232108893740216,
          0.241131610656963,
          0.5166094546354534,
          0.08229598624093425,
          -0.17589126568742192,
          0.04464130424597565,
          0.29898416149133183,
          -0.21199959112784406,
          0.0941478624947879,
          0.11431909212240503,
          0.3432874002891935,
          -0.14501755915249823,
          -0.34381958721182715,
          -0.5590531753984127
        ],
        "bias": 0.08754549823850469
      },
      {
        "weights": [
          -0.0236748157962681,
          -0.20422335788397442,
          -0.19430736515574334,
          0.04000104681015013,
          0.053929340415234416,
          -0.36071511183267757,
          -0.1218642541772589,
          0.1889233245037754,
          -0.4868198733378402,
          0.3037613447965004,
          0.012824412718788399,
          -0.17855474211106687,
          -0.30722661259828704,
          -0.0227462785779341,
          -0.09601888025194094,
          -0.09512906838568887,
          0.2558164588457034,
          0.391415221714705
        ],
        "bias": -0.11366947865536832
      },
      {
        "weights": [
          0.1894270989749363,
          -0.238007851088735,
          0.15879800919294199,
          0.15569671848190322,
          0.2228496288236779,
          -0.3285916419870693,
          0.026785133914610067,
          -0.10883530422612825,
          0.11893389648629198,
          -0.03596097270276614,
          -0.07847697948281947,
          0.024738348334264207,
          0.05543738825581857,
          0.054636422315126054,
          0.47455627191917615,
          0.09010325817872653,
          -0.1680573650135004,
          -0.3720294602888385
        ],
        "bias": 0.25613418266544247
      },
      {
        "weights": [
          0.1703417330792297,
          -0.08019327540047788,
          0.003487325853995899,
          -0.09795736573614794,
          0.11690369961046072,
          0.4207745542560527,
          -0.3748676526746291,
          0.028235727423333093,
          0.3036882124260142,
          -0.018202595927991044,
          -0.18099664305459845,
          -0.19820516318476272,
          0.5640584663828992,
          -0.014638964670046897,
          0.06510088023332004,
          -0.0790867816762403,
          0.19474630886970368,
          0.28093251599429353
        ],
        "bias": 0.29658667839704056
      },
      {
        "weights": [
          0.03632010414111671,
          -0.01586924942055241,
          0.032811082581573586,
          -0.1334760501035482,
          -0.9536013050592815,
          -0.11752330302141818,
          -0.393362974688676,
          -0.6631545288596116,
          0.5080376582465292,
          -0.06319523729503414,
          0.006147768253477982,
          -0.4550848946554589,
          -0.0966495395303744,
          -0.13769611166288206,
          -0.5782940605649916,
          0.16118910639125933,
          0.40428113384292497,
          -0.105198412904437
        ],
        "bias": -0.005867197076291123
      },
      {
        "weights": [
          -0.16017055776165073,
          -0.07099618350250224,
          -0.10005664036270903,
          0.14073613315493827,
          -0.3004198677269313,
          -0.12141707560070168,
          -0.012665162218545736,
          -0.3621651387368731,
          0.3295979010426205,
          -0.05585890663707615,
          0.14637342029065903,
          0.062253413162422444,
          -0.06927308586232031,
          0.3360260749261088,
          0.19487498606313525,
          0.13869054980176995,
          0.5675983242502111,
          0.13504954768203506
        ],
        "bias": 0.3078534243893037
      },
      {
        "weights": [
          0.10982840855820192,
          0.3157319325043745,
          0.030342005665785925,
          -0.1966545861567959,
          0.0121969074649179,
          0.18511671871169114,
          -0.19807106600428456,
          -0.6259720970732897,
          -0.14442366721295036,
          0.35610855849807826,
          -0.3220826374799173,
          0.19025765696780375,
          0.6200058260492537,
          0.09566274995658773,
          -0.06028236135897773,
          -0.2269844037057662,
          0.3181482637389846,
          -0.24940387985859555
        ],
        "bias": 0.04742262123039143
      },
      {
        "weights": [
          0.04748154555564728,
          0.2911821147391084,
          0.20179255593748693,
          0.3447554304214811,
          -0.6173618776058667,
          0.29585598575128313,
          0.12067455413585113,
          -0.34295094297142364,
          0.19714075002575104,
          0.18180674456521517,
          -0.39841078755861964,
          -0.18760449253260164,
          -0.41958533910432055,
          0.03486499831731466,
          -0.013506301082168654,
          0.12623756268125771,
          -0.24248800092477935,
          -0.3804460190795124
        ],
        "bias": 0.18521330929089727
      },
      {
        "weights": [
          -0.2924847716137131,
          -0.2953553243518926,
          0.006635533448869307,
          0.09447347717402667,
          0.09661420946672769,
          -0.4298264994820974,
          -0.27389954188080323,
          -0.28399976043224434,
          -0.15014005351507614,
          0.18808799193768364,
          -0.06547521691608521,
          -0.23876992591669757,
          -0.14037703180754094,
          0.0047254991081621565,
          -0.2670467884121743,
          -0.09722833621967703,
          -0.29261064528064545,
          -0.19595202043439278
        ],
        "bias": 0.1145372792419334
      }
    ]
  },
  {
    "name": "H1",
    "activation": "ELU",
    "neurons": [
      {
        "weights": [
          0.1151408810452871,
          0.030531615504029504,
          -0.10967661282410986,
          -0.011569129030432768,
          0.03324929271969,
          0.14357545950409495,
          0.09795441635379949,
          0.06028000932068044,
          -0.05564867575858901,
          0.12719283899562378,
          -0.10394367993327762,
          0.05599319321384143,
          0.07103135030171728,
          0.08209904739493235,
          0.15854132188051281,
          -0.16586656736640357,
          0.08957914945094389,
          0.03806904380195028,
          0.046053260616079464,
          0.18646536187679547,
          0.20367791842204522,
          -0.017417936546381557,
          -0.058712432837489635,
          0.042124743394359045,
          0.006632756458511984,
          -0.024376099969162724,
          -0.029550320165530993,
          -0.10821147038697954,
          -0.16145361456300492,
          -0.16528705843873023,
          0.02192476770237367,
          -0.07968693787509537,
          -0.024413668742339363,
          0.04945750289681182,
          -0.08627746133231465,
          0.019646987697679974,
          0.017184221181509363,
          0.025293157364573722,
          0.06513605284530397,
          -0.0669120661820727,
          -0.02726850365254101,
          -0.019155840417272838,
          -0.019630744940458144,
          0.0799579110364557,
          -0.12193935400349779,
          -0.09849939878612339,
          0.02842050089972569,
          -0.10780758521329573,
          0.137931625901904,
          0.02665128760343531,
          -0.08884868155598487,
          0.04052542347841569,
          0.15887088737042512,
          0.0014953474966118497,
          -0.12807035569545766,
          0.01698970825903143,
          0.027769919833181243,
          -0.07398273718989949,
          0.008214735247967236,
          -0.03396154859358099,
          0.16861982466828737,
          -0.010783068826976291,
          -0.25101952374305375,
          -0.14757940821437404,
          -0.14097275732993567,
          -0.07608686584332006,
          0.10405329816748361,
          0.06824660837007672,
          -0.13480931841896457,
          -0.06456875629383155,
          -0.05941409492888041,
          -0.07233066611468147,
          0.06843602569422963,
          0.013801074711751798,
          -0.051073510417980174,
          -0.09508891381038118,
          -0.05487463447303051,
          -0.02802953295890879,
          0.22833115936215326,
          0.07560260307752997,
          -0.12620808650642948,
          -0.14172949086284128,
          0.07946906944467354,
          0.10525976141408663,
          0.2845427470412144,
          0.0972975440089116,
          0.16752208186037426,
          -7.083832908894369E-4,
          -0.12307197252521616,
          -0.13161895226221054,
          0.10829514992047386,
          -0.09864519982452882,
          -0.20230532003504811,
          -0.0827383057490943,
          -0.1027838166428603,
          0.044456331369653435,
          -0.026466277682869115,
          0.026862666936635547,
          0.002304790503241959,
          9.77116764050922E-4,
          -0.018717061431284043,
          -0.03210026577770715,
          0.18189015687833343,
          0.0725253768137986,
          -0.15665167315229672,
          -0.12454787522040799,
          0.049925740450269124,
          -0.11521533150945944,
          0.058832528600419855,
          -0.04589188745516559,
          -0.06802865816747573,
          -0.16757111514186612,
          0.04389320678512622,
          0.009035368100850117,
          0.26847583946165293,
          -0.0262088881199096,
          -0.16012426370247101,
          -0.11508388738588762,
          -0.11831151206532656,
          0.17121052186905053,
          -4.633390661106806E-4,
          -0.017491656677554618,
          0.02585861406588283,
          -0.10946298821282328,
          0.19329931438755119,
          -0.13855695093187556,
          -0.011454999685148619,
          0.03165333087842443
        ],
        "bias": 0.1949318225249922
      },
      {
        "weights": [
          -0.014253899464800353,
          0.050184146662715506,
          -0.01192572435884229,
          0.019917661112028036,
          0.0045346918354531454,
          -0.06372551971872445,
          -0.08155075289536866,
          -0.07259194785810515,
          0.09038749951401041,
          -0.011069048805420482,
          -0.06829797886835084,
          -0.09001543840041343,
          0.04049847390664731,
          0.022378465141361353,
          0.029513743123744142,
          0.06866592641012616,
          -0.02136787917963685,
          0.024891609438905758,
          -0.20243019693171668,
          -0.09618458533593781,
          0.0030666076005067665,
          -0.11516071636500692,
          -0.17078529988156427,
          0.3112978043960541,
          -0.08792525730263984,
          -0.08452418507860364,
          0.04793703853293562,
          -0.14253991275120903,
          0.0309777673726255,
          0.030194260582795385,
          -0.0947025895839306,
          5.293556739578098E-4,
          -0.03315251384404216,
          0.006815080072346145,
          -0.17701908548765696,
          0.1659104894655046,
          0.027396762315930353,
          0.15961952092192946,
          -0.059052936011503486,
          0.018568427431825886,
          0.15287626516000458,
          0.15812403072556583,
          0.1212846078512507,
          0.1185026182053772,
          0.026214616522177707,
          -0.0028100673037002384,
          0.17341985935882623,
          0.024780283420963105,
          -0.1124279993669764,
          -0.06612375212352709,
          0.07720301855644067,
          0.06247254237412341,
          -0.04328994007494387,
          0.014008411221994903,
          -0.0866096181766355,
          -0.04192887230214829,
          0.0692955741594591,
          0.04528138565626787,
          0.035339586149166165,
          -0.003196735525899176,
          -0.1950756419465965,
          0.07860190702577036,
          -0.047419535597979644,
          -0.14802718725114525,
          -0.07508923947179649,
          -0.19153600662640632,
          -0.07494365567553339,
          0.01919172141485785,
          0.04786707429948541,
          -0.05150608347519388,
          -0.12062882237335919,
          -0.043733827305836005,
          0.05237870562339519,
          -0.013169324780802334,
          0.001997561511873787,
          0.10086518281643092,
          0.1007881325586639,
          0.04746487134608287,
          0.022685183139029633,
          0.13120781524264508,
          -0.10768367164604778,
          0.16974063914281803,
          0.13421992334146735,
          0.09939654750133971,
          0.011108664757517211,
          -0.035579384718350385,
          0.05123816537569502,
          -0.045658305503041056,
          -0.004441792882737774,
          0.02583084471200185,
          -0.06913733930653687,
          -0.15205048135313257,
          0.05351575047199404,
          0.08133218723609616,
          0.05856164113652899,
          -0.1734186290301358,
          0.01983858289585679,
          0.040491737142458864,
          0.08303939521633626,
          0.016671961444646173,
          0.043516979631497414,
          0.038043640454171156,
          0.10123562770487096,
          0.07560800197838956,
          0.08405977094392154,
          -0.03740134644971145,
          -0.044978235270418394,
          -0.07059098033375148,
          0.0611362629649461,
          -0.03701566249685275,
          -0.0746050071860365,
          -0.046554024855144926,
          0.06805845601549154,
          -0.11716807324004197,
          -0.05269250180365831,
          -0.07031885460098605,
          0.16818429223789855,
          0.10275306920126379,
          0.12504490245557426,
          0.0913449787948235,
          -0.10337523782370583,
          -0.0913944462916872,
          0.18970369057606945,
          -0.06810985253128275,
          -0.03016372584619081,
          0.11790636844436292,
          -0.16031012381498158,
          -0.02306940543863126
        ],
        "bias": -0.09400553547747428
      },
      {
        "weights": [
          -0.10047168699868432,
          0.04531149228866259,
          -0.08186419391823527,
          0.1199393455190601,
          0.12518604231469704,
          -0.1593391252189766,
          -0.03647998452827392,
          0.166301117723784,
          -0.15633620764909356,
          -0.1626180051422178,
          -0.17826456223920253,
          0.19411135710030789,
          -0.10814802476031728,
          0.06655254858819078,
          0.003827250870877109,
          -0.17516591443274013,
          -0.024179997759495038,
          -0.009433180744336547,
          0.09970434101265252,
          0.0528134410910709,
          -0.25328385135303233,
          -0.30920389173739177,
          -0.10138355249187055,
          -0.0528559723164014,
          -0.06616498519769129,
          -0.0915801547527473,
          -0.04963501972443603,
          0.011331340937200826,
          -0.060840758071217256,
          0.007876105949921533,
          -0.040022239200623366,
          -0.08250840610655578,
          -0.07730030973473172,
          0.09119917090833674,
          0.3321814090599013,
          -0.17840732327178466,
          -0.10510541474199318,
          0.14375191644825436,
          0.028977809472459242,
          -0.04104090066000658,
          0.09691762060218014,
          -0.033368131065059904,
          -0.26358540499901184,
          -0.09252667597723588,
          0.06315183483415396,
          2.723916234136132E-4,
          -0.0881393431835084,
          -0.21450385818840967,
          -0.028224576290480054,
          -0.01899765405464275,
          -0.08217001051405944,
          -0.03471674359132172,
          0.0409613512829565,
          0.018851860645509273,
          0.07277131970955818,
          -0.03888887520312926,
          -0.07316017386110006,
          0.06072132230286369,
          0.00989547344687003,
          -0.12966325802801182,
          -0.020849080928531653,
          -0.010018221585206696,
          -0.07744206169892671,
          -0.055034546709534275,
          -0.017357354474995222,
          0.1556605619526576,
          -0.02706810813597792,
          0.05806854917115549,
          0.1123802330004508,
          -0.13238325581652008,
          -0.10144805113177895,
          -0.05563171582484852,
          -0.1429209545283185,
          -0.19216746636619594,
          -0.15608386503846544,
          0.1167961688360519,
          -0.0468926073802147,
          -0.1343948538961345,
          0.09177179749776815,
          0.0656971719456282,
          0.04014279914242993,
          -0.0932249890273948,
          -0.18565661243194373,
          -0.11899704123085397,
          -0.0613943415703473,
          0.08271855638124348,
          -0.2663344069696134,
          -0.23097041907503013,
          -0.1562633197906876,
          0.15603101217816823,
          -0.22268988017645064,
          -0.006718815253299268,
          -0.06579060696858735,
          0.1609828584290671,
          -0.07968122433097309,
          -0.2573780742574518,
          -0.08179521789090945,
          0.04555521842753013,
          -0.12186123158079325,
          -0.15631772697045088,
          -0.3241122312956235,
          -0.2542468034742978,
          -0.010413672777341773,
          -0.2605349564436703,
          -0.03152968596679238,
          0.0876369544853771,
          0.2697463712265929,
          0.09309420578402887,
          -0.044791029644777165,
          0.08183683516402798,
          -0.060867390804104936,
          -0.05659335143454059,
          -0.13417783240669628,
          -0.12668661813793503,
          -0.004391683401527878,
          -0.030371758453334084,
          0.06987466017155469,
          0.03354111492163615,
          -0.1303010382865799,
          0.027203633879116118,
          0.11436613864311813,
          0.06821766890464236,
          0.02226730729351194,
          0.13597010411324273,
          -0.12689643875212586,
          0.012577867588326266,
          -0.10791743868777168,
          0.013939451325167738
        ],
        "bias": 0.4127385799233808
      },
      {
        "weights": [
          -0.06244799203433609,
          -0.19807534783490605,
          0.1926280938638838,
          0.057573167599752784,
          0.11956198243878272,
          -0.10817118916754197,
          0.03893366067254114,
          -0.045379053694304346,
          -0.32599959500326237,
          -0.020332742155037224,
          0.027635620452814678,
          0.10779856073124504,
          -0.10807733082912066,
          -0.13417009148571232,
          0.09067717597482693,
          -0.008740770536860449,
          -0.21744320899640762,
          -0.023412999155239176,
          -0.06958514730330001,
          0.010707865706515867,
          -0.1822500684104604,
          -0.07512322088266518,
          0.11187583835180208,
          -0.1384863822990679,
          0.055429641463138966,
          6.499748267284391E-4,
          -0.14231905749194632,
          0.02009071538534949,
          -0.007601363226393204,
          0.23642308545764912,
          0.054274079365432146,
          -0.07885973640257395,
          -0.2810958585642878,
          0.03777977553716221,
          0.10135268775371555,
          -0.09837030486914668,
          -0.18356478397348017,
          -0.25177755892230425,
          -0.07447047610694862,
          -0.06691851637585164,
          0.24657281969482941,
          -0.21664634536721972,
          -0.04736258512504909,
          -0.05275484609226957,
          0.07864424004534534,
          0.009310043008401393,
          0.030768452582743813,
          -0.0793261595565985,
          0.0799893103074615,
          0.3032732789427081,
          -0.05593296083047852,
          -0.06820088173070066,
          -0.09838694531742191,
          -0.1497602075107894,
          0.030765829206840796,
          -0.0759936456923562,
          -0.14802543396208964,
          0.04466623221417672,
          -0.06006149686387798,
          -0.024852413384250698,
          -0.035163547805845526,
          -0.07853759490851356,
          -0.018786280651921027,
          -0.24326056494951642,
          -0.06186446766141909,
          0.14286087308146816,
          -6.482709918499453E-4,
          -0.17744877435949422,
          0.09184257265791669,
          0.06510590392282445,
          -0.23331966595784226,
          -0.06777071051018888,
          -0.12581587567777122,
          -0.07261386554797875,
          -0.019169644696852485,
          -0.05166283396752802,
          0.2787805595951572,
          -0.1913376616627983,
          -0.14563330355278342,
          -0.018191555331810546,
          -0.09489687936688268,
          0.054416697436722145,
          -0.24002660522407737,
          -0.32431153945651914,
          -0.06106158549101346,
          0.03528378482646372,
          -0.002724341787608382,
          -0.09301504862468975,
          -0.08889976667925133,
          0.06696965532259506,
          -0.09231346135988652,
          0.3691232226281649,
          -0.04280598458992138,
          -0.11273133520638598,
          -0.11705885692674936,
          -0.13204687524676154,
          0.028879616989450622,
          -0.02552115930093612,
          -0.15944457165242776,
          0.0011245905167066032,
          -0.11491053878931513,
          -0.019265438772856785,
          0.12093001900993036,
          0.03405448360694002,
          0.016301670565212718,
          -0.08672955905449063,
          0.06879113877447067,
          -0.07593666857935916,
          -0.06560753275268409,
          0.08046793816964151,
          0.04315743653222741,
          -0.053113512573734555,
          0.020525545626865923,
          0.019135285502388362,
          -0.11869304870513553,
          -0.038959205311606286,
          -0.02740635079999598,
          0.025261389785084482,
          -0.0686821574008809,
          -0.13435350309091598,
          0.01645394958101904,
          -0.08600236735321837,
          -0.19227059413791944,
          -0.05789842344069795,
          -0.1027836097262447,
          0.06816104840113002,
          -0.11266659677767628,
          0.23910923530934114
        ],
        "bias": -0.40593808085340644
      },
      {
        "weights": [
          -0.06068860880191749,
          -0.239413325427562,
          0.35027405668880846,
          0.12885196635120433,
          0.07541071153350483,
          -0.15690015470708693,
          0.1570913816953266,
          0.22611999278876593,
          -0.04252860865142621,
          -0.0274989789910364,
          -0.07819892277336084,
          -0.04799555973002194,
          -0.16242944553711292,
          -0.21427393327439026,
          -0.08461287084920922,
          -0.33518280654967836,
