[
  {
    "name": "INP",
    "activation": "LEAKY_RELU",
    "neurons": [
      {
        "weights": [
          -0.13215105026699453,
          -0.11609362095588546,
          0.058642438134275915,
          0.018243189311736498,
          -0.2139736144297028,
          0.026147199751356782,
          -0.03557780095912346,
          -0.08580568367984533,
          -0.17548949748347686,
          0.09606248416828635
        ],
        "bias": -0.3750811349183133
      },
      {
        "weights": [
          -0.11301922855228663,
          0.3038497392208952,
          0.13710051527422443,
          -0.0902390328475084,
          -0.03855468094236743,
          -0.0749769912627581,
          -0.03540390384609012,
          -0.06312130850039274,
          0.03238688769974882,
          -0.0783101057330426
        ],
        "bias": -1.2748274205479335
      },
      {
        "weights": [
          -0.01625306627621598,
          -0.0015781076455754328,
          -0.23170771563553355,
          0.1030816221975362,
          0.20553896991159226,
          0.0074772166912766376,
          0.29926994243688615,
          -0.29482930754634745,
          -0.06143971402868979,
          -0.09390610753768938
        ],
        "bias": 0.656078315015128
      },
      {
        "weights": [
          0.0827568865488069,
          -0.19870899246923943,
          0.005353282357048493,
          0.04376061987858585,
          0.3204080056354776,
          0.11671359703135636,
          -0.10062439761130836,
          -0.042169108705947346,
          -0.1374766840329808,
          0.07719237882665674
        ],
        "bias": 0.40631346139676877
      },
      {
        "weights": [
          -0.06903142616694166,
          0.12655041177715068,
          -0.16429295373345215,
          0.027539336029919106,
          0.056895776246573326,
          0.192542092154616,
          -0.0971110749084182,
          0.09725966392023948,
          0.0342550218395903,
          -0.042680744650515606
        ],
        "bias": -0.20262624363560072
      },
      {
        "weights": [
          -0.036481027290065464,
          0.03346239051261151,
          0.04112780722065049,
          -0.12754323141969912,
          0.2954052934856126,
          0.1609786372711674,
          -0.20920692922737497,
          0.09623713135580148,
          0.16836008363657934,
          -0.2758459234325925
        ],
        "bias": 0.09643327274663914
      },
      {
        "weights": [
          -0.02403003217056795,
          0.05688013882554515,
          0.25894919599559446,
          -0.022152083056197796,
          0.12059234483998871,
          0.0648722353770069,
          -0.06819627793358642,
          3.525302559692678E-4,
          -0.06481474815761426,
          0.07255341367150445
        ],
        "bias": 1.0027092118959617
      },
      {
        "weights": [
          0.01079000713494522,
          0.03133259457228354,
          -0.10068315128941749,
          0.02587136477155531,
          0.13095491487745656,
          0.06722146237061415,
          -0.049478839586257456,
          0.07200988674646658,
          -0.017659073629131897,
          0.10608640256104054
        ],
        "bias": -0.8886894387934674
      },
      {
        "weights": [
          -0.06894844695268056,
          0.0031648895518389523,
          0.006076403511909904,
          -0.0355081480272086,
          0.09830316594048517,
          -0.15601170730219166,
          -0.05607428360603982,
          0.05018917777291105,
          0.2455867173197673,
          0.0781502903157604
        ],
        "bias": 0.908538866860995
      },
      {
        "weights": [
          -0.21417945503113459,
          -0.18412238715812024,
          0.017672128773549702,
          -0.044078388266202556,
          0.09159988327782265,
          0.3282431810261701,
          0.10337594274122877,
          0.23852628554822652,
          0.1683697130768769,
          -0.01826803726225696
        ],
        "bias": 0.9316987422772148
      },
      {
        "weights": [
          -0.2274630968579927,
          -0.03800589515464965,
          0.03246514549350025,
          -0.11801354802939022,
          -0.06484286831615421,
          0.08560640438375956,
          0.3261142853436025,
          0.1315288758124128,
          0.1651160896848222,
          -0.00454154143706006
        ],
        "bias": 0.28238502647742997
      },
      {
        "weights": [
          -0.10146929261723281,
          0.04395394428105686,
          0.03237727070470985,
          -0.016137040167623608,
          0.1604966980169447,
          0.3650314653567644,
          -0.10087029095187246,
          0.034488162394014865,
          0.2119325226674308,
          0.09715409272189117
        ],
        "bias": 1.356855114263914
      },
      {
        "weights": [
          0.05336009810528997,
          -0.027558169241814885,
          0.11803186809352312,
          0.16782708658793627,
          -0.010650886428347111,
          -0.1991188863554449,
          -0.1600713673547425,
          -0.08508050392162553,
          0.10281571109107972,
          0.018467203835743982
        ],
        "bias": 0.9059593825374831
      },
      {
        "weights": [
          -0.07045380566987676,
          0.08008784026765503,
          0.040450686848895245,
          -0.07440681122690297,
          0.09845557990507432,
          -0.1752659382336662,
          -0.1455508331656102,
          0.08453276842155111,
          0.09401767603210083,
          0.14284945608682295
        ],
        "bias": -0.14041973512711084
      },
      {
        "weights": [
          -0.09335898026342732,
          0.2025570023366716,
          0.09283175997024362,
          -0.08989053663624157,
          0.1770619474444397,
          0.22259858637461402,
          0.03020682228344395,
          -0.0035956950498597425,
          -0.17517968924979294,
          -0.08730283104161694
        ],
        "bias": 0.22789537806313
      },
      {
        "weights": [
          0.0461659604356799,
          0.171023767752042,
          -0.030256888844792575,
          -0.017964517686426425,
          -0.09172510646346792,
          0.06202442472379713,
          0.16602434367735483,
          -0.152196386578102,
          0.12199585821221602,
          -0.3393078351181748
        ],
        "bias": -0.4624202230814549
      },
      {
        "weights": [
          0.09333359594722519,
          -0.23044570837233982,
          0.03998236614455476,
          0.2043379312970275,
          0.07250279550141564,
          -0.13124059069023492,
          0.01447533528178677,
          -0.1310472101242886,
          0.04075702214208205,
          -0.10210462766185878
        ],
        "bias": -0.6371482534904982
      },
      {
        "weights": [
          0.024433409989293508,
          -0.2073499440291541,
          -0.14399551041619074,
          0.16492277547872616,
          -0.06274711739802724,
          0.1769250702879239,
          -0.21833426753576016,
          0.050061675634617296,
          0.041581203523629026,
          0.0958161956479241
        ],
        "bias": 0.32999752739620586
      },
      {
        "weights": [
          -0.11320523409864422,
          -0.04028219784830108,
          -0.13640575355880194,
          0.004785386975427722,
          0.1573954085930719,
          0.12708559236208855,
          -0.2860090611526596,
          0.08249441646513422,
          0.014273630113952577,
          -0.03143686979526992
        ],
        "bias": -2.138658255464599
      },
      {
        "weights": [
          0.14007721303213327,
          0.038011502480975144,
          0.07090893130881734,
          0.12347707550517441,
          -0.12269854451707858,
          0.30115064046760814,
          0.0614764786985888,
          -0.0627142265609519,
          -0.11789665251261289,
          0.047582418262928305
        ],
        "bias": 0.9874009697400011
      },
      {
        "weights": [
          0.004596565888189703,
          0.11983791585963974,
          0.01590550502719434,
          -0.01205729394736126,
          -0.012749051976802685,
          -0.2379075699064627,
          0.022912755705455343,
          0.19189849158888928,
          0.12967950399257136,
          -0.17480466581555834
        ],
        "bias": -0.33809994991068215
      },
      {
        "weights": [
          -0.12085326489538545,
          -0.09242722246301549,
          0.08934094322646169,
          0.07463045708899671,
          0.08596958188919238,
          -0.017738387259726155,
          0.08320207992238451,
          -0.21786423329870017,
          -0.2831440590274208,
          0.1749367977889345
        ],
        "bias": 0.30969283947807424
      },
      {
        "weights": [
          0.19884489699667943,
          0.11364906199259635,
          -2.334703626621501E-4,
          -0.006781061313294275,
          0.14571490095716547,
          0.0775875768311057,
          0.07424960929983038,
          -0.05012513336647264,
          -0.024556124317981567,
          0.11407537935457954
        ],
        "bias": 0.48731635229040127
      },
      {
        "weights": [
          0.08047476834834448,
          0.07357882365005113,
          -0.053598315932217463,
          -0.12106874429747845,
          -0.24456256928091832,
          0.2010882033929662,
          -0.17662132319323343,
          -0.08933947993984488,
          0.20621123274202555,
          -0.04077962913789148
        ],
        "bias": 0.3949549543912245
      },
      {
        "weights": [
          -0.09719650660850716,
          -0.10974927586891677,
          -0.06608377424661141,
          0.08710142591908801,
          -0.1461759138386649,
          0.05324799594952088,
          0.14702380380340252,
          -0.24527988853531302,
          -0.08701784222225958,
          -0.26482763345988075
        ],
        "bias": -0.7786528752504907
      },
      {
        "weights": [
          -0.10714381019385455,
          -0.060412169077918326,
          0.017406864633775516,
          0.06606627602467999,
          -0.07149646449142108,
          -0.25734172404735295,
          0.0349703408319421,
          0.1948198848799282,
          -0.010644830252642143,
          -0.13039476161302527
        ],
        "bias": -0.01080839490968696
      },
      {
        "weights": [
          0.03713854813649367,
          0.14912540603222366,
          -0.016263845042962313,
          0.04449484782761412,
          -0.30224017295470795,
          0.016315136266336988,
          0.20159822729349225,
          -0.09404333188404251,
          0.21847994434849152,
          0.06710307300499327
        ],
        "bias": 0.38474993130903895
      },
      {
        "weights": [
          -0.04652299993269472,
          0.22723518633191397,
          0.051776687566442756,
          0.05710218868416746,
          -0.1320312755487691,
          0.1784220866241597,
          -0.06374776214656008,
          -0.09447856236586508,
          -0.10759211793465442,
          -0.06195656023699671
        ],
        "bias": -0.42762795391276004
      },
      {
        "weights": [
          -0.026630649303846177,
          0.13673865501490257,
          9.54904777358066E-4,
          -0.031808201237607,
          0.02509663990937607,
          0.07629430654009954,
          -0.022473221100280886,
          0.04368090804457801,
          0.16317941358207477,
          -0.07229408491256947
        ],
        "bias": -0.6061767894247929
      },
      {
        "weights": [
          -0.04288718597627572,
          0.26202158561808897,
          0.03265793527013426,
          0.09041083899788074,
          -0.15828339104873498,
          -0.03669908134028712,
          -0.04100713388597217,
          0.09369031134938201,
          -0.11753815564389199,
          -0.017636995801245812
        ],
        "bias": -0.6342311274933536
      },
      {
        "weights": [
          0.12655020129620226,
          0.1333596583116595,
          0.15586429724023312,
          -0.11704704255139008,
          0.21265281216081072,
          0.04817303396344689,
          -0.11062061413135889,
          0.07012816424265046,
          -0.09434837814513562,
          -0.0883059209991489
        ],
        "bias": -0.48712274600189964
      },
      {
        "weights": [
          0.02726388505366251,
          0.07041710682731278,
          -0.19320334885253074,
          0.05638800600807768,
          0.03439336845792691,
          -0.1416061431451,
          0.18204475887300509,
          0.11398423949653527,
          -0.14464974024206745,
          0.12064921999526454
        ],
        "bias": 1.1980612908170747
      },
      {
        "weights": [
          0.027777914867625278,
          -0.08489267706756012,
          0.07717154779431429,
          0.08476276301550793,
          0.14847562758145846,
          -0.17250291713193822,
          0.016772778168850606,
          -0.057768544935199596,
          0.19790958818077786,
          -0.30057993732811916
        ],
        "bias": -0.3053611256735694
      },
      {
        "weights": [
          -0.11237092499393132,
          0.12782521510090705,
          0.11687561477862198,
          -0.09749528405359878,
          0.07546723566940004,
          0.08082050947620059,
          0.18283176497651915,
          -0.1245475009957865,
          0.2178956273129604,
          -0.115515559144959
        ],
        "bias": -0.19222915716816166
      },
      {
        "weights": [
          -0.03417678926192765,
          -0.09450578911117488,
          0.36213167485674114,
          -0.002954413104195986,
          -0.03159867068905945,
          0.0826420074129893,
          0.2042081681667623,
          -0.012902245015028764,
          -0.050192329468612476,
          -0.2629688084345384
        ],
        "bias": 0.33327052087433673
      },
      {
        "weights": [
          0.16437429789348465,
          0.23525205316697778,
          0.03971087803982737,
          0.09758624811940454,
          -0.06240015486651682,
          -0.004315284587685039,
          -0.07905422559447114,
          0.12187960234396264,
          0.05970978523170591,
          -0.042939487633503484
        ],
        "bias": 0.08830520662630334
      },
      {
        "weights": [
          0.015316836582637596,
          0.14307477883590053,
          -0.0026822618349572774,
          0.06913874110424957,
          -0.07609118886204375,
          0.022476608158960652,
          0.12548198419108084,
          0.10307013795701607,
          -0.21087920031744722,
          -0.027883729133611906
        ],
        "bias": 0.4988306175710323
      },
      {
        "weights": [
          -0.016433389119210596,
          0.1743130397971732,
          0.0012396305646584554,
          -0.10101818399540612,
          -0.22797418718603993,
          0.08784932130066887,
          0.11255227387096843,
          0.09799759086563234,
          0.2307617984043557,
          -0.05776190755614685
        ],
        "bias": 0.8973726195702157
      },
      {
        "weights": [
          -0.00827967655952793,
          -0.046944462677979484,
          0.13379675905347546,
          0.03604199151002743,
          0.06723596506158677,
          -0.06674508495916334,
          -0.053700826465413035,
          0.28051452520632375,
          0.18271437526892223,
          -0.04223697320623194
        ],
        "bias": 0.625868264148524
      },
      {
        "weights": [
          0.11765743423326162,
          -0.01914108012890178,
          0.09401837425303866,
          -0.1341100287826368,
          -0.01614833960404585,
          -0.10012470265774767,
          -0.06482536654469404,
          0.14371332705131637,
          -0.20536898602223702,
          -0.1670294615127772
        ],
        "bias": 0.2058024538971561
      },
      {
        "weights": [
          -0.004273641443843187,
          -0.18252350791290706,
          0.060107723085160485,
          -0.0032116058004781965,
          0.32750951201395323,
          0.01785302414230034,
          -0.09736989990868083,
          0.18066429777632811,
          -0.33565164724013025,
          -0.01322864883886585
        ],
        "bias": -0.44448990321580406
      },
      {
        "weights": [
          -0.03009452456699254,
          -0.10061551507269927,
          0.13105182483799577,
          -0.16645319660975857,
          -0.1372492079057628,
          0.1455729730372063,
          0.015346586598689076,
          0.20395821097996655,
          -0.10505590839007438,
          0.09233771607906588
        ],
        "bias": -0.02869404208233736
      },
      {
        "weights": [
          -0.10512153260469445,
          -0.12813847304674209,
          -0.240280644686852,
          0.1117934660389928,
          0.07649050741476206,
          0.0852988174025677,
          0.32697415216112125,
          -0.021934546973348006,
          0.03528784894604566,
          -0.15381717656394833
        ],
        "bias": 0.07540611672498991
      },
      {
        "weights": [
          0.008787716518585925,
          0.05998090847257525,
          -0.08409778423591541,
          0.02213678986080293,
          -0.07946233289138442,
          0.0043858927609998636,
          0.03985306177739932,
          0.2989075441978779,
          -0.09669644810696904,
          -0.10207030170922526
        ],
        "bias": 0.484418890595576
      },
      {
        "weights": [
          -0.26445507093286635,
          -0.06741833191255155,
          0.2275326109556719,
          0.0986814820472222,
          0.18760522954138129,
          0.1468868642470499,
          0.33280675665885007,
          -0.11964032897919383,
          -0.06299432062773538,
          -0.13044822855421412
        ],
        "bias": 0.10291455944181983
      },
      {
        "weights": [
          0.05032527638818899,
          -0.11374449647495281,
          0.01771844257488381,
          0.05954737494306033,
          -0.015304383890273733,
          0.21481432826954816,
          -0.003619029570585024,
          0.04528450407779783,
          -0.16433582793373036,
          -0.0876000074966875
        ],
        "bias": 0.5626641777106773
      },
      {
        "weights": [
          -0.05898535905909147,
          0.22463602961003476,
          -0.028007706533650048,
          -0.15065444953594906,
          -0.021677629187599932,
          -0.128704535569938,
          0.144264352873565,
          -0.03254509356798899,
          0.15181741370878718,
          -0.013019643062316419
        ],
        "bias": -0.1421899213170043
      },
      {
        "weights": [
          -0.03789002158540904,
          0.09227275720449928,
          0.08933036719465727,
          0.06712210296315115,
          0.08279432308826425,
          0.06136844627597385,
          0.26499726754669867,
          -0.11127872411662273,
          0.19844351513704597,
          0.24965935328386657
        ],
        "bias": 1.3203793150890901
      },
      {
        "weights": [
          0.15687471844041945,
          0.06689663899991742,
          -0.014941089238717314,
          0.19475256326607954,
          -0.1506063010369767,
          0.17755814249987528,
          0.14544505628814164,
          0.09333014370973497,
          0.20529620077931887,
          0.14010175336174535
        ],
        "bias": 0.3290527450321794
      },
      {
        "weights": [
          0.4142200713344964,
          -0.021704466287238575,
          0.2095189497387539,
          0.017564113874031954,
          -0.09074240993722836,
          0.11071630163882171,
          -0.027945994979373445,
          0.03288336785120289,
          0.23141965400481557,
          -0.07076047744785186
        ],
        "bias": -0.40056680015749857
      },
      {
        "weights": [
          -0.15464997094199617,
          0.07294158322964195,
          0.01473077817175732,
          -0.03589585791090054,
          0.1810855240915601,
          -0.04168150859331397,
          -0.03420020451344923,
          0.132418360393924,
          0.22941381121007867,
          -0.13388135587567057
        ],
        "bias": -0.035005667323441944
      },
      {
        "weights": [
          0.07988413396652652,
          0.1583079335040875,
          -0.07398772259225712,
          0.03289841690256627,
          -0.05138899740488541,
          -0.04608787546618662,
          0.14276485097534244,
          -0.014156207783794821,
          -0.01883597130204446,
          -0.0080007158157988
        ],
        "bias": 0.7948264938704842
      },
      {
        "weights": [
          -0.14529818788652482,
          -0.0773799492948916,
          -0.01047040722003307,
          0.046775862610750854,
          0.09818732160365967,
          -0.010474654750290222,
          0.06523779590593638,
          -0.024384936352138124,
          0.0941751247769569,
          0.015615377348474475
        ],
        "bias": 0.7008804806042329
      },
      {
        "weights": [
          -0.08142266169972105,
          -0.11388816913932445,
          -0.04563204393383662,
          0.0958185588164664,
          -0.07867467898892223,
          0.09632133008800156,
          -0.1476262575160591,
          -0.06321357380797692,
          -0.004090739047587375,
          0.03519338843197485
        ],
        "bias": -0.715942806341221
      },
      {
        "weights": [
          -0.04938057979074036,
          -0.08645261370393419,
          -0.06333255768146202,
          0.1351286414108657,
          0.11359769681045638,
          -0.09593304505531212,
          -0.033260776138995606,
          0.07736946999842718,
          0.02433618897994247,
          0.39241015147223723
        ],
        "bias": -0.15081204545345436
      },
      {
        "weights": [
          -0.13335324804395957,
          -0.15302816423615032,
          0.19737842403199996,
          -0.002191498985879476,
          -0.004392739079233696,
          0.08421126375055812,
          0.06293572296140774,
          0.04298026371091349,
          -0.08320668832488193,
          -0.31522884497848797
        ],
        "bias": -0.2961657540401394
      },
      {
        "weights": [
          -0.20610452124596063,
          0.25693113676411194,
          -0.002043012685749513,
          -0.05258445973023631,
          0.19746213001657092,
          0.09333726871307585,
          0.1749339982878509,
          -0.037807609684310566,
          0.3116690130636072,
          -0.18453757186237765
        ],
        "bias": -0.2524946004782519
      },
      {
        "weights": [
          -0.06041657844198425,
          0.06692989549174927,
          -0.09126536137223534,
          -0.016846521422811428,
          -0.13042358153841935,
          -0.0727917655360001,
          0.07585068600937549,
          -0.1168895228510196,
          -0.25515213963798034,
          -0.004149081018815552
        ],
        "bias": 0.7828987523869427
      },
      {
        "weights": [
          0.3245008284086744,
          -0.17410307446928844,
          -0.10569909240083535,
          0.05992918230873679,
          0.03232623058795507,
          0.38699899207232485,
          -0.10019140778068833,
          0.028512496923041294,
          -0.13680911749463653,
          -0.04982275925478405
        ],
        "bias": 1.2098112748646241
      },
      {
        "weights": [
          -0.011206657826653763,
          0.14657810687655096,
          -0.05749235051474111,
          0.10832687613564888,
          0.0061330777213559435,
          0.007996267103286351,
          -0.09149392986934281,
          0.038544421252010394,
          -0.08553761259746628,
          -0.028035803051294272
        ],
        "bias": 0.988345442361808
      },
      {
        "weights": [
          0.1305855506296041,
          0.21114129098925236,
          0.0872878959323693,
          -0.027177355959417747,
          -0.07563103767824514,
          0.006316263793032691,
          0.1490912323212114,
          0.06083861761393261,
          0.1239013457611173,
          0.08653479893061587
        ],
        "bias": 0.1775691950519352
      },
      {
        "weights": [
          -0.023793688049116312,
          -0.05553653021528471,
          0.03656920319027801,
          0.11343676070228896,
          -0.3178860028020774,
          0.040758199023275744,
          0.10699599144293133,
          -0.042476882545673875,
          0.25887623226216244,
          0.20938417766674824
        ],
        "bias": 0.5153530428993094
      },
      {
        "weights": [
          -0.06490913918035189,
          -0.1668166346448204,
          0.1008965662547615,
          0.027832267074872193,
          -0.10228632556384075,
          -0.12283093164731163,
          -0.049219334218892255,
          -0.19554705468303824,
          0.1217082723372744,
          -0.15260669599122115
        ],
        "bias": 0.7213252168786938
      },
      {
        "weights": [
          -0.005818923079031215,
          -0.023955941881879477,
          -0.12319084612162759,
          0.061785797214880644,
          0.01532070448768089,
          0.11797194072285432,
          -0.20969128472044776,
          -0.009010074526389598,
          0.26022676428613584,
          0.12574616941752317
        ],
        "bias": -1.1962186815670814
      },
      {
        "weights": [
          -0.029589672904026747,
          0.1775277905232205,
          -0.1729112300392408,
          0.055345006650755965,
          -0.010857813573563774,
          -0.13170766476477747,
          -0.09909260405422313,
          -0.18712478256417822,
          -0.17541585143196303,
          0.03984431351064133
        ],
        "bias": 0.12408040942700682
      },
      {
        "weights": [
          0.019938410219947883,
          -0.12133366032693312,
          0.05228260197671997,
          -0.10193999261719362,
          0.34612924353207813,
          0.1792592527430754,
          -0.2207388664694652,
          0.2173617161209202,
          -0.09551157901128027,
          -0.11682813771504874
        ],
        "bias": -0.1236891970426108
      },
      {
        "weights": [
          0.17175592452970564,
          0.10231430503052415,
          -0.15280802421162534,
          0.2621248746736252,
          -0.06900177987079835,
          0.009292248701055869,
          -0.005471996637702825,
          0.013405256235402844,
          0.04543774568029397,
          -0.04242554355427367
        ],
        "bias": -0.5951065746303764
      },
      {
        "weights": [
          -0.10666278746491008,
          0.09507877139295615,
          -0.036586358525551005,
          0.05401519591033722,
          -0.17775622216163323,
          0.1125938006733646,
          -0.337939138054387,
          -0.01410214425846212,
          0.13259393438583758,
          0.18196492549260937
        ],
        "bias": 0.8441968159771331
      },
      {
        "weights": [
          -0.006864169218448788,
          0.012632127752010254,
          -0.045341264628147644,
          -0.11255662735005982,
          0.032652194757898136,
          0.02697151525425024,
          0.055445977181014454,
          0.12107653949155119,
          -5.738736485138765E-4,
          0.11689700500449585
        ],
        "bias": -0.14663127809387583
      },
      {
        "weights": [
          0.17684809491180953,
          0.01803514205128027,
          0.019867396298079074,
          -0.0010706078063690903,
          0.06142617781658487,
          0.11128704534271945,
          0.13794922351325803,
          0.2128667996172479,
          -0.06633715283578691,
          0.14615763391984332
        ],
        "bias": -0.2841304347028392
      },
      {
        "weights": [
          0.053681759678796744,
          -0.07958763839707057,
          -0.10193110545443788,
          0.02425352658933393,
          -0.01798538124487315,
          -0.004543883858634608,
          -0.12039840900801403,
          0.2014226193348188,
          -0.11682307193974449,
          -0.09281157246943936
        ],
        "bias": -0.440133172973273
      },
      {
        "weights": [
          -0.14883099901408195,
          0.30284762944927773,
          -0.0364213828511451,
          -0.05729716413961668,
          0.13405717608835147,
          0.15318013741226366,
          -0.07329465920801839,
          0.028364596692228104,
          0.31520535619512474,
          -0.043340197776417996
        ],
        "bias": -0.46853285050430654
      },
      {
        "weights": [
          -0.10105510433648426,
          -0.03705620086200711,
          -0.07612965775528244,
          0.13501728324023693,
          -0.16266022951039757,
          -0.14260419505456182,
          0.008071261919010633,
          0.08153754498315587,
          -0.21464638336134195,
          -0.04025550033930054
        ],
        "bias": 0.10210293503316395
      },
      {
        "weights": [
          0.32964151569326006,
          -0.1000743498719298,
          -0.0810820815060086,
          0.0743013062836794,
          -0.17293228503230862,
          0.02400514824627421,
          -0.004008838013573129,
          -0.022550835052769076,
          -0.059523544034080854,
          -0.11569687208121017
        ],
        "bias": -0.3857675512122975
      },
      {
        "weights": [
          0.04840406056380573,
          0.32050408304212,
          0.09674226592043812,
          0.09111248004110865,
          -0.058513798884880064,
          0.16088825595218373,
          -0.10142821034957239,
          -0.0022854349470142294,
          0.09059865280116894,
          0.10021094381690007
        ],
        "bias": -0.39638318717839344
      },
      {
        "weights": [
          -0.05698222103195074,
          -0.05657103357731709,
          0.17519443573705185,
          -0.026132705861393605,
          0.11145301165786431,
          0.17962608095953078,
          -0.23299552073763743,
          -0.04704989014422279,
          -0.11386587701178495,
          0.04201961427217077
        ],
        "bias": 1.2247442685230596
      },
      {
        "weights": [
          0.016079830974630692,
          -0.03278332888729959,
          -0.03346292166739619,
          0.0972685289354138,
          -0.023406719924099498,
          -0.13004681433533044,
          -0.22966314774533272,
          0.006407711976903452,
          0.2410651992927835,
          -0.02937665995922506
        ],
        "bias": -0.5303421142845778
      },
      {
        "weights": [
          0.2716550173260678,
          0.20073039913684715,
          -0.08958704357303819,
          -0.011513778109010185,
          -0.19913505146723048,
          0.12875711102623824,
          -0.038110308830683,
          0.2884462995783924,
          -0.10769538263610201,
          -0.082372911942691
        ],
        "bias": 1.380449192256365
      },
      {
        "weights": [
          0.09622960766206137,
          0.10055242357252768,
          -0.33108163665248586,
          0.032122661170053156,
          0.046015795012249984,
          -0.025472053581823674,
          -0.04601185358367329,
          0.07785849639799128,
          -0.0031087494319261863,
          0.12293396400946942
        ],
        "bias": -1.007390401811303
      },
      {
        "weights": [
          -0.053705691200326415,
          0.2562892220748262,
          0.39053810648471315,
          -0.09195722930780083,
          0.09673764581690374,
          0.25196243216547654,
          -0.0019871174573683438,
          -0.04149166312055023,
          0.16320491609713436,
          -0.0596479645973382
        ],
        "bias": -0.3627162519277793
      },
      {
        "weights": [
          0.0067695016388469665,
          0.1914039698270175,
          0.014854449580333462,
          -0.04580271334067903,
          0.23141299368460777,
          0.1266393471030689,
          0.08549903272373617,
          -0.05449920116233684,
          -0.0639719265151017,
          -0.04232005101383381
        ],
        "bias": -0.1871101087724474
      },
      {
        "weights": [
          -0.24285369544640165,
          0.2316525367158594,
          0.05650288478320748,
          -0.13387717297326798,
          -0.011966605250056748,
          -0.13001575140418414,
          -0.024285831289771402,
          -0.06816981508433634,
          0.02264810833367053,
          0.06144212291235903
        ],
        "bias": 1.0254646908739098
      },
      {
        "weights": [
          -0.1598752556809059,
          -0.07229336708884525,
          0.010982077313500647,
          0.029950496986843142,
          -0.17738512351349325,
          0.015600577324680311,
          0.019632962304315695,
          0.01841084273437444,
          0.19331275173659668,
          0.2073137495477877
        ],
        "bias": -1.2991228066852587
      },
      {
        "weights": [
          -0.016783304462502837,
          0.19931902026254222,
          -0.07312493684029492,
          -0.19393828539579636,
          0.10410171208498843,
          -0.17134837940943407,
          0.09336261511763934,
          0.08200599879330793,
          -0.1876775283800688,
          -0.08469515501019163
        ],
        "bias": 0.7648612910287493
      },
      {
        "weights": [
          -0.044055777549609945,
          0.0038647795126498688,
          -0.043108674025828214,
          -0.03288524796421233,
          0.013220920095180869,
          0.18986281171623723,
          -0.00755894253648688,
          0.027123188927238542,
          0.07297454724039182,
          0.14925754804351704
        ],
        "bias": 1.0702318015128252
      },
      {
        "weights": [
          0.11512074557113347,
          -0.07813591674636519,
          0.09494974905418413,
          -0.00967568637544295,
          0.14222260917039545,
          0.06457228998014766,
          0.10473938113932117,
          -0.0492553979386728,
          0.00756473524588526,
          -0.32751800371451206
        ],
        "bias": -1.025143380721535
      },
      {
        "weights": [
          -0.008106769452397685,
          0.12740545143572582,
          -0.0469968110197896,
          0.29226982222078207,
          -0.04056956607259433,
          0.2204387394878424,
          0.047446026301050666,
          -0.13040153025089124,
          0.16921007149917033,
          -0.06540931029628563
        ],
        "bias": 0.04789159955424915
      },
      {
        "weights": [
          -0.17468003107806174,
          -0.05467615036241283,
          0.07116131125865163,
          0.01948988236640061,
          0.0756849087024537,
          -0.043178228306120586,
          0.10358198632371397,
          -0.0481051375118918,
          -0.029509688643594916,
          0.08838082655416389
        ],
        "bias": 0.012899267915189763
      },
      {
        "weights": [
          0.1585256161740935,
          0.14823079785636678,
          -0.031286592547469794,
          -0.11353400780941092,
          0.10537016045580119,
          0.10859285337998888,
          -0.10845993631646916,
          0.2671138135193234,
          -0.11555517104000462,
          0.03634025118765445
        ],
        "bias": -1.005438000674302
      },
      {
        "weights": [
          0.035433668133769594,
          -0.04169027137658107,
          0.0928485836641216,
          0.017528306352250264,
          0.06809806062886901,
          -0.07870805043631694,
          -0.24690240700155283,
          0.1418452139943868,
          -0.009119238561214544,
          0.12407189971221162
        ],
        "bias": -0.7965334140038823
      },
      {
        "weights": [
          -0.12066982200989407,
          -0.05010914243496801,
          0.37710455435637896,
          0.03201865194408818,
          -0.0782252499043492,
          -0.2252053693369634,
          0.10299123182229734,
          -0.04454842401062012,
          -0.17567111343645955,
          0.19946481231461616
        ],
        "bias": -0.8242779657807467
      },
      {
        "weights": [
          0.25829518201461704,
          0.1302061560286176,
          -0.24490477085340967,
          -0.07884150348688067,
          -0.0028120055280479433,
          -0.19772206739362003,
          0.04475162766191387,
          -0.11259584210013256,
          -0.040204628569213606,
          -0.04202898328949423
        ],
        "bias": -0.03853818006685202
      },
      {
        "weights": [
          0.08996267782733317,
          0.3557110126432761,
          -0.1736868643027058,
          -0.11278666233124585,
          0.3042835227627377,
          -0.047623246097879754,
          2.454373553879868E-4,
          0.13947068659582515,
          -0.010865633417553464,
          0.10550490045883382
        ],
        "bias": 0.8371538102845185
      },
      {
        "weights": [
          0.24878044832924742,
          0.1000464052547576,
          -0.0328818093743734,
          -0.08054453162452199,
          0.1500052946654562,
          0.09927171205901492,
          0.22301684521931753,
          0.13798752859253136,
          0.21521629250049348,
          0.12559964375325142
        ],
        "bias": -0.737801339672792
      },
      {
        "weights": [
          0.08699690735885493,
          0.021905028995638495,
          -0.08164458877171679,
          -0.02696532998755964,
          0.004565915429923722,
          0.24159786624461155,
          0.02765184402329428,
          0.02330442006401336,
          -0.08836601597333929,
          -0.08695467923575832
        ],
        "bias": 0.20015163494657687
      },
      {
        "weights": [
          0.10514595553065574,
          0.05055806690160759,
          -0.030929370721672702,
          0.08501839706183426,
          0.2324015491307839,
          -0.02648298597677848,
          -0.0806642924354196,
          -0.03090201645348575,
          -0.1414454218426987,
          0.01992058184670537
        ],
        "bias": -1.2116630279605496
      },
      {
        "weights": [
          0.003154404384521561,
          0.07094162303322665,
          0.07319990548080861,
          0.026435975949389005,
          -0.19315742629408197,
          -0.007975636706283125,
          -0.01157384492806729,
          -0.18030601343573113,
          -0.06479815501577249,
          0.02190271181200224
        ],
        "bias": 1.2016348528308847
      },
      {
        "weights": [
          -0.13520634708049126,
          -0.08141850015966509,
          -0.15173272922289296,
          0.08229891193323043,
          0.14542368795807226,
          0.026933055271896638,
          -0.051920436325093584,
          0.08224271731699499,
          -0.005040146924802909,
          0.03649636038644692
        ],
        "bias": 0.24345521023072356
      },
      {
        "weights": [
          0.06069609505181361,
          -0.09485119884617235,
          -0.15667875864371056,
          0.06277322539636912,
          0.12050090612412143,
          -0.032787907598721515,
          0.06925786190709907,
          0.14416715867069643,
          -0.3135828406775277,
          0.12261219785146805
        ],
        "bias": -0.47765671352846806
      }
    ]
  },
  {
    "name": "H1",
    "activation": "LEAKY_RELU",
    "neurons": [
      {
        "weights": [
          0.13974471808819836,
          -0.06969304479625199,
          0.05130780593744393,
          -0.02318939757828126,
          -0.04413587440888852,
          -0.136732706381074,
          -0.043702973403744974,
          -0.016992697456856186,
          -0.15585165279092852,
          -0.1851918161148277,
          -0.11809225044168882,
          0.11948945270188818,
          -0.045718771184852534,
          0.23602384448489633,
          0.00333587516571626,
          0.0028128219485048533,
          0.01370887451316176,
          -0.1348280743401249,
          -0.02548157491440659,
          0.07745598666452322,
          0.08435247122288517,
          0.19493315139471684,
          0.008295007800591168,
          0.2356246955810728,
          -0.04751817549932693,
          -0.10393112516032968,
          -0.013416370130019933,
          0.15582741478731357,
          -0.13280785668280437,
          -0.07489750564455538,
          -0.025674130048345612,
          -0.05241224031398583,
          -0.09039336523374684,
          0.07540698607803116,
          -0.1847260714204976,
          0.008525849136974968,
          0.021150639719444423,
          0.11796595029384181,
          -0.07094009748153184,
          0.020468084229964635,
          -0.19589464909642243,
          -0.09857574563537887,
          0.07341400413967268,
          -0.03552466519878266,
          -0.10255914068097959,
          0.06673270941729123,
          0.09154995721436043,
          -0.0530708599799557,
          0.011607495928991754,
          -0.0788651201168913,
          -0.11548900833660494,
          -0.0882857249891183,
          -0.03712909008860142,
          -0.1198304275775205,
          0.0049647232780935645,
          -0.020097904993908285,
          -0.07741527677909235,
          0.05295732871030997,
          0.017781169791119968,
          0.08579971321618399,
          -0.09820944132551782,
          0.07279109765793977,
          -0.2755551955554262,
          -0.0372011183280675,
          -0.0021852765818194115,
          -0.11898165559957173,
          0.04850220559436435,
          0.05503832499475431,
          0.018681349429088903,
          0.07410133639765598,
          0.08687184717104737,
          0.05657791927852666,
          0.049894725230084404,
          0.12762359337742574,
          -0.014020902740878647,
          -0.07504444674400727,
          0.08571882194648775,
          -0.06867461932669286,
          -8.42902105928122E-5,
          -0.009931664091925408,
          -0.121151519381916,
          -0.1298083164257615,
          0.02845600388432515,
          0.11738879555539097,
          -0.11577871880688151,
          -0.12342461412087188,
          0.006060881504961152,
          0.03466312313072,
          0.016441312995283654,
          0.07043123408180983,
          0.18013810075207057,
          -0.20206452261592842,
          0.049968369497052974,
          0.007998844829596933,
          -0.031243988308537186,
          -0.02126847772354306,
          0.12932932464741478,
          0.10587544427871251,
          0.05068051478987101
        ],
        "bias": -0.17249347128496043
      },
      {
        "weights": [
          -0.10351345956603746,
          -0.08490578442648167,
          -0.08352131287969757,
          -0.07261065349784641,
          0.033544237015039884,
          0.10968517329981446,
          -0.2733563515580068,
          0.10331414219834396,
          0.09418446094532468,
          -0.16939865137592575,
          -0.027384971259851718,
          -0.01457282068086038,
          -0.03312325377036619,
          -0.015779729044160896,
          -0.028719107406980953,
          0.04271121483813777,
          -0.103124184468653,
          -0.04901838757547386,
          0.04390855525407883,
          0.028577962539529468,
          -0.07149426028898957,
          0.0349837109213902,
          0.11978688257100058,
          -0.0057945573444491754,
          0.2137698582831706,
          0.1380460887791278,
          0.0028069278465207223,
          0.010708940626950039,
          0.1833913555460557,
          0.0268262786985297,
          0.08760863060149592,
          0.02490522088560017,
          0.07835122521368301,
          -0.13168284240326691,
          0.07101949811536477,
          0.02705913239592717,
          0.15214943549852272,
          0.10176606953053785,
          0.004224388134079088,
          -0.07397402411780686,
          -0.07046400256268942,
          -0.12979662681209747,
          0.081876285860025,
          -0.1252958262863681,
          0.022260155232972433,
          0.011483601187271836,
          0.1057899354893915,
          0.013044473151190495,
          -0.0681714444171817,
          -0.05711950646167986,
          0.020847930360299638,
          0.03438161414642388,
          -0.007011599257325461,
          0.06307151424875618,
          -0.08663143243665546,
          -0.037801154494904544,
          -0.0017568367085357378,
          -0.03424536417266492,
          0.0017299527112444282,
          0.11808037010082136,
          -0.03422917392320602,
          0.05317180234491477,
          -0.07225946581118611,
          -0.01808483316263708,
          0.00790115282164813,
          0.055515004019960984,
          -0.06316042339992742,
          0.005858386878320429,
          0.07306205465759087,
          -0.11258912211749067,
          -0.06586681974045114,
          -0.04363060857785597,
          0.06964945197468653,
          0.06192215532419746,
          0.10875121723439739,
          0.01998796007196771,
          0.06750232655627922,
          -0.11619853041883992,
          0.06189767481523425,
          -0.0474935910776419,
          0.14359948403541667,
          -0.057028126901903585,
          -0.028601840873235102,
          0.0685129586036165,
          -0.03357916506178825,
          -0.021730621067018504,
          -0.10147997870545018,
          0.1039879477154608,
          0.029130031711460218,
          0.0852335972183053,
          0.15375965549413445,
          0.034048980504775186,
          0.01728550250984758,
          -0.21783100980686296,
          0.17780976280727373,
          0.18053647112432641,
          0.057746886687755676,
          0.04818694575644724,
          -0.11360468218014287
        ],
        "bias": -0.4279183705655005
      },
      {
        "weights": [
          -0.11954513867564726,
          -0.11743133453294256,
          0.15800771436050998,
          0.08240874736944276,
          -0.2199188183262889,
          0.016842898062817874,
          0.007486890104090918,
          0.04449499027328062,
          -0.11847079006956962,
          -0.07219633282642637,
          -0.08892605957647812,
          -0.05617971185801445,
          0.2733967470142266,
          0.09335003513666203,
          0.036034549802180384,
          0.09065422996199035,
          -0.021430511785924544,
          0.05356938861885982,
          -0.028163335099795555,
          -0.1425696161017766,
          0.0888499035616103,
          0.07347881535419747,
          -0.11952613355484075,
          -0.07187086408189036,
          0.07940312289668869,
          -0.13196218962882056,
          0.12842776099637232,
          -0.08125299570266589,
          -0.06843768475145702,
          -0.03339207358011141,
          0.011381210303296932,
          -0.03599901898939728,
          -0.05876988743375225,
          0.09156551168230681,
          0.1246891507554809,
          -0.07041913654817715,
          -0.062272920572343717,
          -0.07690535658740079,
          0.0644769345272949,
          -0.016269880519943814,
          0.21266748037328173,
          0.01733121820305619,
          0.15069770870996713,
          -0.25543499978821005,
          0.02585013200611457,
          -0.053137016590152415,
          0.04126333061087353,
          0.04698185363300296,
          0.09052425258948535,
          -0.12026490528204244,
          -0.02271347683749089,
          0.12252502256230853,
          0.10297121859641381,
          0.05020904561174393,
          -0.015789050748980148,
          0.028609316075659367,
          -0.05444101610969433,
          -0.10035424847662634,
          0.09406251656184908,
          0.09012109403241728,
          0.00637544921030729,
          -0.23832741328139023,
          0.008593091075677394,
          0.0077403826453784465,
          -0.02509451742423543,
          -0.05918216908192571,
          -0.08094367345390276,
          0.14293382725656326,
          -0.028261316354855775,
          -0.04471308466851915,
          0.04168097858864361,
          -0.059059596537163625,
          0.04045051700870293,
          0.12119471287428311,
          0.04170140972439675,
          -0.12584881117003718,
          0.020429302803639096,
          0.07443509991788855,
          -0.020492378032815655,
          0.026917095340649077,
          -0.06754355340139093,
          0.019516917855188557,
          -0.011433922780284319,
          0.08784359061803597,
          0.1732922633521651,
          0.07258894217420189,
          0.12171129794612914,
          0.06694334250564289,
          0.038318283572949294,
          0.003349047957395277,
          0.26458668095488,
          -0.03672638457627926,
          -0.042034016468031975,
          -0.056509182189535774,
          0.06282473831497219,
          0.13632747817585586,
          0.04322030242523719,
          -0.03443582721789965,
          -0.016938314804557434
        ],
        "bias": -0.5776152243750012
      },
      {
        "weights": [
          -0.08348141249660801,
          0.06691003294032483,
          0.003382746279804684,
          0.005556019828462749,
          0.08314938364844243,
          -0.0996719309509097,
          -0.31986992248739576,
          -0.012054210071484264,
          -0.04637434932313065,
          -0.0712144954312886,
          0.06246846797953189,
          0.04365333221779329,
          0.11884612149631096,
          0.15056354806856972,
          -0.06820299274163383,
          -0.0898367080554621,
          -0.04270150055399979,
          -0.06887493011380295,
          0.04089370717718455,
          -0.0632074840850135,
          0.1106852604621184,
          -0.09648378738980033,
          -0.041951175624785536,
          -0.038001449719757815,
          0.1406019509709859,
          -0.015103660852994616,
          -0.04063473676233774,
          -0.11227675033055201,
          -0.022181170705032734,
          -0.0068594129073268045,
          0.04359488464205688,
          0.10992410800712449,
          0.042420538128590465,
          -0.1155400236212285,
          0.04713191222033328,
          -0.10674004591155177,
          0.0025066115359712853,
          0.055530530990104555,
          0.0790585789138618,
          0.04326107143946139,
          -0.03938552802316671,
          0.024063374073966286,
          -0.0380015034307299,
          0.20894823749525038,
          -0.05619024051398143,
          -0.019739009973296796,
          0.015647977098060088,
          -0.11883642866301626,
          -0.003714382518634136,
          0.0022823552479947847,
          0.11183192037191737,
          0.012802828505074209,
          3.245151413528042E-4,
          0.01926574135184671,
          -0.04672226861845573,
          0.008557526448355543,
          -0.031385307453455906,
          -0.008101570930794869,
          -0.01940572867063101,
          0.04651279939377916,
          -0.15213752597863806,
          0.017941129731907018,
          0.15312525742226823,
          0.08618750315755391,
          0.1001137984192329,
          -0.12618110628954696,
          -0.15268069536330403,
          0.06589676893240036,
          -0.057793567599700064,
          -0.06256516683246992,
          0.015505962855681817,
          0.11216588408170894,
          0.05424520664529491,
          -0.06954753505944522,
          0.23377659091894867,
          0.19094230765972411,
          0.1690769464511357,
          0.10199299266800473,
          0.025487428556547852,
          0.039262876257411254,
          0.08394879037909325,
          -0.14372791965310483,
          -0.06994953660494092,
          0.045335402876679,
          -0.028564604745386194,
          -0.07276238683419428,
          0.05561636682124266,
          0.03879591293671435,
          0.0027171556976719646,
          0.025332794945527606,
          -0.07703738564323309,
          -0.054871300544223595,
          -0.1419286077665098,
          0.12585049507684787,
          -0.13048698677555198,
          0.030233441455269704,
          0.041733815771641064,
          -0.03286362116372295,
          -0.04989695386235139
        ],
        "bias": 0.15408857557140376
      },
      {
        "weights": [
          0.07280632041452831,
          0.05840555705513536,
          -0.05817319060567944,
          0.08372163865084006,
          0.02713577946315753,
          -0.028468496593938908,
          -0.03615775936800483,
          -0.11454346685957265,
          0.08424514401947761,
          -0.003339020244129829,
          -0.1555577221759896,
          -0.14828487758347278,
          -0.11432352974051108,
          0.09096521252487122,
          -0.02851368446414317,
          0.10160963931116733,
          -0.07461101088977,
          -0.044606216552017026,
          0.0814507203920366,
          -0.14596756295013155,
          0.09556140234747121,
          0.06056861455744992,
          0.11911080017571805,
          -0.012015680426415102,
          0.10828140112359924,
          -0.06035259564774924,
          -0.10234185744281682,
          -0.039473562552762125,
          0.017952988373286956,
          -0.03484342174751585,
          -0.05126179802956118,
          -0.07244482112994256,
          0.1814004591478344,
          -0.004077467146396083,
          0.06514395757086071,
          0.05360847003163,
          0.007923829726214202,
          -0.14473761659767237,
          0.01210229067082269,
          0.04213292492512474,
          -0.03683180426509548,
          0.11900073965357794,
          0.029409692462242128,
          0.04135989516982158,
          0.09358622627974357,
          -0.039684777301573354,
          0.01344630553025418,
          0.13481355624581257,
          0.2258665735805101,
          -0.0027944892469676658,
          0.049289416455312374,
          -0.08490555555943279,
          -0.003260199460330547,
          -0.0391988044856596,
          -0.049585511152459336,
          -0.10091006734324437,
          -0.04600153038032531,
          0.07760612121429616,
          0.004849525335960066,
          0.017173230057869603,
          0.06540951910372808,
          0.04707387485688561,
          -0.04945374456349971,
          0.0012362735139736538,
          0.09629899239486064,
          0.12642152001493986,
          0.0275887007392167,
          0.12785969729790655,
          0.011847184420556866,
          0.0918285040977758,
          0.07108198578943437,
          -0.04193996780653203,
          0.07050567820772582,
          -0.05234761515306139,
          0.028439585848520913,
          -0.1757347992986031,
          0.10620321101568113,
          -0.09982183533761511,
          -0.05939691227886862,
          -0.008833268756121613,
          0.009368753911869173,
          0.022396568171858994,
          0.17097369210107907,
          -0.09439285771999341,
          -0.08532505581555254,
          -0.09452634429370939,
          -0.015681315102563726,
          -0.015182207200665812,
          0.015460468016720057,
          0.019481216959511244,
          -0.03547358535840726,
          -0.06133926831163815,
          0.11070373893821552,
          0.18731630025942053,
          -0.04278821343325448,
          -0.004463158465287558,
          -0.007002038525682006,
          0.09310262436347636,
          -0.07917954854279027
        ],
        "bias": -0.9733089806526618
      },
      {
        "weights": [
          -0.08978019826205846,
          -0.0615826292390081,
          0.23695729153375703,
          -0.12167276328673189,
          0.07863846004902904,
          -0.03316714598554872,
          0.09060925879568009,
          0.08834530659872443,
          -0.056016867013704875,
          -0.03016383936159757,
          -0.042765630583835,
          0.060987742485233636,
          0.017540957666530636,
          0.07686295246752375,
          0.08170503698378612,
          -0.004675882217324597,
          0.01871744390486342,
          0.004130759433167903,
          -0.06396199440452989,
          -0.05352844572046137,
          0.16023474047608285,
          0.0023774718253942303,
          -0.02489259910289088,
          0.19384674109147026,
          0.2068600623980424,
          -0.09517980879764874,
          -0.07866390375011574,
          0.05874568687024832,
          0.09397073906158367,
          -0.05832447680599546,
          -0.045117875145996196,
          0.14734875701846248,
          -0.016833053467021707,
          0.255144798341939,
          0.047816728807399136,
          0.07756912079802675,
          0.011480221564585127,
          0.12645442912458052,
          -0.08133852434341565,
          -0.02322400058859752,
          -0.06752341488626487,
          -0.06652158376713317,
          0.05515771236439635,
          -0.03872725324994319,
          0.22448301738302526,
          0.11966652658053509,
          -0.10866946927372607,
          0.08382760062065854,
          0.022458254673133796,
          0.12014936985608192,
          -0.008303257174838753,
          -0.06191441668199072,
          0.06302503073853796,
          0.1549970939504322,
          -0.03763162834276019,
          -0.025583368306894297,
          -0.08737687703766638,
          0.06733316606470958,
          0.057750521645767744,
          0.06818623109753716,
          0.12124468097272022,
          -0.10982250938395183,
          0.007221227015374651,
          0.0884784201771944,
          -0.0705305414895915,
          0.09323282388360518,
          -0.1287694560888639,
          0.2340991821877023,
          -0.008061211365827268,
          0.11591930948016485,
          -0.015137802558587909,
          0.023643431817104273,
          0.06681452404988776,
          -0.015737734068141444,
          -0.031843467626803484,
          0.11116637715441692,
          -0.037380888288652166,
          0.10147411448918907,
          0.03791110981657056,
          0.16399539628037682,
          -0.09198782388596506,
          -0.0311833517102556,
          -0.06426612914045468,
          0.050941629837786016,
          0.16018729019398367,
          -0.015651149258819823,
          -0.00663836404157954,
          0.10122580831260962,
          0.08310660047178484,
          0.05978909953070105,
          -0.01090633336805037,
          0.05710150510610911,
          0.09203243615691888,
          -0.044285086150381396,
          0.1820928478366553,
          -0.058819497791670956,
          -0.14060026416975635,
          0.11767422983011894,
          -0.1547387030419174
        ],
        "bias": -0.3873653177679289
      },
      {
        "weights": [
          -0.047335750887526215,
          -0.009581383059576282,
          0.17840335327763793,
          -0.03477793624693707,
          -0.09779159314494953,
          -0.13784293290580785,
          0.12157998930679595,
          -0.060931591682265515,
          -0.1329365345122556,
          0.017412019674693455,
          -0.10862561009015101,
          0.08191819283303027,
          0.011284130739876537,
          0.06081692124315674,
          -0.10361357028289243,
          -0.027706477468201155,
          0.0943976271869261,
          -0.023632329219413505,
          -0.10214706113273994,
          0.18324813501046547,
          -0.04811605550607785,
          0.012426801986203445,
          -0.12924311326799573,
          -0.11601309017838098,
          -0.06345184737285986,
          -0.036054177275377075,
          0.04557518874380014,
          0.01111223140563039,
          0.024997800872682413,
          -0.03100126025536145,
          -0.02424982041833554,
          -0.020253659194075273,
          -0.018321885658442207,
          0.0811280571474708,
          -0.004417713054716963,
          -0.02675486946797144,
          0.18446513234049627,
          0.002082098627777421,
          0.22531496201141551,
          -0.04222834429868302,
          0.01581836511778064,
          -0.05241354808471148,
          -0.0779296713838796,
          0.0017917200948383632,
          -0.043776496540282865,
          -0.10740088400715332,
          -0.09232043936357544,
          -0.07835505094563353,
          0.12093639106953061,
          -0.25957208154159483,
          0.13331105564527343,
          0.08275604247410358,
          -0.09998941342385054,
          0.10550045508988565,
          0.03734692434459933,
          -0.029315635134813,
          0.10153841339249345,
          0.053176646067176495,
          -0.006853206699301096,
          0.09414743862104433,
          -0.03136310773300134,
          0.0723474607714417,
          -0.04359268605533067,
          0.14460247101736412,
          0.03853526486766795,
          -0.05024805687527428,
          -0.04910566996284063,
          -0.05551489923201874,
          0.11867419319645835,
          -0.07869101533618007,
          -0.17458397736203507,
          0.12240851539914628,
          0.028543492683738916,
          -0.05092357622058696,
          0.16745082271773118,
          -0.06779990566436254,
          -0.10956726903232786,
          0.10263052120575708,
          0.12032892058067829,
          0.016491619905218375,
          -0.11404255255588852,
          -0.10948417308028101,
          -0.15048903780488013,
          -0.04706664915276803,
          0.09071392433340555,
          0.2038490767612591,
          -0.1413249853596853,
          -0.08768856111218606,
          0.04699831018299195,
          0.004913248542391327,
          -0.05263087774255733,
          0.04032261138508507,
          -0.09490124519749976,
          -0.026018292222622027,
          -0.03918673804783959,
          -0.03707956257096256,
          0.0031408131065431095,
          0.14420090157032622,
          -0.15500853136673048
        ],
        "bias": 0.44462106874844176
      },
      {
        "weights": [
          -0.1706322644191682,
          -0.0868211021251721,
          -0.007594234968556789,
          -0.18253789765501302,
          -0.12736773369829554,
          0.005872387738099256,
          0.04951248871240483,
          0.15014986101737457,
          -0.05806338290199011,
          -0.018930238962521023,
          -0.017292016355809004,
          0.10558351063587326,
          0.033110716822801006,
          0.0795245917930395,
          -0.13643100224929067,
          0.010339742312739679,
          -0.14910043807672616,
          -0.09227451600825873,
          0.10929208791353331,
          -0.07047956600523526,
          0.10066562198700031,
          -0.1798335709290134,
          -0.08731883917053905,
          -0.07086751963449078,
          -0.03157017055481227,
          0.055299505665152175,
          0.015044652866983485,
          -0.05779236404872382,
          0.17330890933802418,
          0.02382842527543413,
          0.10266213008687988,
          0.11567024881672097,
          -0.09077966419214593,
          -0.043831005000981194,
          -0.021876054466574674,
          6.63686262398703E-4,
          -0.016095714465427603,
          0.15643338721337227,
          -0.04450071614154056,
          -0.012516432731458025,
          -0.054733715552061836,
          -0.04467330768880488,
          -0.04136575374117432,
          -0.050021274340864126,
          -0.11822620703670965,
          0.06387866326908437,
          0.011707884457570206,
          0.23454241185776722,
          0.06189837742221115,
          -0.07230246464376269,
          -0.014257551346666638,
          -0.13988275218073745,
          0.018198647061849517,
          -0.024221289619135607,
          0.06631856604771172,
          -0.04384369979398712,
          -0.09120140823108588,
          -0.14746881651595467,
          0.01662191334665147,
          0.009718008675159599,
          0.14003621441796868,
          0.1272671275062738,
          0.05664061919659816,
          -0.061322927595470866,
          -0.05905478364180634,
          -0.01732579931778113,
          -0.08724200545332395,
          0.04598043987064233,
          0.023154537660975,
          -0.003319393103248125,
          -0.02147317809088026,
          0.053563818231818515,
          -0.1075729702986563,
          -0.02398839319290576,
          0.018610339836471524,
          0.07558538997115866,
          -0.09394407576492303,
          -0.0035219694218717734,
          0.03164138045498542,
          0.03727144899233859,
          -0.03932755120063801,
          0.03911310587869562,
          0.022151791344048013,
          0.06266828661826747,
          0.08752932766846161,
          4.1798122221838524E-4,
          0.06551201099345635,
          -0.048960239329322114,
          -0.10058753314213886,
          -0.0011412744995716242,
          -0.07034597487610511,
          -0.1602152508186711,
          -0.034047151489111256,
          -0.0860400593710121,
          0.085866025514953,
          -0.15528410423496866,
          -0.1351681496077866,
          -0.08315232901468061,
          0.056449347989556815
        ],
        "bias": 0.222305695324551
      },
      {
        "weights": [
          -0.05493638494178557,
          0.07283850396074748,
          -0.09860401636562305,
          -0.15092002086164452,
          -0.02463505297358449,
          -0.00242315543467234,
          -0.009527329042676893,
          0.09967824259336776,
          0.1413526624644931,
          -0.01885787901366022,
          0.04453160541465058,
          -0.06031686140157312,
          -0.016970224577082475,
          -0.10694730385979588,
          0.003446585395120473,
          0.02312566724593106,
          -0.06773464332575369,
          -0.031076968757315564,
          -0.05702454436186407,
          0.006387212643203808,
          -0.10934093436586838,
          0.01782250665711206,
          0.13626214922986696,
          -0.0240241668415098,
          0.09061140329167536,
          -0.06749268211515565,
          0.14581283265070247,
          -0.0888747625988176,
          0.12574694612432888,
          -0.03272577272739602,
          0.030245206121927735,
          0.05913826596836396,
          -0.07764037430887956,
          -0.014344979371767005,
          0.09538466056625372,
          -0.08562047954586238,
          -0.03347004101084041,
          0.015973760234095344,
          -0.05736600070091446,
          -0.10167423130971316,
          0.015267110762087102,
          -0.07227832521948929,
          -0.057912231615317285,
          -0.11605460590668631,
          0.002923614815573409,
          -0.11771298731705998,
          -0.006012107690003455,
          -0.025104411857589052,
          0.052352314214774875,
          -0.00793743241711449,
          0.20047208172700945,
          -0.2027253739345308,
          -0.10066919471586322,
          0.1929123007873347,
          0.07632704327768813,
          0.053348948260253805,
          -0.07259230070439855,
          -0.0637258021540425,
          0.03178463252167771,
          -0.1170864844699821,
          -0.0448147719954585,
          0.0786695465610267,
          0.11750274631887424,
          0.040261736967672115,
          0.00684420401946385,
          -0.08897984003127342,
          -0.03335059545742412,
          0.0896992365660854,
          0.11438163703632959,
          0.05173967052495287,
          -0.02061177917657624,
          -0.08145853172573304,
          -0.016223196799680588,
          -0.07204940716253695,
          -0.023778457170186784,
          0.0210038563829525,
          -0.0799568070248873,
          -0.035207098843495786,
          -0.0031034263106659837,
          0.031012816645005464,
          0.12300897249552872,
          -0.013364717293357397,
          -0.01442148088778515,
          0.16613595014185895,
          0.043257140881743775,
          -0.0017384575187791114,
          -0.10247502214448963,
          0.04213623092456632,
          0.11519440155978453,
          0.015718257638331335,
          -0.02617767711936333,
          -0.06705750578672437,
          0.10737414679954449,
          0.020046963820544165,
          0.020226654704611727,
          -0.2073048952104954,
          -0.04524465001097984,
          -0.06441133063128082,
          0.10959330329593349
        ],
        "bias": 0.5324304953214073
      },
      {
        "weights": [
          0.11485318528206141,
          0.09140973806391771,
          -0.005848530903802058,
          -0.0890838455377579,
          0.10367136225812157,
          0.020822207629454834,
          -0.09783385373858176,
          -0.050204020073491805,
          0.08126509948878151,
          -0.002035932523829606,
          0.12430546262878209,
          0.006656991759970141,
          0.020539992451678063,
          0.09377240471492809,
          -0.04506859921078733,
          -0.05625444447723321,
          0.050780794519549435,
          1.564592738103831E-4,
          -0.050593471570480844,
          -0.06980490137008975,
          -0.033999474820979744,
          0.07702463109674144,
          0.173106441156166,
          -0.15231379119411845,
          -0.07730668412729938,
          -0.14578993547255534,
          0.08987348238120721,
          0.016240031101714444,
          0.036877989309530644,
          -0.11975251759347473,
          0.13345832539134955,
          0.066020267170171,
          0.047515918838813176,
          0.1093290669266676,
          0.16335993260145026,
          -0.018860215871027312,
          -0.08481336819350989,
          0.0998759056017135,
          -0.0056560548141345295,
          -0.015077353976830521,
          0.11164122143051079,
          -0.006492440999990638,
          -0.07603672296600081,
          0.049076899151037856,
          0.029666082785739754,
          -0.01900303858682853,
          0.1814477627159667,
          0.02931287727079213,
          0.09044271853733171,
          0.036664704271257245,
          0.013649299554545502,
          0.07349476565190743,
          0.08677553846506629,
          -0.04109017853993924,
          0.11396100628264572,
          0.022472020357940284,
          -0.007734743687660128,
          -0.08358389878924798,
          -0.021276356820403467,
          -0.039501484821105284,
          -0.06730928461838588,
          0.014766449703399877,
          0.07039067526539786,
          -0.06353703476702935,
          -0.06647907792852852,
          0.05430165348608338,
          0.051115020761424754,
          0.08800508031496437,
          -0.03316921435681919,
          -0.00934173329953689,
          0.09670169734202705,
          -0.11829812032624885,
          -0.01549907108652942,
          -0.0557646328603657,
          0.10362825041630443,
          -0.12031418946485022,
          -0.13505840047327813,
          -0.09563342497207936,
          0.02643092201128159,
          -0.09736343844618578,
          -0.10948855228922853,
          0.037766447445653016,
          -0.09541181643675671,
          -0.008921974526954,
          0.03218246423144075,
          -0.012861927980342722,
          -0.0031733588431199964,
          0.022800018380007427,
          0.018391255016227136,
          0.10429657520911641,
          -0.15212707284514354,
          -0.12783009610899693,
          -0.14778891692206217,
          -0.0030224930003239264,
          0.09225818127668352,
          0.0653391020726714,
          -0.029666231789824127,
          0.07143209239839796,
          0.10055618313082759
        ],
        "bias": 0.65660543140971
      },
      {
        "weights": [
          -0.22338855159340393,
          -0.006971439514854494,
          0.14824126948300362,
          -0.12087064563093705,
          -0.012459519282162265,
          0.035630326210895104,
          -0.1293837461391137,
          -0.045965056583360024,
          -0.018673209057599786,
          0.04996329969326343,
          0.05321840146088527,
          0.12850082452055608,
          -0.042934673147466566,
          -0.04566254189889715,
          0.003286527930656211,
          -0.07084717845590864,
          -0.12871261978670914,
          -0.13057352996046656,
          0.14093506162671865,
          0.047567383561132666,
          -0.03590843015143966,
          -0.014266587105387491,
          0.016119552055030954,
          0.14555247420686607,
          -0.0626320759093225,
          -0.12043493776856418,
          -0.12216873069715439,
          -0.14454186506699543,
          0.0334427627926068,
          -0.05637480692953889,
          -0.13555635184569378,
          -0.07202165168315201,
          -0.0420263890407557,
          0.10760488701678872,
          -0.018141881790827572,
          -0.11669035193343132,
          0.15886200537164788,
          0.010631773699955082,
          -0.034166233553366634,
          -0.08531842554506157,
          0.03141191295569392,
          -0.03936948595852582,
          -0.13943281339615501,
          -0.17242249789187494,
          -0.013896774021849034,
          0.018909058554597763,
          -0.0495336993413153,
          -0.18866078010238793,
          -0.0848607862441476,
          0.12469581123858471,
          0.0852605826591611,
          0.026641370916566577,
          0.009057776275078514,
          0.024524283023169627,
          0.08631278486802674,
          -0.1628375808013637,
          0.05027546081707879,
          -0.0613594003257219,
          -0.15039715010189592,
          0.004877900758042373,
          -0.0284852407831173,
          -0.032251639514863706,
          -0.06877397905378257,
          -0.016668966215476925,
          -0.042435385961803684,
          -0.20073447751296547,
          0.07405448680760786,
          0.237771230113815,
          -0.09095490316314311,
          -0.03349401116639101,
          -0.08188354194341527,
          -0.07802800118824901,
          -0.08848119343395457,
          0.06811621063500813,
          -0.025867701383920392,
          0.10103329447852968,
          7.112323641952896E-5,
          -0.2072912417168556,
          0.0624566243004526,
          0.04402648463786667,
          -0.040401566012977404,
          -0.06799209797964922,
          0.05814943545083479,
          0.0576909945654368,
          0.20777844235885495,
          0.1007456345402064,
          0.008970853210040807,
          -0.21109963351460195,
          -0.15319908131843957,
          0.0859505922993634,
          -0.06485413550247161,
          0.09414181445322656,
          0.08177606927478438,
          -0.24259902400534883,
          0.239046582243072,
          -0.12704783249549234,
          -0.10970282432977871,
          0.09891761383859093,
          -0.09583309270228292
        ],
        "bias": 0.16428648131780982
      },
      {
        "weights": [
          -0.07821532866630637,
          0.07553801925981635,
          0.027647505997781256,
          -0.010475232454252949,
          0.008867719051509768,
          0.26240908722569184,
          0.07954250984640876,
          -0.0893907557424734,
          -0.0038170505257267523,
          -0.03315366079554247,
          0.13693971982772293,
          0.030783287377643253,
          0.03858544587513687,
          0.05247392255375671,
          0.03655516889606536,
          -0.17519308380934054,
          -0.014978137919522959,
          0.09101584452013978,
          0.03793757113654507,
          0.1536673412962558,
          -0.016192380231756103,
          0.13399230497609071,
          0.03570886009701478,
          -0.052195582552258965,
          0.08031294533475253,
          -0.022337415833446107,
          0.06362726252136557,
          0.0025905493055722035,
          0.07286457696133124,
          0.011751208996121542,
          0.1598466069996574,
          0.08165884583011412,
          0.07063302412974393,
          0.14180253897432402,
          -0.04847608423271248,
          0.044812135267323285,
          -0.0207554927776265,
          0.06657535721982623,
          0.08059428020136124,
          0.04299137986223179,
          -0.03636905877708576,
          0.07734819605508277,
          -0.07122846007821115,
          -0.02681861125421306,
          -0.03613954273421371,
          0.07354233582008757,
          0.10340204040252671,
          -0.08402914843051298,
          0.18296271441048384,
          -0.00924772782974219,
          0.16666953499461076,
          0.03542492240629456,
          -0.026648003689309484,
          0.002289701967154052,
          0.12238277576571038,
          0.050077407489325355,
          0.008338235747154334,
          0.002569681974315575,
          0.04658903877286858,
          -0.12263339646128799,
          -0.06501512477090927,
          -0.0817945718051924,
          -0.04715290391219396,
          0.11688057482691855,
          -0.1655719410439719,
          0.09568046561189643,
          0.16474481418298684,
          -0.02094513417817957,
          0.02916895433432007,
          -0.08938802323347501,
          -0.023316953221441526,
          0.016378879840476125,
          0.09979004083431647,
          0.07721274664494657,
          0.1318467380976853,
          0.09223755164396989,
          -0.22616683108870878,
          -0.0813064471052513,
          -0.18784180607909112,
          0.08660900496899308,
          0.09044517238348787,
          -0.05797167411977587,
          -0.050314820687459016,
          -0.12295103502617737,
          -0.04410388181470887,
          0.09546860482094113,
          -0.05487795730974498,
          -0.18201570641633485,
          0.01834654073165733,
          0.022829736382906366,
          -0.1284309588237075,
          -0.13250515505833568,
          -0.009769535339747911,
          -0.021124500618858892,
          -0.10029827201979122,
          0.030822077471627095,
          -0.002758413723528422,
          0.0837221110166514,
          0.0636380646438787
        ],
        "bias": 0.2393101528140011
      },
      {
        "weights": [
          0.0729888859903762,
          0.03852304489411151,
          0.05949198866201948,
          0.033822686729038445,
          0.0712483214266665,
          -0.11534960890012293,
          -0.059775403027022514,
          0.14389870402220756,
          0.03282166901529458,
          0.09038701523946417,
          0.16240973469744432,
          0.024282347179358742,
          0.027820994344990378,
          -0.1001644244844288,
          0.10288227976918657,
          -0.08520721015958045,
          0.154050826740207,
          0.2475404083136071,
          -0.04082661615615952,
          -0.0858733365234649,
          0.11183996845482402,
          0.0580604515334813,
          -0.07237640201193676,
          -0.009459600085951678,
          -0.09746702933563942,
          -0.019895674418482463,
          -0.08837447082821187,
          -0.029807207752812013,
          0.03482479501057452,
          -0.04874004238735951,
          -0.0013169610677425745,
          0.1027673351911653,
          0.02502587059316933,
          -0.08950371877250732,
          0.05137377616265879,
          -0.015310152218254729,
          0.12146696218642873,
          -0.2686233797816521,
          -0.11727149736042546,
          0.07246712409341662,
          0.06432312022483974,
          -0.06417503711390068,
          0.056182435603304236,
          -0.023951647607642828,
          -0.05136297873784881,
          -0.015078814974352537,
          0.01575282103445526,
          0.013868643235663152,
          0.07443360774868228,
          0.02684486062020807,
          0.026738277085653774,
          0.08558440343950056,
          -0.22844784529399298,
          -0.04946759351632598,
          0.009604458084208007,
          0.04588071568741831,
          -0.02766855646272946,
          -0.022455615896684416,
          -0.07215824285899256,
          -0.06704894400210824,
          0.06698139927789627,
          0.005886297475988807,
          0.020108966553078682,
          0.016316112359849252,
          -0.2813413286633643,
          -0.06986288588109783,
          0.10952326304190349,
          -0.02833676967466677,
          0.11208100343463859,
          -0.012392262013813363,
          -0.021025035449151144,
          -0.09959698739702968,
          -0.040540518379841094,
          3.470554590398379E-4,
          0.18895669925278957,
          -0.08193176424775944,
          -0.052835078557413234,
          -0.05450687276791294,
          0.23150130648385442,
          -0.1785817833928757,
          -0.06725331812120468,
          -0.06781344598907034,
          -0.1259877832030921,
          -0.012750965093505484,
          -0.22386421395762363,
          -0.04491153846332427,
          0.04524991166196432,
          -0.010515222624516506,
          -0.10233323985409098,
          -0.03632239327736799,
          0.07416436931872246,
          -0.08363258796784749,
          -0.1036469154159097,
          -0.11290732069078137,
          0.14872085080756667,
          0.02541077814880982,
          0.13583203818944106,
          0.028743169962170214,
          0.05344155861919623
        ],
        "bias": -0.13180175721874735
      },
      {
        "weights": [
          0.10111941152648563,
          0.08712637957936577,
          -0.14019779085430856,
          -0.1396681954050071,
          0.037152404994205385,
          -0.0027919455652630743,
          0.030459920717349025,
          -0.05586358263049676,
          -0.16396649103388128,
          0.027052782471083066,
          -0.059618210130318684,
          0.06529034877776023,
          0.10331132541394408,
          -0.026117874216693315,
          0.04652555015302896,
          0.19927013743500374,
          0.07078403983593498,
          -0.051750952807935444,
          0.08652962099277554,
          -0.0830196089635812,
          -0.09303990630771757,
          -0.04343280566515673,
          -0.03239069613568268,
          -0.07891757969227184,
          -0.10924295888211688,
          -0.06259375230280544,
          -0.1571863108466268,
          0.05447476789887735,
          -0.0037282856772516662,
          -0.06243528991008709,
          0.10448133034066899,
          0.00795838187270836,
          0.2675906445237341,
          -0.25605987057303287,
          0.02995280905087655,
          0.09121448209135034,
          -0.06877954682045781,
          -0.014837936908903317,
          -0.03812941787465115,
          0.009887137826390315,
          0.026735441051913215,
          0.09683223230235087,
          -0.048075788518004696,
          0.04269408286431203,
          0.0211322421896356,
          0.03874705216721997,
          0.11881015874038882,
          -0.014035087603025704,
          0.16828187342428458,
          0.08226747951860303,
          0.0156390713757536,
          -0.04307583987919725,
          0.02737705422885051,
          -0.02404174375741466,
          0.05619726660819574,
          -0.011412739486384936,
          0.1192610853324505,
          -0.022673488431583882,
          0.0453679885210928,
          -0.12456824369523793,
          -0.0670576652378382,
          0.18302116402443663,
          0.1115636857934622,
          -0.08859577462587151,
          0.13965559462513297,
          -0.03804319391084631,
          0.038392544734969995,
          0.08530214969085556,
          -0.06263026044884822,
          0.024825643478482973,
          -0.1275379310393357,
          -0.04759642360357747,
          -0.12003170622257234,
          -0.22471021304997443,
          0.06515615069565521,
          0.1182654748347095,
          0.026909324637243687,
          -0.07606993549118292,
          0.019926903722224353,
          0.06505249567277649,
          0.006579415830349614,
          0.1366008405696897,
          -0.0533012707620978,
          -0.0032395428334550877,
          0.04829159104944742,
          -0.07755355848737702,
          0.10265720525770962,
          -0.02425058881042059,
          0.19840979867086556,
          0.02257543062084233,
          0.05537030013348016,
          -0.01587964903514941,
          0.06257789164921368,
          0.07315173141286584,
          0.08392632432210657,
          0.027321590782797774,
          -0.045710251525989946,
          0.037746486758801864,
          -0.04541113790266789
        ],
        "bias": 0.29752859269709253
      },
      {
        "weights": [
          0.02908743098335328,
          0.07237681869471917,
          -0.015728755239207352,
          0.16417791881449603,
          0.04053519092995744,
          0.13113392691675055,
          0.06871621973817282,
          0.12423991066514659,
          0.04050486041841607,
          0.039264857949389435,
          -0.04443542806227807,
          0.015127814585099309,
          -0.007182267647024379,
          0.04960335285009753,
          -0.09482425532565926,
          -0.015118308453815817,
          -0.18717364702191375,
          -0.05706490103579406,
          -0.08585425232093417,
          1.2218122705732077E-4,
          -0.06358442099735725,
          0.05411877549137232,
          0.08019332136844337,
          -0.06272397584622047,
          0.09305756106952158,
          0.1307091235975204,
          -0.05157172589583685,
          0.051614587223917166,
          -0.041588216192880265,
          0.18907322327890147,
          0.06625309061319516,
          0.10663932449423297,
          -0.06811100209148582,
          0.03702189650908364,
          0.11701211353278873,
          -0.22103488350224706,
          -0.05026630413081037,
          0.15609887185031573,
          0.09768718420985696,
          0.05988882369599567,
          0.13955549615708543,
          -0.20463945367624017,
          0.0074645413301435825,
          0.046015366217130635,
          -0.05982977865938087,
          0.003705001971095934,
          -0.12866469707386807,
          -0.03534003584000001,
          -0.03941370699382968,
          -0.02223591037888497,
          -0.11212936678031508,
          -0.1358190116986627,
          0.04656987497967655,
          0.06794406882067702,
          0.04257453530861253,
          -0.04467098220541429,
          -0.09208601587172624,
          -0.045595792857898144,
          0.05206673381845732,
          -0.10194544560242506,
          -0.14890261055038245,
          -0.0744867149922441,
          0.08497844809190705,
          0.01367097142482122,
          -0.08800153386394634,
          0.02158947660812755,
          -0.02125948884424303,
          0.14416265895697755,
          -0.03529353378214272,
          0.05340724786256217,
          0.0449854341267314,
          0.11379406581096381,
          -0.15818125414399037,
          -0.006332439419450018,
          0.03799091977160951,
          -0.005370533354678862,
          -0.06372134233087955,
          -0.055131984779654586,
          0.03080367240104391,
          -0.2751804338784459,
          -0.040053120056762245,
          0.05579510676349134,
          0.12065558568606721,
          0.04232533628961111,
          -0.04969281323285054,
          0.22437633138943563,
          -0.004853075810036469,
          0.033689152430214815,
          -0.07915601075329363,
          -0.21948582940959632,
          -0.05414765839116215,
          0.06782708701330387,
          0.05567560623490417,
          0.06173123670369532,
          0.0015761309907556115,
          0.0674423649029995,
          0.0021109172452671464,
          0.06124528063753751,
          -0.014166301189736245
        ],
        "bias": -0.23474424022476234
      },
      {
        "weights": [
          -0.18510296250688885,
          0.09492502506812041,
          -0.1673726661203221,
          0.007325363333657324,
          0.052400302271349494,
          0.07480921827802894,
          0.03347378833500484,
          0.1429552467649193,
          0.0024910096045211577,
          -0.042216824326957,
          0.003350067885247412,
          0.0711041973731837,
          -0.11009252086864406,
          -0.06759895468347674,
          -0.0379727707051814,
          0.05773864923994994,
          0.0699464505560773,
          -0.18614203445418587,
          0.08651836250466696,
          0.007006739233120896,
          0.0931483191785121,
          -0.03773891138302778,
          -0.03512698979913796,
          -0.08306433713554937,
          -0.040587333204256705,
          0.005164676689979594,
          0.01211551363294858,
          -0.004245042342132706,
          -0.0859383701879711,
          -0.12745636391446882,
          0.08264563448800327,
          -0.1485780711160756,
          0.005277737086730328,
          -0.037699494545974724,
          -0.06521805499946677,
          0.16030154745564854,
          0.17268116034291428,
          -0.04673984117558044,
          -0.14355316430772624,
          0.048349611197602685,
          0.1279747834745557,
          -0.04413007828284384,
          0.03504118407817528,
          -0.07471576346763002,
          0.13243023344893753,
          0.03538988049027584,
          0.0406215823408224,
          0.15787023537071845,
          -0.020307205482081193,
          0.1707931941742423,
          0.0967509167223222,
          0.05910020648012265,
          -0.01769106864054524,
          -0.0902367230545188,
          -0.10768033178376216,
          0.06382076881075147,
          0.12248574055300937,
          -0.02407104570827757,
          0.11864164814809401,
          0.018853687377177658,
          -0.06587765612759944,
          0.037808396882275955,
          -0.05716269544338329,
          0.059660928871488314,
          0.14186989353820942,
          -0.038643714138638985,
          -0.12033671833468897,
          0.06003527909839583,
          0.009841587814013184,
          0.057246672945252194,
          -0.069194855124422,
          0.056957058342442135,
          0.15500700823115596,
          0.03851860648051424,
          0.06821984288580112,
          -0.03644836928540944,
          0.019961981396878176,
          -0.09158499388748594,
          0.08660710171237757,
          0.007074550035012855,
          0.12257788667811678,
          0.032706033942229054,
          -0.025457159131007333,
          0.05816111232917254,
          0.042929761182725026,
          0.07532107471921998,
          0.10401039814861551,
          0.12448121783978922,
          0.08522367846670663,
          0.058736747302653575,
          -0.03308931175035944,
          -0.1386775900398682,
          0.03953911925858819,
          -0.1322469232357875,
          -0.032531116706808146,
          -0.178624380799824,
          0.031516016373768364,
          -0.030254146599038353,
          -0.1361421027465818
        ],
        "bias": -0.11497052296739341
      },
      {
        "weights": [
          0.17489683413798934,
          -0.003905659297717053,
          0.10910191655887638,
          0.08021652416404483,
          -0.01931993629741755,
          -0.04414020107720303,
          -0.033635710702699655,
          0.10229128340183216,
          0.12823839005376722,
          -0.12626297475111709,
          -0.1870898985314074,
          -0.18527757221822547,
          -0.00494440966769163,
          -0.100143311083732,
          0.031479476143540644,
          -0.024673441830967483,
          -0.09249277680940153,
          -0.07590375820130027,
          -0.04861028492422462,
          -0.0912565055159761,
          0.11328727390517072,
          0.028109981750837173,
          0.10463088487590035,
          0.04736716245126848,
          0.06825254527321847,
          -0.08996635436622659,
          0.04811096700997146,
          -0.09764288359282541,
          -0.009289738489190229,
          -0.2141931492350531,
          -0.03343906243337874,
          -0.06711644874133536,
          0.024375451379179354,
          0.04317090576828102,
          -0.0835028053184273,
          0.03471050358196621,
          -0.04371647902516769,
          -0.027309659925825302,
          0.029498232482551977,
          0.09462184921771866,
          0.14883935052018943,
          0.02365858998572141,
          0.0024409162178581256,
          -0.03932257209056825,
          0.09612005685051442,
          0.03741732396470367,
          0.12126569028014587,
          -0.1087002027964857,
          0.030363007528223795,
          -0.007535830200174898,
          -0.05444015075942652,
          0.0243166087801576,
          -0.0065962383547357355,
          0.008893380867283565,
          0.14167534540094695,
          0.04455319684428261,
          -0.009144593545510414,
          0.012620804893219296,
          0.17543125499573162,
          -0.09247805176147787,
          0.11286861858195935,
          0.09554831184685521,
          0.021522910102124558,
          0.03583022293633497,
          0.06119837353274042,
          -0.0491335368911968,
          0.07727488553676753,
          -0.02470081083797018,
          -7.736397405645682E-4,
          -0.170726861314208,
          -0.006549411946811633,
          -0.04303125605222359,
          -0.24436723393272694,
          -0.002944779518438069,
          -0.05963562792456421,
          -0.12196520334132044,
          -0.23261275305767692,
          0.16385588846341897,
          -0.035011721098197814,
          0.044810068788315706,
          0.08870211382741802,
          -0.13056759836098975,
          -0.18207140452359774,
          -0.017554259177726086,
          -0.017418221707102388,
          -0.16994936024450066,
          -0.008038548360800936,
          0.028327978787151997,
          -0.10710444697762139,
          -0.20394440418009233,
          -0.04665953507835301,
          0.021506391553533302,
          -0.08049518585727992,
          -0.07787610552746829,
          1.3661323428105156E-4,
          -0.04887105575052944,
          -0.03564615005988831,
          0.009805158488150261,
          -0.08236410798147686
        ],
        "bias": -0.1413653222767335
      },
      {
        "weights": [
          -0.0395905518931295,
          0.05005282943368755,
          -0.20213656837153499,
          -0.05179314412396705,
          -0.03186617246764853,
          0.08626653573445728,
          -0.12171575797906768,
          -0.015347072672894176,
          -0.0058485383062484965,
          0.09507321387409527,
          -0.10009989216968405,
          -0.10339049710991734,
          -0.016097983365786092,
          -0.05248230239349921,
          0.18670239638435515,
          0.043449273795020386,
          -0.07593599310376595,
          -0.0948724004820082,
          0.03500460945938264,
          -0.0963053216256678,
          0.11833241704024934,
          0.026440062593271793,
          0.1433639949509858,
          -0.14000239970991427,
          0.007122162563987605,
          0.12371639532292969,
          -0.13894463765799345,
          -0.08143179526630691,
          0.05792592893677265,
          0.02278432389324035,
          0.04686854665208554,
          -0.08415567626810358,
          0.08328763512931334,
          -0.043815897431787966,
          -0.07897089826393472,
          0.09602025173843544,
          -0.04745280105440125,
          -0.1285844049111248,
          -0.057543615717311515,
          0.07967334392107576,
          0.20224445779892583,
          -0.02415533534862104,
          0.043493542470924955,
          -0.10722240331494542,
          0.0731574865268161,
          0.01961745188887147,
          -0.02892959015589406,
          0.017223658973645774,
          -0.05450890327782263,
          -0.18341952370544637,
          -0.13428042393014353,
          0.08305216212418501,
          0.012333085728474169,
          0.054703687341967136,
          -0.03876286674742259,
          -0.0603491990058138,
          -0.040336988679658264,
          0.003901672915949687,
          0.02660303343686896,
          0.12448374419815095,
          0.011790364598139376,
          0.07878099389381354,
          -0.11608756802929845,
          -0.03702131922054427,
          -0.013466095726894644,
          -0.019278936100619367,
          0.031043477596268982,
          0.07909737611384787,
          0.029522593135590077,
          0.08719065467075272,
          0.0160492794487319,
          0.032579896625948,
          0.20695615958829916,
          -0.025487463943321118,
          0.02602091377857882,
          -0.07802838838659734,
          0.0476696626609056,
          -0.056322538377968925,
          -0.06915694797630202,
          -0.10761043196851733,
          0.018677105827840847,
          0.08266694471277221,
          -0.08066733935051999,
          -0.08869027077372621,
          0.07615133527927345,
          0.0870127697923752,
          0.06643839516734848,
          -0.014960018506100368,
          -0.06962565148002868,
          0.15744344321091713,
          0.03242599867585711,
          0.07853482471189292,
          0.06052726946773434,
          -0.14011594630353486,
          -0.06124942888060992,
          -0.009630922209318552,
          0.10191594169558432,
          0.07659078446615848,
          -0.044071258987779645
        ],
        "bias": -0.008446795933640646
      },
      {
        "weights": [
          -0.042597201368384074,
          -0.06833528853795151,
          -0.07081069082450747,
          0.11567418207028415,
          0.046906423892227725,
          -0.07290220206596555,
          0.09201885333651111,
          -0.058317031278980115,
          0.08082601650176278,
          -0.1288397784331869,
          -0.09108587827035683,
          0.004632828890014592,
          -0.005620027956912108,
          -0.13696410852863403,
          0.07557681812092154,
          0.09288730501116794,
          -0.0844476004243695,
          -0.16646480703473207,
          0.01511489659120646,
          0.05008897121656148,
          0.11697596834291439,
          -0.08833314366524177,
          0.053272470361533146,
          0.08030293274521767,
          -0.14439588932283318,
          0.13796574485958013,
          0.002195563238705505,
          0.035488234748163656,
          0.03614199354573244,
          0.05276723206168419,
          -0.06504647825439666,
          -0.027645856586528992,
          0.033019540862803676,
          -0.08182525370860547,
          0.06214399264947054,
          -0.045649979470861336,
          0.07605377451040167,
          0.027045231864065607,
          0.016588968944001595,
          -0.07234084335237748,
          -0.05173142225429272,
          -0.06914565643567448,
          -0.015067487091494997,
          -0.051325201212175806,
          -0.04127407528441193,
          -0.04087176803133076,
          0.03881558402374737,
          0.11189503610659583,
          -0.08717766285049469,
          -0.07616901204864303,
          0.04190223562112105,
          -0.02091494043345268,
          -0.12656920856865814,
          -0.07778546692012817,
          -0.06494795655976164,
          -0.02500497400929847,
          -0.060304415363615436,
          -0.13046972567084608,
          0.04253773807574935,
          -0.0896346727216979,
          0.03993971443429017,
          0.15561804235334958,
          -0.07145303525262955,
          -0.04251806022046561,
          -0.014615782394722047,
          0.04042627549704456,
          0.06852914723323451,
          0.08738815886578874,
          -0.006929619807663473,
          -0.10232686127827577,
          0.09468902575790863,
          -0.11882553707518917,
          -0.07184096313656566,
          0.04359561097055482,
          -0.08232339649988338,
          -0.00404513541909893,
