[
  {
    "name": "INP",
    "activation": "ELU",
    "neurons": [
      {
        "weights": [
          -3.3446569909285153,
          -1.961713830865302,
          -1.3943011008470227,
          0.5552307664141173,
          1.1006248997658754,
          0.8882731890800635,
          1.1639992690202292,
          0.5578956128260828,
          1.4241649388992426,
          1.860428613551291,
          1.6549669684963584,
          1.2981536238260738,
          1.5456513823421416,
          1.2161997958148563,
          1.683104647588596,
          0.5689570517682728,
          0.5570295015145225,
          0.3604432497730375
        ],
        "bias": 0.15682518527336092
      },
      {
        "weights": [
          -2.8451767650212614,
          0.051203578914878776,
          0.8673996901204393,
          -0.34821553464108396,
          -0.8329923875968805,
          0.5652255880207092,
          -0.5376980204439532,
          -0.1114089059392057,
          -0.5117462417685007,
          -0.3722906717608985,
          -0.2828953918519137,
          -0.23167404686086587,
          -0.009840748634452189,
          -0.40933806306369164,
          -0.21999214822016863,
          -0.513560938154532,
          -0.3419289292090924,
          0.27830815389889096
        ],
        "bias": 0.381400959878509
      },
      {
        "weights": [
          -0.4271237987244955,
          -0.14529729339488445,
          0.21426815956816697,
          -0.5106556350783333,
          -0.6808020445545071,
          0.8887890449483313,
          0.5492504159387563,
          -0.07087200157721378,
          -0.7611807098221193,
          0.034047249520910754,
          -0.8127769692052493,
          -0.279244020321638,
          -0.581332603390488,
          -0.6653350889576669,
          -0.04118644473611661,
          -0.2888857917882395,
          0.00131366504138065,
          -0.38394339648170905
        ],
        "bias": 0.17686820819944993
      },
      {
        "weights": [
          0.11651703408592953,
          1.438947468677221,
          0.3880839233556434,
          -1.0459788644645773,
          -1.2392503144717302,
          -0.953091897172168,
          -1.3720356650797507,
          -0.8833962732422593,
          -1.0961645733554524,
          -0.009953181553824273,
          -0.05423611195986809,
          -1.457071365446459,
          -1.2079206188618326,
          -0.6017251865397145,
          -0.9352699144082027,
          -1.2208340801747395,
          -1.131879846846716,
          -0.14274586331077427
        ],
        "bias": 0.1772095530424591
      },
      {
        "weights": [
          -0.6834618969349604,
          1.9762413765518625,
          0.9510573814969278,
          -0.4692698172778765,
          -0.3217437987189552,
          -0.45528045626686353,
          -0.4300302232239741,
          -1.1220316475582583,
          -0.5000239937388579,
          0.3495946675364658,
          -0.8563073397742659,
          0.09343909614378942,
          -0.592284646127691,
          -0.8114082113622729,
          0.1700158509036376,
          -1.0353284199542494,
          -0.05200858507406235,
          -0.005959367968631011
        ],
        "bias": -0.3693708621401416
      },
      {
        "weights": [
          -4.226172423573917,
          -2.175873017051325,
          -1.8688457190590577,
          0.389528430304846,
          0.7153173237199446,
          0.06304338260750582,
          1.1087891300124593,
          0.7076267404868523,
          1.0681398138150013,
          0.7001577017751636,
          1.2158476333650128,
          1.510295845710384,
          1.164485510254396,
          1.9130687504290236,
          1.6613959952865165,
          0.4770679369358171,
          1.5647055496710107,
          0.9792189028037772
        ],
        "bias": 0.9838445084538768
      },
      {
        "weights": [
          -1.7585178200391565,
          -1.9164403343678735,
          -1.6582424442607444,
          1.0777371452361573,
          1.7541623752643907,
          2.0428771100746377,
          1.1710051771874255,
          0.6370388373331575,
          0.6418202373010448,
          1.3691368936627895,
          0.9103982348050819,
          1.172669241561834,
          1.0415308789926847,
          1.0362405958639571,
          1.9770923831990213,
          0.2517864711086959,
          0.9431978968162531,
          0.24022794174556567
        ],
        "bias": 1.3219242855676316
      },
      {
        "weights": [
          3.9979370660689075,
          1.348853585664377,
          0.8780136212412688,
          0.09931387646765687,
          0.19068882951139252,
          0.14139348334425478,
          -0.08080861936806988,
          0.035284804139283366,
          -0.016606863905131906,
          -0.014694916046544151,
          0.21105656188184363,
          -0.0712239257195767,
          -0.10244916154677117,
          0.2612691235259299,
          -0.05269483130759924,
          -0.18181067813060825,
          0.11550470245385952,
          -0.3314213445560034
        ],
        "bias": 0.0435199660887602
      },
      {
        "weights": [
          2.3945551023011316,
          2.3852123242364467,
          0.6227843117431565,
          0.0700703062867257,
          -0.3862893178181647,
          0.14187215293568384,
          0.07284968845382708,
          0.0040565401642908335,
          -0.01788425389884041,
          0.08074910369973938,
          0.20043495091153055,
          -0.05982084226801086,
          -0.04271690830942856,
          0.12540305881091085,
          0.056714050173922975,
          -0.03354667599224015,
          0.07616745440538586,
          0.30080659844679525
        ],
        "bias": 0.11527343147707557
      },
      {
        "weights": [
          3.9680154333179916,
          0.07418564797487244,
          -0.06545224113058642,
          -0.26560311837857614,
          7.446332953573276E-4,
          0.023855367815449634,
          -0.18102277211462536,
          -0.06850949252044826,
          0.0670237841550274,
          0.13594558511746965,
          -0.11002240830416435,
          0.03223990496192391,
          -0.09177567002608056,
          -0.019655656252042096,
          0.0549537499340217,
          0.24223033857942047,
          0.330963864621889,
          0.5353385819225847
        ],
        "bias": -0.8979990400712076
      },
      {
        "weights": [
          -2.3741069423802417,
          -1.1639773291948825,
          -0.41701034532694803,
          -0.2020549428705229,
          0.13026576004254756,
          0.1430370963517351,
          0.20716062913271774,
          -0.3450643092203118,
          -0.030562400105287164,
          0.06713093165512374,
          -0.1792841648751454,
          0.11496309731420128,
          0.21944488062862666,
          0.3819686736808209,
          -0.5609580560460179,
          0.7276555818823129,
          -0.3755809844592169,
          0.43779100580892943
        ],
        "bias": 0.04488468868164751
      },
      {
        "weights": [
          4.593364111857664,
          -0.3392850722438973,
          -0.17241323242272916,
          -0.10501407666175383,
          0.017191343999303742,
          -4.267702285608867E-4,
          -0.00545137584925992,
          -0.05083561156902787,
          -0.02787546446372386,
          0.00798219282449368,
          -0.08442065144362049,
          0.031957574079842385,
          -0.046162590999274465,
          -0.10927774795879609,
          -0.06772197447125007,
          -0.027120577049284465,
          -0.10893857177067433,
          0.22361666998694707
        ],
        "bias": -0.117460148805358
      },
      {
        "weights": [
          -3.9308308859938337,
          -0.8630314899835778,
          -0.09793525571428872,
          -0.3450792571097982,
          -0.16593099093040206,
          0.13085987163568205,
          -0.5122386995890708,
          -0.30304721633717,
          0.23623482870225684,
          0.23305114697178575,
          -0.07813885805144566,
          -0.5671108983229165,
          0.06792230001646733,
          0.012804716319779601,
          -0.10495270914426846,
          0.18898927154090245,
          0.19144392536696922,
          0.25040321949320044
        ],
        "bias": -0.5149424518190437
      },
      {
        "weights": [
          -4.555436754010469,
          -0.31513501688609385,
          -0.08656298417444652,
          -0.1099873437359779,
          -0.2888052626517246,
          -0.6467960275657688,
          0.006487774016616161,
          0.27580832909446895,
          -0.5889752183921685,
          -0.09653024816611988,
          -0.1969677441691008,
          0.3869205060174814,
          -0.32565763011746496,
          -0.0074695461668870585,
          -0.14806649865908775,
          -0.34244218521998576,
          0.22751907154135012,
          -0.3324370702973604
        ],
        "bias": -0.2838689507929554
      },
      {
        "weights": [
          3.8614672978663105,
          -0.21291709525941035,
          0.4829698315669266,
          0.02659408605307567,
          0.04078713706249553,
          0.014465796326758491,
          -0.34651763596049806,
          0.2970276877288309,
          -0.20760323623718246,
          1.8429124974611604E-4,
          -0.10473589837803161,
          0.1099734135992623,
          -0.15463451116276242,
          -0.1525001738460501,
          0.20830539918800586,
          -0.11060900312887653,
          -0.049015612049982116,
          0.11379616124598022
        ],
        "bias": -0.02806786268712978
      },
      {
        "weights": [
          5.186476056917021,
          0.0109800948470314,
          -0.10984380250192678,
          -0.04775322278966951,
          0.3976511951367586,
          0.11798207897506345,
          -0.27462847993432443,
          0.1919525967813189,
          0.007652191215894709,
          0.22265279503694918,
          -0.23290602546708622,
          0.07085679552480065,
          0.11594097076152217,
          0.07670818100686036,
          0.1883534259445507,
          0.02852896681009184,
          -0.10448861159555733,
          0.6558584658047566
        ],
        "bias": -1.0817710768181812
      },
      {
        "weights": [
          -0.42444575541066737,
          1.3645036129812689,
          0.759109089459309,
          -0.9186997786008526,
          -1.8624615519439969,
          -0.9060237038125428,
          -1.6165732192730917,
          -1.5848344427204204,
          -1.553181271757541,
          -0.09941688087053076,
          -0.39806541879055857,
          -1.1161196834903415,
          -1.1506601452928225,
          -1.1000842451361177,
          -1.2486238471967532,
          -1.749425134139372,
          -1.1904787626974,
          -0.02329650889336491
        ],
        "bias": -0.6287346474648898
      },
      {
        "weights": [
          3.557099139467216,
          0.08828245692376498,
          0.2644913152076809,
          0.07874700325657137,
          -0.24452224743433945,
          -0.02832404712133043,
          0.2615069803803509,
          -0.21158992354108622,
          0.11579325276927109,
          -0.1017051140292826,
          0.0689915104501188,
          0.030149211336038383,
          -0.02024687624961876,
          -0.04334323110050568,
          -0.23103543094758278,
          0.1935589402394657,
          -0.13883849856957686,
          0.3956967379706997
        ],
        "bias": -0.12353856328853818
      },
      {
        "weights": [
          -1.786413794866362,
          0.353476918763681,
          0.8585227945511392,
          -0.6937004500680479,
          -0.6194641345291505,
          -0.0924020687219892,
          0.0113165916965908,
          -0.25262275834236436,
          -0.5315443201863541,
          -0.8068522662596868,
          -0.8382850794680129,
          -0.9056990511596789,
          -0.701050671115066,
          -0.9440597342458928,
          -0.7867410394083216,
          -0.05145868233940201,
          -0.5825645024387616,
          -0.3747451005236112
        ],
        "bias": -0.23826121513882484
      },
      {
        "weights": [
          -3.857891017155534,
          -2.419527738088498,
          -1.6172786365621648,
          0.31539514217011244,
          0.25782360939544924,
          0.4746490607288148,
          0.9181574145694489,
          0.3680259159458208,
          1.2254772982656694,
          0.4361234274121032,
          0.17212817363768185,
          0.5615764249172664,
          0.38091272901637824,
          0.9156294743473457,
          0.5159278375365568,
          0.567959052850155,
          0.828029282502237,
          -0.1857627633317257
        ],
        "bias": 1.0127655776950506
      },
      {
        "weights": [
          1.782703541705922,
          2.112144948389763,
          0.6141141741969721,
          0.1402982053976492,
          -1.5718360076105478,
          -0.3530472205158798,
          0.33028067159607255,
          0.02763240472550524,
          0.07137847811924732,
          0.08066232033705555,
          0.3054846530909237,
          -0.09200128337090795,
          0.0857189619170399,
          -0.25488269713690237,
          0.4392044640426085,
          -0.07776930285033187,
          0.06436558030579774,
          0.22342443677525886
        ],
        "bias": 0.012855270562790995
      },
      {
        "weights": [
          3.860076673765747,
          0.04412166094913142,
          0.08992456081511811,
          0.11123287916135537,
          0.02318939422140864,
          -0.10473732025125257,
          0.21170124544198712,
          -0.06960300581344932,
          -0.2216345342506918,
          0.13695922370517533,
          -0.09043644702791555,
          0.23820416414542825,
          0.019985418744554385,
          0.14999215907647923,
          -0.25553051266940896,
          0.08926881836773318,
          0.22917725585307236,
          0.19388292200347068
        ],
        "bias": -0.7083148983768125
      },
      {
        "weights": [
          0.7787454914292439,
          1.062480520889819,
          1.1172639912948046,
          0.12135547525445954,
          0.4148314879814418,
          -0.2533341789349047,
          0.2432887627893487,
          -0.051701681703751334,
          -0.662799719299317,
          -0.44881669792234347,
          0.04257842055780795,
          -0.09448462377740575,
          0.06871019537869211,
          -0.06937715150090168,
          -0.49523571339344175,
          -0.21769990121574126,
          0.11156030690204578,
          -0.5597389691619762
        ],
        "bias": -0.24396284008760227
      },
      {
        "weights": [
          -3.8231205391321796,
          -4.046686030775454,
          -4.001353061553214,
          1.7515259957493303,
          1.9812448760645576,
          1.8282031166328818,
          2.522777931626506,
          2.431759629507789,
          3.142723085948155,
          3.234018286533796,
          3.591858719092798,
          2.963488562874268,
          3.278861799050331,
          3.184896206703748,
          3.2204594664887907,
          1.7629055730313867,
          1.783964885813786,
          -0.5428709519978131
        ],
        "bias": 1.6868183483640011
      },
      {
        "weights": [
          4.800537140820173,
          -0.28682102075698446,
          -0.16133725836040236,
          -0.11352780937206373,
          0.01354943566032706,
          -0.01981591937931998,
          0.10054133684909194,
          -0.04568447083759368,
          -0.00996832101189328,
          0.009331040843068858,
          -0.03731281893499298,
          -0.02768031069732869,
          -0.13216728651299317,
          -0.07111522090686036,
          -0.0754810462923399,
          -0.008482305064619323,
          -0.09771761055212287,
          -0.449591184779447
        ],
        "bias": -0.10054903960300417
      },
      {
        "weights": [
          -4.899591144284245,
          -1.1959362239578133,
          -1.4664746273583953,
          0.02239920630975763,
          0.5497524331827063,
          0.12171807927577268,
          0.2752630449758167,
          0.49839424584878256,
          0.12187696778923494,
          1.0525817933321995,
          0.7376059828420889,
          0.46311509667805134,
          0.6024651871128891,
          0.483670164687639,
          0.4067286585648345,
          0.2532444998759518,
          -0.016009890929362062,
          0.09401681373479392
        ],
        "bias": -0.31500599201990587
      },
      {
        "weights": [
          -2.987905537435934,
          -2.111432250094224,
          -1.3797253729829349,
          0.6930167842337366,
          0.4687981789392247,
          0.22612139008267074,
          0.7639985082184243,
          0.6846797225593115,
          1.2342183056838636,
          0.8607015637043062,
          0.6753573487302393,
          0.9980768415520624,
          0.5117281146030832,
          0.6562158124945046,
          0.2972363456874167,
          -0.24008009732329155,
          0.7076441097957775,
          -0.1782583134093385
        ],
        "bias": 0.3778708262051774
      },
      {
        "weights": [
          -3.6033020997041887,
          -2.6353907673144366,
          -1.9261343665254915,
          1.125919281245283,
          0.8692307653999974,
          1.3204880977345073,
          1.4480837095700327,
          1.3390447027628656,
          1.16590425740959,
          1.0845420641551304,
          0.6597373419679183,
          1.922565784622731,
          0.8668501010229229,
          1.4442544476137018,
          1.1489988155470932,
          0.6546332386203395,
          0.8191008365369458,
          -0.4878152539902474
        ],
        "bias": 0.9770303295904693
      },
      {
        "weights": [
          4.059820085121015,
          -0.11712142569230011,
          0.5648859001160229,
          -0.0418503689399625,
          0.7818074735585577,
          0.21722353629579866,
          0.19025934766789437,
          -0.38004450458891087,
          0.15569326738550476,
          -0.07107053950012027,
          0.21230069593496828,
          -0.23275068832210832,
          0.0117682249743288,
          -0.13502572635508825,
          -0.037003622208112444,
          -0.2808476502167125,
          0.20273229514978797,
          -0.702318162712536
        ],
        "bias": -0.6637567608409439
      },
      {
        "weights": [
          -2.640121767146252,
          -3.009418140039579,
          -3.193675286635632,
          0.9759406053172937,
          1.3643230848454269,
          2.872118607072582,
          2.1032618694752268,
          2.0907900401672856,
          2.0523194738379877,
          2.0159425540931037,
          2.2642221542214984,
          1.1446012892113158,
          1.4007423005303963,
          1.7246299531617193,
          1.4046442064999807,
          1.1623050058682916,
          1.1086666726440537,
          -0.33072449942208454
        ],
        "bias": 1.1597004769293082
      },
      {
        "weights": [
          -3.690942597498267,
          -0.9816329852186884,
          0.14359200759074148,
          -0.34688094935031955,
          -0.42140863690647845,
          -0.5532029074136547,
          0.5123181245609382,
          -0.6418799748821001,
          -0.22705518530418042,
          -0.34513347322856014,
          -0.22971485684382573,
          -0.10813351628284516,
          -0.4733669089931336,
          -0.05964793169791836,
          0.08381897455868148,
          0.11033627186851157,
          -0.16656474709072286,
          -0.04389630075682707
        ],
        "bias": 0.5669977057273402
      },
      {
        "weights": [
          3.5246867671784994,
          0.8522633182411632,
          0.767669824369723,
          -0.44436379449899815,
          0.013691696593079717,
          -0.30015858308091986,
          -0.2564845335934074,
          -0.0029917415405243887,
          0.37219541297029546,
          -0.16247939847768667,
          -0.16883208311975667,
          0.14547978282333687,
          0.2457326902450155,
          -0.06913818472711596,
          -0.331984093050507,
          -0.0773548577379748,
          0.0581416570245518,
          -0.6067956366539644
        ],
        "bias": 0.05299063929511727
      },
      {
        "weights": [
          -1.5657910793530068,
          1.5278520966226214,
          0.5592417051069201,
          -0.5636619929949332,
          -1.1466505622244771,
          -0.5497362339933041,
          -0.5570552915288708,
          -0.07979979840387699,
          -0.9296136945389472,
          -0.7275563461053214,
          -0.4017091936873747,
          -0.30467063955553,
          -0.2495583225084305,
          -1.128043493738104,
          -0.5591115884268383,
          -0.2942607966127193,
          -0.9080132226595762,
          0.0347412435136677
        ],
        "bias": 0.26587011394742255
      },
      {
        "weights": [
          -0.5234403434070392,
          1.4207554359819563,
          1.4360063596300485,
          0.007194312324792518,
          -0.4914729121808176,
          -0.3932117689673311,
          -0.5456417491955402,
          -0.031161837894685237,
          -0.3543565714539097,
          -0.450431434944278,
          -0.7610087591123477,
          -0.9174733700935009,
          -0.5533873911723135,
          -0.5229950801497096,
          -0.36438570120807623,
          -1.094259702501388,
          -0.5479943799703678,
          0.39874892394801337
        ],
        "bias": 0.075236052955671
      },
      {
        "weights": [
          0.6681231311825814,
          0.9063285667755356,
          0.4790376850587814,
          0.422363484347614,
          0.07779493796049516,
          -0.5155712923528182,
          -0.8038582409416428,
          -0.37861792012734524,
          -0.2147166796465457,
          -0.002270610735756828,
          -0.19942824980342577,
          -0.6685510509648449,
          -0.32349491222737037,
          0.524511603093394,
          -0.1403053018334761,
          0.16492410075575212,
          0.8735466163561969,
          0.016814959304223095
        ],
        "bias": 0.16082038385681835
      },
      {
        "weights": [
          -2.913598836396138,
          -1.7197067317052634,
          -1.1494283588090026,
          -0.33468796101627707,
          -0.342867256220341,
          0.3234618633314013,
          0.46519426059536806,
          0.37182172155371124,
          0.3303645612994844,
          0.2459821657234424,
          -0.04586533159892741,
          0.48156004554078474,
          0.23489920651347518,
          0.1676904497561009,
          0.4019967852170896,
          0.4201706937317664,
          -0.48465505059481034,
          -0.20503038214331454
        ],
        "bias": 0.5069334946856513
      },
      {
        "weights": [
          -2.6746075943179384,
          -0.589164197673089,
          -0.7772531096566023,
          0.05578328112123951,
          -0.16347511045071283,
          0.4077332438914698,
          0.1926785865254251,
          -0.3127818530842898,
          -0.051500992488755816,
          -0.27696433128228515,
          -0.02058620549876996,
          -0.07486825954828405,
          -0.09137891580617842,
          -0.08699894218292241,
          0.1460886351503598,
          -0.40038622995061074,
          -0.700513246948804,
          0.035811385374646704
        ],
        "bias": -0.015486833172093045
      },
      {
        "weights": [
          -2.927850236176336,
          -2.5493959257189505,
          -2.9842561798987517,
          1.2440204293442136,
          1.326703312477527,
          1.7539676603905106,
          1.7273482007225425,
          1.2010636548896125,
          1.5678139326223803,
          1.8148546648527193,
          2.1597151030184474,
          1.6939145150424835,
          1.0589472326808642,
          1.977144630449515,
          1.4494419540423866,
          1.353624931786107,
          1.7797104064648224,
          -0.06665910128962277
        ],
        "bias": 1.4224546922059502
      },
      {
        "weights": [
          4.239639306935664,
          -0.0013994718313080226,
          0.06102631462335794,
          -0.08082657648180601,
          -0.15733885709899664,
          0.04322171176345455,
          -0.1362572919113211,
          -0.04923083866730401,
          0.19674225359544953,
          -0.18439313496632095,
          0.347369129621087,
          -0.2182318023092244,
          0.12418827192204317,
          -0.14559091908119434,
          0.2509825818318949,
          0.11670382409688279,
          -0.1805623835749713,
          0.28525354476624865
        ],
        "bias": -0.495176200230622
      },
      {
        "weights": [
          1.7507026448322325,
          -0.7592115279394638,
          -0.316128383314351,
          -0.26706364369248736,
          -0.39747898673966997,
          0.46480290289470094,
          0.18246992122462086,
          0.46071606421425076,
          0.201788272634995,
          0.2348855222227731,
          -0.3085656340446147,
          -0.08591262459604675,
          0.12756563288242384,
          0.6737507277089788,
          0.15016360606363682,
          0.3357412694910673,
          -0.38813556073480504,
          0.5352728725570096
        ],
        "bias": 0.6022425561222724
      },
      {
        "weights": [
          -0.15057978873132588,
          -2.8367964131606875,
          -2.7887326136132544,
          2.0921545741941596,
          2.1097748965936534,
          1.5236284694763857,
          2.124939189233489,
          1.800992429170838,
          2.1262232966992416,
          1.6558709869642765,
          2.1860505179970158,
          2.553217636155064,
          2.2425744402012535,
          2.3730069324135132,
          3.0561505053472353,
          1.963283625690239,
          2.438354635955966,
          -0.13707269073517758
        ],
        "bias": 1.9248227747153233
      },
      {
        "weights": [
          3.351735731877677,
          1.318850692309463,
          1.2786658404672218,
          0.5709940799924874,
          -0.4719778353486892,
          -0.10882081457146964,
          0.2230776578014937,
          -0.24934880635285753,
          -0.22466528151105133,
          -0.3432661791076236,
          -0.8536461605939695,
          -0.5254351104491798,
          0.5772312192311622,
          -0.9839419729217395,
          -0.21665248735868337,
          -0.6655376271661114,
          -0.1956388764900285,
          -0.18495679804785506
        ],
        "bias": 0.10548630814517483
      },
      {
        "weights": [
          -2.2707637409968395,
          -2.676605733562254,
          -1.3970818836854935,
          1.8935164034683272,
          1.5056815185891783,
          0.9702549031897645,
          0.9572862691670379,
          1.603699484423352,
          1.4834909572701291,
          2.6984697227580856,
          2.2016267901631874,
          1.592494400331718,
          1.1737263348418974,
          0.5200222839104311,
          1.632003682686507,
          1.036269920389191,
          1.27280188902351,
          0.0617612276859862
        ],
        "bias": 2.038841717087098
      },
      {
        "weights": [
          -3.963921302773828,
          -3.2527738099378896,
          -2.653264580400843,
          1.578136001365088,
          1.421621075399051,
          0.4718420518850984,
          1.6425614638931343,
          2.0431988074371397,
          1.8911506177605693,
          2.4655963806512484,
          1.3810226883715007,
          1.4487882313601768,
          0.5194855895151399,
          1.315269696862024,
          1.4848846134182314,
          1.1721513307370326,
          1.007904734067218,
          0.6503215957834771
        ],
        "bias": 1.2932040842452581
      },
      {
        "weights": [
          5.159125898155167,
          -0.20727373692690815,
          -4.476615718344151E-5,
          0.1380597011459394,
          0.10798007775818608,
          -0.06638763868069272,
          -0.07578508453047682,
          0.17199913986804305,
          -0.15512990391501444,
          0.19758098110975508,
          -0.06545380070535131,
          -0.22609278329909258,
          0.04273732772699847,
          0.06969190148483474,
          0.03824145046998527,
          0.09502874200135639,
          -0.14968978045968595,
          0.7120692980380646
        ],
        "bias": -0.5353353911400767
      },
      {
        "weights": [
          -3.8328885110092537,
          -1.0738882292461693,
          -0.7965459942768148,
          -0.37089580049883425,
          -0.5969315476656383,
          -0.9366723409947758,
          -0.06648210033827359,
          -0.4323896974711143,
          -0.32535586702677544,
          -0.3296839629777778,
          -0.26247749563971773,
          -0.03474062670014491,
          -0.36532127978791423,
          0.128462312779945,
          -0.4697406879942556,
          0.4097388386594284,
          0.14760037403328385,
          -0.48361856322039554
        ],
        "bias": -0.02622084522110396
      },
      {
        "weights": [
          -3.511214797883389,
          -2.8295506797899153,
          -3.1448727252225384,
          1.524876755552404,
          2.230952109126825,
          1.6626257782424612,
          1.145877130006665,
          1.7740362015543139,
          1.7333621758897244,
          2.248692369240691,
          1.416983448979953,
          1.508734878020713,
          2.1500649612199334,
          1.8909987998070068,
          2.198369256148137,
          1.1478136525657285,
          1.3852080569734184,
          -0.31137666888648885
        ],
        "bias": 1.4834977952130148
      },
      {
        "weights": [
          -3.6890466921645575,
          -2.526436185703432,
          -1.773771047923528,
          0.8948071386162442,
          1.3133064283517868,
          0.6610624938825441,
          0.6393050430461343,
          1.799164078489494,
          1.5168043316124094,
          1.9068709124370358,
          2.0569893307379314,
          1.5158416596443895,
          1.249200869990721,
          1.543339852275056,
          0.6832899135327238,
          0.2155607346582206,
          0.43390716131317575,
          -0.4587960129242244
        ],
        "bias": 0.3966803427798271
      },
      {
        "weights": [
          3.956986855630315,
          1.0880575584557561,
          -0.20134117870639734,
          -1.3763879922009132,
          -0.8336594130860637,
          0.07503444361884529,
          -0.6932960817196439,
          -0.14849535991046162,
          0.4736570627006254,
          -0.6027988710107017,
          -0.3073619861676435,
          0.4375005121327091,
          -0.12715533248583888,
          -0.06702048690503284,
          -0.3532685085434908,
          -0.47697850539621284,
          -0.8854597755644381,
          0.6406854837544231
        ],
        "bias": -0.625010610637902
      },
      {
        "weights": [
          1.4236991086795008,
          1.9530617880715329,
          0.597575153492322,
          0.13052295371413902,
          -0.6005008888980593,
          -0.02186814021496764,
          0.3932473355292209,
          -0.30194771049460906,
          -0.20485432866700637,
          0.13007043908228844,
          0.7100239129999026,
          -0.19499921659420516,
          -0.11550511673366747,
          -0.003855519389212153,
          0.4186545485622046,
          -0.10465515354930273,
          0.039204238918015284,
          1.0211273827542684
        ],
        "bias": -0.6108467840785737
      },
      {
        "weights": [
          0.8347495794099038,
          1.2591421282111661,
          0.43408282734434517,
          -0.3284666417789471,
          0.003526213795535623,
          -0.015302196677742597,
          0.3323760121274291,
          0.16907210159094818,
          -0.20833917436948532,
          -0.7505465426922087,
          0.6394896655971776,
          -0.1256628111919621,
          -0.07777890459179652,
          0.003135474876737211,
          -0.30789030923405813,
          0.1511147590503142,
          -0.015058445175633149,
          -0.005505213414475546
        ],
        "bias": 0.42242624389101235
      },
      {
        "weights": [
          -2.2227250414691784,
          -2.158247787479756,
          -1.4048437482068292,
          0.9994545809879782,
          1.619174696142043,
          0.9713279959600618,
          1.5069756455931573,
          1.9800378177144864,
          2.0965095392069837,
          1.6526594323272816,
          1.7150714781649181,
          1.6598841912598352,
          1.8352091195650353,
          2.886972120170878,
          2.5356694578747647,
          1.9580854933874567,
          1.7228450595847298,
          -0.17563882533683772
        ],
        "bias": 1.3301547881825466
      },
      {
        "weights": [
          4.671348844056904,
          -0.13042685969302603,
          0.8821859755740329,
          -0.3959863571458103,
          0.009851041650117014,
          0.07628875574154688,
          -0.022402365281052397,
          -0.008362745603205053,
          -0.09029652452477532,
          -0.11876307088503243,
          -0.13346353685454027,
          0.06519060482737371,
          0.23177710654521616,
          -0.34878533183768823,
          -0.0538100194048857,
          0.02035232152084366,
          -0.15784978977016764,
          -0.48771613833278415
        ],
        "bias": 0.17794629138254492
      },
      {
        "weights": [
          2.6273413407696085,
          2.0813864456348057,
          0.9442315678390207,
          -0.17660957689518808,
          -0.5569957171718607,
          -0.20905659926297177,
          0.2661608110747011,
          -0.09120985313949695,
          -0.055334512127647874,
          -0.20846918078670942,
          0.08902176928017069,
          0.5552929277621458,
          -0.2640734598998692,
          0.41790579672749506,
          0.3884161594423292,
          -0.9306077364983716,
          0.3394972484602299,
          -0.03347873335334646
        ],
        "bias": -0.1665027627515529
      },
      {
        "weights": [
          1.7033440369138728,
          1.9494655395770675,
          0.6953462097734672,
          0.03697699413235484,
          0.03611842287075629,
          -0.039999175519667154,
          0.1373813132636523,
          -0.09097502782443188,
          0.20790464549484583,
          -0.05310436975962566,
          -0.12859119978303965,
          0.008977923332572873,
          0.01974057655681141,
          -0.021106645469738276,
          0.07880379506042282,
          -0.08393475480646008,
          0.11203921017483864,
          -0.26799099085717404
        ],
        "bias": 0.16386190026846978
      },
      {
        "weights": [
          -1.4589642563354484,
          -0.549781891946016,
          -0.6955522076240561,
          0.542444140903198,
          0.021825708215238642,
          -0.34255619005980614,
          -0.0503945264017406,
          0.07905258340912243,
          0.7842555691123422,
          0.0647884082716077,
          0.9773988594598406,
          0.6914992341686405,
          0.39293245586592235,
          -0.06170826266656929,
          -0.12939511491949807,
          -0.014205096752741203,
          0.9279606121092631,
          -0.24842672563450788
        ],
        "bias": 0.17722472914933757
      },
      {
        "weights": [
          1.0320215541391404,
          2.905175182677795,
          1.3716675305727395,
          -1.056559336950345,
          -0.7605163899200846,
          -0.682517122775962,
          -0.6994139288313375,
          -0.4990285875587067,
          -0.6491171046284515,
          -0.33169927137740834,
          -0.7489004585946215,
          -1.0538560017749334,
          -0.4218772890257531,
          -0.18337844520831378,
          -0.8648709524279182,
          -0.390782567203778,
          -0.7391826829084593,
          0.02131117817738289
        ],
        "bias": 0.2593576715774508
      },
      {
        "weights": [
          -4.540906942513317,
          -3.668999574840818,
          -2.7635281754957797,
          1.480079733761438,
          1.5826779168251865,
          1.728893910757177,
          1.9662146666065907,
          2.1194593242896422,
          2.1110014693656725,
          2.377323121554011,
          2.585752480224452,
          2.310596619047279,
          2.207975815192005,
          2.6931510793792093,
          2.642516496475472,
          1.1772340063691775,
          1.6906094510653014,
          0.034813823868358615
        ],
        "bias": 0.8993753609607755
      },
      {
        "weights": [
          -1.1770375517687188,
          0.979489188443417,
          0.4500386280130783,
          -0.9036889280371885,
          -1.4042231392191833,
          0.1480196538612553,
          -1.2711583819946468,
          -0.42087802733098245,
          -0.33080132509608506,
          -0.8697568013323697,
          -1.3445843350721138,
          -0.45113179051387037,
          0.3446120262397588,
          0.2967444407831152,
          -0.8079492283195937,
          -0.2858235225143956,
          -1.933267497969822,
          -0.8074415305720933
        ],
        "bias": -0.25093842755518314
      },
      {
        "weights": [
          4.6138845585268085,
          1.3046176088871073,
          0.430887958095529,
          0.024437963872744963,
          -0.04371520189287643,
          0.12220353337532695,
          -0.047517460838407584,
          0.03905177307468443,
          0.02231966284699325,
          0.059183302106239254,
          -0.0039028010795051802,
          0.016809364380954293,
          0.06532171259909224,
          -0.022219377193294032,
          0.012006241730897805,
          0.02166843932066874,
          0.07932389338772673,
          0.20610368999896936
        ],
        "bias": 0.07634933378810303
      },
      {
        "weights": [
          -3.7432105525419592,
          -2.137004139450792,
          -0.8195038614792933,
          0.2327551122623824,
          0.36050350585370156,
          0.40680136026978103,
          -0.21596913009577454,
          0.8133300040217577,
          0.3309363021578468,
          -0.1274326486075098,
          0.7718972314052205,
          -0.19839036196148213,
          0.6437212600279151,
          0.5504933565793136,
          0.5257065698039322,
          0.2968557730767586,
          0.44237288350708226,
          0.7745900856838257
        ],
        "bias": 0.7530741370719605
      },
      {
        "weights": [
          -2.2116374979921614,
          -0.5746735093022806,
          0.3315485502126266,
          -0.06109162645823947,
          -0.28599816518391097,
          0.07014453122569532,
          -0.14798159525806462,
          -0.2340098396124524,
          -0.4063147216401057,
          0.04303007598675967,
          0.05483622023826583,
          -0.5709352180832624,
          -0.4393214574953732,
          0.2125034662956827,
          -0.17062231763782879,
          -0.5406502955420774,
          0.2961152962601666,
          -0.08764134115717279
        ],
        "bias": 0.12351557690715706
      },
      {
        "weights": [
          0.7675530357974795,
          2.172872581473109,
          2.1688023198079747,
          -1.371917322533219,
          -0.9706717223792809,
          -1.7604245681993838,
          -1.3468498563949594,
          -1.6035209803142942,
          -2.046855745034842,
          -0.9214629165842356,
          -1.1336322047971965,
          -1.1078374350250255,
          -1.140364682290179,
          -1.09553110809946,
          -1.4681762948222639,
          -1.3346666014149806,
          -1.5052525048121306,
          0.5158919170217656
        ],
        "bias": -0.27799063593916223
      },
      {
        "weights": [
          -2.484496431155993,
          -3.851322055970309,
          -4.559513349118045,
          2.366267348424648,
          2.510519999285745,
          1.6273744303574236,
          2.4144426421354446,
          2.8724811673780963,
          2.8606295484728643,
          3.241476928735961,
          3.5765643200775505,
          2.8978010748850203,
          3.354970141536754,
          3.5406388234103776,
          2.8213653939999777,
          2.289555774131328,
          1.7114615345713293,
          0.035078775545004624
        ],
        "bias": 2.076712909770924
      }
    ]
  },
  {
    "name": "H1",
    "activation": "ELU",
    "neurons": [
      {
        "weights": [
          -0.8420937431888497,
          -1.1865572478166777,
          0.5862235961550784,
          -0.9153267060022173,
          -0.4640871554064229,
          -0.7436878676098985,
          -0.18289462277245538,
          0.35361545434311653,
          0.3237797710084874,
          1.0334177022738225,
          -0.6302299435405839,
          0.4952950356509438,
          -0.4533369359486608,
          -0.4824988575910605,
          0.2416412285565149,
          0.7976638543191525,
          -0.9556737534770583,
          -0.16805431796934486,
          -0.39699124865248625,
          -0.7339869501205529,
          -0.2713860870910822,
          0.4225913617507169,
          -0.7952343114532492,
          -0.9063027588982863,
          0.2693265034122188,
          -0.6152658591663557,
          -0.5048011549508599,
          -1.0603971904732652,
          0.46868937947120953,
          0.28448080563432177,
          -0.5794728240434989,
          0.2545356685128844,
          -0.5030665171318217,
          -1.149724192508868,
          -1.0360888061096014,
          -0.3949581147520621,
          -0.7990066101864006,
          -0.339498291130034,
          0.8277685070876716,
          -0.7197949627111269,
          0.0808279230697506,
          -0.2110036349713533,
          -1.0377874920405223,
          -0.3604203539179283,
          0.2691731442634935,
          -0.41100036548593843,
          0.09495814754775307,
          0.0016050478019117584,
          0.6653819759289289,
          -0.020395146155840913,
          -0.626997378972295,
          0.2639442311678312,
          0.10839526132534279,
          -0.18970124247184816,
          -0.16030328146703912,
          0.1518353720326569,
          -0.916733525867605,
          -0.8472721800157984,
          0.5233644878105439,
          1.2623411925156334,
          -0.9673375266236169,
          -0.9203252917072647,
          -0.8819650761163574,
          -0.4451036119418084
        ],
        "bias": 0.0766064618149004
      },
      {
        "weights": [
          -0.5861530254595839,
          -0.573189984225987,
          0.4310774975224291,
          -0.6299735874968289,
          -0.40533236471328943,
          -0.75240068536948,
          -0.3374237349641299,
          0.14308184381472208,
          0.2967446563952691,
          0.8876837065905084,
          -0.44322334244735795,
          0.5415937410468864,
          -0.23341642947682253,
          -0.2455861650237196,
          -0.10428908773932392,
          1.0929438215954248,
          -0.35195294904531943,
          0.3609224733132155,
          -0.1254691038867767,
          -0.21849332997381826,
          -0.7138289571345425,
          0.8873320034587845,
          -0.2787809453108402,
          -0.7173823980575043,
          0.6963122682398074,
          -0.5320368718694387,
          -0.006346751435709134,
          -0.48697595312731723,
          0.628777096406982,
          0.3237890568192539,
          -0.6531796325564674,
          0.3119087876777262,
          -0.5091097595666433,
          -0.3046060653624376,
          -0.28270532198217996,
          -0.7523055395510078,
          -0.4814381741892645,
          -0.004884877324517505,
          0.6983622964006488,
          -0.791572133443992,
          0.0350782529618681,
          -0.012255127936305687,
          -0.8286396330629953,
          -0.368636965041213,
          0.5654660345520465,
          -0.4335463822942719,
          0.28606072959827716,
          0.18648621319977665,
          0.8561889248393946,
          -0.18382459078813077,
          -0.5838130107759458,
          -0.11446101334852404,
          0.11165541925010572,
          -0.11126104715314662,
          -0.26120695714824466,
          0.25902041235658946,
          -0.7776044979184218,
          -0.6717085087863569,
          0.12003801924822806,
          0.7693069301182701,
          -0.7822918690015909,
          -0.523822461627156,
          -0.5499583645088053,
          -0.3392433924999885
        ],
        "bias": -0.052275040241030024
      },
      {
        "weights": [
          -0.08338026735365084,
          -0.09144038236457601,
          0.5471445692709656,
          -0.39217450333436044,
          -0.09777296506340004,
          0.02788670606987632,
          -0.16930267865032905,
          0.20284070051204367,
          0.32097905258679543,
          0.7752077020608029,
          0.14002688864659785,
          0.4075131300861532,
          0.09354113761070632,
          -0.2552210210980713,
          0.4041333938706607,
          0.680304039175763,
          -0.176905420887309,
          0.26294307305210823,
          -0.04753686945830324,
          -0.1076167255503177,
          0.3164536106741405,
          0.7238592722951369,
          -0.12860161968100145,
          -0.10738525099891819,
          0.4469201837751284,
          0.0023569252187066103,
          -0.11175336771789272,
          -0.048251197352576346,
          0.40158587728543604,
          0.07851693018444182,
          0.141232574780653,
          0.5431066445799729,
          -0.09584309576965203,
          -0.07674618944616486,
          0.00954121099204526,
          0.10431054625230343,
          0.02131779765731414,
          -0.09058741988675655,
          0.3743747269133311,
          -0.050701542408600524,
          -0.06555554776056845,
          0.22550250928360638,
          -0.27329149690202215,
          -0.03948017433751024,
          0.2516735413338304,
          -0.008329569004245018,
          -0.2973012231041012,
          -0.37922049944850034,
          0.6621918516883546,
          -0.05895309016451139,
          -0.24062234230601412,
          -0.12828816339516633,
          0.2662039323677079,
          -0.09438262728973734,
          0.4189355000685271,
          0.10445540587719933,
          0.07110669626476918,
          -0.23935465510236215,
          0.2050007875142175,
          0.6919911351005316,
          -0.10673509512208745,
          -0.07828905039850677,
          0.1471996417741708,
          -0.06105580666072874
        ],
        "bias": -0.15838204794846503
      },
      {
        "weights": [
          -0.9731461935510786,
          -0.6108447709978214,
          0.5553725882993944,
          -1.0037474453895592,
          -0.6780919068875924,
          -1.0195837499752747,
          0.07597326362494676,
          0.3686940487172919,
          0.7950531654070835,
          0.8322424277201605,
          -0.8943029460187717,
          0.43057457266879356,
          -1.1241791188419012,
          -0.31021612677059496,
          0.24640850800556768,
          0.7993685860243507,
          -0.733342519880018,
          0.1926483143199654,
          -0.4509449665821068,
          -0.7633830655055145,
          -0.29268595733679403,
          0.44689865347193025,
          -0.6919585253179895,
          -0.9700276507244818,
          0.7107697648047575,
          -0.8414876551091786,
          -0.44257279977519354,
          -0.7602298675424597,
          0.5430871645928587,
          0.19596859913185688,
          -0.8802318417754442,
          -0.04140883042773952,
          -0.6462845278832412,
          -0.6737835710312092,
          -1.1622490644831007,
          -1.1261935837871977,
          -1.025468608360281,
          -0.15413170783772473,
          0.31558190532610475,
          -0.9157722367586524,
          0.45399107644478837,
          -0.19684951221471497,
          -0.7850652657917017,
          -0.758296682305583,
          -0.015714774160266176,
          -1.1214759167211328,
          0.06965938277040577,
          -0.2561442980790465,
          0.6376612628998889,
          -0.0015676685389757355,
          -0.930787745479089,
          0.10628075591112544,
          0.08020614502164178,
          -0.1488480666803751,
          -0.044216705781712905,
          0.17243153185912902,
          -0.7205781782683474,
          -1.1527600228909474,
          0.48543568506774054,
          1.6338167243631367,
          -0.9051397590914387,
          -0.6458041481528365,
          -0.9571121629828047,
          -0.6524625464183837
        ],
        "bias": -0.10317992507684404
      },
      {
        "weights": [
          -0.2546244503217705,
          0.4484225804581215,
          -0.5237558826055076,
          0.25875132643273563,
          0.01770858338870296,
          0.3519811731010232,
          0.06465558950559078,
          0.04775068632707694,
          0.15694632402690173,
          -2.0876032323699922,
          0.13030908100289712,
          -0.6630692331634354,
          -0.4716128146470251,
          -0.3042193530707833,
          -0.15193031801734316,
          -1.3589650040601067,
          -0.13699271272801417,
          -0.27802115800000904,
          -0.16202811954572888,
          0.13821358896028138,
          0.3530990875323163,
          -2.0876414707282613,
          0.09047498180184446,
          0.18815035312848213,
          -0.035896573147333535,
          -0.18134230065985427,
          0.2590102145798148,
          0.3761614089599306,
          -0.1678650883743303,
          -0.22762905731685834,
          0.4059862152399161,
          0.06805915589438245,
          0.27459306064475086,
          0.4077876402435485,
          0.5997325390396304,
          0.057410866216054166,
          0.336728623035528,
          -0.0990702447225255,
          -1.3990756147333943,
          0.41024870841619626,
          -0.288020725387769,
          0.26097317099409445,
          0.7399362991123709,
          0.025876606543748945,
          -1.2920156199519406,
          -0.1680328234482043,
          -0.2839661661059887,
          -0.2327911248967062,
          -1.114729942121009,
          -1.08738802880784,
          0.5284360647521067,
          0.3759905447293345,
          0.22475976420271726,
          -0.09470980987592123,
          0.03446985965674655,
          -0.08624251524474685,
          0.36396566231882677,
          -0.13636363141855687,
          0.37426958629318735,
          -0.464336058730489,
          0.583243414588996,
          0.3556056997135808,
          0.14944235750325782,
          -0.09894818121670276
        ],
        "bias": 0.5157845137143232
      },
      {
        "weights": [
          -0.5408481740024711,
          -0.07436600692166961,
          0.3124308187503868,
          -0.26566404512397107,
          -0.2441937515742998,
          -0.016751420044322427,
          -0.09107702642834714,
          0.4786453220841371,
          0.9822547899672676,
          0.9763288486328993,
          -0.46819979247835447,
          0.610094359201521,
          -0.13668129595954037,
          -0.295044482264239,
          0.6077607483621137,
          0.713995179920132,
          -0.11063175559048022,
          0.24434147027500464,
          -0.13012477973676248,
          -0.3864052415900608,
          0.11211735603793216,
          0.6658333453063598,
          -0.20455423438899703,
          -0.4703386465179967,
          0.7306313676149091,
          -0.34587785224872325,
          -0.21482853177709427,
          -0.17636173335437477,
          0.8379919549058373,
          0.11340521767972997,
          -0.050619810808913646,
          0.42990328910584413,
          -0.14974587246727747,
          -0.2276847098885216,
          -0.09188982082324486,
          -0.49739765607303377,
          -0.0020590112173711223,
          -0.21995953137914054,
          0.8021261215330362,
          -0.24769053014133438,
          0.1092003090810517,
          -0.10783502162846602,
          -0.39996783950465664,
          0.009044392079659805,
          0.18083100005941954,
          -0.08876923766101005,
          -0.12887781110539678,
          0.058462434607972374,
          0.3257400005808495,
          0.18491453230583704,
          -0.14886235694492114,
          0.12978941588869872,
          0.6417207767627676,
          0.16027483689666458,
          0.4995508934623864,
          0.07561191253075458,
          0.016081771980242108,
          -0.5222566197221495,
          0.197222367542058,
          1.2686781782582974,
          -0.4602636648865608,
          -0.0834398845041113,
          -0.016017916812494,
          -0.13425722156516923
        ],
        "bias": 0.15657226393941365
      },
      {
        "weights": [
          -0.19389857784590755,
          -0.11575660627995041,
          0.2822683476782948,
          -0.13855443101714407,
          0.05513153921027557,
          -0.26864804866033154,
          -0.0644428557248142,
          -0.439641397761371,
          -0.23802698282838053,
          0.8989590619472977,
          0.0872483803974163,
          -0.5897962520488947,
          0.30211827901727956,
          0.15305740376784538,
          -0.1571770667462873,
          0.4643221727851663,
          -0.0907717337243456,
          0.003238869127788791,
          -0.03516624745444514,
          0.1737728511691387,
          -0.013988202337428932,
          0.4100788530192793,
          -0.04860643648334538,
          -0.2024087959558981,
          -0.5646157033825027,
          0.12200775730230656,
          0.009559613160763428,
          -0.19444013041975303,
          0.1576634986331313,
          0.17447437784318945,
          -0.28364234150029555,
          -0.15667089857752672,
          0.10704416253601755,
          -0.0691289225396687,
          -0.25951984300660524,
          -0.12437337127036485,
          -0.13337927551404508,
          -0.03979032026746629,
          0.3244967209213114,
          -0.273853589583712,
          -0.04294706135237245,
          -0.16363712240586398,
          -0.36005947609326566,
          -0.06622507923160434,
          0.1663956226213812,
          0.12665120065594404,
          -0.0022647357205375744,
          -0.12295952450998307,
          0.41392369070107365,
          -0.0801727497412524,
          -0.08468101251807135,
          -0.277003452502109,
          -0.30826990427716333,
          -0.040306289795966295,
          -0.007268959699797458,
          -0.018368217505073996,
          -0.12137036225054063,
          -0.011229776270214384,
          0.2742614351329632,
          -0.38724018078453754,
          -0.21719240945216353,
          -0.2520043425416539,
          -0.049731497776354085,
          -0.3322004202804727
        ],
        "bias": -0.14562024212250785
      },
      {
        "weights": [
          0.03799696901934307,
          0.5644161103593215,
          -0.12432868498785393,
          0.2381032572370909,
          0.23190949984790638,
          -0.3417838605508374,
          0.2231699660036133,
          1.1827437129555312,
          2.3362330512261575,
          -0.09002524161456052,
          -0.07569435612051206,
          1.677774497532594,
          -0.2688449069557994,
          -0.01246207053131803,
          1.1298732411496342,
          0.6636983696119123,
          0.3223783907045243,
          0.7577795112695282,
          -0.17895407255819118,
          -0.07774462437602256,
          1.6662975331659162,
          -0.008020969489625883,
          0.27852091258415246,
          0.060791637188877194,
          1.7510017827966,
          0.061331898748110604,
          0.10683488978020829,
          0.05820004717998488,
          0.4743250027820638,
          -0.4543529053289099,
          0.14529742829233147,
          0.31700700655329817,
          0.24225096105269228,
          0.2576802640600607,
          -0.6132681869691047,
          0.18432879694834742,
          0.22041792145688127,
          -0.1543881207168361,
          0.9787150991092235,
          0.1504142418546011,
          -0.23482347009671542,
          0.16052058681088296,
          0.12523377506047267,
          -0.009410530795820946,
          0.8298141135955014,
          -0.2029955007298821,
          0.016474482435724233,
          -0.17922874845391695,
          -0.037798283113425514,
          0.8694061274332696,
          0.27781807114045926,
          0.22498980942217925,
          0.7104314827118274,
          1.7648694962708085,
          1.449305205804159,
          0.10930364510632735,
          0.17345579646049905,
          0.12721938717309278,
          -0.05881996351987178,
          2.6061450849553185,
          0.14730557669370392,
          0.27570784768646706,
          -0.009462114717940485,
          0.18065858800249748
        ],
        "bias": 0.43425437364511443
      },
      {
        "weights": [
          0.08514694635809282,
          0.17967771618665276,
          -0.0055671701724770125,
          -0.275407520467337,
          -0.3803065503841405,
          -0.006393151941238987,
          -0.05225828740508449,
          -0.7145741462338266,
          -1.3461949847994783,
          -0.696094630406625,
          0.10857058924588321,
          -0.8458466746058576,
          0.0976031623935601,
          -0.300225238682139,
          -0.9079276894499105,
          -1.446283848110281,
          -0.3555751744822295,
          -0.8279163629219999,
          0.08576561740290409,
          0.1554747544621648,
          -1.1731106267383509,
          -0.780728102756752,
          0.19554176472937712,
          0.09399016383915591,
          -1.4145595929756343,
          -0.021049307209186362,
          -0.1886184075912033,
          0.06154539403415886,
          -0.5642487838604097,
          0.40158675968857627,
          0.09058563010587757,
          -0.35505000468576,
          -0.1398884435100482,
          -0.22360172534892375,
          0.005213991185753019,
          0.00783826206968615,
          -0.05060652190394831,
          -0.2951284374154487,
          -1.1425391733126198,
          0.17143215326306768,
          0.1595732225733173,
          -0.027938494443814833,
          0.10487885168881804,
          0.1609565221010666,
          -0.7806212090058423,
          0.006271210021464774,
          0.03534180951970745,
          0.04838418118565487,
          -0.6259250503258519,
          -1.3660375867149377,
          -0.046318782889443355,
          0.040894966861764456,
          -0.24593778230854524,
          -1.313222864071103,
          -1.1503859693336163,
          -0.13784711432053193,
          -0.021071772931094444,
          0.03722121891596077,
          0.0440900655259277,
          -2.284485059455061,
          0.029715219667662697,
          -0.18437146365060983,
          -0.0772457819321179,
          0.28606513527033434
        ],
        "bias": 0.11411320864332582
      },
      {
        "weights": [
          -0.6050720570680714,
          -0.33444406079932104,
          0.555952263337481,
          -0.9521805512715483,
          -0.3363993000721975,
          -0.4318901886528762,
          -0.1465931814975392,
          0.6528887181823665,
          0.6779828988461052,
          1.0267492506565237,
          -0.17295616273964684,
          0.5565946859132206,
          -0.1609988494803617,
          -0.558550247832236,
          0.41595747199301286,
          0.9260862377405136,
          -0.30117484955050156,
          0.4919310000723931,
          -0.4328738523092634,
          -0.3763105089150963,
          -0.40726380045850624,
          0.7941975120205368,
          -0.13134148825434502,
          -0.7348701066466139,
          0.5728387531671655,
          -0.1715029250877878,
          -0.4285994990631116,
          -0.3942941959646734,
          0.6090140826802052,
          0.17553426118919863,
          -0.27931085840155784,
          0.48794406400913065,
          -0.20231590868104776,
          -0.2913210284684175,
          -0.3796053815098347,
          -0.7638264870089803,
          -0.6051599479006472,
          -0.16990163400277164,
          0.7304260310438843,
          -0.4542763409144823,
          0.1698035915066449,
          -0.20229024152533553,
          -0.8583922599771653,
          -0.1914410145131472,
          0.43520047415707125,
          -0.07565829940965102,
          0.0712201463911239,
          0.0959195949235626,
          0.6716282062541984,
          -0.01850234844090555,
          -0.3591975897679642,
          -0.15021747208938116,
          0.2865297619864984,
          0.03928686240597082,
          0.35704334628651263,
          0.01609069014289664,
          -0.41396738014721696,
          -0.7338965842696344,
          0.152555593491115,
          1.116242744716907,
          -0.3188906099548395,
          -0.30506145849855143,
          -0.22459701770805934,
          -0.47332768371272627
        ],
        "bias": -0.03477906564901573
      },
      {
        "weights": [
          -1.1961796608053754,
          -1.4361231066615587,
          0.32150495505759347,
          -1.21326961656074,
          -1.0972145842934522,
          -0.8707091226330057,
          -0.48276016272382893,
          -0.2876804700633456,
          -0.49597395589340715,
          0.7678553985826155,
          -0.9276818298020733,
          -0.03915841504852355,
          -0.7306302453198932,
          -0.23290519998794743,
          -0.35096981927344717,
          1.0393240145687048,
          -1.176971435424982,
          -0.3617352145018467,
          -0.4673943897697427,
          -1.0738333952634957,
          -1.1908397280610041,
          0.4497629849610363,
          -1.1159932504009156,
          -1.047038080459757,
          -0.3210037456687625,
          -0.633022945573421,
          -0.6066250771142186,
          -1.3308880569490515,
          0.12826195900217408,
          0.1666832647680497,
          -0.8237743447435774,
          -0.37999879769504186,
          -1.0172365539257104,
          -0.9968043933974308,
          -0.9521359043111909,
          -1.1959713177126963,
          -1.1307367324221196,
          -0.10046164714561957,
          0.4180878703482472,
          -1.328011436369722,
          0.1701497933678913,
          -0.3462353249398464,
          -1.6788729851505528,
          -0.32184348593911244,
          -0.027766834324842334,
          -0.8158475056306147,
          0.24763769202204317,
          -0.04389995304100642,
          0.962727623182044,
          -0.25892345644500225,
          -1.0526076236386657,
          0.023897127376192727,
          -0.664858729204896,
          -0.8342463899449472,
          -0.8555576918535032,
          -0.38475062820296074,
          -1.4944116685776816,
          -1.2319373049613693,
          0.3765133775380865,
          0.5484211104458211,
          -1.4181483564717847,
          -1.4503981748062098,
          -1.2142745059062534,
          -0.8304186150779513
        ],
        "bias": -0.024448883903209387
      },
      {
        "weights": [
          0.05944399643645804,
          0.013126335608586058,
          0.5698090234645051,
          0.010115584511078904,
          0.13559005673509886,
          -0.15232069706355014,
          -0.03742704550993814,
          0.41796227320053264,
          0.5158588849871513,
          0.727647751047728,
          0.2136355587129273,
          0.6813623483290862,
          -0.0453174630298907,
          -0.06670515193005151,
          0.4293040473444445,
          0.8230446230878624,
          0.3186395407436462,
          0.814228492683591,
          0.1495660185216766,
          0.10170386741299099,
          0.17749857978205563,
          1.5674695959687326,
          0.19265351401438988,
          0.1657845300140624,
          0.569718373320078,
          0.1610602000638395,
          -0.14025317403297857,
          0.014426075940755342,
          0.6672277546471589,
          0.770602029007736,
          0.048631462216009336,
          0.41028322802961165,
          0.11209708452407269,
          -0.036524297871678976,
          -0.40923270506771775,
          0.010963163515840391,
          0.098176427654023,
          -0.05331359568820695,
          1.0001476166316268,
          -0.03766353853214972,
          -0.1613581865738101,
          0.37990358147885034,
          -0.2905395570026518,
          -0.15495953896315132,
          0.9403736799862558,
          -0.19722392298168367,
          -0.18767291812222311,
          -0.14791850074347948,
          1.4165156030343904,
          0.39747567987963234,
          -0.4704266779889491,
          -0.8023579225867089,
          0.4177641050779228,
          0.35608207238796774,
          -0.09170801000592713,
          0.4840742147617515,
          -0.0698093032238623,
          -0.026937087744413574,
          0.5774136827777889,
          0.3763633123593314,
          -0.20272796062119267,
          -0.03060343846207363,
          0.420371399196632,
          0.18290926028524207
        ],
        "bias": -0.29691548078024393
      },
      {
        "weights": [
          0.03200184619549153,
          -0.06508184587842397,
          -0.5367115186906884,
          0.2308623455666914,
          0.08809756678913543,
          0.30126858144227425,
          -0.12352803029875269,
          -1.1157883574485878,
          -2.410603783477722,
          0.9432789384773163,
          0.363172130590862,
          -0.4636531129179906,
          0.5619505310460899,
          0.13892252307715955,
          -0.7575322224887389,
          -0.06285658618271103,
          0.1397626429026416,
          6.806507865557949E-4,
          0.396582284023641,
          0.10942044464562221,
          -1.2395579334140472,
          0.8652591338380275,
          0.30577114887199375,
          0.21517826451987473,
          -0.48821903194410465,
          0.2327837680636741,
          0.18242448625179092,
          0.055838650236545974,
          -0.1200854012534621,
          -1.2033696604732314,
          0.33502627558214315,
          0.2620014594777579,
          0.0467745429081369,
          0.025019695177897427,
          0.20599937638118795,
          0.09683331278266728,
          -0.21578744884629064,
          -0.18117581067560115,
          -0.552184263345225,
          -0.15477792685662306,
          0.2841203330393546,
          -0.5573656268129275,
          -0.01849635940216058,
          0.08173458754196757,
          -0.020106594001556805,
          0.4322122200869065,
          0.19682498155339498,
          0.14609291941836647,
          0.7996213630084305,
          -0.626935473975269,
          -0.02232661475835421,
          0.035961007202845376,
          -0.7992577177149524,
          -1.1842754884072397,
          -1.14633774094354,
          -0.42454143158634977,
          0.15846980957587437,
          0.11650626688316125,
          0.8770989848389447,
          -1.724895647403549,
          -0.06178806797761486,
          -0.15354421012825362,
          0.20430159995871472,
          0.0333981444014035
        ],
        "bias": -0.518599792154339
      },
      {
        "weights": [
          -1.1025631496962585,
          -1.5566925459351493,
          0.31078745517165524,
          -1.3469377623987675,
          -1.0841477037802822,
          -0.8503410081878615,
          -0.4533226216382314,
          -0.3399256902728421,
          -0.34841483993076067,
          0.8019376875699479,
          -1.0437529902641214,
          -0.166938934329766,
          -0.8972691101641931,
          -0.41051800712755504,
          -0.4112760975738172,
          1.0432602795572883,
          -1.1929873054883244,
          -0.4111569805360648,
          -0.3474993406735705,
          -1.2824933534914635,
          -0.915564608311447,
          0.5007092650304976,
          -1.1743872818225236,
          -1.1688981292843879,
          -0.03349698145813498,
          -0.8458081326442635,
          -0.7274823798638922,
          -1.1750254499041197,
          0.06709226557244018,
          -0.06849232511244777,
          -1.3681878966353411,
          -0.3019662627051165,
          -1.2975648473256414,
          -1.1434465211701712,
          -0.9950314396407934,
          -1.216633683706447,
          -1.1568549009659956,
          -0.12564006122007662,
          0.2582701128446038,
          -1.4088836241486402,
          0.15561428617144513,
          -0.4321979909414332,
          -1.4400212956793053,
          -0.5007089931493303,
          -0.4263208465495013,
          -1.0013719918777209,
          0.0074787495784434995,
          -0.04726159622937558,
          0.5832240446733701,
          -0.16294180777696524,
          -1.2495703325859522,
          -0.08109693030111462,
          -0.7426856002287243,
          -0.5543592058245381,
          -0.8663022318180856,
          -0.12091502341280244,
          -1.213940376614407,
          -1.6066324538369323,
          0.399315860162112,
          1.0926585401784226,
          -1.3274360128567768,
          -1.6350090812256797,
          -1.482313158723265,
          -0.8671717045133926
        ],
        "bias": -0.172210298671227
      },
      {
        "weights": [
          0.17947061585502683,
          -0.20238026560492203,
          0.3189629355606787,
          -0.18441062275297257,
          -0.047359331134016115,
          -0.030942829792995424,
          -0.10509833406843715,
          0.08374835896561197,
          -0.1459982808841026,
          0.3124587048554607,
          0.0808401323150921,
          0.17619667517141555,
          -0.02865396496262198,
          0.0686930248884156,
          -0.043228562679339264,
          0.5264036890545865,
          -0.029540185069327575,
          0.3027422989700332,
          -0.027876858025154563,
          -0.09136653173544672,
          -0.36575773632042125,
          0.608126517832211,
          0.1549930977235507,
          -0.014506540796667728,
          -0.09553192670023304,
          0.15120866330519947,
          0.010772156066558338,
          -0.08448317864689531,
          0.38393760620805606,
          0.11559205307988568,
          -0.030425738126533135,
          -0.14123339708212918,
          0.015159856354991657,
          -0.20409804058817413,
          0.13321762226260178,
          -0.07742327501593155,
          -0.05977303513265246,
          -0.17989338071341268,
          0.45283761342738127,
          -0.14828526938211228,
          0.009266468626165014,
          -0.30794536940932143,
          -0.2008613206991917,
          0.11337741796038966,
          0.5259689620711678,
          -0.008620807877858362,
          0.1037347172876639,
          0.11017710449434999,
          0.39836815918563356,
          -0.18572474624580979,
          -0.3180717788234634,
          -0.24765430032217667,
          -0.2766758443333179,
          -0.02885591490757212,
          -0.08862423902925505,
          -0.10706878307729654,
          0.045980560079169015,
          0.014250576233797479,
          -0.04264907569528742,
          0.03431793973916175,
          -0.07789437325066907,
          -0.19665788945537938,
          0.03845586713584355,
          -0.162969457498963
        ],
        "bias": -0.007296620512000171
      },
      {
        "weights": [
          -0.4399576777749089,
          -0.2524457243363085,
          0.7359722781375508,
          -0.3269392287574529,
          -0.3054134550413951,
          -0.5154475707017022,
          -0.376365108562895,
          0.6501578084510371,
          0.5120290629642652,
          1.508541735078682,
          -0.15119523306868915,
          0.08408248987161056,
          -0.17176933559292581,
          -0.35289168032583623,
          0.09270913262813289,
          1.0447045421814802,
          -0.3103690021668492,
          0.6842194833834627,
          0.05188304256500177,
          -0.09812551437520745,
          -0.21577328449865965,
          1.0375949358858716,
          0.12136367873376902,
          -0.380124398471565,
          0.13767871695119963,
          -0.34267301099782027,
          -0.20253193930145158,
          -0.2799266192717261,
          0.4267344877015344,
          0.24433863402881797,
          -0.1283872740518276,
          0.24587694595998594,
          -0.1822791053000612,
          -0.04132940239831951,
          -0.007702414233588897,
          -0.42819048313575625,
          -0.29347083426340886,
          -0.15938087172513773,
          0.6678541080486491,
          -0.5091772636669103,
          0.1868741938312546,
          -0.12924413523488024,
          -0.757306299652824,
          -0.17332490361243724,
          0.15563369747153785,
          -0.055356896206626136,
          -0.016012964624571722,
          -0.3798354358569877,
          0.8528191404614198,
          -0.2763205410845459,
          -0.4519521306540939,
          -0.3067494252568734,
          -0.04813955401030933,
          0.12517697249130916,
          0.1860657636432016,
          -0.34262209774037405,
          0.08794888418249922,
          -0.2660696693469658,
          0.3468411404632498,
          0.9593951220733852,
          -0.19248478581998027,
          -0.42077379875678395,
          -0.1737402230892243,
          -0.4341319367448196
        ],
        "bias": -0.18016796685626657
      },
      {
        "weights": [
          -0.7679095934399117,
          -0.5447493194615345,
          0.6714142971071234,
          -0.4966009638585529,
          -0.32342998364883363,
          -0.27735307823558136,
          0.024655861218043244,
          0.5205652089113679,
          0.5732941788034528,
          1.159428398180237,
          -0.20261227818450966,
          0.5054143628657417,
          -0.06989619046054871,
          -0.17689264729076193,
          0.3737161741345934,
          1.0590802944444475,
          -0.4698677915862478,
          0.3242087320272508,
          -0.28786717868650025,
          -0.2857527244372077,
          -0.13644779265644094,
          0.8182231377406086,
          -0.4309724653881382,
          -0.643464935555724,
          0.47935969982970295,
          -0.2484584727490929,
          -0.06572753952348034,
          -0.47297078845106344,
          0.653501051996025,
          0.34942240136089714,
          -0.07383834835547977,
          0.2478083061045538,
          -0.2730612127094921,
          -0.44193378231445735,
          -0.08486108670137064,
          -0.212088433320087,
          -0.30566457555291343,
          -0.15594313169217988,
          0.6784920678358245,
          -0.6626287488976608,
          0.13225645908161085,
          -0.10811836676728262,
          -0.776223530637872,
          -0.01693553804510103,
          0.3878898541563202,
          -0.01499212111985888,
          0.04533567449138554,
          -0.13820606542435426,
          0.5164603042686959,
          -0.08966736694376884,
          -0.209336755226826,
          0.09704769905063507,
          0.3949319856052035,
          0.27204620296388343,
          0.25413844297360766,
          0.14735793312336504,
          -0.36499773207743147,
          -0.6101153258795049,
          0.0779000583505421,
          1.235894111722095,
          -0.5813368047764635,
          -0.3498692397867722,
          -0.1999698332298585,
          -0.0803975061916934
        ],
        "bias": -0.09475718786781612
      },
      {
        "weights": [
          -0.2501079787277363,
          -0.13900929834792547,
          0.5064083398194115,
          -0.11180672276154086,
          -0.2055075807281405,
          0.1142262026103181,
          0.050975051915133324,
          0.2501495583908777,
          0.42138295101010215,
          1.110257053451323,
          0.12966213565855905,
          0.3187206447161825,
          0.09703215103389821,
          -0.0065459626234481896,
          0.2578568658672465,
          0.510915633435819,
          -0.13225015342951127,
          0.10363970177211738,
          -0.04917669498411688,
          -0.026564286615167253,
          -0.009667819266132055,
          0.34997513756614024,
          -0.01047843652188584,
          -0.7925419307152085,
          0.54761249031446,
          -0.19800996287416453,
          -0.3402895144436884,
          -0.29118678871081405,
          0.3513572597017226,
          0.12199798519776313,
          0.11906963103469924,
          0.40291579927717264,
          -0.16415199545340542,
          -0.1442605541027372,
          0.07766502247592273,
          -0.2154821931012694,
          0.014123816003408741,
          0.024201986050714226,
          0.5590378869474202,
          -0.04692147559447396,
          -0.07287198171699266,
          0.03516580297168202,
          -0.5233506369274922,
          -0.11423417525089449,
          0.43697378358607736,
          0.06270572664371443,
          -0.15140576197821265,
          -0.3370605749484136,
          0.460390545422229,
          0.05530926103397491,
          -0.1470874036847532,
          -0.017368608948765265,
          0.14281259492503512,
          0.15126570392104124,
          0.25985653529330754,
          0.1154057634687736,
          0.0703750677752694,
          -0.25080494595339886,
          -5.1566341537445814E-5,
          0.6382144774233426,
          -0.0325239602035092,
          -0.17281687930126696,
          -0.049163690792200565,
          -0.02705905246955199
        ],
        "bias": -0.15421509051528517
      },
      {
        "weights": [
          -0.538369946296535,
          -0.45898148157906854,
          0.3657105011520165,
          -0.7759874652675641,
          -0.37140459070820264,
          -0.38317467539999006,
          -0.21497861928163262,
          0.00970337966745626,
          0.4851872974896646,
          1.1645301390781402,
          -0.4639405918609068,
          0.09994490663314819,
          -0.1776082615584982,
          -0.47775405080492084,
          0.35808019768517807,
          0.997864815276769,
          -0.3630613017760756,
          0.37784007683899307,
          0.09453787200258888,
          -0.3963540960752073,
          -0.09598380800013798,
          0.8209547272840028,
          -0.3098919190687701,
          -0.7472920643028268,
          0.12300748156710542,
          -0.36095220307852366,
          -0.1788018268174945,
          -0.6058710085184507,
          0.5337772551543891,
          0.2840404050344162,
          -0.49626006984514615,
          0.22463255245785718,
          -0.32678486420654723,
          -0.38243400937067845,
          -0.5392418891947403,
          -0.3748814570345173,
          -0.40937037935537185,
          -0.36811482594440426,
          0.6026016532495518,
          -0.7502258236929366,
          0.1817384005800919,
          -0.05492614787262612,
          -1.1142605957000926,
          -0.22296687805993592,
          0.3612566847461621,
          -0.252725059202432,
          0.03303466883567314,
          0.009734266724544754,
          0.8125117410921496,
          -0.11518458307336522,
          -0.5449199428427676,
          -0.38610819391330875,
          0.21302390693698028,
          0.11149236999898764,
          -0.12170026408308267,
          0.03004803324954422,
          -0.43030678189775545,
          -0.6497084055268575,
          0.11743880212433244,
          0.6672077173422236,
          -0.3803037992294917,
          -0.5721976488917291,
          -0.47991344183154866,
          -0.36238807338718454
        ],
        "bias": 0.04644984707541093
      },
      {
        "weights": [
          0.15426907282508864,
          0.10241961155616285,
          0.09667576336490524,
          0.021282702991246037,
          0.1106976454474385,
          0.2554732554563537,
          -0.27806129375104655,
          -0.3709329730356244,
          -0.35970344258527903,
          2.4831627349582033,
          0.4785494345841766,
          -0.47434315230770824,
          0.8203094774102282,
          0.09668391434028246,
          -0.7604948703337555,
          0.6794680771302772,
          0.10397831468906571,
          0.23449389462401474,
          0.10375439553944667,
          0.32402470817780077,
          -0.47212128150987465,
          1.5788089668900591,
          0.42917294813730583,
          -0.17088141113712396,
          -0.36071663911202023,
          0.43180956050650265,
          -0.37221008366381925,
          0.04756602855054379,
          0.632668550013674,
          0.13388843403876527,
          0.061397280439256595,
          0.33034390248667295,
          0.0453750224114297,
          -0.05831027094319325,
          0.5966352836733344,
          -0.18798799444358436,
          -0.20781459056431564,
          0.045457485411619834,
          -0.3119614444077318,
          -0.31268061803899305,
          0.46724259248428696,
          -0.3262407075738242,
          -0.028838640007630922,
          0.14042760606935675,
          0.06954295096800699,
          0.504329710619849,
          0.19729620599829162,
          0.1668723161234438,
          0.1276434003444868,
          -0.09750242105554817,
          -0.09170267720240069,
          -0.4331782028647548,
          -0.5459961205217567,
          -0.3455668204035592,
          -0.29478305881880656,
          -0.5099945057237224,
          0.34518764914179495,
          0.0756863519865067,
          0.8199330432784762,
          -0.9025908379326222,
          0.1045651601136665,
          -0.19122254060269633,
          0.3382970313211326,
          -0.3207982586385241
        ],
        "bias": -0.9334164580908088
      },
      {
        "weights": [
          -0.2147212277780586,
          0.07475568104912979,
          0.49933483813364654,
          -0.050167064820924444,
          -0.03864891627185672,
          -0.0045796842242010714,
          0.042057752832918065,
          0.4161088887614893,
          0.570932790211037,
          0.7480249791923739,
          -0.1540529549042258,
          0.6840789736413055,
          0.016656619044890554,
          -0.23271041727725492,
          0.33084058670065847,
          0.7643397178502369,
          0.17509538478065786,
          0.604385725399709,
          -0.24269041723551033,
          -0.10424126831595391,
          0.07883881420382083,
          0.958213304695413,
          0.155550412348287,
          -0.31445090685706495,
          0.6347657424375027,
          -0.0957541803422347,
          -0.2528513134624185,
          -0.07562489980526804,
          0.5339812884055618,
          0.3104468982729467,
          0.013386444515269045,
          0.1439737584687823,
          0.033138135208561306,
          0.035242962006023414,
          0.10482178876134864,
          -0.08322599415324572,
          -0.002870349417554902,
          0.14047060583112161,
          0.6470704638912744,
          -0.3132866797138526,
          0.33829503825349594,
          0.20787979826203676,
          -0.22887384234896677,
          -0.2853603630620451,
          0.6359263355838357,
          -0.08094369036118104,
          -0.17758941035205794,
          -0.1621774892045764,
          0.5088279496235617,
          0.1335095543107759,
          -0.02868634040054114,
          -0.30666879919183054,
          0.39455941289002117,
          0.33646356733134547,
          0.26185022176698897,
          -0.05710163589417661,
          0.01238066186099728,
          -0.1649304052308423,
          0.1446597732545511,
          0.512803129042584,
          -0.034934337924192385,
          -0.036399228489770556,
          0.053438288375942965,
          -0.13632780008486894
        ],
        "bias": 0.005448339609642789
      },
      {
        "weights": [
          -0.4213874299767223,
          -0.9931455946154991,
          0.4155209959720305,
          -1.0301329159649575,
          -0.38666868423200035,
          -0.763412468392355,
          -0.2632129038657958,
          -0.20186493627099478,
          0.1816970047046932,
          1.0923848279528323,
          -0.21594872290064093,
          0.47449939303337996,
          -0.1847915832122882,
          -0.3326885075263745,
          0.25335147164201877,
          0.9532995098511347,
          -0.8258200764548312,
          -0.3576569630574835,
          -0.6195755221372037,
          -0.496896177203465,
          -0.17154026975155354,
          0.6329557020337382,
          -0.5667545150158624,
          -0.9208792811121453,
          -0.02953433435432894,
          -0.12481855513449824,
          -0.6090882824668779,
          -1.2415007262990854,
          0.40281323131143537,
          0.368528286364519,
          -0.26521921312761265,
          0.3787649723453403,
          -0.35173787553087144,
          -0.8282890763730367,
          -0.7161044241079513,
          -0.5473194043345366,
          -0.7722830895084846,
          -0.11799038739404646,
          0.5400710134683998,
          -0.7365121641733587,
          -0.06506857763546159,
          -0.05996576127305261,
          -1.2866526562964835,
          -0.20186423343299287,
          0.666924742427798,
          0.07631310927615215,
          0.11074495169753706,
          0.16768178287793137,
          0.6031278564745212,
          0.08955220918820174,
          -0.34165713693269834,
          -0.166249391232009,
          0.1065499109313693,
          -0.08345701487413676,
          -0.18969868647888707,
          -0.14233717299012508,
          -0.7206993996804556,
          -0.4651167926282828,
          0.08129667878818213,
          0.6543893815085401,
          -0.7288327282726437,
          -0.7302526861674955,
          -0.49285079845180374,
          -0.2537104699453948
        ],
        "bias": -0.19694522608300394
      },
      {
        "weights": [
          -1.151973481778744,
          -1.4060231903840188,
          0.4032669898698672,
          -1.279621149093387,
          -1.016112414263593,
          -0.8376144798403844,
          -0.5621446693054605,
          -0.29612147992741306,
          -0.34591871557031356,
          1.064201011241165,
          -0.742808128566834,
          0.029394621106355944,
          -0.5031769144604336,
          -0.22897602411835227,
          -0.26338257540259546,
          1.1879726925652034,
          -0.8681879490164109,
          -0.31613261456351777,
          -0.29981520308196474,
          -0.8963748175488886,
          -1.0081894500506625,
          0.3555503181181483,
          -1.0747912470373706,
          -0.9589149555389098,
          -0.13352905317647454,
          -0.5898612146563736,
          -0.6693504924821728,
          -1.0998388573709261,
          0.20798664341028095,
          0.20066662003063102,
          -1.1950324578644536,
          -0.3947758062661036,
          -1.0774866314293234,
          -1.1090467948441616,
          -0.9623900620649161,
          -0.892338018728257,
          -1.099766485307087,
          -0.16710812512437695,
          0.43837970667965903,
          -1.3625878390149577,
          0.015877263296552837,
          -0.44993998294539916,
          -1.5613384701211124,
          -0.27039538870492946,
          -0.2727657478531385,
          -0.82194402272695,
          0.403061045249662,
          -0.005632762821047673,
          1.0021071611554275,
          -0.2624248582806574,
          -1.1836837561979674,
          -0.15705437012952875,
          -0.2746783623034172,
          -0.6655747167404671,
          -0.7782267664799956,
          -0.21427509930401398,
          -1.1381950070267768,
          -1.114705113923202,
          0.4335618374497771,
          0.8036322820990883,
          -1.2888173462902657,
          -0.9793642052374755,
          -1.219295345882394,
          -0.6809762927298232
        ],
        "bias": -0.09057398427600308
      },
      {
        "weights": [
          -0.18554234671893433,
          0.05591253491032774,
          0.3690389830318854,
          -0.39679758588837843,
          0.051069198235677224,
          -0.15346904717448984,
          -0.075324801927498,
          0.18756771304991413,
          0.47106574758263364,
          0.4387852039318188,
          -0.049806193467322145,
          0.4836411877283158,
          -0.07365025646311116,
          -0.04756415270305857,
          0.379730001410476,
          0.5267057998974463,
          -0.029940343317557187,
          0.2816131165831816,
          -0.13888064293089103,
          -0.2068273947253838,
          0.109522536724874,
          0.4223726059493078,
          -0.18790179558155184,
          -0.4410072239442615,
          0.3476890538139939,
          -0.19012436536506883,
          -0.019015713682205802,
          -0.22086192716704822,
          0.38452961294214477,
          0.15307417022145794,
          -0.11595053303968651,
          0.30845838806060616,
          -0.2159303044198525,
          -0.12477319750518306,
          -0.1314770402695495,
          0.02569269592437444,
          -0.287450877053202,
          -0.11293765135383954,
          0.35974270418268917,
          -0.10423191384937687,
          0.07162279887532919,
          0.15992770398330367,
          -0.3998063046112464,
          0.005763780946419071,
          0.4155370712440571,
          0.05752350355201536,
          -0.03616460057031563,
          -0.21454542478550334,
          0.25480480065091077,
          0.12263606735244414,
          -0.2614306440293087,
          -0.1374814173342556,
          0.44285319395807615,
          0.2458737497135086,
          0.053811606974525986,
          0.1806784702311863,
          -0.23052407210523673,
          -0.3755044012197445,
          0.23870489942154954,
          0.4777236813683869,
          -0.2541410348638312,
          -0.24888225281633378,
          -0.1344758744723588,
          0.16315560712126784
        ],
        "bias": 0.0309982276371433
      },
      {
        "weights": [
          0.10310126866542146,
          0.21006466359261985,
          -0.0293154653404696,
          0.06456592000978573,
          0.21610256860168378,
          0.03024764348805669,
          0.24964559276192771,
          1.5082572931367098,
          2.203522038135164,
          1.78070487385453,
          0.05993289258023064,
          1.7124438865141989,
          0.19625658164855678,
          0.08261706384637298,
          1.0784997237566567,
          1.3382688052320175,
          0.15686844391064853,
          1.3244860636377793,
          0.1500936743015754,
          0.08029105251067639,
          1.2564282804468965,
          1.3005895700205974,
          0.31602946895217726,
          -0.02805323828385994,
          1.8716657559711047,
          -0.06394132219701897,
          0.09595395510201339,
          0.037984546151178175,
          1.0289397914749199,
          -0.5072969095499597,
          0.18423602784447643,
          0.8418262288146009,
          0.131545212291021,
          0.20045114865435568,
          0.2410588941941922,
          0.10289707937679554,
          0.060665751252590126,
          -0.042185285170212035,
          1.5294084116847064,
          0.26364719690691074,
          -0.15297529730610043,
          0.22658847037630275,
          0.2025677245573894,
          0.11761490463249014,
          0.9018557515147293,
          0.0743819019553198,
          -0.16113586036791658,
          -0.06499806356112216,
          0.6133791668208389,
          1.0559055255144765,
          0.36654427892300323,
          0.1898905127871591,
          0.8807568102518143,
          1.3477327102203884,
          1.4077850319516676,
          -0.02664679786137003,
          0.39684713660849036,
          -0.08804962505187947,
          -0.13455402330368685,
          2.8022395217848586,
          0.030731993520942,
          0.22198425825844348,
          0.25592612417559263,
          0.15933455597633328
        ],
        "bias": 0.2852324631304729
      },
      {
        "weights": [
          -0.05565944006726809,
          -0.19544234175076028,
          0.05280971632949761,
          -0.2501740364474913,
          -0.0657628257409795,
          -0.22777210233406045,
          0.019141038299795587,
          0.1978764790325566,
          0.16879638932332702,
          0.1259240985999998,
          -0.05632685496034773,
          0.2952538276600652,
          -0.00631298254737756,
          -0.18370419261207324,
          0.12192643670925743,
          0.3220700964429256,
          -0.15916742485172056,
          0.04953083765165202,
          -0.11814168273702726,
          -0.007713793944578973,
          -0.09108410419181702,
          0.3855145607135689,
          0.11621655821352059,
          -0.14778221800144042,
          0.05483910864390432,
          0.1942956050404038,
          0.09640388048226148,
          -0.21614982344003406,
          0.15428190176143106,
          0.17348165970635152,
          0.015272333922731161,
          0.01931401338028406,
          -0.00948674577001516,
          -0.15627675286405093,
          -0.029019554437890466,
          0.10803041111203981,
          -0.013442509251855965,
          -0.08848299403119242,
          0.04645893847133786,
          0.03774822592683427,
          -0.09201718678923565,
          0.13941775528478065,
          -0.10034046987349975,
          -0.07554047911661867,
          0.03065734867139308,
          -0.06899238886666713,
          0.10362313814283533,
          0.07729334520375669,
          0.1625677487770495,
          0.005455001600058093,
          -0.03193402148807725,
          0.010673717715091862,
          0.04694991187771593,
          0.17838482584214002,
          0.06981584139987002,
          -0.13575996844670493,
          0.09961170521131635,
          -0.11431850459449949,
          -0.045793676988524726,
          0.38039275206431444,
          -0.026224713659968278,
          -0.13672483557239415,
          -0.061286107824641244,
          -0.08638066110690962
        ],
        "bias": -0.2592028009384968
      },
      {
        "weights": [
          -0.3238585380047027,
          0.14307415964512366,
          0.15200606216619683,
          0.29733410134213073,
          -0.0567886384950197,
          0.06443038222036751,
          0.15443175571716536,
          -0.25218104952048587,
          0.47651223823334793,
          -0.8642162445447129,
          -0.40144629002209725,
          -0.31816221860453986,
          -0.3064813431598866,
          -0.1649967912519579,
          -0.03075685490512312,
          -0.6176947837839327,
          -0.39439200461009555,
          -0.3963288192734912,
          -0.219281431281165,
          0.15586448527152494,
          0.5686341788747352,
          -1.568184244282418,
          0.20825427121765128,
          -0.07174530185800267,
          -0.27720602725102106,
          -0.4289980851417988,
          -0.03247222831652179,
          0.11319144966899852,
          0.09269109016902913,
          0.1655961612723884,
          0.12909995149948458,
          0.3339267755321423,
          0.06131841956220266,
          0.2645334322854519,
          1.0457262944553605,
          -0.06697590841865801,
          0.12221670072080919,
          0.13124020318556037,
          -0.8252552876525239,
          0.31858700305673826,
          -0.023333863986619924,
          0.3739391469557858,
          0.3036351109979751,
          -0.04282094748650555,
          -1.2171391864946028,
          -0.1959147222014183,
          -0.20074462807246848,
          -0.18727849256969342,
          -0.1386330893316605,
          -0.5321469998086608,
          0.4525705096520092,
          -0.1656047541311036,
          0.3182205509135998,
          -0.4197469382643546,
          -0.09928751796666885,
          -0.21882969775662642,
          0.2329685133767222,
          -0.2976554268864718,
          0.831438322873599,
          0.1277017527588313,
          0.24317432883555984,
          -0.07811710493791647,
          -0.37306447890701855,
          0.21116692898196313
        ],
        "bias": 0.44991212662759766
      },
      {
        "weights": [
          -0.6404775779440426,
          -0.3194114873594777,
          0.6007675488249822,
          -0.7380143114121807,
          -0.23345161459211222,
          -0.4996927161957383,
          -0.17133188045742573,
          0.7971389926300461,
          0.7640274932709357,
          0.87580661893813,
          -0.3124258371917418,
          0.7329355460871219,
          -0.11450413223981354,
          -0.3550714891339344,
          0.47008944947717857,
          0.7799925217981943,
          -0.29398695262974467,
          0.5218107515975535,
          -0.2767318061933702,
          -0.41382195007233724,
          0.07553612708950821,
          0.6402157283610496,
          -0.2611112754180917,
          -0.4409292054930616,
          0.49119940508136845,
          -0.3114547647014144,
          -0.270468018826172,
          -0.5370758815688973,
          0.5867043429771548,
          0.009471334460895379,
          -0.26816151115598436,
          0.32344121347759386,
          -0.5030500184023025,
          -0.37511854823386653,
          -0.4435794356068933,
          -0.19978867217522664,
          -0.33366815107045134,
          -0.16807700893289157,
          0.5458535398981448,
          -0.4395085679238107,
          0.15549336197692012,
          0.10598219457760605,
          -0.7019972179738306,
          -0.10348043406730853,
          0.28121325022575755,
          -0.06407815371271594,
          0.1658597990923605,
          0.05647181341581368,
          0.5349197395900296,
          -0.023955793230390727,
          -0.43732610321821425,
          0.2483544753040479,
          0.24788019024372304,
          0.13841754768444323,
          0.15834932673962576,
          0.4150007537043586,
          -0.3804984238581588,
          -0.6013697969815077,
          0.09505463379877513,
          1.4377165197625719,
          -0.52609999998611,
          -0.19357060907024648,
          -0.46646080773076687,
          -0.1310645047813687
        ],
        "bias": 0.12029969221421119
      },
      {
        "weights": [
          -1.046668998124062,
          -0.8537323887546213,
          0.2969599872767715,
          -0.983187773865689,
          -0.5164990163319139,
          -0.8528920549954426,
          -0.17124708251429127,
          0.21676557372187913,
          0.5078385821417141,
          0.7044705776582207,
          -0.5576992013001748,
          0.2814197707383997,
          -0.4261032727244082,
          -0.44108494187637254,
          0.2196780759351245,
          0.8791618024585462,
          -0.6427065184663235,
          0.1789900309398853,
          -0.22620645420165905,
          -0.46860929915940286,
          -0.3242999896137268,
          0.6014868047537467,
          -0.5941569690661179,
          -0.8780324545904553,
          0.37823580010050023,
          -0.49259026137701406,
          -0.142982516827959,
          -0.6213035616223407,
          0.37301325354472625,
          0.20328238564370302,
          -0.6975971526583815,
          0.46637674462376505,
          -0.7749426234711481,
