[
  {
    "name": "INP",
    "activation": "ELU",
    "neurons": [
      {
        "weights": [
          0.005044780937112565,
          -0.2601102558588635,
          -0.09298961332572253,
          0.026641915196574138
        ],
        "bias": 0.4664559053137194
      },
      {
        "weights": [
          -0.011398941651272584,
          -1.0295321934760033,
          0.358303914728637,
          0.03905577113866766
        ],
        "bias": 0.17007433351149992
      },
      {
        "weights": [
          0.03132755903977058,
          -0.26712442624457566,
          -0.09849761235157391,
          0.028029043690546197
        ],
        "bias": 0.4627770632139474
      },
      {
        "weights": [
          -0.06038570944513206,
          -0.2474341949854222,
          -0.16447324098229157,
          0.02981749613561026
        ],
        "bias": 0.4042623494346515
      },
      {
        "weights": [
          -0.02162825824705349,
          -0.25924686959992993,
          -0.13088911942595816,
          0.029163894072917633
        ],
        "bias": 0.4243654908738353
      },
      {
        "weights": [
          -0.08360975557131906,
          0.11838323617419749,
          0.1572603210005913,
          0.06009627388295546
        ],
        "bias": -0.3014456956557025
      },
      {
        "weights": [
          0.007162177386477959,
          -0.2618717434000393,
          -0.09435345224303066,
          0.026936621470425658
        ],
        "bias": 0.4663065959320149
      },
      {
        "weights": [
          0.021119820616081447,
          0.30519746704927386,
          0.22593009679829001,
          9.99127528815833E-4
        ],
        "bias": -0.21649235246387674
      },
      {
        "weights": [
          -0.1395003725209182,
          0.4490011664406217,
          0.20243206785475534,
          0.05753460156720205
        ],
        "bias": -0.7670728895490839
      },
      {
        "weights": [
          0.011150031145371084,
          -0.27061212825223313,
          -0.10043342627025047,
          0.028881925659270374
        ],
        "bias": 0.4537100067621759
      },
      {
        "weights": [
          -0.09985150334800262,
          -0.11098869979710876,
          -0.014523220522838049,
          0.13259953412306083
        ],
        "bias": 0.4207366557789562
      },
      {
        "weights": [
          -0.011881856795208683,
          -0.26209252717540077,
          -0.0956886072539701,
          0.02715434847332369
        ],
        "bias": 0.4645635109800112
      },
      {
        "weights": [
          -0.1370038446388247,
          0.5843790334439545,
          0.20592172032975933,
          0.09762029154225065
        ],
        "bias": -0.5932219724930441
      },
      {
        "weights": [
          0.03244067112723464,
          -0.2598990714915883,
          -0.09636158588612792,
          0.027064421115781202
        ],
        "bias": 0.46448921368672236
      },
      {
        "weights": [
          0.15369052606607467,
          0.1008023088078132,
          -0.1801662656006021,
          -0.023245221934232372
        ],
        "bias": 0.8341473974961688
      },
      {
        "weights": [
          -0.12752997859031795,
          0.3460022994321588,
          0.1884401089800433,
          0.06199360994679296
        ],
        "bias": -0.3632655131701409
      },
      {
        "weights": [
          -0.13578802306908055,
          0.4353315917913333,
          0.19861031007795832,
          0.05660981150115527
        ],
        "bias": -0.7756780725936775
      },
      {
        "weights": [
          -0.20242008654538254,
          0.27937597564034955,
          0.14546320595896053,
          0.18701418297058836
        ],
        "bias": -0.06430159125907407
      },
      {
        "weights": [
          -0.07266959958336104,
          -0.14144614385442925,
          -0.02457729634576006,
          0.1251883608225963
        ],
        "bias": 0.4187848773205045
      },
      {
        "weights": [
          -0.07708809155811988,
          -0.15809751343969175,
          -0.03480042434396512,
          0.11335948299537457
        ],
        "bias": 0.4159366455003469
      },
      {
        "weights": [
          -0.12579671981073526,
          7.727685756017367E-4,
          0.06322562083852264,
          0.19665855487530248
        ],
        "bias": 0.3684217015303408
      },
      {
        "weights": [
          -0.14398878131680445,
          0.6954043070118237,
          0.16558473884861266,
          0.1564062220312605
        ],
        "bias": -0.4316796042353046
      },
      {
        "weights": [
          -0.0023021619755162004,
          -0.25719762094886045,
          -0.09301543096318474,
          0.026499710166692232
        ],
        "bias": 0.4676182104847224
      },
      {
        "weights": [
          0.02890487343469237,
          -0.26352276039523836,
          -0.09514550713978039,
          0.027415024940716987
        ],
        "bias": 0.46263374809405455
      },
      {
        "weights": [
          -0.08821088855956051,
          -0.10654798475578396,
          -0.01271477686824366,
          0.14804282860085693
        ],
        "bias": 0.3950358457861978
      },
      {
        "weights": [
          -0.1626355486484711,
          0.4904044725671174,
          0.2588309321341066,
          0.0964725144318241
        ],
        "bias": -0.690375089432088
      },
      {
        "weights": [
          0.023653334143027675,
          -0.2709538270292969,
          -0.09982927117438309,
          0.02869748709170003
        ],
        "bias": 0.4549908561752324
      },
      {
        "weights": [
          -0.2045444886220967,
          0.28054339792351224,
          0.14061945104234813,
          0.1982245741030504
        ],
        "bias": -0.05326318647657762
      },
      {
        "weights": [
          -0.13903163630084475,
          0.27798307957653684,
          0.1644838577658779,
          -0.00946759953358709
        ],
        "bias": -0.12811305311710716
      },
      {
        "weights": [
          0.02886676026912206,
          -0.2639654578208562,
          -0.09778209123099309,
          0.027284475862993995
        ],
        "bias": 0.46680889366725503
      },
      {
        "weights": [
          0.03452431260129619,
          -0.2610086404225656,
          -0.09483162973763477,
          0.027140669186644407
        ],
        "bias": 0.46507398017946366
      },
      {
        "weights": [
          -0.1082718636499045,
          -0.06592859384765312,
          0.016268206433332114,
          0.17155480693952063
        ],
        "bias": 0.4101084865558744
      },
      {
        "weights": [
          0.032325756899915355,
          -0.2651148168715137,
          -0.09688370915456214,
          0.027721720496004732
        ],
        "bias": 0.4652398457370633
      },
      {
        "weights": [
          0.08176008215797585,
          0.03711757855030933,
          0.004327651883851869,
          0.004848432634868387
        ],
        "bias": 0.1793104319503349
      },
      {
        "weights": [
          0.012917029380194164,
          0.09086663925863413,
          0.1364890406296639,
          -0.02290990287944387
        ],
        "bias": -0.11828423812792531
      },
      {
        "weights": [
          -0.03578715555425396,
          -0.27602640798285866,
          -0.0946764013387989,
          0.02910433634572146
        ],
        "bias": 0.4441434971748579
      },
      {
        "weights": [
          0.03316068068983421,
          -0.2637627443876125,
          -0.09748297153088191,
          0.02737147362733115
        ],
        "bias": 0.4635015670868735
      },
      {
        "weights": [
          0.009869140227433687,
          -0.25963591095183586,
          -0.09255128300891899,
          0.026530300322430322
        ],
        "bias": 0.46686706042866755
      },
      {
        "weights": [
          -0.19782087746119364,
          0.31132499674647046,
          0.173882553286883,
          0.1404751677940634
        ],
        "bias": -0.19667323124578412
      },
      {
        "weights": [
          -0.15067698580750943,
          0.13000069002157966,
          0.0992661697261631,
          0.23559692289006387
        ],
        "bias": 0.24306139061826199
      },
      {
        "weights": [
          -0.12830196267774255,
          0.49774444377106103,
          0.2139935858861937,
          0.0718095911271757
        ],
        "bias": -0.6923118375913248
      },
      {
        "weights": [
          0.030418320003010493,
          -0.27007568144302646,
          -0.10126029770235997,
          0.028549781138945227
        ],
        "bias": 0.4596444157598586
      },
      {
        "weights": [
          0.018723178001416027,
          -0.25522998962299304,
          -0.09349528112244958,
          0.02663198413305106
        ],
        "bias": 0.4589155103719477
      },
      {
        "weights": [
          -0.07920154132401643,
          0.10700356572420977,
          0.1792822145472766,
          0.006408098688198912
        ],
        "bias": -0.7104505881940009
      },
      {
        "weights": [
          -0.11124191135168483,
          0.5672644006463681,
          0.22107560263907436,
          0.09616519009662941
        ],
        "bias": -0.5733914909626185
      },
      {
        "weights": [
          0.03053290821914849,
          -0.27324486369097206,
          -0.10229807129058906,
          0.028927117147017196
        ],
        "bias": 0.4593933458427674
      },
      {
        "weights": [
          -0.14298403025368864,
          0.5397754627403895,
          0.22088562617459417,
          0.0860713116308717
        ],
        "bias": -0.6263664409465604
      },
      {
        "weights": [
          0.03393406720399973,
          -0.262032492586865,
          -0.09589373765931081,
          0.027320694592408604
        ],
        "bias": 0.4646064181027924
      },
      {
        "weights": [
          -0.08911558163044665,
          -0.10436412233202183,
          -0.008621288518843737,
          0.14817873304477733
        ],
        "bias": 0.4152381566276272
      },
      {
        "weights": [
          -0.08259115114174817,
          -0.13390340368876053,
          -0.022849903691076996,
          0.12985735590039854
        ],
        "bias": 0.4138862368156941
      },
      {
        "weights": [
          0.07329958843208723,
          -0.8792421938047436,
          0.4124587162700675,
          0.027717651024395162
        ],
        "bias": 0.22116606606467426
      },
      {
        "weights": [
          -0.05780000202005643,
          0.3499879136533802,
          0.18338150062882455,
          0.03651174365582476
        ],
        "bias": -0.3420479651798623
      },
      {
        "weights": [
          -0.13533488195338864,
          0.5813455340937982,
          0.20857021486502644,
          0.09800301227908177
        ],
        "bias": -0.5944085862623296
      },
      {
        "weights": [
          -0.1279582323020476,
          -0.0724073948125113,
          0.022497593661422677,
          0.1544561858822333
        ],
        "bias": 0.4211238690282563
      },
      {
        "weights": [
          -0.1432334367582798,
          0.5888897887649632,
          0.22847913367225,
          0.1017887850276792
        ],
        "bias": -0.6064950827954264
      },
      {
        "weights": [
          0.023470448168170087,
          -0.25238951411008254,
          -0.09191407523182746,
          0.02579350761511542
        ],
        "bias": 0.4658485478217509
      },
      {
        "weights": [
          2.209415667734589E-4,
          -0.25291854500819433,
          -0.09383017431586892,
          0.025972517344243284
        ],
        "bias": 0.466731907366535
      },
      {
        "weights": [
          -0.13966770318828833,
          0.21744190582921125,
          0.08308447730344512,
          0.23211754546799254
        ],
        "bias": 0.16138518874934538
      },
      {
        "weights": [
          -0.22844959201211687,
          0.34225462509588883,
          0.21643848508853525,
          0.22212441406299038
        ],
        "bias": -0.23676912059176425
      },
      {
        "weights": [
          -0.0035492485803027885,
          -0.2709183293619647,
          -0.09715704551383618,
          0.02835096186968788
        ],
        "bias": 0.46222978366547224
      },
      {
        "weights": [
          0.022573344232601,
          -0.2536006159081862,
          -0.09325664603066577,
          0.02595888521840648
        ],
        "bias": 0.46669469643851497
      },
      {
        "weights": [
          0.11869250129003138,
          0.43787250619177304,
          -0.11374947799243713,
          -0.025645291018828235
        ],
        "bias": 0.40734566783180903
      },
      {
        "weights": [
          -0.001275166551179301,
          -0.2599702252747272,
          -0.09664367727373466,
          0.02712344740562156
        ],
        "bias": 0.46293199580424577
      },
      {
        "weights": [
          -0.11724889658243984,
          -0.08455784606286315,
          -0.011364061479659446,
          0.14211164301178802
        ],
        "bias": 0.4198878729941852
      }
    ]
  },
  {
    "name": "H1",
    "activation": "ELU",
    "neurons": [
      {
        "weights": [
          0.006121324956714907,
          -0.6670802296009476,
          0.013608803198995139,
          -0.06367928884312496,
          -0.046680353058590314,
          -0.050956008562289656,
          0.008544454532524856,
          -0.030757543186951435,
          0.006868152331084962,
          0.017670055384746752,
          -0.052268067720450846,
          0.02004410993116308,
          0.018464900973514668,
          0.016262811147346727,
          -0.7804059117274248,
          -0.023408234059728403,
          0.003684141031686704,
          -0.02636194107373078,
          -0.04411539024613011,
          -0.044473363568841885,
          -0.04485048489989443,
          -0.04024108337407178,
          0.014443604599401976,
          0.011134477130309552,
          -0.04510918738411275,
          -0.003039514000041338,
          0.002557969237838036,
          -0.030180322190055033,
          -0.0097827256947131,
          0.008618125825504403,
          0.013458318174631053,
          -0.05038580653930898,
          0.010833772476568802,
          -0.12815605025185167,
          -0.05683235847535924,
          0.013534047002021139,
          0.012597758848573727,
          0.009760468401348817,
          -0.0014448574293246634,
          -0.015200459557552235,
          0.016296540406685635,
          0.007201061610456694,
          0.033646641097392724,
          -0.2758383460959206,
          0.020579338490614416,
          0.01151645844088366,
          0.020089853094200617,
          0.013015066985863367,
          -0.049814934681390026,
          -0.04771947587098227,
          -0.6040066047291537,
          0.013273668571665276,
          0.01896583922959967,
          -0.048383383764498925,
          0.01975736137926212,
          0.021585818417080727,
          0.018483326888503186,
          -0.012994493269037065,
          -0.021913255394725367,
          0.015365850339017205,
          0.021531294488783773,
          -0.5120770723256228,
          0.02551052772812925,
          -0.04659570485356597
        ],
        "bias": -0.059341061859122364
      },
      {
        "weights": [
          -0.8472896422664145,
          1.09050538504555,
          -0.8214566332720095,
          -0.14701057320885513,
          -0.21771023263316464,
          0.17523884444492893,
          -0.8573224527710283,
          0.131440767884438,
          0.5624573763936885,
          -0.756054888063071,
          -0.04235231085340265,
          -0.8929795982490913,
          0.6146958443731594,
          -0.8587235116518401,
          0.6402438471805151,
          0.1906351892559428,
          0.5412714580051264,
          0.06604864419813494,
          -0.04876174368507227,
          -0.05352204876246963,
          -0.015622086429041135,
          0.658997506679309,
          -0.9009237419108292,
          -0.8514003908642112,
          -0.03678927421850929,
          0.4610467561972266,
          -0.7044234459419554,
          0.04852020671447168,
          0.2826512879480638,
          -0.834430421144129,
          -0.8650867207406094,
          -0.027484996675394734,
          -0.8485117125642672,
          0.20837355861866114,
          -0.06138514670044039,
          -0.7863596932024703,
          -0.8342382029791956,
          -0.8705766813230545,
          0.1053734290075625,
          0.014293118436206015,
          0.5762555789909297,
          -0.7252648216958085,
          -0.8861667913210266,
          0.31490942837577873,
          0.6032669327229299,
          -0.7076137173059703,
          0.5667640242843761,
          -0.8627742184289744,
          -0.037494459105930314,
          -0.04537903330634715,
          1.0259920891362004,
          0.18551948569740867,
          0.6031471950843332,
          -0.03248955809100223,
          0.568787214759579,
          -0.8963209210135131,
          -0.9030660758714466,
          0.025028380047675977,
          0.11809286999322303,
          -0.8250625196872159,
          -0.9012490930247049,
          1.079063697545498,
          -0.877722985011928,
          -0.037592641108995656
        ],
        "bias": -0.5133679562944976
      },
      {
        "weights": [
          0.11740668953074422,
          -0.8689107674441165,
          0.13972499682575742,
          0.03394494994970239,
          0.03533248343949819,
          -0.1442902340108594,
          0.12414929754663079,
          -0.28028194092832565,
          -0.3064222411068562,
          0.13984421070170305,
          0.0175664809904497,
          0.1385044818356212,
          -0.31099327490259693,
          0.14305593432902125,
          -1.821199923911543,
          -0.1811674745918162,
          -0.3030994628908812,
          -0.12926900644167957,
          0.021348084763438427,
          0.020642181866304975,
          -0.0035791349264043936,
          -0.14309453513857595,
          0.1256308484958343,
          0.15551674479484326,
          0.01034265667333885,
          -0.22638016340924294,
          0.1271857194624091,
          -0.13655282905379876,
          -0.16318341320884222,
          0.12881926858575318,
          0.1487656118236189,
          0.009601707732096947,
          0.14104450574956898,
          0.2846021167538153,
          -0.10299485704005555,
          0.11093659403632093,
          0.14373750494537427,
          0.11974723226024019,
          -0.16739931438503733,
          -0.02870861348265219,
          -0.3263620372766733,
          0.12660063999526217,
          0.1635539253106735,
          -0.40819992269216004,
          -0.327058716845642,
          0.11801695563325738,
          -0.31542548720911673,
          0.14901983860027515,
          0.014212831856282694,
          0.018140038186180884,
          -0.8968332929185254,
          -0.2329977334833555,
          -0.3071122565410971,
          0.013082335032479972,
          -0.2824790418062317,
          0.1569138316656553,
          0.1203518473228814,
          -0.04868372118169657,
          -0.12064963628692409,
          0.13783480898292477,
          0.1563851006464388,
          -1.8258748628604264,
          0.17362358837413408,
          0.010696638657325777
        ],
        "bias": 0.18008128210823635
      },
      {
        "weights": [
          0.351762721905551,
          -1.3813005878318787,
          0.37121101352482777,
          0.21488449060697418,
          0.21103477236940427,
          -0.03724207360907665,
          0.3582537121939947,
          -0.18741869338946773,
          -0.2543455144497798,
          0.3616853139515253,
          0.1631959243818929,
          0.37984557564815674,
          -0.2161762175933812,
          0.38112085502727067,
          -3.5892289214373583,
          -0.01861521416187248,
          -0.23410325159908932,
          0.06467384427975731,
          0.17106560011842625,
          0.1721633209338855,
          0.1530347301626059,
          -0.18882922646002823,
          0.3646022014068704,
          0.3927825671845496,
          0.1653382403014116,
          -0.15103950304124356,
          0.343689549467473,
          0.07247628675233309,
          -0.29627575119769045,
          0.3602576359962358,
          0.379826801261967,
          0.1641008422318555,
          0.37292055268084584,
          -0.06030002200312173,
          -0.03343609772858277,
          0.32413690686369456,
          0.374870989258887,
          0.3541368135575282,
          0.03270011065323166,
          0.1023254206328432,
          -0.25269495470327,
          0.34988006744749345,
          0.3906231883475834,
          -0.4047388587117893,
          -0.22005945457474752,
          0.3410670242612873,
          -0.21938705985321222,
          0.3809283280381757,
          0.1662547401554787,
          0.16854230240145013,
          -1.4431555090146178,
          -0.06399489620703362,
          -0.20816385783684965,
          0.15458505914020226,
          -0.22210805760283112,
          0.3853291122988132,
          0.3597506159828312,
          0.10171345104127424,
          0.06162144644676868,
          0.3698283050282892,
          0.38575245413236686,
          -2.6878437941808193,
          0.4125601307669351,
          0.1650486976985696
        ],
        "bias": 0.5181285865594627
      },
      {
        "weights": [
          0.3436935308882055,
          -1.4477144373232633,
          0.35147464754730895,
          0.17206349917651526,
          0.20468999569011226,
          0.06896879299024711,
          0.353057451533872,
          -0.13513886090054877,
          -0.251657115459793,
          0.3487432957369579,
          0.12310484738845424,
          0.37795956851819223,
          -0.23884483194123127,
          0.3654311064680126,
          -3.463698502220804,
          -0.025436280606446177,
          -0.23465304640496668,
          0.0874835409125608,
          0.13296934525278328,
          0.13828897115372887,
          0.10964020961042713,
          -0.19108623121844143,
          0.3614292127771465,
          0.36294732969552573,
          0.12632638454246117,
          -0.1399879732130248,
          0.33181055530321696,
          0.10851396032335804,
          -0.28790729725457853,
          0.3422854197257691,
          0.35611121105767835,
          0.11455028607104512,
          0.35154970759547716,
          -0.12058945531701716,
          -0.026864198292727674,
          0.3469474890301196,
          0.35425433665761275,
          0.35170001080523067,
          0.01699882745535218,
          0.14776283439929,
          -0.2590715873009825,
          0.33416467326525956,
          0.3742873325818715,
          -0.35286894370179245,
          -0.22824310682468635,
          0.3312355289006393,
          -0.23250558351264486,
          0.3566155543727839,
          0.12864483505919455,
          0.12989452561310713,
          -1.4502982460181992,
          -0.04813215617566071,
          -0.2335850776456543,
          0.11895111926070283,
          -0.22524889543664,
          0.369475234032135,
          0.3589247070711332,
          0.1479000781937635,
          0.06394582076031854,
          0.3563958916538594,
          0.36970823199707575,
          -2.5444601166111083,
          0.3896982404027695,
          0.12026517232417308
        ],
        "bias": 0.40260256425149604
      },
      {
        "weights": [
          -0.004560066730191132,
          -0.02076069073870363,
          -0.032736211414992104,
          -0.0034910004682514933,
          0.028565735090333583,
          0.03681240759703804,
          -0.009134834758531564,
          -0.009536313788218818,
          0.016921121573525662,
          -0.023800073226947698,
          -0.013895234971362497,
          -0.023828467823923585,
          -0.06740111567158956,
          -0.04160119444088461,
          -0.20270645328534298,
          0.09581657072740182,
          0.019881532182997503,
          0.01715120167418527,
          -0.013171135980094879,
          -0.016244926326462815,
          -0.006985600842100003,
          -0.06704409542540793,
          -0.009332386742165388,
          -0.03624825240433002,
          -0.011424835510571505,
          -0.009865321746622248,
          0.010925303619535568,
          0.02210223789189621,
          -0.004114727152298113,
          -0.008806818669389435,
          -0.03664858117525109,
          -0.013308250953001262,
          -0.030813126117244936,
          -0.2460180311335398,
          0.02229049070189988,
          -1.650927766861587E-4,
          -0.03558256600872071,
          -0.008356106880334781,
          0.04091821635351082,
          -0.008558810537491532,
          -0.05911156558809096,
          -0.01718854257743974,
          -0.046800378347249365,
          0.3117218455750428,
          -0.019730854504788807,
          -0.0026168059111534745,
          -0.07337982034472149,
          -0.03449520634421278,
          -0.008168598889735803,
          -0.013449484953343672,
          0.17610988934898852,
          0.10478123658613286,
          -0.06747152231724804,
          -0.014965463481238917,
          -0.08007828984077217,
          -0.044677679044689084,
          -0.0059297340421975145,
          -0.007945052101802486,
          0.03926990935333279,
          -0.012498328512993073,
          -0.04288352582476742,
          -0.02684258335727154,
          -0.04971021577982829,
          -0.01199523093531972
        ],
        "bias": -0.0166498006550329
      },
      {
        "weights": [
          0.3328519220246729,
          -1.4390305071134961,
          0.338323594080968,
          0.17247115437313504,
          0.18497567157650352,
          0.0593380721832684,
          0.33784050718512526,
          -0.12749012475651275,
          -0.2510524624194111,
          0.3320626563710551,
          0.12093417431461044,
          0.36086481491213546,
          -0.22199435591539507,
          0.3385869619232543,
          -3.4659273394186694,
          -0.05630801982854477,
          -0.23727104247630762,
          0.08290417797414976,
          0.13188575541467001,
          0.13257733333893887,
          0.10418809962296743,
          -0.20225990539731417,
          0.34398771722673854,
          0.33480644813583255,
          0.1235630403436534,
          -0.15080296873336613,
          0.30025514161735123,
          0.07458767688388455,
          -0.27332503208493675,
          0.3286518977391096,
          0.3368452481694522,
          0.1122143762800525,
          0.33529481726998306,
          -0.17527474460923761,
          -0.019207153684035815,
          0.3361453739488454,
          0.33815513118068835,
          0.3340132752158842,
          0.0384507581148503,
          0.1269876967826126,
          -0.24629351697484098,
          0.31296378256410795,
          0.35901759464397615,
          -0.3209864845640797,
          -0.20476217539965888,
          0.3096376327006847,
          -0.2142432800251729,
          0.33759160721955694,
          0.11171204746829046,
          0.12835334125488979,
          -1.457314367263755,
          -0.040242105320358906,
          -0.21772292848594338,
          0.12099689092216023,
          -0.19985325497895748,
          0.35183868945991764,
          0.3415906779615502,
          0.13402688582461897,
          0.056762754284685295,
          0.3399320594382526,
          0.3522976077697963,
          -2.539327258465391,
          0.36614693654087643,
          0.12216028835526947
        ],
        "bias": 0.368996748559123
      },
      {
        "weights": [
          -0.882873427063857,
          0.4060302596559237,
          -0.8714495616463331,
          -0.27008473468637567,
          -0.5905519665295234,
          0.04231636971807208,
          -0.8770629099564892,
          0.3890464896915605,
          0.3568346878036262,
          -0.8731893950775801,
          -0.04939664416430067,
          -0.8778718584564775,
          0.3427994070359793,
          -0.8601135832964036,
          0.4294565424604402,
          0.1437954542682861,
          0.35016805342152124,
          0.10909719001930994,
          -0.049150113216209816,
          -0.05969698217688831,
          -0.02236169643388339,
          0.21291906049734893,
          -0.8861660427465184,
          -0.8799688029673625,
          -0.0360524596694991,
          0.28333661001043836,
          -0.8745004396038338,
          0.107961522866935,
          0.2779062034546908,
          -0.8769622394990114,
          -0.8731454411269138,
          -0.039096502988697136,
          -0.8734415208765177,
          0.26656008219246163,
          0.055486114796124364,
          -0.9013305303987089,
          -0.8699019634303996,
          -0.8786072770490841,
          0.15409194387654504,
          0.03981679146538714,
          0.3786582349053567,
          -0.8762495016244863,
          -0.8556623475613336,
          0.06008566265215876,
          0.29824470692432575,
          -0.8705419467258364,
          0.35853126537098834,
          -0.8716598609518579,
          -0.041559725340398056,
          -0.0498147300046678,
          0.24281918758019738,
          0.21384299408901528,
          0.3428747187635068,
          -0.028499455088844716,
          0.3216703387150122,
          -0.8626083246405541,
          -0.8697224339053157,
          0.06490062746615893,
          0.09594840315660855,
          -0.8845404316770007,
          -0.8623578941292488,
          0.8940079276448023,
          -0.8711943350290112,
          -0.03403192447968383
        ],
        "bias": -0.35030460891322024
      },
      {
        "weights": [
          0.1624316590255041,
          -0.8586767340671699,
          0.15795159765230582,
          0.017431096659232842,
          0.02777376092261853,
          -0.06441433960707586,
          0.16993439848442235,
          -0.10211159970751262,
          -0.4251406229776046,
          0.1439596330912516,
          -0.03248737153644292,
          0.18227414169072118,
          -0.43056338176228937,
          0.1836210348579947,
          -1.3832140648530094,
          -0.2809839978462461,
          -0.42804631398150383,
          -0.16905843116539745,
          -0.023947863050776244,
          -0.0159682353823013,
          -0.048804901023704855,
          -0.26365615720399255,
          0.1839399745771117,
          0.1590855276291827,
          -0.0377511877615933,
          -0.41308163874482384,
          0.14769995880854103,
          -0.1995036968264059,
          -0.23036719601735892,
          0.15683802490722262,
          0.16301581232617424,
          -0.050173131206100854,
          0.15775330466275675,
          0.604995359517146,
          0.048449113130328236,
          0.16659161390059035,
          0.16274529985832317,
          0.17028931936186284,
          -0.28248862472149155,
          -0.03731978888408481,
          -0.4297516453665958,
          0.13366209821277078,
          0.1907783038592255,
          0.05233826379004413,
          -0.42275025137909256,
          0.13505451865337714,
          -0.42943935960104546,
          0.16231263898288512,
          -0.045923349176835056,
          -0.029118126632655145,
          -0.8485632391754756,
          -0.3217661373173774,
          -0.43085426268500904,
          -0.033595051045253406,
          -0.4333556488111968,
          0.18550908383636613,
          0.18188147430298238,
          -0.0455602043212719,
          -0.16457395856570928,
          0.1574875778946441,
          0.1853239812132841,
          -1.3826879763585949,
          0.1875423838830311,
          -0.03834623108428109
        ],
        "bias": 0.04627867706049394
      },
      {
        "weights": [
          0.07246888229926989,
          -0.39930839904756577,
          0.04891087209995893,
          0.0657070248170677,
          0.16180606936733388,
          0.08435395418106047,
          0.06655072541052141,
          -0.0706408310401993,
          0.037490543862612545,
          0.059622675687297566,
          0.009318291131719843,
          0.05764593087286075,
          -0.033511848280477645,
          0.034763567731691515,
          -0.6524422977949316,
          0.12759657272168337,
          0.03936026491478696,
          0.024930239686304985,
          0.010302234890016856,
          0.013460500478631727,
          0.008702288983257443,
          -0.008880710318242398,
          0.0610881062981088,
          0.024785369216863105,
          0.009262659279094155,
          0.02196889186205682,
          0.11323767424343534,
          0.05013746568651083,
          -0.02965231217844958,
          0.0666172606207238,
          0.03226427926630746,
          0.008711336093812793,
          0.04552657215090433,
          -0.3934313691194602,
          0.05591030052193657,
          0.10446029936607501,
          0.039988200843305295,
          0.06920616035898061,
          0.10761247777457716,
          0.018238540568954163,
          -0.026706301869290197,
          0.07525495130268448,
          0.020434697769138487,
          0.25893959550685575,
          0.01787811382720262,
          0.09766384285759647,
          -0.03861470352664517,
          0.03402112465116805,
          0.008751445652198384,
          0.010917780795680454,
          -0.16017098692351278,
          0.1484100649987045,
          -0.035350441353701925,
          0.00925689899563347,
          -0.03686853856536725,
          0.02235682091684335,
          0.06393450581773018,
          0.012170915328672599,
          0.05277212314606596,
          0.08404226681997913,
          0.02694467677879368,
          -0.4916949763400685,
          0.025027505411968264,
          0.006800678873425634
        ],
        "bias": 0.008074976834409544
      },
      {
        "weights": [
          0.0828768888201548,
          -0.37795182079807643,
          0.06172922546099614,
          0.05840663688744294,
          0.14655937634461838,
          0.13868944548825887,
          0.06257414985119884,
          -0.060701847518168234,
          0.05937489979203529,
          0.08287417894786987,
          -0.0011244147306701203,
          0.05624138466770321,
          -0.027637055420517406,
          0.04097360035870877,
          -0.6326866322957481,
          0.14546598210789147,
          0.06339173434254491,
          0.023345131127711766,
          0.0018254083077797563,
          0.0024211971751332815,
          0.008344149329137619,
          -0.014697786687297374,
          0.05109270096088172,
          0.03774180815334736,
          0.0019525511304967417,
          0.04615915014585741,
          0.12885701817595338,
          0.024033709627152275,
          -0.02832850311335815,
          0.08514060005417713,
          0.03960175770357686,
          5.53082484426656E-4,
          0.055637267579560806,
          -0.34790951786847374,
          0.048832656159937725,
          0.15599419105191165,
          0.047583091251982824,
          0.06045301485066638,
          0.04899002021385886,
          0.021227248112136863,
          -0.012022256413614766,
          0.09480799830891053,
          0.030303018499465227,
          0.25162687546981605,
          0.025757903008019372,
          0.11703085266686093,
          -0.028986586027999434,
          0.04238119901304933,
          0.0017607240222552091,
          0.00198960716490345,
          -0.1300124137076217,
          0.08275285640319748,
          -0.03180500507486865,
          0.0014843015059364105,
          -0.027597621469639226,
          0.026942990604822716,
          0.0540726050039294,
          0.019044461018859836,
          0.07461581806197724,
          0.10279686220745438,
          0.030749003885993602,
          -0.49467686986779574,
          0.030820692103423458,
          0.004420903500857545
        ],
        "bias": -0.048833614007200356
      },
      {
        "weights": [
          0.3354497583137328,
          -1.309255096490805,
          0.3603914984382252,
          0.2044554968332116,
          0.21402377200813769,
          -0.01182229263887709,
          0.343876607075061,
          -0.18642407804009542,
          -0.2683761796262154,
          0.36037461255664605,
          0.16893227801858277,
          0.3652115247986602,
          -0.2388714449412839,
          0.3630842311676209,
          -3.4743716507853724,
          -0.025572322273204526,
          -0.2630367805338664,
          0.07135539951878099,
          0.17022172762757476,
          0.1727046301392213,
          0.150162930021922,
          -0.1699610204624491,
          0.3464337720487813,
          0.3771475391054057,
          0.16278722793328798,
          -0.15236885022928764,
          0.3359500057160765,
          0.07965229501158684,
          -0.2317270182943227,
          0.34855323290737805,
          0.36932648209163604,
          0.1613257999271236,
          0.36215775148759155,
          -0.05291618554068553,
          -0.02411381399262164,
          0.32502119960247683,
          0.36382648890735936,
          0.34005789559201316,
          0.04405869544590145,
          0.11991755951812355,
          -0.28092466909837516,
          0.341379099560405,
          0.3825615344278043,
          -0.3675291452117084,
          -0.24589148409341022,
          0.3317416367773096,
          -0.24306077714612973,
          0.37039976223422794,
          0.16556201478356386,
          0.16828160682547022,
          -1.3965965702567023,
          -0.057328627380228814,
          -0.2345819839631293,
          0.1632998434341555,
          -0.20473431453153548,
          0.37767127556348856,
          0.34085036751722686,
          0.10519934898562656,
          0.06352481411531104,
          0.3588707902791373,
          0.3781420357663012,
          -2.581670281804162,
          0.3989301790594767,
          0.16438874560170177
        ],
        "bias": 0.5112186779762184
      },
      {
        "weights": [
          0.21594920044754612,
          -0.7393347746996463,
          0.2036768919949221,
          0.06295885278760059,
          0.16141334427023882,
          -0.040719442236422945,
          0.2185465040585175,
          -0.07770972465453196,
          -0.014654292231432874,
          0.20368605545440263,
          -0.01247663984261826,
          0.22713711633522107,
          -0.004666711176697533,
          0.2176854841368807,
          -0.9943745672249891,
          -0.012656917043563087,
          -0.01689166211633351,
          0.004759646298693474,
          -0.001704519477468793,
          -1.3636772978046794E-4,
          -0.018540753123865317,
          9.941040282725256E-4,
          0.22064776630092578,
          0.20843824536521377,
          -0.0033628229667387642,
          0.0041287412356933745,
          0.2034801355128613,
          0.012607265816546651,
          -0.05846389831665049,
          0.20995434190927678,
          0.20392640331780143,
          -0.016235525299953674,
          0.20300047865448656,
          -0.3221191309933069,
          0.053891446498128444,
          0.2130752064147074,
          0.20485682050980544,
          0.22152251355805735,
          0.017744611910521846,
          0.02132157433019935,
          -0.015289921270372915,
          0.19387152635799978,
          0.2253706572986408,
          -0.32387945933110385,
          0.009024441810868651,
          0.19918450590104123,
          -0.008388735366167138,
          0.20371724359691204,
          -0.007142488632340596,
          -0.0035372552575695755,
          -0.6764018516641751,
          0.004046808423421185,
          -0.005042323418378713,
          -0.0010970622578121427,
          0.0010429126920110774,
          0.2206305110604388,
          0.2217441551491297,
          0.01607992055709495,
          -0.005265701948531746,
          0.2153343581241021,
          0.2212672621988764,
          -1.055732054919534,
          0.22308708773099067,
          -0.00398470963883841
        ],
        "bias": 0.04386763457670804
      },
      {
        "weights": [
          -0.7485735973096906,
          0.8785069738480628,
          -0.703766959157649,
          -0.10084790566016609,
          -0.17167061836163602,
          0.04550597400450394,
          -0.7375017778040772,
          0.17010202500677307,
          0.45124137008823223,
          -0.6428010646169293,
          -0.03241780559402771,
          -0.7400914352977527,
          0.5425074646498492,
          -0.7038123705355306,
          0.6082455650248757,
          0.09258947197583589,
          0.4311428698315611,
          0.07750809150546581,
          -0.04190397528422701,
          -0.04423219559097132,
          -0.02021181858349934,
          0.723410186149835,
          -0.7620181739351546,
          -0.7084249090117016,
          -0.035908242106016175,
          0.37996325862805225,
          -0.6312258156530408,
          0.08757180902822653,
          0.2554698032207878,
          -0.7287528832861662,
          -0.7321851809994991,
          -0.034712519696691875,
          -0.7290071656051245,
          0.39872933026889984,
          0.07358107025605763,
          -0.7155727705207406,
          -0.7052799289079594,
          -0.7431637836191736,
          0.11494958533257812,
          0.02240348876570207,
          0.48095666777307866,
          -0.636213943168426,
          -0.7238422174544542,
          0.028409353372874816,
          0.5188360611472077,
          -0.6336314676420445,
          0.4855129371571524,
          -0.7301000302493087,
          -0.028812865081023348,
          -0.044752842070537195,
          0.760926717251906,
          0.14444136214473866,
          0.5333981370731312,
          -0.02351121527860145,
          0.5095397726418963,
          -0.7320233295039801,
          -0.7693098553906498,
          0.047946678965197116,
          0.0766674477928943,
          -0.7246361554271785,
          -0.7399428470524698,
          1.113901842779345,
          -0.7145175744504508,
          -0.028853518420771062
        ],
        "bias": -0.47897633960956537
      },
      {
        "weights": [
          0.0337959677564271,
          -0.660440155292936,
          0.03232564560376805,
          -0.02686258710610307,
          -0.027232126270293158,
          -0.025735637233363452,
          0.03776166280977073,
          -0.03895131203419376,
          0.019460243144127073,
          0.03817752201743008,
          -0.026156083984572122,
          0.04535273952738132,
          0.02386802572059557,
          0.02560399972239607,
          -0.7648365605008824,
          -0.020558656997131466,
          0.02015444303806257,
          -0.018785096364434452,
          -0.02111668480484875,
          -0.020649831299716044,
          -0.029693787732880908,
          -0.04325305447239866,
          0.035759158588551505,
          0.022297021424955547,
          -0.02169845625127895,
          0.012227169847414593,
          0.014828017417112736,
          -0.02182247037040315,
          -0.03337193219607029,
          0.03430552264278638,
          0.029038594417850075,
          -0.029412217004271216,
          0.030364886541995366,
          -0.1402383900280835,
          -0.08790026948284403,
          0.02832809615112563,
          0.028480852785337348,
          0.03757027710132168,
          -1.899981164034114E-4,
          0.0025465938133081285,
          0.02668407988606215,
          0.03561825749070679,
          0.03580589092079864,
          -0.25831845655754365,
          0.027077316401887354,
          0.0388616048414593,
          0.027574154083969557,
          0.028619792061397465,
          -0.024219726920252812,
          -0.020606917310300173,
          -0.5982725994157159,
          0.013320751296170606,
          0.02500539177344546,
          -0.02348943528429082,
          0.02336068476312327,
          0.03008390215607469,
          0.03972052090944684,
          0.009312572356199807,
          0.0026125514348170767,
          0.03667765577907269,
          0.029864249271309453,
          -0.4441866703349944,
          0.029368030284489796,
          -0.02349908767429864
        ],
        "bias": -0.048609525587117855
      },
      {
        "weights": [
          0.6500468876396185,
          1.517923122329701,
          0.6250043669911388,
          0.17121346879747876,
          0.2508356945537254,
          0.00790195397068042,
          0.6435834487894307,
          -0.26540164054728616,
          -0.21212984169217772,
          0.6088766101518116,
          0.06092024780311029,
          0.6488949067125838,
          -0.349403459766695,
          0.6218549416862196,
          2.387574165566102,
          -0.1519789229540576,
          -0.18869909793534279,
          -0.08700888144318732,
          0.06771448810914062,
          0.0779916557591121,
          0.0281473948710606,
          -0.37666055997089876,
          0.6504121992374761,
          0.6237543446866002,
          0.055074477909721295,
          -0.1865307190584971,
          0.5962052006832024,
          -0.09251078830919231,
          -0.15312318763287855,
          0.6303246595811202,
          0.6273428326561916,
          0.04468208258786014,
          0.631838857319011,
          0.938256050139269,
          -0.08163713163749513,
          0.6674677459650505,
          0.6202832786390753,
          0.6429705704776953,
          -0.15120844659490282,
          0.005815064291821404,
          -0.26138328998559746,
          0.5979093202299054,
          0.6241684371260648,
          0.11019072302639019,
          -0.2983248351141381,
          0.596977802193217,
          -0.30185892613477405,
          0.6246462062047187,
          0.05154514178800235,
          0.0641601984139229,
          1.4038358954040395,
          -0.2419223263376248,
          -0.3457541487992602,
          0.053546364588432024,
          -0.3215660081210134,
          0.6178047678142734,
          0.648897093736253,
          -0.012577746025549697,
          -0.0484888617533525,
          0.648662081759028,
          0.6240139142855303,
          1.0946496031866453,
          0.6241573126121069,
          0.054868557410187126
        ],
        "bias": 0.21458575167608562
      },
      {
        "weights": [
          0.34051436973697524,
          -1.4519484083341518,
          0.3472900680613002,
          0.17234552084447638,
          0.19175137050199978,
          0.056006943706275396,
          0.3522032383284649,
          -0.13660501786319168,
          -0.25039633681100154,
          0.3452530844918968,
          0.1176701862766498,
          0.3777892249591363,
          -0.22371229677479226,
          0.36528890941957887,
          -3.4749996046209377,
          -0.018732032824374727,
          -0.24105002208576853,
          0.08935833343778156,
          0.12160658199552468,
          0.13153504707020483,
          0.10747060576161804,
          -0.20915261115156822,
          0.3587832170673484,
          0.3662788272152011,
          0.12604770021368503,
          -0.14134478216989435,
          0.3150240638634215,
          0.082827981900924,
          -0.2842967171913257,
          0.33709105141650814,
          0.3518455346181312,
          0.11307742321009134,
          0.3473492701113872,
          -0.1364705000554893,
          -0.02482204502404577,
          0.34200955646202863,
          0.35036559667721473,
          0.3508183234735377,
          0.03257728632781001,
          0.12985057203055342,
          -0.24547043522135917,
          0.328415105438576,
          0.37271299170320826,
          -0.3345260308818158,
          -0.21559578920121708,
          0.3205553423407649,
          -0.21668023343633364,
          0.35296536825519487,
          0.1212644767058998,
          0.12386218805160244,
          -1.4603010610114184,
          -0.04651597526033413,
          -0.21778846990946765,
          0.11878359866086632,
          -0.2129337344810582,
          0.3673276385823045,
          0.35660481327623095,
          0.13072300425556854,
          0.06659949400187573,
          0.35513876507158604,
          0.3677152455132363,
          -2.5518033166141394,
          0.3855160099697409,
          0.11919870093795198
        ],
        "bias": 0.3818593348210747
      },
      {
        "weights": [
          0.12489975934973777,
          -0.9225081241962757,
          0.14688205661056258,
          0.0342891247575923,
          0.03626813834498338,
          -0.1511951445117108,
          0.1313238310178304,
          -0.29111740685284637,
          -0.3228801142184649,
          0.14787859214854038,
          0.014693638289286335,
          0.14636182857231944,
          -0.3242103926181684,
          0.15065873636050553,
          -1.8270069221984826,
          -0.1850598415336606,
          -0.3205040162167823,
          -0.1373402455498889,
          0.01863475179363972,
          0.018315748293886956,
          -0.006216994833965507,
          -0.1517248472280028,
          0.13280077158055734,
          0.16299383142251025,
          0.007207308902568685,
          -0.23755026594105227,
          0.13399809417368,
          -0.14499760212124402,
          -0.16648067262431898,
          0.1360154840806388,
          0.15627883984415677,
          0.006513055788785934,
          0.14830825426235136,
          0.2868328423728061,
          -0.08506180655350114,
          0.11953591178670107,
          0.15107329784624382,
          0.12689350843686115,
          -0.1801461874643085,
          -0.03436418140508019,
          -0.3413598157384146,
          0.13329946266941975,
          0.17131349249252922,
          -0.3909785498889858,
          -0.3389948623473976,
          0.12445849931428724,
          -0.32936135165367864,
          0.15655168376887246,
          0.010273452762169755,
          0.015496320178003101,
          -0.9619291233243267,
          -0.24966465262465617,
          -0.3198268328308331,
          0.010710143965364948,
          -0.2955877173657773,
          0.1643807888201479,
          0.12737154904424217,
          -0.05539428017806359,
          -0.1266364618022305,
          0.14465874768138914,
          0.16389747647077635,
          -1.8375705877958561,
          0.18158226418403772,
          0.008850026143079863
        ],
        "bias": 0.18257508877751732
      },
      {
        "weights": [
          0.2022336992844017,
          -0.8292705172631601,
          0.19930889706892732,
          0.02515271766236221,
          0.12544914572638163,
          -0.021641544797879324,
          0.2025002633422922,
          -0.07599286525746603,
          -0.011659161787598727,
          0.20417267525809504,
          -0.026322872152478406,
          0.2118047262341469,
          0.026184689634941343,
          0.212040775954929,
          -1.2008776969915365,
          -0.026158467088563602,
          -0.016393764864503155,
          0.019461739431882865,
          -0.020708664373221237,
          -0.012503303639896629,
          -0.025403451129604866,
          0.015119384153580443,
          0.20574983865654148,
          0.21324981285418618,
          -0.026016817769574704,
          4.533474236536318E-4,
          0.1956957111588518,
          0.028499360634478305,
          -0.07105806522602744,
          0.20149622139261286,
          0.20353621782908582,
          -0.033683153721007116,
          0.20006805536946035,
          -0.5413527960649906,
          0.05566914624396683,
          0.20795080318570677,
          0.1984610114874615,
          0.20259669904841518,
          0.019917401844203934,
          -6.632323460235995E-4,
          0.006331746672927437,
          0.2009823395076276,
          0.22878386096626796,
          -0.3850897989663692,
          0.030355161927856034,
          0.19736731793055526,
          0.02004322136249953,
          0.20283726785024062,
          -0.022114128222251558,
          -0.02362757209668069,
          -0.7857084856281956,
          0.007679082502805679,
          0.024761159667842255,
          -0.021289941151613343,
          0.027002792169091683,
          0.2161214691880289,
          0.20836249142416843,
          0.008944121929466756,
          0.003424059613703729,
          0.20826600610611884,
          0.21524281201509685,
          -1.1338769167920453,
          0.22309784470592117,
          -0.022177589251228636
        ],
        "bias": 0.05683302663436772
      },
      {
        "weights": [
          -0.7633433632877955,
          0.9882750404771404,
          -0.7188919778512073,
          -0.1044821090613268,
          -0.1686372648494445,
          0.05804011953416946,
          -0.7567837450657041,
          0.12637364198248585,
          0.4390023236472312,
          -0.6599388984913996,
          -0.03161638010569155,
          -0.7663822395277478,
          0.5402495935288072,
          -0.7318329415545513,
          0.5079619305479995,
          0.09763691099559302,
          0.4189301049598451,
          0.051598989845068624,
          -0.03497486691815909,
          -0.04317903119995417,
          -0.008037559229124115,
          0.6985557076049402,
          -0.7726168484523595,
          -0.7351863479123019,
          -0.026873193400159673,
          0.36740172641104,
          -0.6388583069550784,
          0.05392413129576865,
          0.2242923473672418,
          -0.748766589327474,
          -0.7481397659671047,
          -0.02074742459781882,
          -0.7431870010925783,
          0.3536051402122433,
          0.05659543272531991,
          -0.7200532118696119,
          -0.7226110654410336,
          -0.7577147904550058,
          0.0776221121925076,
          0.010810771129767796,
          0.4692890013966206,
          -0.6454915115354434,
          -0.7596134755019509,
          0.1375603954903125,
          0.5172962191270434,
          -0.643844059248536,
          0.4753226965195809,
          -0.7459457084176243,
          -0.03101263980641245,
          -0.0342437602512796,
          0.8511160788401444,
          0.11925255848510202,
          0.5298717617303191,
          -0.026789116799371918,
          0.5030368360330356,
          -0.764221871089484,
          -0.7847887441145475,
          0.022193476057844413,
          0.059632643752735935,
          -0.743450099583741,
          -0.7721674146880644,
          1.0205507476145697,
          -0.7446385541198568,
          -0.028866921904535332
        ],
        "bias": -0.4617521271927692
      },
      {
        "weights": [
          -0.8573121784244931,
          1.0433167149104057,
          -0.8270415630243172,
          -0.14379087359400422,
          -0.2217173823278743,
          0.15879777987179297,
          -0.8544354494868776,
          0.1320687348301255,
          0.5467567278981283,
          -0.7585828317469836,
          -0.03976390096265502,
          -0.8768147192107217,
          0.6031003014868584,
          -0.8481988760766516,
          0.7002906938322433,
          0.1761175699150852,
          0.5309700520218841,
          0.06945771812695078,
          -0.050357858909752445,
          -0.049778115867536,
          -0.007991561085833718,
          0.6398578321455717,
          -0.8849491028101055,
          -0.8456144999891804,
          -0.028988256929108395,
          0.4506828403600059,
          -0.7013872522964981,
          0.04961197524837954,
          0.24701092486602413,
          -0.8418621645262816,
          -0.8634008015891672,
          -0.022545591658729092,
          -0.8504059009660065,
          0.15810659155808482,
          -0.060202026905775745,
          -0.7958612473658845,
          -0.8357356898764472,
          -0.8560230775068332,
          0.09891948673457351,
          0.019361169866731025,
          0.5618996536321956,
          -0.7225099014626586,
          -0.8822334858594271,
          0.26861974118607895,
          0.5842454621055252,
          -0.7067621276547831,
          0.554327025480186,
          -0.8613065727797329,
          -0.030784414786407466,
          -0.03913799547854181,
          0.9627717696552861,
          0.17737857234767762,
          0.5929159774005351,
          -0.028322125454162225,
          0.550907048925764,
          -0.8875958069525373,
          -0.8841533014703995,
          0.03224999439477188,
          0.11482503164790547,
          -0.82413068713991,
          -0.8922771408258949,
          1.1931380594830125,
          -0.8759506819206107,
          -0.030715649789630702
        ],
        "bias": -0.5057922244272003
      },
      {
        "weights": [
          -0.8515050168529271,
          1.164646814230019,
          -0.8220184266123367,
          -0.1403896073493904,
          -0.22941306236881706,
          0.15777307634521215,
          -0.8557097612616693,
          0.14790727097225478,
          0.5607053778124106,
          -0.7596438540089859,
          -0.04095248113538812,
          -0.8780892105016178,
          0.590537771136553,
          -0.8497445737762751,
          0.5812652188818759,
          0.1686850326783319,
          0.5500415304924938,
          0.058606084152188695,
          -0.044247634712560366,
          -0.05365160421421935,
          -0.009530599459590294,
          0.6655852266713761,
          -0.8885269661240044,
          -0.8432206360096683,
          -0.03051503624487433,
          0.4632038993981237,
          -0.7097845238346601,
          0.05948038098402889,
          0.2967538420307138,
          -0.8332488963517471,
          -0.8596759497001153,
          -0.026660388863922246,
          -0.846799502857495,
          0.26902486694816746,
          -0.04188073228214329,
          -0.7875830639275294,
          -0.8320524111682123,
          -0.8598024232914682,
          0.11668273374863389,
          0.010120216900854719,
          0.5672875530515668,
          -0.7256237784382887,
          -0.8792520011195071,
          0.3095503696239132,
          0.5699945718022739,
          -0.7121229844229229,
          0.5493374196480749,
          -0.8563860640369694,
          -0.033016015275705926,
          -0.04268380831940849,
          1.0918051563844244,
          0.1868229527747763,
          0.5815321612926253,
          -0.02918566608940432,
          0.5400590664167367,
          -0.8861098349900944,
          -0.8928607088771005,
          0.0278537476612986,
          0.11376272927835857,
          -0.8234828530970071,
          -0.8906386584962499,
          1.0451321553909336,
          -0.8704438885053664,
          -0.03135013318238302
        ],
        "bias": -0.5365005697256869
      },
      {
        "weights": [
          0.10709499293257228,
          -0.3686061958692296,
          0.08482096853320614,
          0.03460113053666596,
          0.14007425005140745,
          0.16203122910477416,
          0.08812672827758436,
          -0.051041749438116304,
          0.025477605324253916,
          0.1009862955911142,
          -0.013280639402039785,
          0.0694328186201756,
          -0.05021516030557237,
          0.04495254403103948,
          -0.6201295891061712,
          0.1177907018022526,
          0.03219777704020946,
          0.03185700743774916,
          -0.00624446483519588,
          -0.007941867855740043,
          -0.00913745702020182,
          -0.052391733383016066,
          0.06473207792279032,
          0.05492558570455681,
          -0.008968124740555791,
          0.01712106421716398,
          0.12598445008706535,
          0.015243099840570788,
          -0.017097259571615807,
          0.1020515822060625,
          0.05727561534398788,
          -0.010092012190298606,
          0.07880452115525198,
          -0.3867341487469736,
          0.03778886486125664,
          0.16403545014641283,
          0.06796081926400316,
          0.07975027580607139,
          0.04050536459142445,
          0.03256447046211,
          -0.04188725378000643,
          0.10754534801750919,
          0.0069970913941437415,
          0.2833800304884618,
          0.007783281217864289,
          0.12372372321569387,
          -0.058071988543915,
          0.06132929043823197,
          -0.010773409115530312,
          -0.00790831415609883,
          -0.1095564065453104,
          0.09045788040360674,
          -0.05422329816686647,
          -0.013288926147999713,
          -0.03823020184812239,
          0.010863549160519202,
          0.05240249471394257,
          0.04023119638412375,
          0.06318058655821757,
          0.11426629582190062,
          0.015425402480400157,
          -0.5156764769417412,
          0.019153382477305175,
          -0.013032928394782543
        ],
        "bias": -0.06440274381122996
      },
      {
        "weights": [
          0.34101525399144955,
          -1.3005828991263682,
          0.36264054268652807,
          0.21427471037560641,
          0.23375047601666402,
          0.01852133329924834,
          0.34706678900856913,
          -0.17794840984990445,
          -0.298375706321733,
          0.346286084102853,
          0.1802385354267507,
          0.3675772489929014,
          -0.2793462366959616,
          0.369622557368641,
          -3.4594249745568137,
          -0.011480485377477168,
          -0.29407080144276143,
          0.08182737710831081,
          0.18648020605397841,
          0.18819336604243303,
          0.15888960041347502,
          -0.14311913785026023,
          0.35240170526413955,
          0.37786550285261045,
          0.1755841484243693,
          -0.18864211363490221,
          0.3485759410743157,
          0.08488131729073284,
          -0.2149375792101536,
          0.3507226276247125,
          0.3712569377448944,
          0.1716383319742963,
          0.364195183557716,
          -0.04991207598647676,
          -0.02017829200581874,
          0.3323323661673695,
          0.3661002465670761,
          0.3439770980159584,
          0.050417007831324565,
          0.14838799964682547,
          -0.320132533216212,
          0.34395666168346106,
          0.3881038143578798,
          -0.3401492838558328,
          -0.2561508188575911,
          0.33501677004689273,
          -0.289086228293786,
          0.372292256369545,
          0.18047415576102208,
          0.1827242303117269,
          -1.3787663721814094,
          -0.050315677935309146,
          -0.2852477157479781,
          0.17376160187104425,
          -0.20169283726068632,
          0.3819362395439049,
          0.3476209129497467,
          0.1268794248362443,
          0.0251170194440894,
          0.3613235863559101,
          0.38190659792347326,
          -2.5458856512411128,
          0.40005567236423,
          0.17608837997273438
        ],
        "bias": 0.5158664752645445
      },
      {
        "weights": [
          0.11782468728891474,
          -0.9211739295661069,
          0.148214391564933,
          0.034318382491586336,
          0.03607419214961923,
          -0.15408189924778223,
          0.12954721982508915,
          -0.2907713729637106,
          -0.3107971324078141,
          0.1477054698882358,
          0.013377466133903521,
          0.14494824497691275,
          -0.3086117650532127,
          0.14831760412550513,
          -1.823468395694787,
          -0.20144117807676173,
          -0.302527326649476,
          -0.13504571609779525,
          0.017972578227175146,
          0.01920738559761645,
          -0.0026230855679225673,
          -0.15077874295543253,
          0.12583603590012005,
          0.16388218573219795,
          0.009961809415591409,
          -0.22405953838011164,
          0.13304482663416659,
          -0.14000356148564994,
          -0.16704888580041863,
          0.13383158024406755,
          0.15665694685302997,
          0.00842312412333815,
          0.1489341625883659,
          0.2893154884151449,
          -0.10520614425140062,
          0.11215278601674764,
          0.15229719756390336,
          0.12448232208424187,
          -0.17109331080937337,
          -0.03157514942421769,
          -0.33048805052849367,
          0.13312618848098162,
          0.1664431322328404,
          -0.4090176390440207,
          -0.31928626788814585,
          0.12463681189082192,
          -0.3158370740684981,
          0.1567272477337384,
          0.01284410707942832,
          0.015364792449291361,
          -0.9518352171120834,
          -0.24250388203333217,
          -0.2988462947111313,
          0.01163068502478305,
          -0.2826783625907459,
          0.1612239030946297,
          0.11948198159452562,
          -0.05404635555815952,
          -0.11670726249160128,
          0.14296830529559912,
          0.16112009492907967,
          -1.8228368108135964,
          0.18168621763564677,
          0.010706048788897268
        ],
        "bias": 0.17764650628304698
      },
      {
        "weights": [
          -0.8380063085847268,
          1.107150570556659,
          -0.8113015562469525,
          -0.13760530912470129,
          -0.21726300052299233,
          0.14604774960145286,
          -0.8391854914945751,
          0.13241315964891776,
          0.5402200578070774,
          -0.7425142370829685,
          -0.04254579221495193,
          -0.8698423726927038,
          0.6014596241367137,
          -0.8399015390755559,
          0.6664719496048264,
          0.17096608864264393,
          0.5186312930288218,
          0.041296413453228355,
          -0.047369334420988986,
          -0.05034412868675753,
          -0.013822493472305528,
          0.6558850451393888,
          -0.8750824714279053,
          -0.841145944150901,
          -0.03198499606719251,
          0.43845863373251326,
          -0.7029428597713149,
          0.050850763776509565,
          0.28361801074876086,
          -0.8231496342776163,
          -0.8488226818743603,
          -0.024110910040350906,
          -0.837436257883459,
          0.23523744569088142,
          -0.04890983891941251,
          -0.7677523697362824,
          -0.8193247163276026,
          -0.8479608412888011,
          0.11557813340540535,
          0.011071710305655723,
          0.5608566507154055,
          -0.7255589434246941,
          -0.8659379667731877,
          0.31702878658204564,
          0.5875726958794144,
          -0.7087714118832986,
          0.5528449797527577,
          -0.8472799126759168,
          -0.03509611937505913,
          -0.04416181630767281,
          1.0307117146421167,
          0.19505838101765835,
          0.590229565248632,
          -0.028993680618697726,
          0.5618234845827544,
          -0.8719956619579234,
          -0.8773901439434709,
          0.024054989365377498,
          0.10046502086743575,
          -0.8183618103375273,
          -0.87667259145877,
          1.1086677416113468,
          -0.8599941036653254,
          -0.032001689657551805
        ],
        "bias": -0.5068945829131752
      },
      {
        "weights": [
          0.3243985766142612,
          -1.4510544855943504,
          0.3487608378986413,
          0.17330628129524986,
          0.1944839182186939,
          0.0552857525030575,
          0.3330344717396123,
          -0.14213815068561425,
          -0.2551164917623202,
          0.3437400114411064,
          0.13396880068949943,
          0.3551756651591173,
          -0.22659177471234385,
          0.34970552999544985,
          -3.4535475492206236,
          -0.040126076152616486,
          -0.23826060623875106,
          0.08645016078512407,
          0.13078731585809777,
          0.13706346256758054,
          0.10677016193525522,
          -0.1971235865368574,
          0.3297930822954569,
          0.35637745024331896,
          0.1223718134167919,
          -0.1490841316007125,
          0.3140763739139491,
          0.0921316543020695,
          -0.28842749320897787,
          0.33635836939049946,
          0.3507221350720573,
          0.11372469747446397,
          0.3485243439004185,
          -0.1521259819476424,
          -0.029829641055395997,
          0.3311606359436974,
          0.35058368964208236,
          0.3261051084436257,
          0.028603994312941243,
          0.13356628556580027,
          -0.2525512212935324,
          0.3314276650448802,
          0.359364205395668,
          -0.33612553512659826,
          -0.2283066284140548,
          0.32526414381947244,
          -0.22158287284097025,
          0.35182269349378287,
          0.12294564560466562,
          0.12523295905483228,
          -1.4650602538407216,
          -0.05120174217217304,
          -0.22180948994816146,
          0.12370238137146072,
          -0.2120223096842412,
          0.3568654253826991,
          0.32759010701406344,
          0.1400816159490108,
          0.058131862640830034,
          0.3511140137429831,
          0.3576511490235221,
          -2.5502309003365533,
          0.379377069332406,
          0.1229127428817279
        ],
        "bias": 0.3973087218062095
      },
      {
        "weights": [
          -0.8198860416922368,
          1.0858137031903592,
          -0.7850716763592765,
          -0.16421373149895227,
          -0.21530728314099676,
          0.20970890428964928,
          -0.8258912246558685,
          0.10892042666400018,
          0.5292387274751899,
          -0.7201056766078026,
          -0.05309834815133286,
          -0.8545088030572497,
          0.6009052097874,
          -0.8246315226658673,
          0.9015584085554021,
          0.16858082408561798,
          0.5070749469748749,
          0.06976065155372624,
          -0.051348372186133306,
          -0.061735322465664044,
          -0.02253561046722236,
          0.6130410986548124,
          -0.863082565906087,
          -0.8142219537796154,
          -0.04176059381184266,
          0.4391000360851414,
          -0.6730511905432368,
          0.029905601532396044,
          0.2603149385589173,
          -0.8027055919389521,
          -0.8290535003734214,
          -0.03281504130071849,
          -0.8127329742308527,
          0.15365062124699871,
          -0.07365657973259576,
          -0.7410659687894321,
          -0.7975618703985327,
          -0.8346428879560136,
          0.06597141673538409,
          0.03228040822000333,
          0.554214678742616,
          -0.6884191252855407,
          -0.8781563100056108,
          0.2894013713804773,
          0.5854097233158413,
          -0.6729572453091972,
          0.5474851548192917,
          -0.826096304193159,
          -0.046500286762828,
          -0.049394024826787605,
          1.0353697774400699,
          0.16552624293169804,
          0.5882263790128498,
          -0.04202889621162805,
          0.5720268948701985,
          -0.8777464640145284,
          -0.8771282661165243,
          0.05210220435757997,
          0.10077376097386237,
          -0.7939958594710415,
          -0.883110605619858,
          1.2788954446714922,
          -0.8602234714091399,
          -0.04818112824214654
        ],
        "bias": -0.5602747287761203
      },
      {
        "weights": [
          0.12724970416549028,
          -0.927932584041345,
          0.15089683668039836,
          0.03399963222073227,
          0.037756502017654237,
          -0.15360335662783872,
          0.13401176142535728,
          -0.2849120492981132,
          -0.3281915719129506,
          0.1527653831920744,
          0.012262342089608629,
          0.14951877000674846,
          -0.32058170336055797,
          0.15586747741774598,
          -1.8300705995900002,
          -0.20485607006864895,
          -0.32666970337591067,
          -0.13545482560809802,
          0.015464390431285488,
          0.01784918720109497,
          -0.006337444331530569,
          -0.15368056764702884,
          0.13677746410974487,
          0.16832200866972266,
          0.0063554596017549,
          -0.24301779454782535,
          0.13633200441747573,
          -0.14203325539825096,
          -0.17375478097842842,
          0.13900132931358103,
          0.16137102193721944,
          0.00465367071959434,
          0.1525408558895392,
          0.28603569183613936,
          -0.07201883334758534,
          0.12050352176769624,
          0.15560574877824265,
          0.13017035414954184,
          -0.17770614224245604,
          -0.037858957570571644,
          -0.3425046831541907,
          0.13607724432368076,
          0.17441536873355704,
          -0.3602815176556313,
          -0.3388082118110574,
          0.12608941160220305,
          -0.3268345352641568,
          0.16149580186853407,
          0.009320493169674217,
          0.012852857632652592,
          -0.9614299298873911,
          -0.2500525313712119,
          -0.317462376352117,
          0.00794621528640893,
          -0.2960599042373551,
          0.16907603988124192,
          0.13042514974148273,
          -0.06260912351610662,
          -0.12771891055214377,
          0.1447453791706211,
          0.16864863825237975,
          -1.8341406704389143,
          0.18484435684837358,
          0.006326923105938207
        ],
        "bias": 0.18444880589500265
      },
      {
        "weights": [
          -0.08156390230496138,
          0.1812712833397158,
          -0.11597296656948397,
          -0.1058361208963111,
          -0.14998351593784734,
          -0.13317108702303265,
          -0.08909512310343953,
          0.0771486191702024,
          0.059026559827088584,
          -0.1306178929281098,
          -0.05634306893115509,
          -0.08620131205352972,
          0.08277652848788489,
          -0.09191753148901965,
          0.20663058959948685,
          0.07296281665695199,
          0.048925325599317136,
          0.008262421825893188,
          -0.08422916549813292,
          -0.08118165359668768,
          -0.057278013164095254,
          -0.010403805200083101,
          -0.07482047366112551,
          -0.1137840599886027,
          -0.0850679834779828,
          0.035268268290452445,
          -0.13370781288099226,
          0.030896392917236143,
          0.013023368338712812,
          -0.09738615234042154,
          -0.10685268646530312,
          -0.07057066316376584,
          -0.11316708132266477,
          0.023934697601505298,
          0.014822584639588585,
          -0.09604496117015732,
          -0.11102988443976232,
          -0.08809714172765999,
          0.04329240522077491,
          -0.07457721055308449,
          0.07845334523325144,
          -0.12114730231047183,
          -0.06403477724414172,
          -0.31362955715313195,
          0.0793615936523967,
          -0.11701784481083885,
          0.08034824514916548,
          -0.10984877990576893,
          -0.07452608720581635,
          -0.08656585260815991,
          0.06649039169168049,
          0.038004378701375394,
          0.08046622524037313,
          -0.048931337627523955,
          0.07644997620723465,
          -0.0758763413027855,
          -0.07366892097540109,
          -0.06465228257987339,
          0.019640374411369732,
          -0.11985072245978706,
          -0.08053058919046287,
          -0.07038677565109995,
          -0.06927669005815826,
          -0.05405912559962945
        ],
        "bias": -0.0034190903401089714
      },
      {
        "weights": [
          0.033930118200118035,
          -0.3674959550781332,
          -0.003385956655069061,
          0.08387604813901335,
          0.15555392775193524,
          0.12481558493964708,
          0.01505945892756787,
          -0.03610107013965776,
          0.15347455796412,
          0.0011926347423446282,
          0.03128437128729668,
          -0.005640773940069851,
          0.11309922119386205,
          -0.015689674426541782,
          -0.38826984365328654,
          0.17251782841915644,
          0.15553054867062244,
          0.09980005455438333,
          0.03271644147983619,
          0.031067892175641845,
          0.034220355727971205,
          0.09911076669775226,
          0.0056619408732193005,
          -0.021784323742344798,
          0.030738871259425943,
          0.12015950044568177,
          0.05680479120886423,
          0.11335905522012842,
          -0.031133420551063152,
          0.016005380485468398,
          -0.020588602829274306,
          0.027064506821098563,
          -0.007035040501651688,
          -0.3092022118392074,
          0.08847323202755716,
          0.06938017269621047,
          -0.012842497484592092,
          0.013103497106078308,
          0.1482508521149668,
          0.044013505347910285,
          0.11521725267128963,
          0.023783678792173336,
          -0.029322807094942126,
          0.3057365774726655,
          0.15874857220483446,
          0.039694270988797846,
          0.10767902980827745,
          -0.018003167167266812,
          0.02785883661686527,
          0.030977160242915622,
          -0.14306008169705284,
          0.2152202203288874,
          0.10807416870188505,
          0.0307485961700607,
          0.09881086140118908,
          -0.029911339817397,
          0.0118581158200368,
          0.045953837392554354,
          0.08683209364755981,
          0.023071818088438518,
          -0.027146598967721588,
          -0.346133326243505,
          -0.032996039929284016,
          0.033535527082855794
        ],
        "bias": -0.07736766886826445
      },
      {
        "weights": [
          0.3365443231264122,
          -1.3103484822090108,
          0.36146364489083593,
          0.20336612291163153,
          0.21303952037424817,
          -0.011197858745759603,
          0.34483233125811613,
          -0.17963439408676146,
          -0.2681171514050701,
          0.36095903365184057,
          0.1684696069790754,
          0.36594054595658904,
          -0.23946595881904642,
          0.3643455915384444,
          -3.4675440061618863,
          -0.026724924218110964,
          -0.2626162784936512,
          0.07118012515145822,
          0.17023777533919124,
          0.17234106674586586,
          0.1489711422309696,
          -0.16878563061586863,
          0.3475126966859552,
          0.3782291159007112,
          0.16223433289504946,
          -0.15271427917198432,
          0.3368716361853471,
          0.07994925603354744,
          -0.23383775769046564,
          0.34973200262062776,
          0.37046274369650345,
          0.16069635133879234,
          0.3632614795144258,
          -0.05253220235782951,
          -0.018165788052635592,
          0.32500308619786855,
          0.3649546137025508,
          0.34107116887913647,
          0.04478905195450822,
          0.11970153754027833,
          -0.28102456481622795,
          0.34233663549221577,
          0.3834043073185186,
          -0.373157027130458,
          -0.24599897926981254,
          0.33268214309080657,
          -0.24334484824169,
          0.37151381395795346,
          0.16495088431650368,
          0.16799717454684987,
          -1.3987236168605552,
          -0.05735082889822607,
          -0.23495424329864348,
          0.16275871990123508,
          -0.205083414270223,
          0.3787315440576239,
          0.34178233184868706,
          0.1054582074305094,
          0.06293338892196211,
          0.35965123833418194,
          0.3791450948798562,
          -2.5747737968773152,
          0.39973503381999675,
          0.1637887345902367
        ],
        "bias": 0.5149136114557337
      },
      {
        "weights": [
          -0.6928452923222345,
          0.5601335698602785,
          -0.686134908310698,
          -0.18367162757541913,
          -0.24900140333628384,
          0.1637798430148042,
          -0.692216616688644,
          0.17950652856856136,
          0.37759961930648533,
          -0.638600447536123,
          -0.05403086121541179,
          -0.7245619084564706,
          0.3584246700116633,
          -0.7100239218334794,
          0.3542172583644636,
          0.18672886543074693,
          0.37246055727410904,
          0.014188287810345227,
          -0.06445623102588717,
          -0.06894441922139982,
          -0.03040606661873385,
          0.23090827732420077,
          -0.715548601753505,
          -0.7283989831610119,
          -0.05358903354694899,
          0.285790612600549,
          -0.5759972205212428,
          0.0019543819691678205,
          0.12003218106264887,
          -0.6761089207065557,
          -0.7115322819305773,
          -0.0471121319745038,
          -0.6970562425389308,
          -0.11739346059546263,
          0.014911309944293192,
          -0.663565195611154,
          -0.6946454586568371,
          -0.7018444929855769,
          0.05923705108829973,
          -0.008211338980216618,
          0.3479424511232306,
          -0.5958772530701708,
          -0.7272129456505724,
          0.4264645525251994,
          0.3629076814139872,
          -0.5815837753893034,
          0.34794856094423543,
          -0.7059767491191544,
          -0.06227725717291215,
          -0.059620257753351974,
          0.5274786346542942,
          0.17215028772934513,
          0.3509019636142097,
          -0.04707348818340661,
          0.3412155216930324,
          -0.730436879789085,
          -0.7047541214390383,
          -0.0039887809721991805,
          0.06635109109331445,
          -0.6791072174039278,
          -0.7279725986141564,
          0.8078302404228774,
          -0.7347592018088702,
          -0.050193202809293
        ],
        "bias": -0.1423969044846588
      },
      {
        "weights": [
          0.3339409189900683,
          -1.3043025839625257,
          0.3565531007484761,
          0.20625822968219829,
          0.21174584423730225,
          -0.006035426321643629,
          0.3414152812366801,
          -0.19128660998979313,
          -0.27914346070737434,
          0.356661866239652,
          0.17203843039800712,
          0.3629166948716208,
          -0.26098737649636483,
          0.3579047184899434,
          -3.4758260247471946,
          -0.008380893222466296,
          -0.26783892794051395,
          0.06925387297773017,
          0.1737370288676995,
          0.17277188527416482,
          0.1472781659878637,
          -0.17190635110939562,
          0.3438450211950097,
          0.37258945816546235,
          0.16359568968553684,
          -0.15346567309634657,
          0.33289161133280226,
          0.07951467680746,
          -0.23167267937790276,
          0.3428460836984031,
          0.36477604698799787,
          0.1621739130053681,
          0.35814730704330344,
          -0.052867952927795864,
          -0.02521628451350935,
          0.32400227195238834,
          0.35963785983227187,
          0.3374208948488249,
          0.04034459470008205,
          0.12187363752273946,
          -0.2980030382542246,
          0.3380111035922988,
          0.38020670779778043,
          -0.355483943246421,
          -0.25800000682955304,
          0.32910016000667514,
          -0.263691611400174,
          0.3658891840379161,
          0.167451516490308,
          0.1708092848500202,
          -1.3885728271802693,
          -0.059168680497812466,
          -0.25404496126149373,
          0.16637043155973713,
          -0.21587282869451546,
          0.37411516463585415,
          0.33889049852389197,
          0.11246091830305156,
          0.06517033881594231,
          0.35882923257397553,
          0.37458953287729724,
          -2.5957485291439535,
          0.39803682438350585,
          0.16630907482713067
        ],
        "bias": 0.513413108344554
      },
      {
        "weights": [
          0.34748058696246575,
          -1.3782445811632043,
          0.36794966168441634,
          0.21643569728793544,
          0.21220333459277405,
          -0.03157255113300757,
          0.355466831291869,
          -0.18551297485344342,
          -0.25435251017431665,
          0.35843548388203933,
          0.16383896840356393,
          0.3761837467070561,
          -0.21608247854959306,
          0.36805694727765365,
          -3.5913437902767025,
          -0.03247818381672017,
          -0.23616630012223266,
          0.06510547110681268,
          0.16906622572577876,
          0.17016608009598325,
          0.15135970105658975,
          -0.19286231823249278,
          0.3598452709631897,
          0.3744540286293854,
          0.16133459795233124,
          -0.15099921246932121,
          0.33492573802659276,
          0.07305486252370981,
          -0.3029057432156546,
          0.3570604885692431,
          0.3768018546700009,
          0.16225784690132405,
          0.36988183950972464,
          -0.06066446743409153,
          -0.03412193447288057,
          0.32905607226735617,
          0.37172309491861133,
          0.351576848804223,
          0.03423791850520346,
          0.11007077170326685,
          -0.25273971230584985,
          0.34416957048103614,
          0.3991008512453098,
          -0.4068052880953379,
          -0.2252792075673356,
          0.33779260408351797,
          -0.21921110738654814,
          0.3775097414240569,
          0.1589256363673754,
          0.16703300738016508,
          -1.4493686437291975,
          -0.06204733996174536,
          -0.20722976432171974,
          0.16747708626752278,
          -0.21721449572393373,
          0.39369437125305035,
          0.3539933114515548,
          0.09337143923433729,
          0.05276082959213455,
          0.370084230818347,
          0.39390653242248236,
          -2.6875792849331943,
          0.41178359845670126,
          0.1748767522418719
        ],
        "bias": 0.5153691160748276
      },
      {
        "weights": [
          0.33456194087557906,
          -1.4274981487952498,
          0.356013000995603,
          0.207446647700909,
          0.22341354209080125,
          -0.02670760596303814,
          0.34304064930795897,
          -0.1962484619659227,
          -0.24613105656295156,
          0.3462263608446107,
          0.16080545866936274,
          0.3653180309130889,
          -0.21473510765896492,
          0.365368905330122,
          -3.658534218035542,
          -0.015893580135203252,
          -0.23292190082017505,
          0.05986324278521658,
          0.1628145764187265,
          0.16596304758273644,
          0.14537494961805264,
          -0.20452297302720207,
          0.3457816267742055,
          0.37308574150835994,
          0.15673876476674856,
          -0.1449840059493255,
          0.32845965509010316,
          0.06755689578519844,
          -0.2992925794391971,
          0.3470632069707834,
          0.36258940858448885,
          0.1572051625776799,
          0.3567312549749408,
          -0.09702956522751112,
          -0.040200416334604985,
          0.32511992204868145,
          0.35881282653023827,
          0.3388615277960671,
          0.026911651608284234,
          0.10911203975257357,
          -0.24483815785190757,
          0.33719174659215867,
          0.3865520745232319,
          -0.4122067638835805,
          -0.22237653879781522,
          0.3273735522346487,
          -0.21631390365779543,
          0.3632711469225607,
          0.15808100312063053,
          0.1627381887299614,
          -1.4815058284481926,
          -0.06825165555057441,
          -0.20635564644093185,
          0.15449456669266814,
          -0.20781130305427406,
          0.37999784101491263,
          0.33990604508886846,
          0.09181371779051736,
          0.054522192577625354,
          0.3573396841935766,
          0.3801799394437739,
          -2.741345852308785,
          0.3991426765850525,
          0.16034608333481784
        ],
        "bias": 0.49757404484342943
      },
      {
        "weights": [
          -0.8574669750255041,
          1.1631819002809414,
          -0.8337681448021992,
          -0.14348091707849833,
          -0.22368860928949671,
          0.14130424770783798,
          -0.8626617426893614,
          0.1531679752163858,
          0.5750764106682323,
          -0.7625297922575414,
          -0.042613319239524924,
          -0.8908782280184938,
          0.5965566461694024,
          -0.856927725247669,
          0.613655282575536,
          0.1798651993649511,
          0.5628242671053683,
          0.05356426880328119,
          -0.04811905480990352,
          -0.051371492810937926,
          -0.010741513246370136,
          0.6551196286827553,
          -0.901287749711028,
          -0.8551852791306773,
          -0.029858259775886464,
          0.4757150773382454,
          -0.7169721006432506,
          0.06641376886554368,
          0.34190691055824013,
          -0.8370276702814993,
          -0.8712380813955476,
          -0.024368242401585076,
          -0.8572972433414854,
          0.19485128802214377,
          -0.03625679146617219,
          -0.8159325735001282,
          -0.8434555110177993,
          -0.8662921433142852,
          0.12750837136500762,
          0.016505652077597157,
          0.5783409066681389,
          -0.7449486890034038,
          -0.883463143884432,
          0.30182158959372873,
          0.5741119401950597,
          -0.7272459338666992,
          0.5582663012484423,
          -0.8660971974651728,
          -0.0344928260828042,
          -0.044887338648424736,
          1.1087365334283112,
          0.19008741823619352,
          0.586197381696774,
          -0.025236665665115236,
          0.5544645119532697,
          -0.89049039103484,
          -0.90729762620443,
          0.024589306647209902,
          0.12143620485321353,
          -0.8291228944888809,
          -0.8946610169801832,
          1.0429699521287805,
          -0.876684500038835,
          -0.03416790495440145
        ],
        "bias": -0.5662678059689642
      },
      {
        "weights": [
          0.3365713321805429,
          -1.3101698291264257,
          0.36142053447371253,
          0.20319958258388454,
          0.21297504802928327,
          -0.011400241791972108,
          0.3448534530884569,
          -0.17952230186384283,
          -0.2682103764516273,
          0.3610370147837698,
          0.16847028648369614,
          0.36585484159436893,
          -0.23933316136716917,
          0.3644208427135009,
          -3.467831987138035,
          -0.02704568496069067,
          -0.2629167640881193,
          0.07158113951960539,
          0.1700327628810263,
          0.172332697751752,
          0.1492058445034202,
          -0.1686534314631639,
          0.34754758620382287,
          0.37822341127963455,
          0.162222726615663,
          -0.15336418192820875,
          0.33679443250301233,
          0.08011409284810035,
          -0.23317160469446796,
          0.34983720460192214,
          0.3704808174378865,
          0.16067338882041285,
          0.3632630438062789,
          -0.052505843103407904,
          -0.01811771381010251,
          0.3251030009580743,
          0.3649217751939281,
          0.3411001291091827,
          0.044847676317213196,
          0.11959366541521123,
          -0.28107283589596227,
          0.34230373250806334,
          0.38337960397652243,
          -0.3733005368686383,
          -0.2460468356581555,
          0.33261452133016334,
          -0.2432600098525242,
          0.37154003772317906,
          0.1649217348852566,
          0.16784719766669345,
          -1.3985068126545583,
          -0.05703307180280453,
          -0.2350504201293981,
          0.16276142543706115,
          -0.20521834305306746,
          0.3787163806975891,
          0.3418151480617466,
          0.10548979566172136,
          0.06296762005931184,
          0.3595000604009324,
          0.37915780237385044,
          -2.5744783395773196,
          0.39973050854145936,
          0.16368666293012396
        ],
        "bias": 0.51481632151264
      },
      {
        "weights": [
          -0.8300556967177827,
          0.1612393653457213,
          -0.809431959513278,
          -0.28572549036222,
          -0.6260551911465172,
          0.071314148354388,
          -0.8254827261285302,
          0.3793723626134442,
          0.3481848504388116,
          -0.8086275327263771,
          -0.05427737763153235,
          -0.8252329245079087,
          0.32615219669874856,
          -0.8017503302450184,
          0.3867539799737778,
          0.12745158845769305,
          0.336775770398751,
          0.11416806481346366,
          -0.06358024658766138,
          -0.05955612299439077,
          -0.020187950113116936,
          0.20494963516049902,
          -0.8370839364917061,
          -0.8025571195866369,
          -0.05223226042566126,
          0.270309229304822,
          -0.8157249488623944,
          0.11318275927774228,
          0.24858859045445578,
          -0.8143472272746488,
          -0.8143819007252052,
          -0.047544043690485704,
          -0.8164059540091624,
          0.2641323192057124,
          0.17413044645023498,
          -0.8357969636724771,
          -0.809980268869225,
          -0.8317222320500359,
          0.14618256394384596,
          0.024810609286761005,
          0.3567282847269973,
          -0.8042179919397942,
          -0.79875456779201,
          0.03542034964105145,
          0.2957337637254623,
          -0.8107921195620973,
          0.33521039776493644,
          -0.8090507363533262,
          -0.04779306568076007,
          -0.05953105496741871,
          -0.002011757696003018,
          0.20737376402689842,
          0.3242518971798068,
          -0.03737540462683509,
          0.31200158766810715,
          -0.8048362808471301,
          -0.8223634901333357,
          0.05484337519311207,
          0.0985951669138348,
          -0.8279075915487597,
          -0.8081981355080278,
          0.8169037745248422,
          -0.8078175861409463,
          -0.04093467621285997
        ],
        "bias": -0.3512243682320955
      },
      {
        "weights": [
          0.33611995543355083,
          -1.449468913216516,
          0.3463246629187938,
          0.17123591812370045,
          0.19021940727554867,
          0.048146867903094456,
          0.34721345187834335,
          -0.13734762053238858,
          -0.25338195934795316,
          0.3452350103252531,
          0.12082070491719489,
          0.37118964570026447,
          -0.22333773621393527,
          0.3599216251746746,
          -3.46863793494807,
          -0.03364368927787153,
          -0.24160137111995314,
          0.09190005251051643,
          0.12906455763321878,
          0.13311454362380573,
          0.10854891736032182,
          -0.19861082225581306,
          0.3528068202215109,
          0.35649344933286936,
          0.1274360252788002,
          -0.14542012790585768,
          0.31108655401903745,
          0.08673584427163682,
          -0.28747801358581154,
          0.3358684889077991,
          0.34980733791637864,
          0.11526823024771146,
          0.3457316950731126,
          -0.14702456404311376,
          -0.027213360846896184,
          0.33817298456527684,
          0.3484080188104883,
          0.3450608870532942,
          0.032239301226567645,
          0.1342295920548594,
          -0.24754914288954843,
          0.32557637224648156,
          0.3676019119284158,
          -0.33190851258858745,
          -0.21828700168738596,
          0.3208087192291827,
          -0.21729271640761316,
          0.35054226024256274,
          0.12280142654931621,
          0.1251360974168803,
          -1.4610379171771721,
          -0.043869627538254984,
          -0.21818759669535145,
          0.12184683437452555,
          -0.2130825456739729,
          0.36177637575642274,
          0.34845442599517146,
          0.1360746766079234,
          0.06437955392142063,
          0.3489659681818156,
          0.3624448994630461,
          -2.5424397467368753,
          0.3812092209312117,
          0.12117139040378612
        ],
        "bias": 0.39485911031607096
      },
      {
        "weights": [
          0.2940782119938542,
          -1.5357949416794654,
          0.2867859140786078,
          0.14837596574541909,
          0.17361004550806508,
          0.1794417958736728,
          0.2951643017820294,
          -0.08377884266477864,
          -0.20436218638842418,
          0.28811114996455256,
          0.10616061802314199,
          0.3097613300647656,
          -0.18839079011805793,
          0.28563282087897296,
          -3.1690857029533905,
          0.04908833423238854,
          -0.19621410497609806,
          0.053771288681804384,
          0.10902590066123875,
          0.11067066152731901,
          0.08955736310133104,
          -0.2571130085041696,
          0.29915786838379643,
          0.2755260170727275,
          0.10617123228859217,
          -0.12417757211068461,
          0.2704188619517135,
          0.03733395038679689,
          -0.22877990203889284,
          0.2877661263594548,
          0.2767487329018234,
          0.10620583860416216,
          0.28301497393311936,
          -0.38848301096603927,
          -0.025130673250089226,
          0.3024460389903614,
          0.28222734064420574,
          0.2941897947580637,
          -0.018621873080013854,
          0.10837601812487561,
          -0.19884052725332615,
          0.27106602732675844,
          0.25564241795771064,
          -0.10701037094343582,
          -0.16152228356407233,
          0.2724926815952327,
          -0.17819237318673775,
          0.27894623777438043,
          0.10783988952889646,
          0.10970561241952156,
          -1.5070333928137645,
          -0.08971054778622087,
          -0.18621024502145644,
          0.10297078129036001,
          -0.16235837434122835,
          0.26275422176925384,
          0.2949340347446727,
          0.11417832575756927,
          0.09641176805289191,
          0.29648435121095856,
          0.2635768634618987,
          -2.3120861178169236,
          0.2723397628038846,
          0.10408300158464978
        ],
        "bias": 0.3194998718673562
      },
      {
        "weights": [
          0.3436141985859699,
          -1.3944891551476954,
          0.3630866973611778,
          0.2114278991100558,
          0.227006644450296,
          -0.006991458726540676,
          0.3512729845899207,
          -0.19171599805521725,
          -0.2504462542607858,
          0.35689920257346847,
          0.15759319014731288,
          0.3736616041315768,
          -0.21595374379246557,
          0.3717704170146683,
          -3.5954619761522078,
          0.007800947765764268,
          -0.23294640855715634,
          0.05715181306187426,
          0.160740138676653,
          0.16462786527094092,
          0.1456835270098559,
          -0.20510158333666165,
          0.35602920829343204,
          0.3783385000163389,
          0.15685321425055515,
          -0.1445665545982675,
          0.33977050175252077,
          0.06979966338907093,
          -0.2818256282287915,
          0.35577233183848705,
          0.37040810169005256,
          0.15816491397381055,
          0.3640165358339022,
          -0.07056724081018553,
          -0.033104009360842124,
          0.33655990333655944,
          0.3659541542941055,
          0.34820658154441514,
          0.02405919230599602,
          0.1239023832710394,
          -0.2470216083280637,
