[
  {
    "name": "INP",
    "activation": "LEAKY_RELU",
    "neurons": [
      {
        "weights": [
          -0.18115983090621585,
          -0.07334415024706066,
          -0.06806532504548951,
          0.0012435798308226172,
          0.12038869592599935,
          0.02526247158894763
        ],
        "bias": -0.27888098136964157
      },
      {
        "weights": [
          -0.08131180498015705,
          5.411981739784502E-4,
          0.012886450195466992,
          0.010251742825197611,
          0.02358921887503716,
          0.0014700600817800882
        ],
        "bias": -0.04795742749259704
      },
      {
        "weights": [
          0.010621536118946832,
          0.00903188187371222,
          -0.023994390308866867,
          -0.0038181757072510494,
          0.004394218105289407,
          0.008912427915516868
        ],
        "bias": -0.02946892726810497
      },
      {
        "weights": [
          -0.0028103864422518096,
          -0.01305824158271862,
          0.013671506426801523,
          0.004060686184606515,
          0.013541267407140966,
          0.0017275153612100308
        ],
        "bias": -0.008717915899769517
      },
      {
        "weights": [
          -0.15300577475220412,
          -0.07980985060016599,
          -0.06602575828524368,
          0.003964012188129786,
          0.1120340629737521,
          0.015954778480007648
        ],
        "bias": -0.287488539430562
      },
      {
        "weights": [
          0.02109109924106679,
          -0.002631619323765106,
          0.04150713148444501,
          0.002269228290636671,
          0.013137767379384963,
          -0.005445794340917675
        ],
        "bias": -0.02048909238737666
      },
      {
        "weights": [
          0.0255339246297035,
          0.0011713536959571578,
          -0.020917862823750345,
          0.009349574808097248,
          0.020319960346909423,
          0.00942580062093703
        ],
        "bias": -0.004991024309355533
      },
      {
        "weights": [
          0.016083983784954525,
          -0.004116850340227534,
          0.014311510801445776,
          0.0020582344253831765,
          0.01252433088539469,
          0.0071248862324653495
        ],
        "bias": -0.005052858179236119
      },
      {
        "weights": [
          -0.01301229668777614,
          -0.004091582129882368,
          -0.008177073626237881,
          0.004378164525714805,
          0.01863977610254407,
          0.008384686228004952
        ],
        "bias": -0.01988229962959394
      },
      {
        "weights": [
          -0.018083561428957548,
          2.702083061064475E-4,
          0.008912610758322857,
          0.008433684048854554,
          0.005280104756986796,
          3.013298531834158E-4
        ],
        "bias": -7.17413324376543E-4
      },
      {
        "weights": [
          0.00792114583503188,
          -0.02901936824685977,
          -0.051842788936015224,
          0.0255046612188835,
          0.03945638508918747,
          0.04129500750958918
        ],
        "bias": -0.018190604409894142
      },
      {
        "weights": [
          0.024396839663469602,
          -7.775729774276247E-5,
          -0.02446925629197102,
          0.009011078989397424,
          0.017629560871114964,
          0.016067431955537188
        ],
        "bias": -3.778780154510186E-4
      },
      {
        "weights": [
          0.006964573778851292,
          -0.001048959015159018,
          -0.0036435535127863415,
          0.0012608535699396351,
          0.007830065679522252,
          0.00371209294634171
        ],
        "bias": -0.002452212669774109
      },
      {
        "weights": [
          0.008865502302642074,
          -0.01758913254505059,
          -0.005523381433443838,
          0.01323846818800554,
          0.024011255566533257,
          0.008083774813976916
        ],
        "bias": -0.013619802842176728
      },
      {
        "weights": [
          -0.007864391844968077,
          -0.009718770050905762,
          0.020948655038465127,
          8.583131001664403E-4,
          0.014304641838601233,
          0.006420259104385891
        ],
        "bias": -0.01944598245327678
      },
      {
        "weights": [
          0.005041927120399367,
          -0.002200673408176183,
          0.002884282937265102,
          0.0018909622762810795,
          0.015405098916095955,
          0.009123805924490561
        ],
        "bias": -0.008181035215588163
      },
      {
        "weights": [
          -6.848352384699631E-4,
          -9.344326442874944E-4,
          -2.43082924482857E-4,
          0.0015156403149862894,
          0.01764171648121279,
          0.00567387992668511
        ],
        "bias": -0.011034828947613335
      },
      {
        "weights": [
          0.03634103197515401,
          -0.002399416261754081,
          -0.014476919566425267,
          0.013042437310890713,
          0.049360609521131756,
          0.0359110691015012
        ],
        "bias": -0.01180309828119924
      },
      {
        "weights": [
          -0.03400638059411825,
          -0.003805251690388165,
          -0.0019289383403826167,
          0.0028652247338436364,
          0.01378940373409037,
          0.004048536859936183
        ],
        "bias": -0.03194099803056059
      },
      {
        "weights": [
          -0.008174157348374315,
          0.0046391767671665985,
          -0.03551432255106238,
          0.012804088377525977,
          0.0014823652000680496,
          -0.003469814744457219
        ],
        "bias": -0.0260297425756056
      },
      {
        "weights": [
          0.0029060214517392753,
          -7.000575114682985E-5,
          0.003833976595675345,
          0.0013564146501602418,
          0.004188166618860874,
          0.003838811940137757
        ],
        "bias": -0.0021120936209902182
      },
      {
        "weights": [
          -4.1183271584864186E-4,
          -1.5361345584376338E-6,
          2.710935231476581E-5,
          2.6010377568695924E-4,
          0.001551225674773143,
          3.227344263822007E-4
        ],
        "bias": -6.534422042576956E-4
      },
      {
        "weights": [
          -0.03614685881206586,
          0.018286602836765455,
          -0.013331353643280286,
          0.012339393580548372,
          -2.6689812954236797E-5,
          0.009853775969183728
        ],
        "bias": 2.4104795114690672E-4
      },
      {
        "weights": [
          -0.01757461066218297,
          0.009244553035450798,
          0.018501249230471414,
          0.013737595077494918,
          0.0074275370774210805,
          0.012560706885401111
        ],
        "bias": -0.00389062014584793
      },
      {
        "weights": [
          0.02929747703875816,
          -0.008570762483000878,
          0.01867692708806118,
          0.0036601613126880927,
          0.024333051068066897,
          0.011131241298690633
        ],
        "bias": -0.0011525240678984965
      },
      {
        "weights": [
          -0.019216737671926023,
          0.015585721633204435,
          -0.011199493319076909,
          0.019243355228301385,
          0.02446540453788794,
          0.016845995370922844
        ],
        "bias": -0.022671584261083885
      },
      {
        "weights": [
          0.028505496670015153,
          -0.011287871037162422,
          0.006666087957493593,
          0.006742269882245198,
          0.025332928094008392,
          0.014110537724135501
        ],
        "bias": -0.00627700633093683
      },
      {
        "weights": [
          -0.00970074332772611,
          -0.012847441713905599,
          0.010259253689515593,
          0.005354085082502939,
          0.015428633836385165,
          0.003973238941270996
        ],
        "bias": -0.01130479241137175
      },
      {
        "weights": [
          -0.0795431437705371,
          -0.06064197544308537,
          -0.04775931098956033,
          0.0031879035457449303,
          0.09478309393793721,
          0.019631198645440908
        ],
        "bias": -0.23982819311511117
      },
      {
        "weights": [
          0.004143707552737502,
          1.758954559348332E-4,
          -0.01604173627788213,
          0.006909904547239262,
          0.009121262002839458,
          0.006784951665653281
        ],
        "bias": -0.019483241655359113
      },
      {
        "weights": [
          -0.03668816960278647,
          -0.0038963620477445136,
          0.03856539259542685,
          0.006160918146044831,
          0.01919683488821547,
          0.0047398537676855736
        ],
        "bias": -0.037263955914429846
      },
      {
        "weights": [
          -0.012596355677847804,
          0.005078166307842132,
          0.008103210498043977,
          0.0054123168419690955,
          0.005809979559949805,
          0.004808299541916897
        ],
        "bias": -0.0022634193232385826
      },
      {
        "weights": [
          -0.0031385902609267634,
          -0.009413167399204806,
          0.0037404810468771024,
          0.003542973298042977,
          0.013408780991884467,
          0.0014176622799789965
        ],
        "bias": -0.006315457057850391
      },
      {
        "weights": [
          -0.008244266396529924,
          -0.018609539966617586,
          0.0351266599862767,
          0.006588132320826393,
          0.020071269230989924,
          0.00665885527815138
        ],
        "bias": -0.011953973980833872
      },
      {
        "weights": [
          -0.0051278015152087615,
          0.0012236134261389684,
          0.0037396650587087107,
          0.0033195223876348987,
          0.008095795705290702,
          0.005780031368406265
        ],
        "bias": -0.002946019936696161
      },
      {
        "weights": [
          0.02750176048063429,
          -0.003833943829405293,
          -0.004590419151334643,
          0.004706979214288067,
          0.020692824464390056,
          0.015208232951126192
        ],
        "bias": -0.005029872851431546
      },
      {
        "weights": [
          0.008863829286620424,
          -0.01758846945601053,
          -0.005523258088696128,
          0.01323827553889568,
          0.024009471529687573,
          0.008083173321615298
        ],
        "bias": -0.013618206428643321
      },
      {
        "weights": [
          -0.003621153577476282,
          -0.006023930112782089,
          -0.025218640912373236,
          0.028030064317239124,
          0.0564140181202007,
          0.03421073880610853
        ],
        "bias": -0.019696065077617512
      },
      {
        "weights": [
          0.13404747626882707,
          0.01963445614171462,
          -0.01676767687996109,
          0.016125260957071383,
          0.03209305898991699,
          0.0377811243413769
        ],
        "bias": 0.0034681363893635073
      },
      {
        "weights": [
          -0.0014696737619196605,
          0.015766051166489624,
          -0.07423347132792833,
          0.013178935015512313,
          0.018787308747643262,
          0.037985533603072975
        ],
        "bias": -0.004095915507875015
      },
      {
        "weights": [
          -0.03154254809612543,
          -0.002459156699154204,
          0.0324230390694221,
          0.015311956950086414,
          0.03173826234715054,
          0.015754436051614536
        ],
        "bias": -0.026761266210115268
      },
      {
        "weights": [
          -0.08005558604002834,
          0.006657864896171607,
          -0.041186201825967786,
          0.01780986015386127,
          0.018346723673012908,
          0.011552200168287768
        ],
        "bias": -0.08029023678740502
      },
      {
        "weights": [
          -0.18036254764689447,
          -0.05981287519881172,
          -0.06770185523550339,
          -0.00102378730323575,
          0.13284741771884492,
          0.042619348416822654
        ],
        "bias": -0.28416635732502554
      },
      {
        "weights": [
          -0.023776182949603108,
          0.014186443431397171,
          -0.001877336009775061,
          0.010976357897217535,
          0.005752375532398551,
          0.008768833810219478
        ],
        "bias": -9.447728434226168E-4
      },
      {
        "weights": [
          0.01501158596988495,
          4.533843525772537E-6,
          -0.029392252260238918,
          0.011408604835397637,
          0.020172254508123027,
          0.01811551190207649
        ],
        "bias": -0.001273771776003057
      },
      {
        "weights": [
          0.06464927465806956,
          -0.006220071948706299,
          0.019128352438520353,
          0.008171032739847995,
          0.04001388056658452,
          0.025786044950379148
        ],
        "bias": -0.022329084456991628
      },
      {
        "weights": [
          0.002988674284152634,
          0.0012340176987685992,
          -6.099825524300636E-4,
          0.0034679494066167647,
          0.03187162413715556,
          0.01550261437203498
        ],
        "bias": -0.00802079382045016
      },
      {
        "weights": [
          -0.00575161472935849,
          -0.007118887199675098,
          0.004804040082408541,
          0.0024312932873419048,
          0.015130356470939701,
          0.004951271551350787
        ],
        "bias": -0.012337442417637654
      },
      {
        "weights": [
          -0.01749838039293722,
          -0.020045551350555246,
          -0.02882195465907444,
          0.008809027811463394,
          0.024331983637362713,
          0.0072041720175483985
        ],
        "bias": -0.07414456156047328
      },
      {
        "weights": [
          -0.04296996577091443,
          -0.023556933865914936,
          -0.03081851905882109,
          0.008936188683687053,
          0.04453709815965359,
          0.006494607239077827
        ],
        "bias": -0.10277398488483355
      },
      {
        "weights": [
          0.01713757080297064,
          0.002286540188206241,
          0.009118066526831363,
          0.00838293532505742,
          0.02202278900094758,
          0.008918785196716085
        ],
        "bias": -0.003531386184176562
      },
      {
        "weights": [
          -0.010201621962985227,
          -0.008039859105432706,
          -0.030468809550184748,
          0.012511269758305925,
          0.006696888898434525,
          0.01344802608124914
        ],
        "bias": -0.009909251508138352
      },
      {
        "weights": [
          -0.022617763983060035,
          -0.0138123516627658,
          0.014091866297322855,
          0.0027057287509820683,
          0.014852059476798558,
          0.00482447558403112
        ],
        "bias": -0.03460766618105188
      },
      {
        "weights": [
          -0.05151092827861989,
          -0.07079654291018203,
          -0.08199942031804236,
          0.009071693413870012,
          -0.011125732390440417,
          -0.0519217820474427
        ],
        "bias": -0.15143049187127625
      },
      {
        "weights": [
          0.0012746116480953724,
          -0.009185355077806982,
          -0.012287430301897223,
          0.011526720675935877,
          0.03899875297543852,
          0.012094998536307303
        ],
        "bias": -0.017335043721652083
      },
      {
        "weights": [
          -0.006095949421990304,
          -0.06235747445665471,
          0.06678386104690975,
          0.012508082353463621,
          -0.02542057475950339,
          -0.03701963953917713
        ],
        "bias": -0.08873020368515046
      },
      {
        "weights": [
          0.010379433925684104,
          -6.630432619579523E-4,
          0.021820823440979378,
          0.003868590255462265,
          0.013945563916692327,
          0.0038579167525469695
        ],
        "bias": -0.010175625942957995
      },
      {
        "weights": [
          -0.013567699783108704,
          0.004603918291242152,
          0.009341520680237313,
          -1.8840698508205001E-4,
          -0.004958915051391691,
          -2.518834195222484E-5
        ],
        "bias": -0.009076177555572993
      },
      {
        "weights": [
          -0.03240200726930942,
          -0.033620058211185494,
          -0.02594247375901685,
          0.006389999908914926,
          0.03722326464828826,
          0.0044198455728088
        ],
        "bias": -0.0791056137948764
      },
      {
        "weights": [
          -0.05003504802488715,
          -0.009932787477095363,
          0.010917427756183257,
          0.009186321907917438,
          0.024199583467576738,
          0.011236875613270532
        ],
        "bias": -0.02227289618773922
      },
      {
        "weights": [
          -0.018467028786841654,
          -0.008758400037185815,
          0.011414926683423513,
          0.0019854369700468407,
          0.011237288497931453,
          -0.002100696782961018
        ],
        "bias": -0.015334598222646037
      },
      {
        "weights": [
          0.008865261921513967,
          -0.01758903740264765,
          -0.005523363868889171,
          0.013238440345099549,
          0.02401099909347101,
          0.008083688290810208
        ],
        "bias": -0.013619573298061922
      },
      {
        "weights": [
          -0.06743526486936795,
          0.014644413408165635,
          0.03388774606838761,
          0.020357223532365493,
          0.04414179250400023,
          0.02244745126380129
        ],
        "bias": -0.04226589207876762
      },
      {
        "weights": [
          8.009841483043969E-4,
          -4.0759865097275813E-4,
          0.0016809933598244664,
          7.736036758438018E-4,
          0.005563533458475004,
          0.0016348816764827853
        ],
        "bias": -0.006496813793974213
      },
      {
        "weights": [
          -0.020412016970523347,
          2.0314752826849024E-4,
          -0.008942439589863842,
          0.00342668005257172,
          0.015682143263607017,
          0.009784844732757111
        ],
        "bias": -0.011105258507452389
      },
      {
        "weights": [
          -0.06332962486827276,
          -0.005935730178905247,
          0.07849243832862615,
          0.023166777506976093,
          0.03723764248033513,
          -0.0055990545483815485
        ],
        "bias": -0.06374499869304019
      },
      {
        "weights": [
          0.027012905513729077,
          0.0012161356406347045,
          0.006416587740576351,
          0.0014538530266368353,
          0.01849810503008667,
          0.015788537480426756
        ],
        "bias": -0.005691288835271118
      },
      {
        "weights": [
          0.025174620809702696,
          0.0033324984237593845,
          -0.006779592550156616,
          0.005375462152129124,
          0.008795652222723663,
          0.014043910493186125
        ],
        "bias": -5.335390256055666E-4
      },
      {
        "weights": [
          -0.03938820447398222,
          0.016408733407107107,
          0.03225565132521299,
          0.02688034583291353,
          0.03103976693422908,
          0.02864442945892728
        ],
        "bias": -0.01146040056760634
      },
      {
        "weights": [
          -0.016967814229025397,
          0.019555547185431683,
          0.041211491052570944,
          0.029777081280910323,
          0.03672207817819901,
          0.027105428916672503
        ],
        "bias": -0.012422811315829748
      },
      {
        "weights": [
          -0.017989679457360134,
          0.010713757202085804,
          0.030137191649388065,
          0.012835159146226105,
          0.007525809644557634,
          0.008500980102635445
        ],
        "bias": -0.03489658176334949
      },
      {
        "weights": [
          0.06465666466745648,
          -0.013577806679230397,
          -0.007671612829579457,
          0.009798033282843665,
          0.04329583613120921,
          0.015246503851200088
        ],
        "bias": -0.007812492735981013
      },
      {
        "weights": [
          -0.022667429981422335,
          0.00854892251604068,
          -0.013175571545816315,
          0.007102887240063929,
          0.0024096139280182934,
          0.009803543985502504
        ],
        "bias": -1.628373386966782E-4
      },
      {
        "weights": [
          -0.046304771094037994,
          0.002823767283813963,
          0.038894840174233725,
          0.005815263986660228,
          0.03668885414265894,
          0.01483743276782847
        ],
        "bias": -0.04980297932930441
      },
      {
        "weights": [
          -0.022692686340406037,
          -0.004902482277342782,
          0.012961365167261804,
          0.004123828766699332,
          0.0162398810151828,
          0.0028162806632705843
        ],
        "bias": -0.02740989292849818
      },
      {
        "weights": [
          4.8629280682892354E-4,
          0.0083653413598902,
          -0.012605518919263493,
          0.013396952951856651,
          0.00999815057371985,
          0.004220312695287732
        ],
        "bias": -0.0016766572997432472
      },
      {
        "weights": [
          -0.1038135435599522,
          -0.03807237122513659,
          -0.05041969181657886,
          0.0014175587457605297,
          0.07420298348997342,
          0.020102208244660174
        ],
        "bias": -0.18040715187615639
      },
      {
        "weights": [
          -0.020410832371693034,
          -4.1282718003139474E-4,
          -0.02824799639976726,
          0.014473717208255311,
          0.02018816424329427,
          0.01492524558698753
        ],
        "bias": -0.0011741370418886607
      },
      {
        "weights": [
          0.013309800277990396,
          0.021752188878236985,
          0.018047660130898233,
          0.028834537230439793,
          0.030340491788491214,
          0.02683400637335115
        ],
        "bias": -0.012634657863927368
      },
      {
        "weights": [
          0.01169863806480457,
          0.002331314702809067,
          -0.014793025114165043,
          0.008548979885723609,
          0.00991438875570946,
          0.014431864499721656
        ],
        "bias": -0.004606405262436991
      },
      {
        "weights": [
          -0.031099155774674987,
          -0.007039154229685618,
          0.026101637785150487,
          0.008008249384157125,
          0.013458715251770965,
          0.008126686142152055
        ],
        "bias": -0.005417548547825477
      },
      {
        "weights": [
          0.0021509007695750034,
          -0.005052573750748155,
          -0.0016030635234174008,
          0.0018060178237441662,
          0.019261906526004444,
          0.010571974934456477
        ],
        "bias": -0.013276010623895499
      },
      {
        "weights": [
          -0.023364280961003625,
          -0.021714151993937256,
          0.010675913531159648,
          0.005958382735608108,
          0.017469127258764656,
          -8.427346971332375E-5
        ],
        "bias": -0.010897102025641519
      },
      {
        "weights": [
          -0.17531674203625572,
          -0.060598027791452576,
          -0.05420073229825656,
          -3.333754982037205E-5,
          0.13124826338609838,
          0.03895691269843789
        ],
        "bias": -0.2925069862277183
      },
      {
        "weights": [
          0.009457600694145364,
          -0.0023173895228541554,
          -0.001619445108119193,
          0.001829524787303608,
          0.017086205254406902,
          0.004830660870698335
        ],
        "bias": -0.005921252238403121
      },
      {
        "weights": [
          -0.007973969570015213,
          0.0030752976690486622,
          0.0011046145396988334,
          0.009145564624863815,
          0.01247185334052842,
          0.012228830453261135
        ],
        "bias": -0.0034052934042497255
      },
      {
        "weights": [
          0.07168990681988106,
          3.19020206227854E-4,
          0.05120282721657973,
          -2.756102647009808E-4,
          0.03814439774990299,
          0.03547262997173158
        ],
        "bias": -0.03543855788404067
      },
      {
        "weights": [
          0.045186951412726724,
          -0.005160570629621368,
          -0.01648793809419482,
          0.007526969157668137,
          0.02406788807634489,
          0.013750071477197777
        ],
        "bias": -0.0031260852805453996
      },
      {
        "weights": [
          -0.004219043775564074,
          -0.009313746519605584,
          0.012836810490446002,
          0.003328516797679282,
          0.020135223421989635,
          0.0011423032977758284
        ],
        "bias": -0.018173379292296284
      },
      {
        "weights": [
          0.053019376224643866,
          -0.008011824155097705,
          0.03503052981550761,
          0.002232468145260158,
          0.05294682725901049,
          0.023898671221126693
        ],
        "bias": -0.0338991733570163
      },
      {
        "weights": [
          -0.06731727022404199,
          -0.008030201573439342,
          0.019949783171788308,
          0.017881963722831736,
          0.04218162107502697,
          0.00240107749399597
        ],
        "bias": -0.04914123823967946
      },
      {
        "weights": [
          0.026974112908047753,
          -6.04314606611454E-4,
          -0.0033825953286596645,
          0.003657877550193395,
          0.01780743777845307,
          0.010939409724370592
        ],
        "bias": -0.00254297797422466
      },
      {
        "weights": [
          0.006964331809635031,
          -0.0010489278564122047,
          -0.0036431253049782797,
          0.0012608342968999018,
          0.007829910782124775,
          0.0037119783420433263
        ],
        "bias": -0.0024522542506687705
      },
      {
        "weights": [
          0.06465649692326829,
          -0.013577827482254307,
          -0.007671595590504131,
          0.009797994744380952,
          0.04329577032646266,
          0.015246476958734814
        ],
        "bias": -0.007812456471733256
      },
      {
        "weights": [
          -0.022396512712778035,
          -0.0036022924645439224,
          -0.011777333010409789,
          0.005989661291109224,
          0.020900453691868846,
          0.014619563758281875
        ],
        "bias": -0.024351492897936255
      },
      {
        "weights": [
          -0.011822623854192568,
          0.0012826125792547865,
          0.03486156028133191,
          0.01599776275594355,
          0.027812734794917755,
          0.017895552454486378
        ],
        "bias": -0.022056958094627575
      },
      {
        "weights": [
          -0.041801074178981434,
          -0.019124799889048968,
          -0.02193213014889392,
          0.022745323709607548,
          0.05315569096818394,
          0.028715722736931428
        ],
        "bias": -0.01868558527295826
      },
      {
        "weights": [
          -0.1113254913244522,
          -0.03888619011941859,
          -0.035271423681876815,
          3.124130019856197E-5,
          0.07789290940697925,
          0.0215758287752841
        ],
        "bias": -0.18341870622566753
      },
      {
        "weights": [
          0.012818615294337166,
          -0.001401081442769019,
          0.008521458978345641,
          0.0010897212768219327,
          0.017211611542196262,
          0.007146162360861949
        ],
        "bias": -0.004286955030802367
      }
    ]
  },
  {
    "name": "H1",
    "activation": "LEAKY_RELU",
    "neurons": [
      {
        "weights": [
          -0.07268709328668634,
          0.012249696180178186,
          -0.010732670838054289,
          0.012013641193546282,
          -0.04256164706931124,
          0.002068761685813774,
          0.03258792384037672,
          0.014732528280591888,
          0.014327625155383895,
          0.01696771221324074,
          0.03897418796822693,
          0.015319421303200376,
          0.00959370474092168,
          0.017844346652659514,
          -0.005159104064919363,
          0.017972224929713645,
          0.009105504938989708,
          0.021257056087275093,
          0.010621151258661095,
          0.017414957318312867,
          0.0024690463617726586,
          0.008377296469801163,
          0.012848204366349873,
          0.01805328476891419,
          0.0083128887509547,
          0.007083854951814614,
          0.023870257644320422,
          0.0025783694089638897,
          -0.07836518017187095,
          0.007632676095470254,
          0.0082897407237043,
          0.008220827259476999,
          0.014105782003105012,
          0.015412084910457912,
          0.005415748650164589,
          0.016317584310125408,
          0.017844269884395726,
          0.01487387284149002,
          0.015255339719654036,
          0.027158669305187087,
          0.006889206494527205,
          0.05697740723824781,
          -0.08579357947718388,
          0.014921483861863401,
          0.015472198582477165,
          -0.01189282300343376,
          0.01723013630372925,
          0.008637141642554805,
          -6.390661719655956E-4,
          -0.06433526930166987,
          0.014571533461439249,
          0.016972555115422543,
          -0.0028730158819020254,
          0.041246666290657465,
          0.01920249093698985,
          0.03597510777740332,
          0.014844449266279796,
          0.0036845975628809766,
          -0.0539583520238745,
          0.005918367386633547,
          0.011191347640281925,
          0.01784433564218703,
          0.0060800992204791265,
          0.0035823166873912397,
          0.012076389138333367,
          0.03234950516114243,
          0.013637448913971015,
          0.01010744044975646,
          -0.00283867163372826,
          0.0012446651536200772,
          0.014728602784829339,
          0.02722896921516524,
          0.015645866005425266,
          -0.004870124667471323,
          0.013792969111289608,
          0.01374271454415214,
          -0.027734158980707573,
          0.011884719103195739,
          0.01451932423799921,
          0.03277575808855315,
          0.022504928920650362,
          0.014517399322757647,
          -0.007522452458379869,
          -0.032669011057182756,
          0.01726049343779952,
          0.019067817182476767,
          8.108614464405611E-4,
          0.014593975367106405,
          0.014607699083328382,
          -0.011730994261697712,
          0.014507824310827965,
          0.011826960765000847,
          0.00959362570420387,
          0.02722891277697014,
          0.01416665833857495,
          0.009124756044944003,
          0.008173508794296715,
          -0.03006779723271845,
          0.02399330319592761
        ],
        "bias": -0.0038578335562685037
      },
      {
        "weights": [
          -0.07651748359492232,
          0.004973116813551455,
          2.380226592839555E-4,
          -0.006659267301277906,
          -0.02403761365832723,
          0.006446177023088864,
          -0.0015942598796195345,
          -0.003864891675739508,
          0.0012666102652406821,
          -0.0010880903592412564,
          -0.0162330863693573,
          -0.0035882462850882727,
          -6.334416512674061E-4,
          -0.006946974091754141,
          -0.0015522622378818295,
          -0.005077400998303284,
          -0.0012078167151201842,
          -0.011905383503599648,
          0.0016157550079430294,
          -0.0018198564300906889,
          -8.024411635204875E-4,
          0.0013155286280625718,
          -3.665004003941325E-4,
          -0.002354784205651709,
          -6.639894558578049E-4,
          0.008251479351972391,
          -0.004722371569830267,
          -3.8283556043048825E-4,
          -0.011531462958265248,
          -0.0038760790811106197,
          -0.002861366824466051,
          -0.0016019154217571847,
          -0.004187782744654963,
          0.010743801167870852,
          -0.004059101674913582,
          -0.0036939928594337764,
          -0.006945821677014136,
          0.004071198589925361,
          0.014359021324361319,
          -8.582578858692927E-4,
          -0.014158069273087295,
          -0.009669777873693103,
          -0.05966809108162386,
          4.752497667332695E-4,
          -0.005458848185275981,
          -0.0071795826044537825,
          -0.008051085327161785,
          -0.0037549448282331145,
          0.0020616260864261076,
          0.003956477756652027,
          -0.004517359122015166,
          -8.078383022008569E-4,
          -0.006816990511669469,
          -0.024393387218940053,
          0.002246151465452062,
          -0.0345957310579588,
          -0.0022173548064746674,
          -6.306924226221792E-5,
          -0.00130849365426016,
          -0.0048590123051747034,
          -0.003762692126913321,
          -0.0069468086203171965,
          1.653498671006172E-4,
          -9.472902482492976E-4,
          -2.524868428415072E-4,
          -0.0010993324824533118,
          -2.0682601386722208E-4,
          -0.0021504438439258053,
          -0.014742824957482527,
          0.001678772257823465,
          0.01663467891162578,
          -0.009746599344154647,
          0.002042277171392809,
          -0.017341132562435996,
          -0.009990500142180317,
          0.004553548392005286,
          -0.021812057362568034,
          -0.00943111621281947,
          0.017594525279816753,
          4.76362863794086E-4,
          0.006654361847607664,
          -0.005659839754737714,
          0.013319315528997558,
          -0.06180146143412038,
          -8.506210242798776E-4,
          -0.005864905075458891,
          -0.0049279147024886795,
          -0.0030042664890471095,
          -0.007231282980243062,
          -0.009658471546080702,
          0.010203417628094062,
          -0.003432541200056313,
          -6.334382749499965E-4,
          -0.009746552211770936,
          0.0010821481504004597,
          -0.007990666034965245,
          0.024870669552189317,
          -0.009447738567204138,
          2.8826565291794184E-5
        ],
        "bias": 0.2493658000325593
      },
      {
        "weights": [
          -0.07729434159346465,
          0.004700833610133007,
          -0.0013295367697577119,
          -0.005679074189199573,
          -0.025307706029354296,
          0.011056129756779597,
          -0.002003349569956002,
          -0.005689251181880837,
          3.6013136315916135E-4,
          -0.0015792707918978741,
          -0.018315051974293322,
          -0.0033704703030141376,
          -9.004411401495326E-4,
          -0.008083971839120314,
          -0.0018874256699961617,
          -0.0055581120544361895,
          -0.0011674985884245067,
          -0.012513766950195012,
          0.0011707086516069018,
          -0.002368038899248382,
          -8.293877336310211E-4,
          -0.0013884202917506193,
          -0.012255656132991831,
          -0.002318936462538085,
          -0.0014797245638026044,
          0.005487138489670291,
          -0.006343521901611151,
          -0.0011912706972691397,
          -0.010761220692918447,
          -0.004036024737568608,
          -0.0016877008321741218,
          -0.0014067440487484637,
          -0.003926774936841683,
          0.00755032123142342,
          -0.0028211036046284542,
          -0.004089787641494233,
          -0.00808287620124914,
          0.003622350021110261,
          0.013753237516994556,
          -0.00190782789974045,
          -0.014725266125600506,
          -0.008102395966149886,
          -0.06127467925203971,
          -0.002966102984653624,
          -0.00715376331840795,
          -0.005606719806547277,
          -0.008521106448729386,
          -0.0037740680090527913,
          0.001015647586284809,
          0.004907701746528036,
          -0.004788923084717083,
          -0.0013357469123541383,
          -0.007159258340612095,
          -0.021970650652361912,
          0.0017741605396518205,
          -0.030567632872922496,
          -0.003933498026800187,
          2.361967251108926E-4,
          0.0029787157577766585,
          -0.0034021602755382983,
          -0.005497508530318,
          -0.008083814544521279,
          1.7138751249397258E-4,
          -9.534294581987802E-4,
          -0.0012746388487950397,
          -5.629147144169084E-4,
          -5.742581866415579E-4,
          -0.0036678744246392255,
          -0.01739918209747313,
          9.436398611741277E-4,
          0.01677389014686618,
          -0.010418779037248152,
          5.684875055440444E-4,
          -0.018556539945377818,
          -0.01043816649270028,
          0.0034202148721650515,
          -0.021603403973993983,
          -0.012498876269458782,
          0.017313277874168104,
          -3.9307383518134365E-4,
          0.006988725813358657,
          -0.006053237423300855,
          0.013213889272572433,
          -0.0631545668372872,
          -0.0015240983197819713,
          -0.005630360030500775,
          -0.0014298462408103014,
          -0.004205544360749712,
          -0.009035741533428792,
          -0.009721282814450056,
          0.009967840738685285,
          -0.003643330816374983,
          -9.004257736195292E-4,
          -0.010418740039171294,
          -2.7382525958344524E-4,
          -0.00908463850694741,
          0.023796006032644205,
          -0.009253124634786607,
          -5.75089887062918E-4
        ],
        "bias": 0.24992520668208595
      },
      {
        "weights": [
          -0.08398450293328596,
          0.008330202891308034,
          -0.004866656529533538,
          -0.007647886693198888,
          -0.029234800296468536,
          0.007635189651673031,
          -0.005372271740240882,
          -0.002224974138237391,
          0.007232334599016027,
          -0.002120706853546707,
          -0.019300331927009966,
          -0.007937817474919687,
          -0.0010541581242199118,
          -0.008550074075405562,
          -0.0024053594760508577,
          -0.006232603246809033,
          -0.011197026292652424,
          -0.015362981442173197,
          0.004045652850137756,
          -0.0059289995695592825,
          -0.0010851336321763335,
          -0.004764170687298151,
          -0.005784965487291498,
          -0.0031170888711073677,
          0.004858814262220047,
          0.005369498944192356,
          -0.011122926254801352,
          0.005871894101549347,
          -0.011895008313832188,
          -0.005009221350998015,
          -0.0040078883087091574,
          -0.0012942270445888224,
          -0.005877354866736832,
          0.005499920804503922,
          -0.01241152803128589,
          -0.01572820435665849,
          -0.008548876792500788,
          0.0019366898370130163,
          0.008218957071815233,
          -0.004025710628275465,
          -0.01180265038218143,
          -0.011384611490433105,
          -0.06871922928355689,
          0.012079888502183944,
          -0.005584214310238533,
          -0.012232060051157989,
          -0.012181802742655888,
          -0.018288277009268078,
          -0.0010338702600659019,
          0.0031240018128374067,
          -0.010595973658712133,
          -6.317260220505826E-4,
          -0.0028272979183360876,
          -0.013458966607381285,
          -0.002014816387823989,
          -0.021230446944184675,
          -0.0016178815790683827,
          -4.920464489618218E-4,
          -0.003709739973620466,
          -0.005167117130398123,
          -0.0033991988299660767,
          -0.008549902207098243,
          -0.003660427251698545,
          -0.002011046922006015,
          0.0025695338586732984,
          -0.00571237733568592,
          -0.007465793775072111,
          -0.0024647794107316877,
          -0.01654005902022481,
          -0.0025649014900119512,
          -0.0015062386188989013,
          -0.020474761999478182,
          0.0035864206815370363,
          -0.011294325016711952,
          -0.013962321208035023,
          0.003130035957716457,
          -0.023023611670753712,
          -0.014763442837199674,
          0.008710283298727505,
          -0.005886244367454366,
          -0.0013351253493367654,
          -0.007601742143588969,
          0.016651143764779348,
          -0.06914408443572076,
          -0.007954817635178447,
          -0.00925315305817947,
          0.0020659695765204334,
          -0.00852581048135737,
          -0.00969446259873701,
          -0.0010216527295830397,
          0.01434369000916589,
          -0.006071974799064694,
          -0.0010542176072977044,
          -0.020474635249151996,
          -0.004095431496039309,
          -0.003032864460975349,
          0.010419212081369046,
          -0.011971520943015169,
          -0.009329385401064027
        ],
        "bias": 0.26331488035891387
      },
      {
        "weights": [
          -0.07647190098795044,
          0.008018332732048083,
          1.7559847233174962E-4,
          -0.006985090554874383,
          -0.024887850600574014,
          0.00557539043082092,
          -0.0015519836845134104,
          -0.0051677218916736725,
          0.002290190373764692,
          -0.0011150274726137444,
          -0.01723377283756275,
          -0.0019641742128228773,
          -5.654946856731762E-4,
          -0.006025261171157829,
          9.515055977928023E-4,
          -0.0035402847602708683,
          -0.001491423109620671,
          -0.011662352589041254,
          0.002719650001934353,
          -0.0017719277317101985,
          -9.829827901829658E-4,
          0.001741845935934515,
          0.003172075846779314,
          -0.0021253005466931483,
          0.0010035405927258368,
          0.0044903969003085055,
          -0.0045596176674228195,
          0.0017378523336793507,
          -0.011658113833367048,
          -0.004470912090106868,
          -0.0020274358372156806,
          -0.0016202620187941422,
          -0.005744049268252067,
          0.008279570501490346,
          -0.002734106815179469,
          -0.0033078192667479805,
          -0.006024049329788902,
          0.0034640521077858332,
          0.013873452836441834,
          -0.001264282905678366,
          -0.012500936365115171,
          -0.008977996131847616,
          -0.06010521276910186,
          -8.915858217938016E-4,
          -0.005218020252279261,
          -0.010449429457682742,
          -0.007969741762793693,
          -0.0038989565352746673,
          0.0013232471832378167,
          0.005349808163234599,
          -0.004542061710017531,
          -4.6604637080401793E-4,
          -0.0035217311966967337,
          -0.025129410880505555,
          0.001283458096394014,
          -0.03273059405460676,
          -0.003399607655123311,
          -1.3074931191845362E-4,
          -0.0013108008745967223,
          -0.0015469447209011519,
          -0.0034660043460774522,
          -0.006025087158435769,
          3.8630233165888725E-4,
          -9.91346668996087E-4,
          -0.0015076051325431648,
          -0.0010861479937559987,
          -9.604731036855248E-5,
          -0.002011820479922649,
          -0.013569864408943342,
          0.0012242820433373853,
          0.016062227345951488,
          -0.010026877543036515,
          0.0018251019448362134,
          -0.014076052873477012,
          -0.008337594055991373,
          0.004488211388866243,
          -0.02130067362044968,
          -0.010136880703838216,
          0.017824721072152903,
          -7.332286695095132E-5,
          0.006698229174885243,
          -0.0062487389439476616,
          0.013156290876759456,
          -0.06178096744558587,
          -8.095150385359825E-4,
          -0.0057940451253660165,
          -0.00642024964922294,
          -0.002627596992796837,
          -0.007382986777204583,
          -0.011026719915224694,
          0.016388091670681088,
          -0.004366534261505408,
          -5.654979529612445E-4,
          -0.010026812160551728,
          0.0014281601721553004,
          -0.006913055749033026,
          0.02467659828975197,
          -0.009631436956712288,
          -2.623391337956404E-4
        ],
        "bias": 0.2502148773663126
      },
      {
        "weights": [
          -0.0798830955713223,
          0.008435851206636714,
          -6.307156545213851E-4,
          -0.00625923783701636,
          -0.02692575827771078,
          0.011770673489842008,
          -0.0013084706500720575,
          -0.004293239457023407,
          2.6815553023313286E-4,
          -0.0013646503717101447,
          -0.017257615832260882,
          -0.0037618477373137014,
          -7.929027810993115E-4,
          -0.007009944324686795,
          -0.0014331712207912215,
          -0.002748842195495952,
          -0.001151909392791321,
          -0.010925451221690944,
          2.2483693260244616E-4,
          -0.0018796668784012418,
          -9.589239346954195E-4,
          -1.5818367405411702E-4,
          0.00432269339445608,
          -0.0019176602128732928,
          -9.34197234471755E-4,
          0.006735708132187623,
          -0.004257570295445725,
          -2.0186384056772422E-4,
          -0.014117013114407228,
          -0.00382404326507321,
          -0.0017536628806183855,
          -0.0010633784265513062,
          -0.004409114829539189,
          0.008492622793865711,
          -0.004095001307151832,
          -0.0014458381357406842,
          -0.007008837372221428,
          0.004144445993362436,
          0.015115664855712904,
          -0.0033711937521839447,
          -0.014035107898271223,
          -0.009894839245671421,
          -0.0629568118089144,
          7.430849004248193E-5,
          -0.005924056460496534,
          -0.0033020046791156807,
          -0.007776308190806317,
          -0.003735948192940164,
          0.0020577396964712317,
          0.0033896757915593055,
          -0.004441804652859683,
          -6.138704979920083E-4,
          -0.008158229723955262,
          -0.012307767370817338,
          0.0023545555156031565,
          -0.01610759500171455,
          -0.0030391893136154087,
          2.3406666142597186E-4,
          -0.0020361409776269456,
          -0.005109341016409319,
          -0.005500977787752728,
          -0.007009785402563921,
          -4.2770642627094264E-5,
          -9.430889858469495E-4,
          6.188046411381512E-4,
          -2.392328446068686E-4,
          1.2475479601017098E-4,
          -0.002515622019426098,
          -0.014052693258482435,
          0.002613297697339067,
          0.016295596259805,
          -0.009051951797680903,
          0.003493109546492947,
          -0.011094362992184125,
          -0.008334822564194409,
          0.004114511504969268,
          -0.02219434375194832,
          -0.009642713277413801,
          0.01809650099712771,
          1.7042297341797217E-4,
          -0.0018029363893009658,
          -0.006013083094226289,
          0.013582614160123732,
          -0.06355320150822703,
          -5.241660077211366E-4,
          -0.005164365554887208,
          0.005110818625449774,
          -0.003354065920860791,
          -0.008977878873546594,
          9.996315798175439E-5,
          0.016165584312822043,
          -0.003303729628894047,
          -7.928929192646282E-4,
          -0.009051824163703679,
          3.1303076542993493E-4,
          -0.007615194777790729,
          0.02441310395214161,
          -0.010055328106083294,
          7.215097653239946E-4
        ],
        "bias": 0.24905641354478172
      },
      {
        "weights": [
          -0.08351618255678607,
          0.008474244127173586,
          -0.005231473352366809,
          -0.0067626092157072925,
          -0.02819286051531201,
          0.018740809608826084,
          -0.006955582749703582,
          0.00421168090579439,
          0.006097827604854936,
          -0.0029398646061404004,
          -0.020765207943604983,
          -0.01194829937480741,
          -0.0032682518322202274,
          -0.008326391138171919,
          -0.0037706921499375194,
          -0.006462138262877316,
          -0.009178793830489449,
          -0.01674169628075642,
          0.003653765738824128,
          -0.0029597068753591063,
          -0.0021280311382915985,
          -0.006899474285268185,
          -0.005545375974486438,
          -0.004209515353976109,
          0.005600802781072926,
          0.006397044621983554,
          -0.01816424176292471,
          0.005353707729849346,
          -0.009067963844623309,
          -0.0034069569713155393,
          -0.0046970719514843025,
          -0.0080344622226152,
          -0.008505762023431996,
          0.006734342848657699,
          -0.01354767830193795,
          -0.03976329028542287,
          -0.008325132055934558,
          -0.0017974265295498484,
          0.007628683155010437,
          -0.006877677061624686,
          -0.013831385944611599,
          -0.01133502566464498,
          -0.06891126591321457,
          0.010205389255603577,
          -0.003793351190271779,
          -0.01725404460230614,
          -0.012018079752910573,
          -0.005691067330134619,
          -0.0019340944756263809,
          0.0014312506297883547,
          -0.011756750166449996,
          -0.012124484395375374,
          -0.0026508690775624137,
          -0.014551851585773141,
          -0.002349765932953638,
          -0.03439337733578879,
          -0.0024160854496798416,
          -0.0023578593675333873,
          -0.0013103399366609623,
          -0.005544378480120185,
          -0.005312144031986365,
          -0.008326210363777448,
          -0.011106972983130575,
          -0.00242716149452114,
          0.002773927097516307,
          -0.006842516115707784,
          -0.006957005810720205,
          -0.003870896037020774,
          -0.014198110722462466,
          -0.0028472839337305746,
          8.14590921668322E-4,
          -0.01690210856534121,
          0.0032373736966700905,
          -0.016613855916105192,
          -0.013855275809761392,
          0.0028718776287613196,
          -0.021558156234671697,
          -0.019876975642508482,
          0.002442822858949765,
          -0.009052719554478977,
          0.00857698508192843,
          -0.01214339856481572,
          0.014653549034044415,
          -0.06965141805281708,
          -0.008331566006953558,
          -0.014677491818522839,
          -0.0019564839570542685,
          -0.013342132277367552,
          -0.00928939085808678,
          -0.012364946717448548,
          0.015584339538156508,
          -0.006940183827705222,
          -0.0032682416719170934,
          -0.01690203270518364,
          -0.006552817971609354,
          -0.007305972551194225,
          -6.183331600316924E-4,
          -0.011639947172724971,
          -0.010296809398954858
        ],
        "bias": 0.26404542361745487
      },
      {
        "weights": [
          0.24470322011005705,
          -0.023071633234583805,
          0.018380215377673148,
          -0.010441212982774803,
          0.2055910443044822,
          -0.03756706600656295,
          -0.018809189460335544,
          -0.01290838293879053,
          0.01741351619573561,
          -0.03846172313378987,
          0.013915327311414321,
          -0.03707749573681396,
          -0.008583250628421722,
          -0.0031102522163764627,
          0.009956875251850718,
          -0.021291732523326355,
          -0.0020316550851719795,
          -0.03506385352022515,
          0.0231210284553001,
          0.02318807608152916,
          -0.002647015490017609,
          -0.01639637961373735,
          -0.04352154529624988,
          -0.0403525577525687,
          0.00562689492103333,
          -0.042268098045950366,
          -0.02208198588759423,
          0.004320246146529106,
          0.18718856340362866,
          0.010065587998096195,
          -0.027227564848876774,
          -0.018725738989238218,
          -0.05108446877092962,
          -0.014311827845063579,
          -0.013568963278239653,
          -0.015421986628955832,
          -0.003109775104004119,
          -0.05093887337095923,
          -0.06099945714020601,
          -0.01705357978049616,
          -0.037192945471530924,
          0.03753829465326921,
          0.22296481085871317,
          0.0023279161805778385,
          -0.024142754191327977,
          0.035044183847908465,
          -0.02696095428377111,
          -0.010994565322874328,
          0.052842319356885305,
          0.0826799787627869,
          -0.01447709720125965,
          -0.0035741023072010194,
          0.014021692671042356,
          0.1162137300575793,
          -0.03644341759908793,
          0.009181267104419773,
          -0.007817356114464808,
          -0.016254951261552346,
          0.0736634569130946,
          -0.021931991136214312,
          -0.017207097091322385,
          -0.003110184155073583,
          -0.007483377180162792,
          0.0025751516585816904,
          0.019607403814351006,
          -0.048983895076883714,
          -0.014582955827667205,
          -0.02892273374369896,
          -0.02578355275521876,
          -0.0397237474988218,
          0.005621826010622252,
          -0.024572864082565746,
          -0.0042945684464469015,
          0.024929287469912634,
          -0.0106264055191242,
          -0.0017919496174733998,
          0.17041684428658763,
          -0.012456370401851267,
          -0.034579265656688424,
          -0.013451513985910615,
          -0.011025932478231127,
          -0.01696709910429264,
          0.02696581735363423,
          0.22179948236087024,
          -0.020657208123427813,
          4.7705149831607605E-4,
          -0.011251883429160784,
          -0.02103700799765675,
          -0.0069825673973339455,
          -0.03961982032239878,
          -0.024997373070867197,
          -0.037884648138924684,
          -0.008582975836081523,
          -0.024572695858994447,
          0.02041421683633249,
          -0.05077892206110399,
          -0.008352156055219278,
          0.15929205197908947,
          -0.040452343585612185
        ],
        "bias": -0.09333288998494992
      },
      {
        "weights": [
          -0.07595006668327609,
          0.004754464560376706,
          -0.0011788998444092146,
          -0.007539846192508194,
          -0.025685119052858515,
          0.009503590088939551,
          -0.0011106271438113418,
          -0.005221704122515744,
          0.0011905206002414473,
          2.299398711273781E-5,
          -0.018187798520849948,
          -0.0024455092539413296,
          -3.7041781604197515E-4,
          -0.006601058614727588,
          9.942671792121443E-4,
          -0.0035244052669757466,
          -0.0013332585568212707,
          -0.01247226429602515,
          0.001441694089038725,
          -0.0044939479895872965,
          -9.7992810717728E-4,
          0.0010077003066367408,
          0.0019064011044059017,
          -0.0010732252127300037,
          6.393533796631073E-4,
          0.007582504605558324,
          -0.004756461904986891,
          0.001751047171674249,
          -0.011555554406042775,
          -0.00445238332527762,
          -0.0018585913837256128,
          -0.002021230622574432,
          -0.00540485821686402,
          0.009354863766044485,
          -0.002685863460264843,
          -0.003733130531259356,
          -0.006599918172992988,
          0.003540035982384548,
          0.013813229492136399,
          -0.003986103663442233,
          -0.014357442609901324,
          -0.009225898244171221,
          -0.05893836064099326,
          -0.0025351129199860773,
          -0.005850927997622895,
          -0.006480565000821079,
          -0.008353193837681896,
          -0.003895684169110349,
          0.001849709467283422,
          0.0057977384484980505,
          -0.004718269012113283,
          -0.0010167380434715162,
          -0.004498397606119044,
          -0.02348365947689993,
          0.0020184814573189023,
          -0.03361859170815524,
          -0.0035581222879061155,
          2.6522198741106085E-4,
          -1.81738393290636E-4,
          -0.00302901332879008,
          -0.0054071820657452165,
          -0.006600894858649827,
          3.9272603295656953E-4,
          -9.435406204459431E-4,
          -0.0015506908440627355,
          -0.0012287393520544856,
          -6.579505060411034E-4,
          -0.0025526489226351252,
          -0.013798634988839159,
          0.0011598000722349987,
          0.016797644400910375,
          -0.01005150351884899,
          0.0016972679037010683,
          -0.012923386221294195,
          -0.008355889487376467,
          0.004336133285350597,
          -0.021445482600797608,
          -0.010826316671687862,
          0.017449993285306133,
          -5.350873722222984E-5,
          0.00821893093155195,
          -0.006249423458324099,
          0.013390192722543045,
          -0.06098062357700781,
          -0.001350397495574102,
          -0.006042994779610628,
          -0.006085365051306907,
          -0.003219368325210163,
          -0.009054246051219638,
          -0.00956527809005101,
          0.010390026430758538,
          -0.004367698207628194,
          -3.7041450068192524E-4,
          -0.010051460926864986,
          -1.1291320505318414E-4,
          -0.009009758369745135,
          0.02400965722497731,
          -0.009602413890598464,
          -1.5023649708785904E-4
        ],
        "bias": 0.250533218968425
      },
      {
        "weights": [
          -0.0798574016949698,
          0.0045304835478895905,
          -0.0011075972849125444,
          -0.007060606789914844,
          -0.02669057767682084,
          0.012441368722605914,
          -0.0012819348578433987,
          -0.004997646234562292,
          0.0021756774833137545,
          -9.883144305700283E-4,
          -0.01931208950697829,
          -0.002868899674124073,
          -5.550427891562604E-4,
          -0.006779587534600208,
          -0.00247787713449063,
          -0.0051348514922407345,
          -0.0013114753705419395,
          -0.012177678902495551,
          0.003205844176642728,
          -0.002071365586286194,
          -0.0010124396656948722,
          0.002066199426748209,
          -0.0027505890336714453,
          -0.0012749787227950646,
          -0.0035597053990182553,
          0.00539217381588997,
          -0.004861510431531288,
          -0.001864472976372731,
          -0.01276559516917167,
          -0.004003392734307435,
          -0.0017077872279348857,
          -0.0018266441888889332,
          -0.0039724196125483086,
          0.009560025264212926,
          -0.002721366236311346,
          -0.0019100171786064258,
          -0.006778434565580884,
          0.004187870594765764,
          0.014602299704393185,
          -0.003417382426130941,
          -0.0140031504326559,
          -0.01125954600059571,
          -0.063022615727711,
          -0.001199974590445001,
          -0.006712205592355542,
          -0.002634828133756005,
          -0.008263428046313142,
          -0.003887603265476289,
          7.778844602437892E-4,
          0.001906327297564692,
          -0.004629638575544541,
          -0.0011834555518590926,
          -0.006618904091907929,
          -0.012176572295133208,
          0.0020994711387983755,
          -0.01694039424116776,
          -0.0030299469538429685,
          -1.030991492174655E-4,
          0.0011031684802218014,
          -0.00329256303645491,
          -0.0033683556931995004,
          -0.006779421995764523,
          4.026579274992373E-4,
          -9.135608733618801E-4,
          -0.0011526845919117578,
          -3.3429060865306095E-4,
          -4.984309688496072E-4,
          -0.0031456970919496036,
          -0.01774929392714734,
          0.001265489981603958,
          0.016893187092864654,
          -0.00919684121918705,
          8.92313286259656E-4,
          -0.010513206288366241,
          -0.009953211425852107,
          0.0032161135202330325,
          -0.021642245808680363,
          -0.011811000263047388,
          0.017764791310590444,
          3.1269395029474953E-4,
          -0.004153440104954508,
          -0.005808377126939825,
          0.013689933797637015,
          -0.06467212836806885,
          -0.0013491602897522056,
          -0.005572498785071433,
          0.002783127497413117,
          -0.0036771154894582876,
          -0.0074219211764564984,
          -2.1511665585054044E-4,
          0.010351081017227032,
          -0.0041601791514303205,
          -5.550257501124678E-4,
          -0.009196720624084354,
          9.414021502219315E-4,
          -0.008872249518401428,
          0.024394990429058724,
          -0.010352518662105462,
          -0.0011561557739271215
        ],
        "bias": 0.2501000700561935
      },
      {
        "weights": [
          -0.07567414067494456,
          0.003352245125661817,
          2.4513307831013195E-4,
          -0.0055361676617381875,
          -0.02506296301487531,
          0.006501209274305349,
          -0.0019320981070184136,
          -0.005019766646204052,
          7.977248096300782E-4,
          -0.0013530503930930754,
          -0.018068303870091465,
          -0.0019066927550854527,
          -5.591203746268062E-4,
          -0.00806551752521536,
          -0.0013606085134236134,
          -0.0058860567171025256,
          -0.0013993942010448299,
          -0.012992172250789592,
          5.659380409212278E-4,
          -0.002085643828714735,
          -9.84301859064739E-4,
          -0.0012894049013876144,
          -0.017513549083670064,
          -0.002239502641626974,
          -0.001004431605966871,
          0.0054683515729099085,
          -0.004702477464558405,
          -2.646008406649568E-4,
          -0.011799669908177511,
          -0.0031793719855359357,
          -0.0018365382011086388,
          -0.0022344765851118804,
          -0.004091707484346443,
          0.008018220850111347,
          -0.004339380937966045,
          -0.0037690043810108915,
          -0.008064366436507833,
          0.004510843369772712,
          0.015200673718036628,
          -0.001363123549600535,
          -0.01426692380266067,
          -0.007797134423322976,
          -0.05963906053819604,
          0.002040176366053942,
          -0.004559441342070102,
          -0.010055045438045165,
          -0.00899138121803543,
          -0.0036051405673457448,
          0.0012750663648611212,
          0.005762005467739601,
          -0.004801440169671523,
          -3.78996091302609E-4,
          -0.00778040634158642,
          -0.026025641849560223,
          0.0020954420972577833,
          -0.03334330181750446,
          -0.0032383536736757747,
          -1.6544408951652383E-4,
          0.00234550614999659,
          -0.0031346650712327346,
          -0.003068823834498021,
          -0.00806535226287604,
          0.0024291666318228483,
          -0.0010280425425614821,
          6.3899878887818E-4,
          -0.0010873410784052791,
          -2.1506716223425632E-4,
          -0.0019229698004532604,
          -0.01592080378144605,
          0.001015293431457497,
          0.016657775853017982,
          -0.010011313305172562,
          0.002742097205378541,
          -0.01437422089329377,
          -0.01040611890869603,
          0.004454875993513151,
          -0.022140798846928104,
          -0.00955218265537331,
          0.018139556452821108,
          -8.151566415079441E-4,
          0.0034968500884066593,
          -0.0059721769029081285,
          0.012924059129956107,
          -0.06142287532570406,
          -9.038018775833895E-4,
          -0.005521295677737118,
          -0.004741903687387359,
          -0.002605632126958348,
          -0.00814959022860574,
          -0.011938376168324032,
          0.008360775642469623,
          -0.003738087398394376,
          -5.591200175859963E-4,
          -0.010011248055737875,
          3.611560202735526E-4,
          -0.009081836369713495,
          0.02391642518898696,
          -0.010260747058619166,
          -8.465091583678282E-4
        ],
        "bias": 0.24990494799215404
      },
      {
        "weights": [
          -0.08811928487301483,
          0.008980850920785828,
          -0.004359660879693651,
          -0.0072649776260263884,
          -0.030340330056074546,
          -0.0033234914426280224,
          -0.004456010996721633,
          0.00273423046056809,
          0.0036421989320412195,
          -0.004129459296590985,
          -0.018532085673178076,
          -0.01014595837932603,
          -0.0036413579672608136,
          -0.010319181295165441,
          -0.005811680545822498,
          -0.009082998249825855,
          -0.012097098553978539,
          -0.018206834259069247,
          0.0029673559477547324,
          -0.0017938317878412587,
          -0.0020903132213713157,
          -0.005543179238502164,
          -0.00787764313955066,
          -0.005156521709463556,
          0.005008566121544066,
          0.00793039183371876,
          -0.018090902059831604,
          0.0028496053089288606,
          -0.009067642030646366,
          -0.00272209636881865,
          -0.00918877383583431,
          -0.007901248701082534,
          -0.008453919629901737,
          0.0073907600099193446,
          -0.01103238840760645,
          -0.03386023940847459,
          -0.010318143558187925,
          0.001256213377733851,
          0.010937027992181778,
          -0.0035737321406236005,
          -0.013355217956985103,
          -0.011408128666162481,
          -0.06760932815679828,
          0.004849124035853642,
          -0.002408472103930513,
          -0.009957094720827094,
          -0.01524903920421086,
          -0.007276111071190341,
          -0.002795790173274869,
          0.0037595980364533957,
          -0.014066107831752338,
          -0.009313469175791662,
          -0.0035541381631546696,
          -0.011701065296543552,
          -0.0013107266169857651,
          -0.02377843128743298,
          -0.003009779929650998,
          -0.007437422896848915,
          -0.00375030952661767,
          -0.008024378463703928,
          -0.006568868637830841,
          -0.010319032262914635,
          -0.010805183930260932,
          -0.0035148033419388535,
          -1.7174791116815675E-4,
          -0.004545506302126404,
          -0.012461537765793819,
          0.001389102484198454,
          -0.012438918396253336,
          -0.002283515642683275,
          -0.004584052669418581,
          -0.019553644852097013,
          1.0371831421345087E-4,
          -0.012213136111504444,
          -0.013135592275576594,
          0.002077312044438396,
          -0.024590270528771878,
          -0.014236604406865598,
          -0.0014028760395601598,
          -0.009383985340180985,
          -0.006498593269872905,
          -0.009195674543196067,
          0.01777689099035037,
          -0.07210536526913147,
          -0.012747945894348802,
          -0.016092248891980562,
          0.004027999652047103,
          -0.016305847144007693,
          -0.011001710377258587,
          -0.0031092805353226745,
          0.0135694661651433,
          -0.006953707949773167,
          -0.0036414037833643388,
          -0.019553560614089274,
          -0.007922282630106331,
          -0.009528175559191625,
          -0.0021651836312176482,
          -0.012046327671448854,
          -0.008575415045142136
        ],
        "bias": 0.2662821809015607
      },
      {
        "weights": [
          -0.07787604780123653,
          0.00835157493025516,
          3.9974110485058807E-4,
          -0.006622684634482267,
          -0.02506176202664294,
          0.008909253719073787,
          -0.0011210211730001746,
          -0.005007509989416552,
          0.0011944141166532732,
          -9.206579512119167E-4,
          -0.01792912806253279,
          -0.003036198548160264,
          -6.093283661838339E-4,
          -0.005725314389737736,
          8.150485330585039E-4,
          -0.003233350649359301,
          -0.001460887039330081,
          -0.010843967717295113,
          0.001116943220922626,
          -0.0015665794494256913,
          -8.202062072768594E-4,
          0.0012358085435163076,
          0.003864837483879074,
          -0.0018807714173367555,
          0.0010982941017415324,
          0.007019821348946947,
          -0.0039040355979590986,
          0.001830820167990612,
          -0.011567365096578422,
          -0.004346872053372153,
          -0.0024821903409847058,
          -0.0012837205263223333,
          -0.005599572756639879,
          0.00819173956012789,
          -0.002574246381312248,
          -0.0036586378407662255,
          -0.005724108224410063,
          0.001493369869959304,
          0.01421789052283115,
          -0.0032347969394898295,
          -0.013919636536077199,
          -0.007904526608521707,
          -0.061067648692731256,
          -6.102352384514918E-4,
          -0.005061996544420517,
          -0.008068277158402611,
          -0.007491901043305536,
          -0.0035627269287694958,
          0.0012435709995034976,
          0.006061542988012731,
          -0.0043889129007377795,
          -9.38075937528893E-5,
          -0.004365496310416676,
          -0.02322329997982685,
          0.0024863700679281764,
          -0.03433859785966276,
          -0.003397611033848351,
          -1.3754360826391234E-4,
          -4.5859820528209645E-4,
          -0.005011267162083811,
          -0.0033783334022872116,
          -0.005725141195128638,
          1.5480916351950615E-4,
          -9.422934034176168E-4,
          -0.001444235613666145,
          -5.057208470432243E-4,
          -0.0010090958248726253,
          -0.0020077307999574914,
          -0.013957791434959572,
          0.002361714673785976,
          0.016252950323299754,
          -0.009633107500710891,
          0.0021702689681532337,
          -0.013190706220275515,
          -0.008285773414126441,
          0.0045059723405117885,
          -0.021938471400467514,
          -0.010519675243404492,
          0.018052149420696387,
          4.1865323411221925E-4,
          0.0038971548064162496,
          -0.006189651050992546,
          0.013219100850584725,
          -0.06303085617860982,
          -7.033938964307756E-4,
          -0.005315904080080103,
          -0.008808908160482968,
          -0.002473375405223111,
          -0.0073480530911079495,
          -0.0097414300803181,
          0.015882898230995774,
          -0.0036556851789084207,
          -6.093256790349563E-4,
          -0.009633045586407362,
          5.055276890667818E-4,
          -0.007884133163563579,
          0.0244946961784646,
          -0.009633917586293806,
          1.0357417339468721E-4
        ],
        "bias": 0.24991350196579226
      },
      {
        "weights": [
          -0.003345359280859286,
          -0.0011703011532459178,
          1.9615985976250178E-4,
          0.0021736031466947077,
          -0.008700579715220374,
          -0.003474712784548791,
          4.493171367398504E-4,
          0.0013219319470809008,
          -9.325627135022778E-4,
          0.0010955678405170591,
          0.0010120379130669538,
          7.354446211428409E-4,
          0.0017256160276377425,
          0.0013817077299751975,
          -0.003698917559328832,
          0.0029396176453869503,
          -0.002726348522994536,
          0.0034348777374265302,
          4.222950802037682E-4,
          0.0023629243060621467,
          -6.689085639577647E-4,
          5.549658338980194E-4,
          4.541614501507678E-4,
          0.0021813286985263008,
          8.237313084492725E-4,
          0.0017638852381067457,
          0.0021778622145442353,
          -0.0021671396715743168,
          0.0022984022817216683,
          -0.00695069664626926,
          -0.0014717510234015985,
          0.0023702927030670212,
          0.0011299836987307874,
          0.002938983562895925,
          -3.840954868750229E-4,
          5.80824782876281E-4,
          0.001381748803980991,
          0.0016104499654674472,
          0.0010500710255905241,
          0.0013195788606600136,
          9.181346451676007E-4,
          8.462541046423507E-4,
          -0.003393724809855071,
          1.405907782514983E-4,
          0.002197591988823744,
          -6.702078893962498E-4,
          0.0013890093912579228,
          -0.0016638383738536576,
          8.798066744307157E-4,
          -0.001993657205919138,
          -1.729204949136284E-4,
          0.0033488695618175378,
          -0.00469179918179367,
          -0.009721157130005556,
          0.002523591737013732,
          -0.004722535172936622,
          0.0018530686225615154,
          0.0017799480417197958,
          -0.008233108472902552,
          0.0019125503773760654,
          -0.001990124382490314,
          0.0013817136328264843,
          1.0779188105947661E-4,
          -0.003261869118738431,
          2.221548746780483E-4,
          2.0914844046333666E-4,
          0.003047436816417236,
          -2.053708502709111E-4,
          3.2672712997805096E-4,
          0.0015928879819937084,
          -0.0012418876201667687,
          0.0030285088423412975,
          0.004070170893109631,
          7.09400081812434E-4,
          6.92823738209122E-4,
          0.0013805242289477702,
          -5.33444012810872E-4,
          0.001016191835835812,
          0.0017543762432359721,
          0.0011188005016341688,
          0.001350791133745716,
          3.6710023870552955E-4,
          0.008294464949579054,
          -0.0038992984355692897,
          0.0032376845938909523,
          -4.0620192390136856E-5,
          -4.988500805970841E-4,
          0.002164694302674302,
          -0.003750924653978084,
          -0.001636667330265104,
          -1.6645524476499452E-4,
          0.001171863103576321,
          0.0017260938094041185,
          0.0030284801015243003,
          4.892517023397402E-4,
          2.2805771804340803E-4,
          0.0017592127637670884,
          4.121722293837574E-4,
          8.786948317362257E-5
        ],
        "bias": -0.0026613804548363392
      },
      {
        "weights": [
          -0.07677737405859986,
          0.01114559697400929,
          -0.0011646770382049737,
          -0.005514359127208013,
          -0.024896423900797972,
          0.006760106871715037,
          -0.0015806020142434408,
          -0.004463121023096605,
          0.0014951973300104053,
          -0.0014352782778927443,
          -0.017586494854681233,
          -0.004993760339118686,
          -4.968285698484173E-4,
          -0.0067181315858600285,
          -0.0014451668191240391,
          -0.0030850890880082635,
          -0.001318238524143826,
          -0.015216079463196806,
          0.002869042741973554,
          -0.002390539005823783,
          -8.08130438110897E-4,
          -0.0012162532604208227,
          0.002586825031133314,
          -7.602233878370994E-4,
          -0.0015643035297463852,
          0.006546130244553025,
          -0.005089257016532893,
          -0.0010540254869844104,
          -0.01089353084426612,
          -0.00415728229796566,
          -0.0021911129755367623,
          -0.0016158457751964915,
          -0.004774337781621776,
          0.008602316989037588,
          -0.002795619321910251,
          -0.003842041577442887,
          -0.006716918685343634,
          0.0032416551726015793,
          0.01437717129564705,
          -0.0022067234586121403,
          -0.014288225298591056,
          -0.011907337896922214,
          -0.06030872019423068,
          -0.001995576255676781,
          -0.005731666241877095,
          -0.010947945303422262,
          -0.008014217668118571,
          -0.0037687070009390254,
          3.246931552350472E-4,
          0.005929017734330634,
          -0.004864394157346487,
          -5.332861118205965E-4,
          -0.0061535431098329796,
          -0.026005109587722276,
          0.0018208792418470615,
          -0.03361560232514858,
          -0.003099177204502921,
          2.0853132542415868E-4,
          -1.851543188599224E-4,
          -0.004331033121963387,
          -0.005946671466331559,
          -0.006717957421891856,
          0.002152928880855344,
          -0.0012177213838358188,
          -0.0012395211803777576,
          -0.0025305028171574142,
          1.762409259839217E-4,
          -0.002626881588554705,
          -0.014003409017808227,
          0.0017205151065799356,
          0.012695576890988698,
          -0.01098471333533797,
          7.776050795786435E-4,
          -0.013590277996162399,
          -0.008425975496370077,
          0.0038460898086025313,
          -0.021085429284282104,
          -0.012006943076824797,
          0.017943564879549123,
          -2.0207066794611958E-4,
          0.002011080344609277,
          -0.006081923392179435,
          0.013812839413390484,
          -0.06230146519490042,
          -7.759179975973473E-4,
          -0.005697111392041138,
          -0.00783232860620492,
          -0.0033569269943749046,
          -0.009587649160503692,
          -0.014778232288831806,
          0.020212200070951605,
          -0.003163320243740751,
          -4.968208859901112E-4,
          -0.010984665275194195,
          6.087674017263419E-4,
          -0.007465387996326599,
          0.024014980997398825,
          -0.008591206209238388,
          -0.0016107815600097995
        ],
        "bias": 0.25016812465098476
      },
      {
        "weights": [
          -0.07602130780824896,
          0.003464909779493712,
          -4.3920540324620706E-4,
          -0.006305479678513691,
          -0.024098979248500543,
          0.007546508432685231,
          -0.0010976191628770478,
          -0.004980370415039685,
          6.692240821385494E-4,
          -0.0015167555268941132,
          -0.0188264944279765,
          -0.002034781326092159,
          -5.849196099999088E-4,
          -0.006186596793200413,
          -0.0016936683652583279,
          -0.0033512975883925825,
          -0.0012201602680279868,
          -0.012231829444016438,
          8.827678008755595E-4,
          -0.001595925123395325,
          -7.869435338133288E-4,
          -2.7013796200455804E-4,
          0.0018774876579210327,
          -0.002377739636022204,
          -0.0019707152767987728,
          0.006881247346962089,
          -0.004809169153141432,
          -8.586155297649087E-4,
          -0.012096236275608746,
          -0.004005495844797936,
          -0.0018470651937513621,
          -0.001533367128332649,
          -0.004271193687408662,
          0.008209438247209669,
          -0.002622967277225188,
          -0.003936034553154673,
          -0.006185457644863199,
          0.004182136135371311,
          0.014683924115133978,
          -0.0032599132159554624,
          -0.012711162060168296,
          -0.009134136155008245,
          -0.05981607797808072,
          4.682920507474818E-4,
          -0.005369964956123253,
          -0.006008747191952759,
          -0.008359393265271874,
          -0.0034112268793102456,
          0.0016596144438620107,
          0.007587936993919556,
          -0.004479212598504346,
          -4.114005641677403E-4,
          -0.00787127925546453,
          -0.023921112442884505,
          0.0022411116058670797,
          -0.03215957584379187,
          -0.0030734347424338365,
          1.6068324824041806E-4,
          7.93954115988566E-4,
          -0.0015780671035670697,
          -0.0057018939575968035,
          -0.006186433224298253,
          0.0020336233940182248,
          -8.723240085351833E-4,
          8.49094508198244E-4,
          -9.108720824340239E-4,
          -1.0838473355385013E-4,
          -0.002065686089214591,
          -0.014680718837305871,
          0.001407972458896642,
          0.016785128300945765,
          -0.009476263303698896,
          0.0029571468775420598,
          -0.011445372789172193,
          -0.008372213402312567,
          0.004535592213220173,
          -0.02304110789391946,
          -0.0097723715751631,
          0.017840914516484237,
          3.064910702800407E-4,
          0.006077294835707502,
          -0.006076094054344163,
          0.013110150713154979,
          -0.061891559878922434,
          -8.12274994929045E-4,
          -0.005453472606222792,
          -0.0032790717419195325,
          -0.0024674356533803,
          -0.008919361099998812,
          -0.0094319381777196,
          0.009399409480027507,
          -0.0035943902282041004,
          -5.849175494165107E-4,
          -0.009476214002725013,
          5.178402722313581E-4,
          -0.0072403393495649015,
          0.024120573919727686,
          -0.010092382522861374,
          -3.3566607132010665E-5
        ],
        "bias": 0.24890051325008766
      },
      {
        "weights": [
          -0.08008949515904638,
          0.004901759820942298,
          -0.0011531540775310315,
          -0.007757797626661789,
          -0.02710720617496394,
          0.011926266491719127,
          -9.747569289063917E-4,
          -0.004556655208445338,
          0.0021348163501420997,
          -0.0012301590156283083,
          -0.018544748007864806,
          -0.004513642398669389,
          -7.899404910760621E-4,
          -0.006740128058554241,
          -7.771040558430154E-4,
          -0.00336450680161908,
          -0.001378644587549869,
          -0.01290954851676313,
          0.002882665294940943,
          -0.0022713825646720016,
          -0.001104626742518211,
          0.0015552457506652713,
          0.0014913571893035273,
          -0.002691690598908818,
          -0.0011148434215853989,
          0.00679248348826694,
          -0.005320546101018256,
          1.6898643265065555E-4,
          -0.013515653916375988,
          -0.003876287329950987,
          -6.438132259018902E-4,
          -0.001954115017383815,
          -0.006108833038226339,
          0.010091802533060532,
          -0.0027666007555784285,
          -0.0023475185660530437,
          -0.0067389815046620385,
          0.003690780509659278,
          0.014074968359121653,
          -0.0037238314660174017,
          -0.013825420296114317,
          -0.009990186865970438,
          -0.06301358287802089,
          -9.504946052931831E-4,
          -0.006298916918700629,
          -0.004416272364268358,
          -0.008491044755162725,
          -0.0038149023045950213,
          0.002156769291182435,
          0.001898400792838384,
          -0.004828726715424596,
          -6.322092187368556E-4,
          -0.006400137175068406,
          -0.012247779670350524,
          0.0024812482435527753,
          -0.017396693396957274,
          -0.0029251393509257197,
          1.50966030842022E-4,
          0.0018915296377924509,
          -0.004816014506559269,
          -0.005478071850053158,
          -0.006739963442420857,
          2.2002797413533037E-4,
          -9.715120328586315E-4,
          7.441678999614035E-4,
          -4.176650757244454E-4,
          -5.434953999787173E-4,
          -0.0033147250145034025,
          -0.014865587975709539,
          0.0018969061539549155,
          0.016834765537807956,
          -0.008918972014513365,
          0.0027018173563838318,
          -0.011419124560550086,
          -0.00845517045593518,
          0.0029997489196860352,
          -0.020947711109907712,
          -0.013203316081208895,
          0.017725374416511078,
          -1.3918568333183274E-6,
          -0.002998996379751058,
          -0.006232694795839478,
          0.013588454605472563,
          -0.06437162637184621,
          -0.0014172746263956292,
          -0.005460333820022758,
          9.818867779801763E-4,
          -0.004097399469288029,
          -0.008796620903297912,
          -0.0032478122167790566,
          0.010626931672349313,
          -0.0034965928413769063,
          -7.8993653126297E-4,
          -0.008918849662971629,
          0.0010692362982255147,
          -0.007830559826974273,
          0.02432242643364437,
          -0.009571960494520216,
          2.6035617882514734E-4
        ],
        "bias": 0.2499512140543056
      },
      {
        "weights": [
          -0.08251580745351682,
          0.004503343313329636,
          -0.0031711635819458447,
          -0.0068637959517725425,
          -0.028526736665008583,
          0.006447880390970078,
          -0.006294579218760673,
          0.004233107797465621,
          0.005157766176331102,
          -0.002624858952486187,
          -0.017875686405604656,
          -0.004592678788124558,
          -0.0017529967980518136,
          -0.004492872397870195,
          -0.006582630906794833,
          -0.00742113008694839,
          -0.008874293739919143,
          -0.016219170359355575,
          0.0026083372406536013,
          -0.004662141484175116,
          -0.001388252033920367,
          -0.0014385629029982222,
          -0.006374556831612702,
          -0.007845996317811571,
          0.00439476508670214,
          0.005437866432644702,
          -0.015004362274476345,
          0.002241386105165685,
          -0.007934867825488327,
          -0.0027550570140212043,
          -0.008798893507897459,
          -0.007296854837121399,
          -0.009110295480293329,
          0.005814174421497643,
          -0.011297728775010488,
          -0.03665412118100233,
          -0.00449183642056117,
          2.587349351925259E-4,
          0.008410638449650025,
          -0.0038646301740409943,
          -0.010902632147981518,
          -0.010370828813853459,
          -0.06634750617734946,
          0.0049247382193935785,
          -0.005498491333302846,
          -0.01662020430275872,
          -0.011688912364847388,
          -0.01406695099027626,
          -9.9723969876059E-4,
          0.003974893154065087,
          -0.011828147703721707,
          -0.009534904060379663,
          -0.0030775196055297604,
          -0.020481504746335248,
          -0.0016565592806353747,
          -0.03291138265576814,
          -0.0017295912266053822,
          -0.006099908279114969,
          -0.002174399745046368,
          -0.004773516749800602,
          -0.00534546105049223,
          -0.004492723622183053,
          -0.0024111022190873616,
          -0.002496040082251009,
          8.846854300210339E-4,
          -0.004289000717354071,
          -0.008310865007716469,
          -0.0020397924279855683,
          -0.015554509382053472,
          -0.0031951795602924177,
          0.0010505866055696492,
          -0.017260450382461715,
          0.0011104695996075947,
          -0.016451806220334722,
          -0.012481324403664297,
          0.003996288306878113,
          -0.024143849168388142,
          -0.013639351780889883,
          8.917212708335035E-4,
          -0.00889595633306783,
          0.007612210550931784,
          -0.010102677188321347,
          0.014334888986083939,
          -0.06898572492745529,
          -0.01063873548690196,
          -0.013759973904403608,
          -0.0027171429936924006,
          -0.009731773950266729,
          -0.007502409852533396,
          -0.009530945186272224,
          0.010021242889378185,
          -0.005187262372544311,
          -0.001753049192160986,
          -0.01726042211402148,
          -0.004649904906876247,
          -0.007164466329820899,
          0.0020278802128198764,
          -0.01079333361253697,
          -0.01111356702401553
        ],
        "bias": 0.2628412236499464
      },
      {
        "weights": [
          -0.09898838059707098,
          0.0579621604560362,
          -0.08788825851856968,
          -7.739196086602842E-5,
          -0.0669743767873612,
          -0.0050127674332686445,
          -0.027528082070139313,
          -0.028675723361975696,
          -0.05266279476575232,
          -0.03984614688268014,
          -0.024064064157863375,
          -0.014297133272937357,
          -0.020028113647213783,
          -0.04776593098773681,
          -0.015964500255866897,
          -0.0053029631481307125,
          -0.04256059597950454,
          -0.01690715239130347,
          -0.03427606505072032,
          -0.06244030511064115,
          -0.004975186778048253,
          -0.010465167487565492,
          -0.03744709947302216,
          -0.034984764992271516,
          -0.02988531394577042,
          -0.01763373229531057,
          -0.026387925536639177,
          -0.04368204931139201,
          -0.10455514118025319,
          -0.02596691893715624,
          0.01777107721652134,
          -0.03603698560019081,
          0.018797000052499815,
          -0.026460346816950756,
          -0.003433342628274304,
          2.4622737187843222E-5,
          -0.047765280247963615,
          -0.054843934736598224,
          0.026583125758046073,
          -0.031987381070105014,
          0.015472881766527453,
          -0.1125607939816239,
          -0.07882488046613036,
          -0.017370594689031647,
          -0.026597880945532854,
          -0.01608780748268535,
          -0.007230852647672221,
          -0.01853993686635126,
          -0.048050252381016706,
          -0.04468838735105308,
          -0.03620448049563638,
          -0.03490077695608204,
          -0.03486778096505648,
          -0.18316116211547018,
          -0.048366078488376436,
          -0.015062367072415178,
          -0.03118021377757237,
          0.00924946341956609,
          -0.03641491957208328,
          -0.010335379904685634,
          -0.004137534648522632,
          -0.04776583738204267,
          0.017135646449250613,
          4.629345444027942E-5,
          -0.007684197452898012,
          0.01751161281304722,
          -0.010105517210389678,
          -0.007155991011091078,
          0.02220082214948498,
          0.0026701210570953316,
          -0.020706685877958896,
          -0.0308235292595222,
          -0.009264835466951584,
          0.04334872367384094,
          0.018729371916334992,
          -0.0627108292418171,
          -0.08889710819892903,
          -0.0610342111587133,
          0.056728716281245026,
          -0.020495061913113597,
          -0.0015272965788851525,
          -0.038029753339145864,
          -0.023703191158470905,
          -0.1121165964657527,
          -0.004737334071532192,
          -0.004048236535790089,
          -0.09209343366068347,
          -0.005879141127254903,
          -4.365048230119267E-4,
          0.01504968352123264,
          0.025354761618864113,
          -0.04524315239430725,
          -0.020027844929088674,
          -0.03082352193731433,
          -0.03527861989275802,
          0.014773802767286797,
          -0.06949107249675374,
          -0.09879389058016855,
          -0.0028738600163207987
        ],
        "bias": 0.011143164223655916
      },
      {
        "weights": [
          -0.07763263194702508,
          0.005661466504248087,
          -2.632053533016714E-4,
          -0.0073015675783280045,
          -0.025316598115961375,
          0.013737869674175578,
          -0.0015777650952498283,
          -0.004286424707562009,
          0.001746789237004106,
          -0.00132442438466204,
          -0.019485493870858905,
          -0.004671357491338049,
          -7.45135598008381E-4,
          -0.007280152998596073,
          -0.0018256050319640231,
          -0.00374298108050715,
          -0.001032479033001731,
          -0.011994130049376835,
          0.0030226512230480994,
          -8.469057506576044E-4,
          -8.527733710572912E-4,
          5.657332533350904E-4,
          -0.0019936032922834726,
          -0.0032561143522014443,
          -0.0017397521655559496,
          0.006783815855092452,
          -0.0052269440193131065,
          -0.0012364657513281212,
          -0.011545086048584827,
          -0.004372983027312066,
          -0.0017154970615700271,
          -0.001092197471469747,
          -0.004118821226431223,
          0.008509496611160478,
          -0.0031246617039757795,
          -0.0037855836427626486,
          -0.0072789924722165165,
          0.004048087896534758,
          0.014195789151311427,
          -0.0037334886926707195,
          -0.01429039874389925,
          -0.00946051750058559,
          -0.061445225748105924,
          -0.002593523954607023,
          -0.006708968410010849,
          -0.00390210424506201,
          -0.008190711146343038,
          -0.0030142975008919035,
          0.00111014375841543,
          0.007041650332528957,
          -0.004589695552922304,
          -0.0012992631274383508,
          -0.006391623612715777,
          -0.01970134106090896,
          0.002086570377488647,
          -0.02375135275953049,
          -0.0029061079286316883,
          1.3303978662327506E-4,
          1.7758130910397503E-4,
          -0.005308810979825922,
          -0.005367586589421474,
          -0.007279986383918352,
          0.0015509577465704105,
          -9.488552074038151E-4,
          -0.0012603736737319812,
          -4.7641415404058685E-4,
          -5.44099105490702E-5,
          -0.0030641610562219075,
          -0.016515804313909047,
          0.0022020743500668124,
          0.016894397622975763,
          -0.009106110793425666,
          9.407157384356512E-4,
          -0.00516417940979657,
          -0.008985232154385596,
          0.00332097679676841,
          -0.022570043406073943,
          -0.012187695603935325,
          0.01772131789351295,
          -8.615710961665582E-5,
          0.00476327983680549,
          -0.006051345254717211,
          0.01364717309939849,
          -0.06343624450081557,
          -0.0011352807794511757,
          -0.005159198544855439,
          0.0016748503398779208,
          -0.003945859280378404,
          -0.008454552608747062,
          -0.0056196191589175095,
          0.010981948269955605,
          -0.0036158816467271953,
          -7.451221522129408E-4,
          -0.009106021978822718,
          7.319392726242206E-4,
          -0.007685684365194131,
          0.019978445925899826,
          -0.009584253333662196,
          4.41278491214903E-4
        ],
        "bias": 0.2489439582761134
      },
      {
        "weights": [
          -0.07962610199965156,
          0.004922079578810253,
          -0.001284499773488331,
          -0.006297658714854426,
          -0.02623845109109812,
          0.012063221642218996,
          -0.001490043583790919,
          -0.004342456627626831,
          0.0019064042556262459,
          -0.0014470545799489943,
          -0.018892256953971193,
          -0.004113777148078893,
          -7.931141640159469E-4,
          -0.007330109380926916,
          -0.0013981389905125122,
          -0.003946598004159012,
          -0.0010945435346169793,
          -0.011956063580766703,
          0.0027765959947179553,
          -4.996213662564555E-4,
          -8.594689926205497E-4,
          5.314502787270668E-4,
          -0.0018234558739242505,
          -0.0023731107041380733,
          -0.0014305556138344442,
          0.006852583061608231,
          -0.004513708410882446,
          -9.531673040532639E-4,
          -0.01366983664371406,
          -0.003998361528846134,
          -0.0015597105757804337,
          -0.0018340216637548333,
          -0.004094905882950656,
          0.010069171486125466,
          -0.0027298805960203247,
          -0.002301895887063721,
          -0.007328959165494182,
          0.004227098242588818,
          0.014433354534794064,
          -0.0035533748861793727,
          -0.014053195384639231,
          -0.010280223602474145,
          -0.06288960163788032,
          3.799527156184527E-4,
          -0.006348664517142624,
          -0.0032515781099874907,
          -0.008192749665410313,
          -0.003552955344130958,
          0.0013158613149895537,
          0.0025054218077158142,
          -0.004600623762695849,
          -8.029564797918745E-4,
          -0.006542429280342389,
          -0.012448647647200654,
          0.002372811789338619,
          -0.01762947497277851,
          -0.0028049474672033974,
          1.6455548602643927E-4,
          -3.960259224540896E-5,
          -0.004972475523500098,
          -0.0056051766746851445,
          -0.007329944236086023,
          0.002020782292012253,
          -9.486868727821999E-4,
          5.355521257277445E-4,
          -3.4449207667293944E-4,
          -4.2432380685870625E-4,
          -0.0028636588844296053,
          -0.015171214373060264,
          0.0019920461003030978,
          0.01632319164152939,
          -0.00855084661787905,
          0.0028092881143055902,
          -0.008697771732609539,
          -0.008994771979394424,
          0.0032194854088482884,
          -0.021483679815234212,
          -0.01187114755850373,
          0.01788760605603828,
          -6.093354629522208E-5,
          -0.003262412593758074,
          -0.006059873739105584,
          0.013304818006287552,
          -0.06414166234881188,
          -0.001239777645764777,
          -0.005453569791014952,
          8.90757284172054E-4,
          -0.0036921978560749257,
          -0.00888444522006997,
          -0.0027678725774302085,
          0.010167658225312017,
          -0.004139769417952856,
          -7.930991068247864E-4,
          -0.00855072540597591,
          0.001212337805325325,
          -0.007733355052887752,
          0.024117288898094894,
          -0.009517322733268037,
          1.4437583529838604E-4
        ],
        "bias": 0.24937523228016528
      },
      {
        "weights": [
          -0.07544435914925782,
          0.012332418428483342,
          -6.003221850153995E-4,
          -0.005814793930833289,
          -0.024053883729925094,
          0.00823054654946523,
          -0.001961381190582659,
          -0.0044605388040694135,
          7.394653644881031E-4,
          -0.0012083845367609565,
          -0.017371163076540297,
          -0.004025281261880691,
          -2.7109553813351464E-4,
          -0.007142132237978174,
          7.015198457673269E-4,
          -0.003128429523289138,
          -0.0011711150948032283,
          -0.014184431727905584,
          0.0010501869587168002,
          -0.002265229307980678,
          -8.540862791742224E-4,
          -0.0011144280522330005,
          0.0039252327930855225,
          -0.0017694206610373935,
          -1.9273362006757175E-5,
          0.006488814816544319,
          -0.004480232185850973,
          0.0015133447908853475,
          -0.009598262932198088,
          -0.004871069644592624,
          -0.001973316046860293,
          -0.002474501170409897,
          -0.004492321655812763,
          0.008527871662035684,
          -0.0027337009089990656,
          -0.00394688541994618,
          -0.007140989050163756,
          0.0038820711083996304,
          0.014703088448557299,
          -0.0013571846221756988,
          -0.014570731969769907,
          -0.011324891876804452,
          -0.059246377483587104,
          -0.0017304197072897927,
          -0.005304516431202246,
          -0.008524404735269655,
          -0.007558005155671015,
          -0.002661953844699465,
          0.002476352971303654,
          0.007511522730657418,
          -0.004589752303713038,
          -0.0014887561415450237,
          -0.004085941494898329,
          -0.025285653911681555,
          0.0019405913798719717,
          -0.03448495403378631,
          -0.002970395333754728,
          1.1732252278396897E-4,
          -0.0011503078458158168,
          -0.005656864800978534,
          -0.005831159650690865,
          -0.007141968097397717,
          0.0024234908534426555,
          -9.247139264512331E-4,
          -0.001990302908850643,
          -0.0024678068207690455,
          -1.0233361181272187E-4,
          -0.0020486869039513735,
          -0.01569220381804899,
          9.111843517645405E-4,
          0.014716652832963868,
          -0.010545794649552727,
          0.0018272747153159081,
