[
  {
    "name": "INP",
    "activation": "ELU",
    "neurons": [
      {
        "weights": [
          -1.067896261894699,
          0.6990200172043258,
          2.697380430692435,
          3.261968686273514,
          2.972058290962742,
          3.2338988554170762,
          3.590232908587209,
          3.89142934391546,
          3.669950079796152,
          3.2449790375256913,
          3.5692752962452596,
          3.8983533765285827,
          3.632583489250707,
          3.293067401885884,
          3.440298561155842,
          3.6432664576678624,
          3.322625975111923,
          -0.03462641193920617
        ],
        "bias": -0.00740364458319776
      },
      {
        "weights": [
          -0.21499223083745975,
          0.3656632746025558,
          0.4981859124172348,
          -0.22658075177403816,
          -0.478270607723415,
          0.11875878615324353,
          -0.41417178890262557,
          0.15570503262710086,
          0.16878379218722608,
          -0.4064085228920586,
          0.0036188321065581696,
          -0.38413500966180397,
          -0.2958855512446819,
          0.5614203897068089,
          0.015908135877634632,
          0.006462508322165807,
          -0.2671332459714954,
          -0.07555221950867796
        ],
        "bias": -0.0016799649903492943
      },
      {
        "weights": [
          -0.4541928675944696,
          0.40538963533962363,
          -0.009405812361010653,
          0.16061208916508204,
          -0.3162104380061386,
          -0.09548253013214593,
          0.00428300626748591,
          0.2810524663009276,
          -0.056743888639634525,
          -0.3392873913829484,
          0.30603800251035873,
          0.22924765968391334,
          -0.12456311333903795,
          -0.40191069781536154,
          -0.8997156705132839,
          -0.31133043681077144,
          -0.15475933532181815,
          0.20010522812707454
        ],
        "bias": -0.005251693266898823
      },
      {
        "weights": [
          -0.6563661155051902,
          1.1039826419777181,
          3.178181276059504,
          3.4693665634742246,
          3.321921767812576,
          3.6482598450289805,
          3.436024176669727,
          3.6847676370743168,
          2.992735795116926,
          3.6415105563720753,
          3.848633391836687,
          3.678172080742222,
          3.442023394172424,
          3.9853096186224213,
          3.575124653308211,
          3.4951866516835532,
          3.8267014829992245,
          -0.11538192506933649
        ],
        "bias": -0.03740763003720433
      },
      {
        "weights": [
          0.3095138750426703,
          -0.6822681906610306,
          0.2922843365504776,
          -0.04755986192385534,
          -0.21221613660890482,
          -0.5253486281747697,
          -0.5727425103710545,
          0.03119784332612024,
          -0.38527698894510926,
          -0.22241279640824585,
          -0.20320867964186737,
          -0.3031397196283616,
          0.08826470215761549,
          0.0694670568099203,
          -0.5563165309125687,
          -0.4776424260703111,
          -0.13621581346887068,
          0.3977237878477369
        ],
        "bias": 0.02186702902104985
      },
      {
        "weights": [
          0.33551155334735067,
          0.050767034232252116,
          -0.45071894544012925,
          -0.6089034815317691,
          -0.14270492457666326,
          -0.30872267689789784,
          -0.586226777609104,
          -0.5215230666402039,
          -0.398356355800998,
          -0.2196915116907128,
          -0.17942177999677833,
          -0.10785715890309046,
          -0.5270861093647612,
          0.352939066193468,
          -0.45816799264476304,
          0.6287064104282417,
          -0.107525138858936,
          -0.6156963298291476
        ],
        "bias": -0.023311071212070295
      },
      {
        "weights": [
          -0.5438511259685372,
          0.3185160492452867,
          0.19501001931744222,
          -0.010877533071617956,
          0.1508220065319015,
          -0.20675134512753135,
          0.4781206223245813,
          0.049501652093448985,
          0.7053325705852136,
          0.49999268789851836,
          -0.9453680442132667,
          -0.4398766684893878,
          0.22082857498523495,
          0.03687243587949654,
          0.10513357165639312,
          -0.21076892163023456,
          -0.7625156877801483,
          0.04057530628499245
        ],
        "bias": -0.01621012089258879
      },
      {
        "weights": [
          -0.3994095793688294,
          1.0284795684519286,
          2.7983410652915244,
          3.9754732764135965,
          4.006989311577684,
          2.82176781936968,
          3.6280237347372344,
          3.33771998945349,
          3.069809277312537,
          3.3587182702208986,
          3.8715291342757063,
          3.41112355855911,
          3.53224518012311,
          3.913416298413985,
          2.9472652055786948,
          3.5979198272675794,
          4.001003141996366,
          0.3254174999425513
        ],
        "bias": 0.04375065183697613
      },
      {
        "weights": [
          -0.8003830954504099,
          1.6045914242045791,
          3.180152213585903,
          4.299877820132781,
          3.5094982464969764,
          3.1323133720162333,
          3.2464364220563926,
          3.695157206236934,
          3.763552332638513,
          3.694045861571801,
          3.237264963978124,
          3.4709595406311187,
          4.043048252611215,
          3.5981658525137252,
          3.6588278031504355,
          4.0006455493685875,
          3.7065269369553815,
          0.12571039455455357
        ],
        "bias": -0.02349742172570485
      },
      {
        "weights": [
          -0.3143399917376855,
          0.34997102099721966,
          -0.16144846909978927,
          -0.18191954735220053,
          0.14491527133044177,
          -0.24309147420348223,
          -0.2915097686054354,
          0.11115306825986755,
          -0.48069748324530936,
          -0.034190120584842776,
          -0.2873581093708349,
          0.31302193710271864,
          0.3797104286594574,
          -0.20444613616454352,
          -0.05781373942939477,
          -0.11917478389874729,
          -0.165226806134305,
          0.17083585713633867
        ],
        "bias": 0.007562181515763995
      },
      {
        "weights": [
          -1.4077523054195578,
          1.330289004094429,
          3.269944136186241,
          3.0042405403200565,
          3.863163976836536,
          3.6262250500040674,
          3.267453928903718,
          3.2736915996164453,
          3.6371395590875073,
          3.1252493653675497,
          3.4794428125768895,
          3.363989445282504,
          2.9285877619509937,
          3.6397978568421334,
          3.736213442688118,
          3.7142864659995722,
          3.1510380866423264,
          0.07523210329223476
        ],
        "bias": 0.0037004429248360345
      },
      {
        "weights": [
          0.13385955510191383,
          -0.14711278620981905,
          -0.5812732772670496,
          -0.09491476351581953,
          -0.21631784862053866,
          -0.513036183026976,
          0.24009643518273108,
          -0.00763282868542511,
          -0.38139616164707985,
          0.39460272672413094,
          0.03951323922978054,
          0.06111758471920833,
          -0.7318342889386268,
          -0.29312764481662595,
          -0.18410500497923155,
          0.48905696020195966,
          0.0796569686479008,
          0.5856063468722643
        ],
        "bias": -0.0043933926337817375
      },
      {
        "weights": [
          0.09400633279810458,
          0.2945222047769844,
          -0.27041942059471186,
          0.2645252027187477,
          -0.11243227321697666,
          -1.15113168168639,
          -0.2534408482187894,
          -1.1289754586728895,
          -0.3174074440535025,
          0.36277486322820546,
          -0.056957139438994685,
          -0.21608154721690095,
          0.12398273386217251,
          -0.11855569649160175,
          -0.03268865339096194,
          -0.1684759820007875,
          -0.06351758638413244,
          -0.11748086680022554
        ],
        "bias": -0.014547488068094461
      },
      {
        "weights": [
          -0.6348504965558104,
          0.2873011803171597,
          -0.057862206795968006,
          -0.29348722803741034,
          0.1108156000086688,
          -0.031336478231076104,
          -0.07515730525958073,
          -0.5541963087833549,
          0.2241543787243497,
          -0.27387040823513165,
          -0.03715501469798068,
          -0.17251725456825676,
          0.2791671279711934,
          0.09760403814322069,
          0.07405612974098728,
          -0.37096261733059965,
          0.1638858966175796,
          -0.14768098416176742
        ],
        "bias": -0.027051715602063695
      },
      {
        "weights": [
          -0.14065421734491257,
          -0.20352073428160455,
          -0.2195367171355182,
          -0.278154843775618,
          -0.009625448813410181,
          0.009437720260044859,
          0.09362569576694675,
          -0.5113355292729888,
          0.3869537942805615,
          -0.523712341475073,
          -0.5647862195454415,
          0.3469781648161186,
          0.5797411662002393,
          -0.16194777146633632,
          -0.02296523308833814,
          0.1459689873513135,
          -0.4444348640911882,
          0.34654701835170243
        ],
        "bias": -0.013140892336265158
      },
      {
        "weights": [
          -0.2207096969409808,
          -0.28829662444765,
          -0.8273751612128823,
          0.34007420022399576,
          -0.22681305685570427,
          0.06835478708063436,
          -0.5576839514020119,
          0.202264271843898,
          -0.42208335006590664,
          -0.29053095487172065,
          -0.5813783439032567,
          0.08734814319965602,
          -0.42382346090219253,
          -0.2189414948170757,
          -0.41950620080254236,
          0.5237183679090606,
          -0.3633170598923761,
          0.17068894085250663
        ],
        "bias": -0.005237833405271063
      },
      {
        "weights": [
          -0.8278256024163225,
          1.5513354548093032,
          3.0882668272930527,
          3.946248833704595,
          3.6306027538426644,
          2.717973206171982,
          3.645945410209339,
          3.624963456537185,
          3.6406374387740192,
          3.5611677565518587,
          3.791562015035578,
          3.84254062717601,
          3.4207561408363314,
          4.272764950118296,
          3.748999247366686,
          4.186356394163179,
          3.1975487291780946,
          0.4944761074074544
        ],
        "bias": -0.020894103273250846
      },
      {
        "weights": [
          -0.25270364151896163,
          0.021533023250432926,
          -0.6945484236843626,
          0.38373481541911264,
          -0.5335891069490771,
          -0.3339667280028612,
          -0.12334635635298431,
          0.17369031576801816,
          0.4231419261068576,
          0.220039086186022,
          -0.2754962187563993,
          0.11365615773814135,
          -0.2245796713322632,
          -0.06776268158684007,
          -0.7758199113817366,
          -0.4369380575781077,
          0.01243919406022726,
          -0.6285317360956666
        ],
        "bias": 0.015315636150663432
      },
      {
        "weights": [
          0.019333124550417427,
          0.21771948279846476,
          0.11677150115831918,
          -0.32488900303843554,
          -0.25213234184896544,
          0.009343287648473038,
          -0.25540864876409425,
          -0.07986350707923834,
          0.2375590281892727,
          0.11422529126659689,
          -0.993437364819689,
          0.11934246380902408,
          0.1657075093510054,
          -0.4224792900500251,
          -0.17636213508794757,
          -0.09090395208065918,
          0.22617143739529583,
          -0.09770488939245098
        ],
        "bias": 0.025759509864331263
      },
      {
        "weights": [
          -0.5189931872601744,
          -0.5045741734120501,
          0.19098993809778889,
          0.006870316757220356,
          -0.5068991585882688,
          0.3143357163210057,
          -0.0654713002192219,
          0.17260751547114278,
          -0.021816204026944327,
          0.43469916932276,
          -0.5344473263815755,
          -0.227730168733752,
          -0.33910728010697005,
          -0.2386279709117357,
          0.059012476813304876,
          -0.6090452201367198,
          0.00415589706914799,
          -0.2603177891691215
        ],
        "bias": 6.959680840367539E-4
      },
      {
        "weights": [
          -0.9447394067073077,
          0.5718361932031284,
          3.390760690195365,
          4.562904986669585,
          3.7229955635864878,
          2.6819836234647036,
          3.505198655170561,
          3.3490370441382753,
          3.0292409561588243,
          3.489899214237923,
          3.377098890755162,
          3.840612204059724,
          2.773784764951387,
          3.4499703462125897,
          3.7470711975454543,
          3.424884309643453,
          3.8794529297387776,
          -0.3440602575214118
        ],
        "bias": 0.009034866285908414
      },
      {
        "weights": [
          -0.7996583992231614,
          0.5111044885944788,
          2.1793503692970164,
          3.8389208558794845,
          3.4142376221187662,
          3.3622983072714443,
          2.7752265945300505,
          3.7688933267460665,
          2.654622448309709,
          2.888252318613064,
          3.105823420883606,
          2.625589166603799,
          2.9255906111504815,
          2.8141680899937582,
          2.574380971491499,
          3.0526208934381582,
          3.359261093787346,
          -0.008014441741749612
        ],
        "bias": 0.01394398794214704
      },
      {
        "weights": [
          -0.7981511801230323,
          0.5239946676354148,
          0.5783600706919327,
          0.42245083124343064,
          0.3040638451166518,
          0.15793639156234257,
          0.3442303932640283,
          0.04034426199413623,
          0.16220674016584455,
          -0.3909684482314408,
          -0.38761635579063414,
          -0.2018115379111175,
          -0.3698166579170905,
          -0.156891213452193,
          0.35139119928990725,
          0.2722554645332458,
          -0.25925660729605254,
          -0.21989538413721293
        ],
        "bias": 0.01569983303889609
      },
      {
        "weights": [
          -0.0816369942191686,
          -0.036352176796271715,
          -0.03163238613157056,
          0.2552319623798983,
          -0.21392575436526293,
          -0.32905129436760416,
          -0.34319840669172486,
          -0.19110999029102624,
          -0.5553665779001142,
          -0.2928680520592596,
          -0.13693408262410198,
          -0.20398692111496447,
          -0.35556331970262517,
          0.4364233769553624,
          -0.006739519021496472,
          0.026887931233617542,
          -0.09590466215151183,
          -0.14292977547382346
        ],
        "bias": -0.008961123293262452
      },
      {
        "weights": [
          -1.00174834018837,
          1.266821394295163,
          2.917976344510753,
          3.8200173941712974,
          3.33608120859805,
          3.14494486278366,
          3.5472213514070603,
          3.3710305316879907,
          2.9328333907315365,
          3.743780113914253,
          3.125291263440115,
          3.2128990843141128,
          4.02134118154512,
          3.648837701735671,
          2.8075477328410625,
          3.044296062878941,
          3.5188432361127524,
          -0.5417629662897386
        ],
        "bias": 0.018075905731206307
      },
      {
        "weights": [
          0.023053213270767873,
          -0.18619469907989838,
          0.43072573755999466,
          -0.1729065496142365,
          -0.04355432160747351,
          -1.0708798531376975,
          0.04261531089156105,
          -0.2055771436175006,
          -0.8003573754203058,
          -0.14174285239904946,
          0.0627268900006307,
          0.0021725252270103444,
          -0.5074498278762352,
          -0.07655279523264598,
          -0.7747923223367349,
          -0.07305533645445975,
          -0.13565840228410675,
          0.2615617216323779
        ],
        "bias": 0.0023589602824433432
      },
      {
        "weights": [
          -0.5680382368562344,
          0.22483830224122006,
          0.0942262395831909,
          -0.06490813515748436,
          0.07872452783178531,
          -0.46764550381201947,
          -0.36052392758064117,
          -0.5956439510194702,
          0.12869538148414492,
          -0.05965316006994969,
          -0.23788610139268768,
          -0.30734400323210176,
          0.38628077935955757,
          -0.11783482500878456,
          0.34498694051242845,
          -0.02491792589468536,
          -0.052722102199033505,
          0.24779514711501618
        ],
        "bias": -0.016496685368597854
      },
      {
        "weights": [
          -0.4129940121483511,
          0.18303576873610053,
          2.0890840895822596,
          3.231654124385388,
          3.3820015955288887,
          4.0647087785875184,
          2.9292960977561573,
          3.6088005884275383,
          3.5665006143821283,
          3.2362568251809223,
          3.5527497919035715,
          3.5312082652875816,
          3.063618339360317,
          3.604881383566929,
          3.0040913716231734,
          3.6444395601656057,
          3.2750318717765348,
          -0.07145674359694079
        ],
        "bias": -0.03842375790181817
      },
      {
        "weights": [
          -1.0420915049330695,
          1.4668343229215133,
          3.4763927349533517,
          4.248718979680042,
          3.553650185997953,
          3.1179406262178384,
          3.632260675365397,
          3.352140355271366,
          3.302649149947857,
          3.3144869529210794,
          4.036406375678929,
          3.6617437264561623,
          3.7859078893029774,
          3.7060097867980835,
          2.53587124072167,
          3.805221775706616,
          3.804909721833964,
          -0.22022285812612175
        ],
        "bias": -0.01719787420442837
      },
      {
        "weights": [
          -1.378902925422934,
          1.8224242549197127,
          2.9517616395997073,
          3.505747199722643,
          3.0338954078913667,
          3.784268125216166,
          3.8404050872565882,
          3.194511512836026,
          3.697903066850614,
          3.1393157893008286,
          3.3039511411388687,
          3.3728940037486788,
          3.7153377715538105,
          3.5902558950663983,
          3.1709399405566505,
          3.457513298329581,
          3.192240703748686,
          -0.07863482159385979
        ],
        "bias": 0.018928956913285812
      },
      {
        "weights": [
          -0.681942033818652,
          1.1457370131952305,
          3.632207670876894,
          3.9842894231052863,
          3.2634538750102102,
          3.504271172977997,
          3.7503246511390858,
          4.0634155678181685,
          3.3305064622785574,
          3.804101648847417,
          3.358775875157846,
          3.5736414325763155,
          3.282502775471244,
          3.513418640509753,
          3.519296542271424,
          3.6298175560504173,
          3.2075208549374974,
          0.05209196275325803
        ],
        "bias": 0.011528493047114228
      },
      {
        "weights": [
          -0.1309796448841817,
          0.005888715378137395,
          -0.3093456299640636,
          0.01098220559526932,
          -0.33473794598764917,
          0.09234044943994159,
          -0.14264712913697455,
          -0.09769120510941455,
          0.19442210331197263,
          -0.6914023510668913,
          0.18903547461729875,
          -0.3465130835341285,
          0.010122946440228908,
          0.26511809056069,
          -0.009832669449215861,
          -0.5499972007433721,
          0.16449430392306877,
          -0.5547600279512404
        ],
        "bias": 0.03265892567035766
      },
      {
        "weights": [
          0.17696444552430174,
          -0.3308415170529868,
          -0.2619984327099311,
          -0.07637991409000894,
          0.3802011148108383,
          -0.33701694577411084,
          -0.3935567858375234,
          -0.1480020263873803,
          -0.02974151617646866,
          -0.11437071528478128,
          -0.6840054805389189,
          0.19651410105435865,
          -0.10696202386578832,
          -0.5608980735438363,
          0.17375161416782064,
          -0.6267778884749973,
          -0.1446672187297902,
          -0.030630341592720343
        ],
        "bias": 0.006372058637059629
      },
      {
        "weights": [
          0.1233729165920008,
          -0.08876646560300655,
          0.1404397569106147,
          -0.4063906093062837,
          -0.11588789121061563,
          0.11638062901600907,
          -0.582816206481929,
          -0.145503337190983,
          -0.34689897180195556,
          -0.22739915039228795,
          -0.12927783875414664,
          0.062166978238278145,
          -0.28348304133886143,
          -0.6169135822832275,
          0.2104466014595987,
          0.05356986161482072,
          -0.021306216142856105,
          0.30475278478896833
        ],
        "bias": -0.01158868691807739
      },
      {
        "weights": [
          -0.1251735732248132,
          0.3295511418882192,
          -0.2661722103004927,
          -0.22425609796965762,
          0.0030796291872211413,
          -0.6603785615228221,
          -0.25743386742555846,
          -0.6524168488539452,
          0.07715252110239491,
          -0.7089306282007304,
          -0.726695911232327,
          0.057497065489006904,
          -0.4065691029852544,
          -0.02519919181755129,
          -0.3028941567126717,
          0.4260526795939077,
          -0.3842398207436592,
          -0.05881151515050073
        ],
        "bias": -0.0061492469606352846
      },
      {
        "weights": [
          -0.005543552278353155,
          0.4263016708341447,
          0.016322098813981986,
          -0.09156392104716421,
          -0.4606594407795675,
          -0.05846884789115796,
          -0.3306305167111851,
          0.6302883795906049,
          -0.30640192425781715,
          0.13336697361790603,
          0.08105251401723006,
          -0.4358173451692396,
          -0.004174257824171712,
          -0.24179396140069256,
          0.03328130855101898,
          0.04963506324802792,
          -0.06723677927503793,
          0.3189696549327299
        ],
        "bias": 0.021463701991899505
      },
      {
        "weights": [
          0.38684331418717843,
          0.23628437041857417,
          -0.4441090882837936,
          -0.3691012906346004,
          0.3897809189291101,
          0.09029360406183726,
          -0.6165936884377371,
          -0.16949141569378048,
          -0.19491704450140285,
          0.05559694891563646,
          -0.05429207744879059,
          0.19167077637281957,
          -0.9096907077482057,
          -0.04739738913941042,
          -0.586018272453283,
          -0.25152311308733294,
          0.010956900378030583,
          0.3038631724277277
        ],
        "bias": -0.049122302141883505
      },
      {
        "weights": [
          0.3663298939100372,
          -0.47944134450069503,
          0.1145315123476277,
          -0.7237626273404751,
          -0.2838184769698989,
          -0.21865302466849124,
          -0.17936046651693674,
          -0.02034661420392955,
          -0.0879235743280049,
          0.031625492063516364,
          -0.3477072334910379,
          -0.35020167205692715,
          0.12711637923064598,
          -0.03081275304402724,
          -0.3779917802798505,
          0.4353356591491392,
          -0.18983191413527328,
          0.3892135120846473
        ],
        "bias": -0.00478528984740249
      },
      {
        "weights": [
          -0.48074713226286214,
          1.199067984896223,
          1.9695235352221758,
          3.9359021263315586,
          3.558047579738351,
          2.761026793177336,
          3.5755971797145945,
          3.707457546178974,
          3.5564851527009917,
          3.0362245806082053,
          4.272144402385184,
          3.451180750571473,
          3.4385053078266945,
          3.3521611865989067,
          3.443618026684716,
          3.951911441862913,
          3.6249376639748556,
          -0.08877402045631183
        ],
        "bias": -0.015796995010401178
      },
      {
        "weights": [
          -1.2529245316350295,
          0.5279429778093645,
          2.7207740416022967,
          3.0453970208755496,
          3.2509325925356944,
          3.3326966423552618,
          4.2833278016561716,
          3.3495621312611394,
          3.0796555715988103,
          3.2240662048785578,
          3.758466644195983,
          2.464374467897796,
          2.700366419512737,
          3.2731042057683433,
          2.9442435066048045,
          2.8636216927350544,
          2.7901300734379495,
          -0.34887409772747013
        ],
        "bias": 0.019489563332516655
      },
      {
        "weights": [
          -0.5862849923401068,
          -0.12618843415477385,
          -0.5198417506161619,
          -0.30469515803867586,
          0.33411418351703137,
          -0.5267960646958504,
          0.1550531542561987,
          -0.41984477394194625,
          0.030882811463633218,
          0.030562443941659276,
          -0.02097840632035983,
          -0.7096350777022994,
          -0.3178260606225284,
          -0.7411923123476538,
          0.1367181508343566,
          -0.15050793840530313,
          -0.2504001911079722,
          -0.40137626903734724
        ],
        "bias": 0.0036679594507340522
      },
      {
        "weights": [
          -0.33515435293188794,
          1.5938962558303837,
          2.80397655057781,
          3.585210674261265,
          3.1609488522592515,
          3.0987091250254157,
          3.7953277597043393,
          3.5243657016557006,
          3.6080356914719225,
          3.51966944437374,
          3.8390416249150046,
          3.5816606586478796,
          3.66342183608114,
          3.109216637396774,
          2.4782844387047986,
          3.5849594751094527,
          3.444488030150837,
          -0.3232367533290806
        ],
        "bias": 0.015318253345757269
      },
      {
        "weights": [
          -0.8807524877573015,
          0.3430898934446048,
          0.44390551241082754,
          0.16345996593375073,
          -0.12857205057385124,
          -0.12218484977705288,
          -0.7868243198402544,
          -0.07498730511415423,
          -0.24830899503477266,
          0.15487844406725534,
          -0.44447936906373564,
          -0.513471192554537,
          0.004172525294779098,
          -0.056404767876991946,
          -0.3303484880691722,
          0.5797482737131364,
          -0.49898660902913167,
          0.4108485247395691
        ],
        "bias": 0.03150411142169327
      },
      {
        "weights": [
          -1.0208368823549716,
          0.3784905293174047,
          2.558330357960698,
          3.863446754385989,
          2.991001031079246,
          3.259437260286972,
          4.144162698334418,
          3.2183283164512138,
          3.652216419245287,
          3.217247324054268,
          4.010383626045827,
          3.737694789755872,
          3.2805956617306355,
          3.2815410038584445,
          3.4858916580719437,
          3.5490604285347085,
          3.97924679190911,
          0.2825919011231477
        ],
        "bias": 0.03229187555842103
      },
      {
        "weights": [
          -0.5041838620121067,
          -0.00710884005385889,
          0.04378711575603869,
          1.1648346925132083,
          0.24866428732309115,
          -0.00449324192077652,
          0.011660197810719523,
          -0.12120413626422169,
          -0.5896788531558067,
          0.6744509208883392,
          -0.03969765695767369,
          0.4131670885168765,
          0.11649441165260703,
          0.40447809499969745,
          0.3484903851469976,
          -0.15789944551903126,
          -0.2553081487368549,
          0.49384056217476746
        ],
        "bias": -0.012722813303453187
      },
      {
        "weights": [
          -0.8415394538248447,
          0.46723760847652457,
          0.35907590962540253,
          0.0762283531712905,
          0.5047484601544788,
          0.2847857261431845,
          -0.23039200732273055,
          -0.23649945302727204,
          0.14406494598648825,
          0.08447502513542865,
          0.36090836524339226,
          -0.20596158469417167,
          -0.09845254431648887,
          0.25155287671252774,
          0.7626948048528219,
          0.20712103382027724,
          -0.3540357196620487,
          0.2695028620987876
        ],
        "bias": 0.005295143768732862
      },
      {
        "weights": [
          -0.8257505978886198,
          1.3267760275161309,
          3.175556939013199,
          4.509856566241994,
          3.5839754141590907,
          3.4264152509496695,
          3.115600957497936,
          3.5944333337937002,
          3.2087273134026315,
          2.9006284154863167,
          3.65872468104776,
          3.158086595098761,
          4.1920840868729385,
          3.1327282172927293,
          3.1821421824905616,
          3.3726465682523186,
          3.39079329095965,
          -0.07358139203797155
        ],
        "bias": -0.0037357158121409505
      },
      {
        "weights": [
          -0.4773721637751914,
          0.16856284430342233,
          -0.42899837440770505,
          -0.12646593752307375,
          -0.271322646205705,
          -0.4669815772443632,
          -0.3363715780219115,
          0.37954400559109097,
          -0.1954603836123578,
          -0.06460906712026,
          -0.23914003791497893,
          -0.07608306197896211,
          0.6463562792098895,
          -0.18057367186061887,
          -0.10082821758775046,
          0.5676004061571411,
          -0.5492283311600977,
          -0.44697143704377895
        ],
        "bias": -0.022291076300211078
      },
      {
        "weights": [
          -0.6659196802236461,
          0.3287899704187813,
          -0.40650011930616203,
          -0.2926447539910397,
          0.13948872489116831,
          0.2218507593587348,
          0.015328750191589273,
          -0.08636955562430516,
          -0.3117991082718173,
          -0.08431267166892088,
          -0.016168838322592267,
          -0.3465885561421846,
          -0.41177841592928666,
          0.1233078358182921,
          0.13035317230084575,
          -0.196961605996538,
          0.21314157414429544,
          -0.17785849775976806
        ],
        "bias": -0.019822134082116638
      },
      {
        "weights": [
          0.14202667730247687,
          -0.19253842516328565,
          -0.3093752625121228,
          -0.074586470177502,
          -0.34882101513898456,
          -0.3123559836272142,
          -0.17024350089801205,
          -0.5842524185017767,
          0.15169989601808678,
          -0.556707237795998,
          -0.4887769451031204,
          -0.4550346612830154,
          -0.835929696871537,
          0.4647283099521384,
          -0.3995147250611183,
          -0.20072828951702518,
          0.12768439791114689,
          0.029799258505414233
        ],
        "bias": 0.0022683471294314347
      },
      {
        "weights": [
          -0.4904266669942015,
          1.012375660291877,
          2.6916380446083927,
          3.5157299319350965,
          3.1274032283861968,
          2.7802852214043265,
          3.565015163444643,
          3.340337375446272,
          3.472662670830682,
          3.6955542133473114,
          3.019169778528381,
          3.6556661058721107,
          3.5210709702850096,
          3.489070978357046,
          3.4209541321389945,
          3.8453023814318636,
          3.756627441739096,
          -0.34500294002212606
        ],
        "bias": 0.035388815112517236
      },
      {
        "weights": [
          -0.4433850601872902,
          0.193085282318664,
          -0.1259072206672729,
          -0.03392834835028539,
          -0.8679081775653512,
          0.21379634167913159,
          0.013597302378402903,
          -0.1713275133718499,
          -0.300362577865398,
          0.4656793279574463,
          -0.22618756669623705,
          -0.02869082784011525,
          -0.04662204661001505,
          0.4025917975511532,
          -0.2833033627648947,
          0.0666964125304483,
          -0.2716771188452973,
          -0.34304359002368034
        ],
        "bias": -0.018209839608405037
      },
      {
        "weights": [
          -0.44667520963747687,
          0.9715735830616274,
          2.7166567111024604,
          3.7877745040819835,
          3.8266047257975715,
          3.30553130953947,
          2.8591052052440893,
          4.1373645252290485,
          3.9204018270043828,
          3.460840097698505,
          3.395281847574624,
          3.608867412566293,
          3.1257906358037113,
          3.5448004423853607,
          4.053890683876749,
          3.5738006544972634,
          3.189292132715794,
          0.24587285421831
        ],
        "bias": 7.689474194278462E-4
      },
      {
        "weights": [
          -1.2648396428096633,
          1.108798373376722,
          2.8900501711554503,
          3.7613905035146105,
          3.9095910859267007,
          3.268521677867766,
          3.787146564164357,
          2.9150443319942996,
          3.4065654157532266,
          3.118011861205786,
          3.4500140437425566,
          3.299747189641733,
          3.431517139279944,
          3.3652429020612096,
          3.583608647247266,
          3.5705030752510916,
          3.7249060874740194,
          0.38048290860156136
        ],
        "bias": 0.005528969574208264
      },
      {
        "weights": [
          -0.22138511328744392,
          0.4709049225191122,
          3.136084514429449,
          4.392185688551258,
          3.523692299358419,
          3.465589542127581,
          3.731065964733074,
          3.5835687864070787,
          3.5629380285124985,
          3.2103815598906023,
          3.9160869472240227,
          3.542630560823205,
          3.679651491722105,
          3.284309783741813,
          3.884644422208062,
          3.7937447233878996,
          3.67382112327053,
          -0.21687083060309675
        ],
        "bias": -0.007973735851545967
      },
      {
        "weights": [
          -0.5940490013394477,
          1.0740679411048304,
          2.840051545256091,
          3.1590727543771164,
          3.037794553816043,
          2.8150216662026466,
          3.4638429569738416,
          2.823232514712062,
          4.166524807606105,
          3.255201385122004,
          3.095382514126439,
          3.2525194214077713,
          2.852402126444172,
          3.3886248344599332,
          3.3123847791278678,
          3.844544406175069,
          3.633358705498303,
          -0.4845738877514155
        ],
        "bias": 0.085352856218982
      },
      {
        "weights": [
          -0.6821705689804887,
          0.06032077618467317,
          0.1276364529573195,
          -0.3512009350352015,
          0.17732694047356853,
          0.2073294047205711,
          -0.027132096856831843,
          0.08236936042470061,
          -0.29764413782861837,
          0.0535658124079668,
          -0.12617868956951186,
          0.3021794421530899,
          0.16268854741997854,
          -0.14169319501716984,
          -0.8676397512041628,
          -0.35979968421860037,
          -0.1532574058379922,
          -0.09162189258536507
        ],
        "bias": -0.008715311662106496
      },
      {
        "weights": [
          -1.0954741131569325,
          0.3065844378578783,
          0.009027644592131217,
          -0.14225387223351682,
          0.4627833118988854,
          -0.22215378792884102,
          0.016654409653419282,
          -0.04307041339475668,
          -0.29117952033343464,
          0.2798599862505912,
          0.05022778466446841,
          0.43277726423253227,
          0.058413609018516,
          -0.11912627829608757,
          0.1708658868933431,
          -0.2460507292074295,
          -0.24290739917122003,
          -0.027860321688906592
        ],
        "bias": -0.015454465077837333
      },
      {
        "weights": [
          -0.9808736040608896,
          1.0386008736353196,
          3.2301948743122226,
          3.2580945452986523,
          3.7432577524955692,
          3.517896905387422,
          3.3412562613281978,
          3.0337349823140864,
          3.1308394754082007,
          3.8446483862883896,
          2.8226132227145775,
          3.4395014348119277,
          3.816762003276405,
          2.4064432452098625,
          3.910917180860204,
          3.7144144302002595,
          3.3179372040641186,
          -0.6112064435903082
        ],
        "bias": 0.023048751695485346
      },
      {
        "weights": [
          -0.6173403885984038,
          0.25050029699159293,
          -0.010473619883638952,
          -0.44951725010278204,
          0.2200298178308204,
          -0.39432438156291016,
          0.019686047820282118,
          -0.09491318524509772,
          0.10643046661724026,
          -0.17893355480765616,
          0.03691818548090314,
          -0.28148654751525837,
          0.4288344951210597,
          -0.36325982846633176,
          0.00938917695644608,
          0.15342568336914122,
          -0.2483322743382101,
          -0.043471154496839755
        ],
        "bias": -0.006319207588252589
      },
      {
        "weights": [
          -1.136880100119029,
          1.4268163387162298,
          2.8452873378153627,
          3.951229551996728,
          3.5837978237954875,
          3.5423863633097046,
          2.9714095239398404,
          3.10313918219335,
          3.810118235485112,
          4.013093443719138,
          3.17582533172982,
          3.470572206007058,
          3.3707072591172813,
          3.0490208864256267,
          3.894738250318571,
          3.1760521633128636,
          2.9642229455165907,
          -0.04759148484909012
        ],
        "bias": -0.03759803482363162
      },
      {
        "weights": [
          -0.8318173094318979,
          0.3100989510023952,
          -0.14105711667899087,
          -0.18567490340205867,
          -0.07597353270537154,
          -0.6567862561104315,
          -0.3246415241105166,
          -0.01608570544114048,
          0.14409438301953592,
          -0.2931276698735897,
          -0.2927985913517346,
          -0.21312946013822115,
          0.38702276726332696,
          -0.3216039496464899,
          0.363512636402215,
          0.2325726599026314,
          0.10167422996782145,
          0.044397278665470205
        ],
        "bias": -0.04014662052975757
      },
      {
        "weights": [
          -0.15767964685084881,
          -0.05823744807126631,
          0.16970043361376755,
          -0.03137342289695157,
          -0.5719923312478914,
          0.1562394744284533,
          0.16759746811144594,
          -0.19894202429189467,
          -0.047120981721234245,
          0.021467584406013557,
          -0.2567508076227906,
          0.0036436375906591326,
          -0.4989455673888,
          -0.05186908015418553,
          0.18934265456631252,
          -0.27307182607740366,
          0.14868685186021163,
          -0.24302990441730624
        ],
        "bias": 6.627433849608008E-4
      },
      {
        "weights": [
          -0.6866714216663967,
          1.4292193659104375,
          2.742575204705865,
          3.929739051703359,
          4.078054328268919,
          3.6210007535509323,
          3.5603734357374597,
          3.0957855507531575,
          2.916487587723243,
          3.3695161884026192,
          3.6230275343057685,
          3.1124938939134443,
          3.2485760407859603,
          3.260616452800609,
          3.286197497336633,
          3.5684613822739264,
          3.9434848707757904,
          0.42409489412166634
        ],
        "bias": 0.01894018474968099
      }
    ]
  },
  {
    "name": "H1",
    "activation": "ELU",
    "neurons": [
      {
        "weights": [
          -0.232570799715897,
          0.1812557938805256,
          0.14310524601659463,
          -0.23170619973911846,
          0.22268191638732793,
          0.2227602601483641,
          -0.3124903660914951,
          -0.22975857983589387,
          -0.2314624894372962,
          0.183925436240694,
          -0.23168586480843045,
          0.2230074913081039,
          0.22000167954824584,
          0.1677287716298785,
          0.19532209241541412,
          0.2251448330709681,
          -0.23209881723000603,
          0.15929294505303518,
          0.21593126334123408,
          0.16632925848887503,
          -0.23057825577993518,
          -0.23039504532468205,
          -0.25740245169293074,
          0.19829284484192436,
          -0.2306345256394616,
          0.21654701214616895,
          0.13118189047516346,
          -0.2309408508998351,
          -0.23153327663610018,
          -0.23248780929095825,
          -0.23092459760370018,
          0.2221848194833301,
          0.23442618437369508,
          0.222487845402084,
          0.22081942400011165,
          0.19652973259516915,
          0.2277004402098174,
          0.2245767270635885,
          -0.23019642459278117,
          -0.23125510084146775,
          0.21890180038951734,
          -0.23096933258223346,
          0.19041051402155607,
          -0.2321239371321144,
          -0.23459213805381707,
          -0.24450119690261618,
          -0.23099667188917933,
          0.200891147624242,
          0.15537705633955468,
          0.22158760856272605,
          -0.23220890163227495,
          0.19999178192390824,
          -0.2298336091421027,
          -0.23133155009339276,
          -0.23020625582184445,
          -0.23143257685507046,
          0.013620196213883088,
          -0.3101946202758948,
          -0.23212316083996795,
          0.19165252951856124,
          -0.23113646701841167,
          0.15422048779715752,
          0.18147154651476802,
          -0.2305664958359877
        ],
        "bias": -0.2020121444080253
      },
      {
        "weights": [
          0.025019878115266295,
          0.016148152656738333,
          0.036682987252286796,
          0.023429438554629776,
          -0.017964135898784563,
          -0.01955529590246882,
          0.10347959430919434,
          0.022019747457709224,
          0.02356050384571643,
          0.00612890251573426,
          0.023534061100861096,
          -0.019113417864940006,
          -0.01524061009357382,
          0.029344402084820465,
          -6.690095939710435E-4,
          -0.017690083991055493,
          0.02418209011444913,
          0.01760854797280041,
          -0.011816882737843442,
          0.022177712183078627,
          0.022339667182545247,
          0.022540332411860736,
          0.05255051948664115,
          -0.005843249416259969,
          0.02280671735235221,
          -0.012706244529887323,
          0.05868847515905287,
          0.022993525181863088,
          0.023469165080274475,
          0.024815972597780723,
          0.022795226260487956,
          -0.016528013639163744,
          -0.029414135107773253,
          -0.017777873276956103,
          -0.017972338958920243,
          0.006787663506439209,
          -0.022777819613466962,
          -0.02147869623751113,
          0.022672145733390367,
          0.02332640734027613,
          -0.013964042152975595,
          0.02332999659524822,
          -0.002818327592082597,
          0.024181225095010757,
          0.02835193691873768,
          0.041435804267363596,
          0.02299067339582404,
          0.00688400731606487,
          0.04121901169723994,
          -0.019144861314466376,
          0.023940873709567503,
          0.006254441808666004,
          0.02236713779638169,
          0.022948834495180054,
          0.021869400124519302,
          0.02347589939820383,
          0.13188281840474542,
          0.10340414963419384,
          0.02359794449034495,
          0.014513339048187038,
          0.023356197524595536,
          0.042333282276831564,
          0.021548304673945074,
          0.021608100306440114
        ],
        "bias": 0.014371675158086829
      },
      {
        "weights": [
          0.020489636217934495,
          0.02190072020335483,
          0.0463030399520737,
          0.019052440513563383,
          -0.011910042951308188,
          -0.013138874720791,
          0.11393129865399558,
          0.017215224598741717,
          0.019106664941658153,
          0.01877510432950007,
          0.01889751556343169,
          -0.017922542860089544,
          -0.012053637907194756,
          0.03643408627473076,
          0.005691344137753459,
          -0.012861586255684168,
          0.019540005967094907,
          0.02446981971113816,
          -0.005973146411210634,
          0.033315837464240314,
          0.018086153357706046,
          0.018125265190031978,
          0.045101634186904785,
          0.0010581691002606063,
          0.017827661725931265,
          -0.007196205843223737,
          0.06634775323812572,
          0.01822778356869168,
          0.01893108142950586,
          0.020582963358223277,
          0.01854262863393335,
          -0.010874889433635208,
          -0.020389205432468083,
          -0.011465964728444166,
          -0.010389167436810638,
          0.013838817748829986,
          -0.014530852290455754,
          -0.016012897708739975,
          0.018078752192161023,
          0.01847428485924955,
          -0.008571075644881649,
          0.018365522754157586,
          0.011886224924596506,
          0.01931221032685889,
          0.0253246620439196,
          0.03627368746628701,
          0.018458821251350295,
          0.015100282920722843,
          0.04046084865198804,
          -0.012290554564475168,
          0.019582347772439054,
          0.011650274162348942,
          0.01772017346346179,
          0.018453322342704147,
          0.018005291289621403,
          0.018468245998237133,
          0.13735772616093284,
          0.10396715263852553,
          0.019256602945770175,
          0.017339234784202986,
          0.018605268961529583,
          0.04429832738658702,
          0.024774570635724524,
          0.0171024137370244
        ],
        "bias": 0.011628871785752446
      },
      {
        "weights": [
          -0.21039272343691795,
          0.1683482441362688,
          0.12705044627967263,
          -0.20893259449404594,
          0.20102456854576828,
          0.20137493479165158,
          -0.2863796503068275,
          -0.20730559889636538,
          -0.20926444460233679,
          0.16406061770009384,
          -0.2091922652693903,
          0.19875245411667428,
          0.19681482573519632,
          0.14453865589232168,
          0.17556782174948127,
          0.20314601840820726,
          -0.21005213150355237,
          0.15147043001594776,
          0.19270378479477562,
          0.14260712068237583,
          -0.20833005946571143,
          -0.20850684467371214,
          -0.2345207084670143,
          0.17808210190113175,
          -0.20816606312761315,
          0.1954093174116478,
          0.10586311068464065,
          -0.2084004397843906,
          -0.20926745616405223,
          -0.21045368140158444,
          -0.20875430179250926,
          0.2001336441981631,
          0.21271982319613156,
          0.20015873373358556,
          0.19951742403438363,
          0.17690140311469366,
          0.20361592723516364,
          0.20455505703186144,
          -0.20804528180226256,
          -0.20906199241886558,
          0.1986973936161582,
          -0.208582368333444,
          0.16487089102257152,
          -0.20919023155602856,
          -0.21368427047769983,
          -0.22611041677230045,
          -0.20880330504357195,
          0.1736179287595305,
          0.13661307927967764,
          0.20101290957653717,
          -0.20947599022183483,
          0.17894376802211723,
          -0.20794444144295904,
          -0.2087688054546821,
          -0.20816928148968092,
          -0.20847251543863718,
          0.004810882405476251,
          -0.2868570763168962,
          -0.20923981573643768,
          0.16963929605533473,
          -0.20894485601502993,
          0.13370664944598337,
          0.15953120904206933,
          -0.20774920934903474
        ],
        "bias": -0.1808293223092969
      },
      {
        "weights": [
          -0.23924920540555308,
          0.19126607802062162,
          0.15679763136067373,
          -0.23825234718039295,
          0.23197114500228566,
          0.23395552365038835,
          -0.3234708070203615,
          -0.2371551831252494,
          -0.2383313863742995,
          0.18941852236852802,
          -0.2384046283687545,
          0.23604617351037557,
          0.22958097509663408,
          0.17848570821938486,
          0.19828888427316277,
          0.23328864830589993,
          -0.23849653303836216,
          0.16405115044450416,
          0.2255151785585029,
          0.17587247562313385,
          -0.2368923357128916,
          -0.23749802466863768,
          -0.26221494588752914,
          0.21460832651564138,
          -0.23733170178678487,
          0.2268668419700121,
          0.12784168991346612,
          -0.2372791925772497,
          -0.23813765504522322,
          -0.23931654252739776,
          -0.2377493936562429,
          0.230765867571133,
          0.2413790511578041,
          0.2321035585715678,
          0.23105626352590014,
          0.20118182371726379,
          0.23485718869890662,
          0.23632150416498768,
          -0.23742200805536168,
          -0.23815356356243278,
          0.2279520657326646,
          -0.23740428275712408,
          0.20328901955808928,
          -0.23838863659350756,
          -0.24272952369327086,
          -0.25295601831561315,
          -0.23754622621196114,
          0.2044523448933871,
          0.16466223149583833,
          0.2323441496595621,
          -0.23838842316151554,
          0.21305639195608303,
          -0.23720894253595284,
          -0.23775429001748707,
          -0.23678311352380277,
          -0.23879891522907976,
          0.025118063241169525,
          -0.3159393668840584,
          -0.2386376000074581,
          0.19721827323614327,
          -0.23772337554325307,
          0.157407859516285,
          0.19159846828449104,
          -0.2363911319951168
        ],
        "bias": -0.20823484846302373
      },
      {
        "weights": [
          -0.22977837488931735,
          0.18266630905939968,
          0.14859323073897537,
          -0.22861557736646634,
          0.21840089806752008,
          0.2189997122836154,
          -0.3036275711867619,
          -0.22689071008359593,
          -0.22854177297984468,
          0.1740010824470665,
          -0.22879775937632904,
          0.2178648201523718,
          0.21292609466750292,
          0.16326622560890636,
          0.18996511440924432,
          0.21909580334566123,
          -0.22927559678669354,
          0.15551068534280946,
          0.21078906529670252,
          0.15981989709271327,
          -0.2273748663297989,
          -0.22756415882468337,
          -0.24878386477741432,
          0.19671737345313808,
          -0.22760817950081189,
          0.2126224815057327,
          0.11831589526211596,
          -0.22747975282954774,
          -0.22853053621677313,
          -0.2298174777114149,
          -0.22801873817625476,
          0.21655893271726404,
          0.2274746801486747,
          0.21851785419587896,
          0.21633540324527184,
          0.1929770334284686,
          0.22144505132301875,
          0.22155615513404492,
          -0.22730238586595883,
          -0.22813445961938209,
          0.2145057893945944,
          -0.22787355573677653,
          0.18465359239644222,
          -0.2288793855453087,
          -0.2337441362477634,
          -0.24396830468526068,
          -0.22793950328680537,
          0.19209485250158145,
          0.15375739000331828,
          0.21743307193483813,
          -0.22913574055273692,
          0.19300186087066482,
          -0.2270825769723639,
          -0.22817999525440458,
          -0.2270502052597424,
          -0.22829654184758677,
          0.02026738770330095,
          -0.3071811710062098,
          -0.22905790050842598,
          0.1827659514802444,
          -0.22843862230960688,
          0.14203922858997942,
          0.17672874222914692,
          -0.2265153961825365
        ],
        "bias": -0.19541483663993384
      },
      {
        "weights": [
          0.0246392575304556,
          0.009821497596015487,
          0.03738485686453107,
          0.024132202126379555,
          -0.019164386183392203,
          -0.01985717975734319,
          0.11329020180134927,
          0.024061812858824222,
          0.024323811769575612,
          0.016194916846218876,
          0.024637332303905798,
          -0.022321747510954122,
          -0.019765149768230537,
          0.02772821528275149,
          0.005491767045070273,
          -0.022831698663959114,
          0.024492201280122486,
          0.019365562070188195,
          -0.014816186959021158,
          0.03226404919025104,
          0.024120528099373702,
          0.02425986110369072,
          0.051316984217336666,
          -0.00484612958045533,
          0.02427564260117132,
          -0.015717047222618092,
          0.045696746975937425,
          0.023822445499594034,
          0.024640543889255604,
          0.02473281533132941,
          0.024240152388454155,
          -0.01897098096771781,
          -0.02875006197818249,
          -0.017349028759172283,
          -0.018545629996499082,
          0.003428896934070232,
          -0.02116681394931072,
          -0.022603024814364474,
          0.02396756716939831,
          0.024540313549712593,
          -0.016558652524893632,
          0.0239151292184162,
          -0.009122195145116103,
          0.024276373943095047,
          0.029545259628611563,
          0.040286259014666356,
          0.02445868295919063,
          0.005755855282372701,
          0.02668692665037004,
          -0.020529259961627973,
          0.02419854730685641,
          0.0032186040770980696,
          0.023989822919870195,
          0.024580067404977292,
          0.02385904845580833,
          0.024728524648756963,
          0.12447114433574541,
          0.09931679001535228,
          0.025105485379858586,
          0.005923395469384115,
          0.02445409061564251,
          0.03737534301693249,
          0.02357342016522657,
          0.02369526799037831
        ],
        "bias": 0.018318996283432754
      },
      {
        "weights": [
          -0.22715847783763024,
          0.183027034255797,
          0.145348550716059,
          -0.22619418676933625,
          0.21810203319873767,
          0.2179543072334283,
          -0.3058521698903881,
          -0.22408968633589932,
          -0.2261111039552036,
          0.17315757502220108,
          -0.22622810986965095,
          0.21339317898038362,
          0.21401704823342327,
          0.1668710214689643,
          0.19612358828807103,
          0.21537375853747678,
          -0.2268287622885666,
          0.15974898738590237,
          0.2135894103809788,
          0.15466286120795417,
          -0.22505183956462882,
          -0.22531282069710795,
          -0.25364227149064794,
          0.1899830172837666,
          -0.22485524930694295,
          0.2130350550608671,
          0.12468169378003507,
          -0.22528506913350052,
          -0.22595916984455372,
          -0.22724525395826783,
          -0.22555373964440492,
          0.2168978190801972,
          0.2281305744254066,
          0.21794232955751636,
          0.21624379014248948,
          0.19282691174700387,
          0.22093778197512084,
          0.2229331545346039,
          -0.2249123686169781,
          -0.22572487489657722,
          0.21293723870292294,
          -0.2254882347389835,
          0.1875113336262017,
          -0.22639895646442673,
          -0.2322545567366967,
          -0.24281471526577714,
          -0.2253657256596948,
          0.18662974584232125,
          0.15000241412565177,
          0.2183364000251496,
          -0.2266625679931055,
          0.19103822083873143,
          -0.22470919866945738,
          -0.22558151049763836,
          -0.2249308400493125,
          -0.22569463207104534,
          0.0074343656808047165,
          -0.30317167364225117,
          -0.22587335707512265,
          0.18864915540715896,
          -0.2257030242534553,
          0.14443269548216042,
          0.1725291887381338,
          -0.22419283659069902
        ],
        "bias": -0.19345655531085137
      },
      {
        "weights": [
          -0.23833115220085266,
          0.18906561610164133,
          0.14399386608651196,
          -0.23700237895115353,
          0.22950493168194738,
          0.23098463571738914,
          -0.3147481405153062,
          -0.23505518911043355,
          -0.2371592897428491,
          0.19191963710344254,
          -0.23732659462518052,
          0.22551877727322636,
          0.22570986284046995,
          0.1793466618581374,
          0.20464964476272618,
          0.23164172750717024,
          -0.23780405804374885,
          0.1670309426355437,
          0.2215573391609525,
          0.17201667821316063,
          -0.23579129884916494,
          -0.2360824687727967,
          -0.26449527851752924,
          0.20639986593341816,
          -0.23590600409278323,
          0.22481085419044344,
          0.12654904261495417,
          -0.23632541832040901,
          -0.23707617707757506,
          -0.2384796811768339,
          -0.23659255404639862,
          0.22931934249943625,
          0.24122779744080705,
          0.2285594556715989,
          0.22776408147832264,
          0.2033532166938658,
          0.23404690025337144,
          0.2323700403845523,
          -0.23592011119728934,
          -0.2368753409799845,
          0.22545778945175118,
          -0.2365515707976539,
          0.20170602756742825,
          -0.23732579540633156,
          -0.2394231181139294,
          -0.2520144917447406,
          -0.23666698080698761,
          0.19910172609714674,
          0.15184162528864703,
          0.2286405630436389,
          -0.237543138850422,
          0.20558891451284492,
          -0.23579276798455412,
          -0.23659319099374268,
          -0.23567520454663532,
          -0.23637882536206878,
          0.015570219899749313,
          -0.3143100167044596,
          -0.2369881091146007,
          0.19319991468554137,
          -0.23693571119750856,
          0.15176428441832754,
          0.18899653992592202,
          -0.23519218308602843
        ],
        "bias": -0.20609658376464537
      },
      {
        "weights": [
          0.01762004401121117,
          0.015845801107895383,
          0.04806530278873841,
          0.016975961206720715,
          -0.009726876683177923,
          -0.013073399444504004,
          0.10532118629142392,
          0.015210893948050835,
          0.01703428688556818,
          0.020867180316990572,
          0.017239223876237483,
          -0.012421676621352643,
          -0.00996856749610314,
          0.03908399036919059,
          0.013150101040257552,
          -0.007822307216534643,
          0.017205930744853642,
          0.035107755708398296,
          -0.001996699977634587,
          0.03341365793040537,
          0.0158262402995146,
          0.01607150830850044,
          0.04654720015606372,
          0.008066760137846924,
          0.01594085381576909,
          -0.005238121867600563,
          0.06182693456917286,
          0.015755901714330625,
          0.01704854967405377,
          0.017596714825138127,
          0.016508084292342684,
          -0.00814095753685698,
          -0.022414860875137752,
          -0.009374703073666701,
          -0.010494677087973666,
          0.01371498022891764,
          -0.01328453494402171,
          -0.014071629680256204,
          0.01577170273675742,
          0.01683969694580709,
          -0.005941423513326812,
          0.01601474077903878,
          0.009022117541121005,
          0.01679770285535274,
          0.021312066921373985,
          0.03198265048248207,
          0.016447431797624826,
          0.01597372081489202,
          0.04035660232753806,
          -0.010669392396896063,
          0.01703858036264801,
          0.011818952095952477,
          0.015518226017861418,
          0.016663529754401687,
          0.015514873406345987,
          0.01655324889377347,
          0.1338765201216624,
          0.09151027938031076,
          0.017446379707365595,
          0.016723828538166646,
          0.016247240002014676,
          0.04823294739159181,
          0.026011320099515924,
          0.015036557387647743
        ],
        "bias": 0.010570682618416457
      },
      {
        "weights": [
          -0.25252787478193206,
          0.20048292967899325,
          0.16985125615929064,
          -0.25164279052667804,
          0.2440622259755071,
          0.2451968083269161,
          -0.3256585590945118,
          -0.2501716767800508,
          -0.2513844874751445,
          0.20270015255486465,
          -0.2515110564094045,
          0.24217707513833844,
          0.2392027625289843,
          0.1879946517740511,
          0.21244659329347548,
          0.24761988430204968,
          -0.2520006590298034,
          0.1879894043285136,
          0.23726309086706326,
          0.19148466092731456,
          -0.2509854128542448,
          -0.25108680659417343,
          -0.27565064178232757,
          0.23044079425842065,
          -0.25090703740903336,
          0.24003935121694228,
          0.1531895209343655,
          -0.2511867427051686,
          -0.2514102353313357,
          -0.25241812703137123,
          -0.2507766947756552,
          0.2434122928359578,
          0.25115309039125117,
          0.24446663529954818,
          0.24362943611122528,
          0.21441542307355405,
          0.24695089409449686,
          0.24869183513548948,
          -0.250482119063181,
          -0.25130479695807756,
          0.241606050464767,
          -0.2512667555732092,
          0.21836195383647874,
          -0.2523083267997914,
          -0.2558725557210235,
          -0.2671785355480976,
          -0.251092060261845,
          0.21467424604185853,
          0.18200373684122192,
          0.243986424128802,
          -0.2521642058939529,
          0.21754708359010821,
          -0.2504437571911299,
          -0.25112144525492425,
          -0.250682931011375,
          -0.25162985648140235,
          0.04456690416992814,
          -0.32694615492692136,
          -0.2518928372164121,
          0.21265274347524638,
          -0.2513370131767517,
          0.1744619915729839,
          0.20092678164519187,
          -0.25005612975751346
        ],
        "bias": -0.22135881781659514
      },
      {
        "weights": [
          0.014171876849289331,
          0.030878727893178803,
          0.04581110195234061,
          0.012950878083782303,
          -0.0039583095761631815,
          -0.00439511095365498,
          0.1028891473810347,
          0.010957832246124146,
          0.012639826709116645,
          0.01920838338241752,
          0.012632363909927407,
          -0.009344850640597875,
          -0.0025090673299999824,
          0.046288297807931075,
          0.01543581625715798,
          -0.005872883464073624,
          0.013035546404621531,
          0.028808045401225314,
          8.970139762532833E-4,
          0.03629246627801073,
          0.012071963039120193,
          0.011906038879368561,
          0.039918251275425,
          0.014488769254734647,
          0.011903684840073423,
          -8.379295585373018E-5,
          0.06898425824348209,
          0.01214501554000884,
          0.012588973158224017,
          0.014231725885538785,
          0.012174290871072035,
          -0.0033800158072028303,
          -0.015106344960572225,
          -0.005682545566526496,
          -0.0013214964250400022,
          0.018873840265915775,
          -0.007266243428269689,
          -0.00761025361592263,
          0.011346580387856043,
          0.012164644945597632,
          -0.0013268093050214226,
          0.012023744711156857,
          0.015480274102569809,
          0.013305183010856213,
          0.017205332928902087,
          0.026316798218914302,
          0.011997353662475918,
          0.021568134018501307,
          0.05253457375610181,
          -0.0032977835423635784,
          0.013539382518294533,
          0.013907575971647464,
          0.011260488821412486,
          0.012493462030061448,
          0.011826930317793248,
          0.012560632032721893,
          0.13348743004305214,
          0.09024853827266813,
          0.012736556844222499,
          0.021661068295307354,
          0.012242074984201512,
          0.049028914243731944,
          0.031341075830547314,
          0.011086225191853817
        ],
        "bias": 8.163276597918954E-4
      },
      {
        "weights": [
          -0.23768980805357093,
          0.19271095021835918,
          0.1541406815148576,
          -0.236636244608968,
          0.2283705288002492,
          0.23116150028136184,
          -0.31383809026105275,
          -0.23470942236485295,
          -0.23638791878102924,
          0.18226099436305682,
          -0.23660814512067127,
          0.22233486670005742,
          0.22323845979504792,
          0.17640030319455877,
          0.2035002181172413,
          0.2278956694030684,
          -0.2370306290565134,
          0.16127404664377032,
          0.2239399957426516,
          0.16537116398549268,
          -0.2354558054022655,
          -0.23536361685149862,
          -0.26290279900567665,
          0.20383171607470135,
          -0.2354620975860187,
          0.22409664253554892,
          0.1285054486035631,
          -0.2359485890722847,
          -0.23628377759287444,
          -0.23780244859154942,
          -0.2358835133904078,
          0.22670716726259857,
          0.2358856506596303,
          0.22799304348098687,
          0.22850963949021844,
          0.1996747492871439,
          0.22950304519451406,
          0.2339564527867166,
          -0.23525520456131432,
          -0.2361071120256046,
          0.22484602599677805,
          -0.23582858074815494,
          0.19459488136306585,
          -0.23705043266833195,
          -0.2422301491458059,
          -0.25388707578617054,
          -0.23569188455817458,
          0.20077606642917714,
          0.15356154086312138,
          0.2289449351948555,
          -0.23717979449920126,
          0.2021395715116753,
          -0.2350770856204246,
          -0.23610635301985194,
          -0.23510144420236526,
          -0.23602117660322766,
          0.02298334777913759,
          -0.3142392872874912,
          -0.23702440656596896,
          0.19544985721317756,
          -0.23599731217887004,
          0.15957378331463132,
          0.1873212614909442,
          -0.23493906059357203
        ],
        "bias": -0.20645441568578704
      },
      {
        "weights": [
          0.013764728311259215,
          0.020514867984126568,
          0.047989193724265064,
          0.012972136051949138,
          -0.007313039098616261,
          -0.010573103166517706,
          0.11048389201572631,
          0.01184464764581174,
          0.013124837528799681,
          0.0236395359637958,
          0.013288560221018892,
          -0.010574159561723822,
          -0.005590166711281116,
          0.03933493733382917,
          0.014084262441257113,
          -0.008769773339283925,
          0.013693295379252134,
          0.030883492716472383,
          -0.002526143015903151,
          0.031059895069896842,
          0.012532205348663894,
          0.012408983635249466,
          0.045469182657611386,
          0.008817425354800564,
          0.012615438336712116,
          -0.00274455532005403,
          0.05931855498486428,
          0.012997250386743734,
          0.013545832001041487,
          0.01378973632415848,
          0.012965190155445777,
          -0.006280795246410929,
          -0.01728607086671912,
          -0.006706167346808722,
          -0.00777639721335752,
          0.012099199787684197,
          -0.009331976652793644,
          -0.012879688521290693,
          0.0124895393445765,
          0.013147352973680235,
          -0.002179877039298676,
          0.012957594438870538,
          0.010424970787301363,
          0.013204636678793305,
          0.021518901868280118,
          0.03109894202863824,
          0.013074108666821087,
          0.022170432580427196,
          0.04614065940305184,
          -0.008990255442474244,
          0.01347799826834775,
          0.013399951561752468,
          0.01215694220267717,
          0.013331824452095815,
          0.012399922626462894,
          0.012606316433649319,
          0.12298629885014897,
          0.09914532744897216,
          0.013881434465766278,
          0.0205255273885812,
          0.013194375889422964,
          0.04698103458220762,
          0.027834299379276287,
          0.011634926245230295
        ],
        "bias": 0.0063871462378172926
      },
      {
        "weights": [
          0.01241444313275718,
          0.02902903517610721,
          0.05304751290203273,
          0.010862133753070545,
          -0.00555417833463308,
          -0.0076449871625641486,
          0.10316654033689915,
          0.009518768637821836,
          0.010974685737044982,
          0.028014697419999138,
          0.011249796399064859,
          -0.009644077278809561,
          -0.005202413521449098,
          0.03735967987774376,
          0.009293939972336627,
          -0.007640964166050324,
          0.011300793875018554,
          0.04173976249707837,
          0.0010296971025550198,
          0.0351954229042678,
          0.010285862004406999,
          0.010402970975041602,
          0.04196125053382207,
          0.009198691383485941,
          0.010344316206671339,
          -3.599117532374121E-4,
          0.06807275358999466,
          0.010710724140283482,
          0.011485850696003509,
          0.012476024394318701,
          0.011010664667612028,
          -6.696690095297228E-4,
          -0.016017380731866565,
          -0.004759044117027056,
          -0.00564940702285111,
          0.016541397659247125,
          -0.010610940322768454,
          -0.00789548673668606,
          0.010329897381920961,
          0.010875896485233568,
          -0.0015664111418777478,
          0.01094961694650695,
          0.017650375693392884,
          0.011333522560182437,
          0.014295938737961901,
          0.025638433990548617,
          0.010954496812302034,
          0.013847034743825471,
          0.046401730352566235,
          -0.0063291287467270385,
          0.01144794285678206,
          0.01830693440639616,
          0.009953589739003291,
          0.011066958977769945,
          0.010105049621121562,
          0.010603331809503914,
          0.15044695367057112,
          0.09733624130296803,
          0.011820418506822599,
          0.021891963300580825,
          0.011092157747557287,
          0.048676069460542516,
          0.03149942144558653,
          0.009374514337590923
        ],
        "bias": 0.005800715114444997
      },
      {
        "weights": [
          -0.23910782748995796,
          0.1915208226081267,
          0.15517902165512823,
          -0.23786186221326774,
          0.23122819654010923,
          0.2328860409269761,
          -0.3237925735416932,
          -0.23588344208736142,
          -0.23788536790223774,
          0.1873728835492755,
          -0.2380957092949039,
          0.23701122033221322,
          0.22335156127781702,
          0.17912836227105067,
          0.2016477282387076,
          0.23205646116682382,
          -0.23871629380382345,
          0.1655196827881425,
          0.22530859193388103,
          0.1769267694108357,
          -0.23664123696909523,
          -0.23681387911678814,
          -0.2653598955372908,
          0.20941439012006183,
          -0.23683164137312918,
          0.2263226989617459,
          0.1335077343327281,
          -0.23707948452969735,
          -0.23779186995639698,
          -0.2393957106104652,
          -0.23738649830439812,
          0.22925530342594283,
          0.2406734915529107,
          0.23113292454821366,
          0.22957363402495376,
          0.20809626371712,
          0.2361101735497944,
          0.2341781379362352,
          -0.23663370489824037,
          -0.23762456881883484,
          0.22795439991758318,
          -0.23737177443872803,
          0.20442431084000817,
          -0.23823347959364646,
          -0.24376860024187572,
          -0.25346742260911664,
          -0.23732456710727787,
          0.19827040695940149,
          0.1623512041687076,
          0.2321427419634692,
          -0.23841644613043203,
          0.20494204432864183,
          -0.23654610110264385,
          -0.2373841502365414,
          -0.23651006177891662,
          -0.23711622411597016,
          0.03917531269298018,
          -0.3184350504060057,
          -0.23761228744348628,
          0.20039005134799515,
          -0.23759150486041752,
          0.16055923229487604,
          0.18698314869246707,
          -0.235974195363718
        ],
        "bias": -0.2088921147864134
      },
      {
        "weights": [
          -0.2403297197454466,
          0.18839131387508104,
          0.15029402901054137,
          -0.23865478176019927,
          0.23211414381227272,
          0.23285129780964012,
          -0.3133021042162614,
          -0.23711009182338938,
          -0.23898634627563548,
          0.1888745037445063,
          -0.23864109327047375,
          0.22996097549838684,
          0.22807283531181347,
          0.1739650731613776,
          0.19670398702168945,
          0.2342479889003685,
          -0.2392924468168729,
          0.16330329997981224,
          0.22568692591615955,
          0.17592461173890503,
          -0.2382011874459522,
          -0.23834735386133693,
          -0.2626907988583737,
          0.21239909212832567,
          -0.23788065820395793,
          0.22822493026544788,
          0.12971518538434962,
          -0.23830125362917276,
          -0.23898895185094388,
          -0.24015515832907938,
          -0.23851135810294002,
          0.22978581944842147,
          0.24014858693925228,
          0.23285295966873792,
          0.2312227648558724,
          0.20683128724408717,
          0.23557098675025562,
          0.23433979697658613,
          -0.2378591984714572,
          -0.23849155776473718,
          0.22883594665567725,
          -0.23849649994103927,
          0.20937379190581354,
          -0.23903085829847273,
          -0.2415026540836759,
          -0.2530119762064142,
          -0.23866993990361196,
          0.20469885345495087,
          0.16709959753787712,
          0.23286170367656156,
          -0.2391552908859192,
          0.2050599207815806,
          -0.23792783926702063,
          -0.23849847251555356,
          -0.23779237783514387,
          -0.23830169217330355,
          0.02098161890768931,
          -0.3147107391708816,
          -0.23908731632949284,
          0.1998508979112132,
          -0.23871543627060185,
          0.16101902288220563,
          0.1826878202660851,
          -0.23712860913898445
        ],
        "bias": -0.20832974787786754
      },
      {
        "weights": [
          0.019230517840708013,
          0.02591885161319565,
          0.049617058031641285,
          0.018127487635289468,
          -0.010298894155642196,
          -0.01256456515845074,
          0.10393220876648329,
          0.016855687732116816,
          0.01791894513659145,
          0.02692343210112932,
          0.017971489231309222,
          -0.015252045616525963,
          -0.004416682033124825,
          0.03938775649339347,
          0.004574135165484391,
          -0.012905099891851698,
          0.01844933968227373,
          0.029085453271679246,
          -0.0040481428248320015,
          0.04143602844322963,
          0.01699762563562282,
          0.01760519229034978,
          0.04343082164346076,
          0.00737918657373682,
          0.01718174553551672,
          -0.006318168152711058,
          0.058932081155062044,
          0.017689721705658353,
          0.017849155117263007,
          0.019155850526732226,
          0.017684726228658784,
          -0.006785193616085592,
          -0.019250925376054516,
          -0.010911821187213185,
          -0.007796915675366605,
          0.013445906243502177,
          -0.013722939718609528,
          -0.015386377349509638,
          0.016960874599652866,
          0.017743008855562285,
          -0.00769940198635069,
          0.017912963722497368,
          0.011689120624889736,
          0.01866834222142495,
          0.01985566542870741,
          0.03328849517816462,
          0.017250091391360363,
          0.015699336022044975,
          0.049132929551575985,
          -0.010170048464432068,
          0.018642089139019206,
          0.015965065996159038,
          0.01708338059816126,
          0.01742480448497362,
          0.0167610707237391,
          0.01855312481118064,
          0.14383081328210462,
          0.09496149962628073,
          0.017856714029297255,
          0.01738730492327804,
          0.018009772596788966,
          0.04267916753848704,
          0.03310090757614205,
          0.01688483239523494
        ],
        "bias": 0.008159923130514455
      },
      {
        "weights": [
          0.012930582920140888,
          0.02742836543795389,
          0.05033056565178305,
          0.012472223136264187,
          -0.006261764740643161,
          -0.009666697690100742,
          0.11189099113599138,
          0.010784611156838573,
          0.012407276525535428,
          0.029894008893937805,
          0.012656656092194744,
          -0.013315543035341833,
          -0.007859943576480297,
          0.043243654067105924,
          0.011382266413095293,
          -0.007049979747308368,
          0.013092235348767023,
          0.038174768093881296,
          -4.955422318491544E-4,
          0.037144491720557386,
          0.011803507984965836,
          0.011673246318458355,
          0.04834287564377898,
          0.009359684908599336,
          0.011307067865499967,
          -0.0031411048413367963,
          0.0546328287850244,
          0.011374523694484509,
          0.012551176783440369,
          0.013310500138482185,
          0.011855247366325095,
          -0.0032093016848830304,
          -0.01944315099227517,
          -0.006053609304440198,
          -0.00674700117078374,
          0.01662525571843092,
          -0.010647852421405611,
          -0.011241375872794286,
          0.011383527105123482,
          0.011834923809112408,
          -0.004289654449827948,
          0.011649226438267631,
          0.014901126729708239,
          0.012658737059831593,
          0.019192475814417926,
          0.03047362905334141,
          0.012234859354923276,
          0.01879819925685301,
          0.044071048227359744,
          -0.007195476034666983,
          0.012946928615727772,
          0.016863669462245188,
          0.01123548926810402,
          0.012039221350025579,
          0.01114359359544092,
          0.01179316232013152,
          0.14312780079377005,
          0.09731107205035221,
          0.012878650790909968,
          0.0240142546420102,
          0.012137997260054816,
          0.04202818779090084,
          0.0253761680223891,
          0.010318182219655874
        ],
        "bias": 0.0072398925767877135
      },
      {
        "weights": [
          0.013902299757665897,
          0.02814448122037054,
          0.04130514071502837,
          0.012599347837367905,
          -0.003603945880355181,
          -0.005188117278847254,
          0.09579503201636169,
          0.01086684771913016,
          0.012719910633341974,
          0.02998622737731936,
          0.012857852113307592,
          -0.014341569583095057,
          -0.0019581746224296946,
          0.040847380342158825,
          0.013783282358082639,
          -0.005671563426212459,
          0.013351706543042092,
          0.022843728678976945,
          0.0025366875102091277,
          0.04294797561213942,
          0.01163569760893687,
          0.011680828591871063,
          0.040594702078391526,
          0.008734326171203505,
          0.011634516618688045,
          0.0018093375432182862,
          0.062123077164513464,
          0.011603949665815301,
          0.012877683687519171,
          0.013908916605947683,
          0.012094072298989332,
          -0.002673261153856732,
          -0.015567975044121274,
          -0.002589103575287177,
          -0.0027735407975257244,
          0.019823100972810835,
          -0.007471937103138482,
          -0.007147599947437592,
          0.011519602029336991,
          0.012182088438852965,
          7.77544876059843E-4,
          0.011761805236190572,
          0.018104767633472837,
          0.012936825172036868,
          0.018280466524892954,
          0.029147246378221036,
          0.012289008725379438,
          0.02130263562963862,
          0.047710720183337885,
          -0.0033202886698060446,
          0.013185088224472855,
          0.018498678211778842,
          0.011211099710520343,
          0.012239992997871164,
          0.01119880874461403,
          0.01234163595683262,
          0.14423318912994276,
          0.09402070588739794,
          0.01299152990641814,
          0.02135243556604158,
          0.012309712773599574,
          0.05375868878657887,
          0.034134617810207504,
          0.010587865973822944
        ],
        "bias": 0.002524500853429154
      },
      {
        "weights": [
          -0.23896846813244488,
          0.1990135613500597,
          0.1572673667288097,
          -0.23752346913404368,
          0.23190960176051492,
          0.23458492812040846,
          -0.3157192182789993,
          -0.2362667446402969,
          -0.2375654243334957,
          0.18797691518345278,
          -0.23749285276525692,
          0.2276589207043982,
          0.2260077423006542,
          0.1698928837001311,
          0.19892689358972662,
          0.233673047427184,
          -0.23823793183105063,
          0.1697048125686296,
          0.2233690228997183,
          0.1715353049611405,
          -0.23652547266341287,
          -0.23660012315661205,
          -0.2636896601570379,
          0.21102271853994325,
          -0.23640386014714715,
          0.22921652297749975,
          0.12502058618955794,
          -0.23665713517130363,
          -0.2374943287031942,
          -0.2389408378400562,
          -0.23696130270266166,
          0.23165101626140613,
          0.24129312944183195,
          0.23183078044560024,
          0.23259293430574696,
          0.20510076950358125,
          0.23698432981712503,
          0.236396008612467,
          -0.23631902367914515,
          -0.23707270710275785,
          0.23036987384379806,
          -0.23701991600166053,
          0.19931716454394507,
          -0.2378739219409576,
          -0.2435197104341107,
          -0.2531188680550889,
          -0.2369081376429663,
          0.20617334273088228,
          0.16367786851840876,
          0.23347764507011318,
          -0.23806518116136519,
          0.2078904272701082,
          -0.23605332778275243,
          -0.2368443531376117,
          -0.23626542386449842,
          -0.23779453865430297,
          0.026180052866456513,
          -0.31300190040378006,
          -0.2376542277599721,
          0.20107439422339377,
          -0.23708916283982814,
          0.15533884583186403,
          0.18159974002185836,
          -0.23551091315118197
        ],
        "bias": -0.21208088742329903
      },
      {
        "weights": [
          -0.22011210917594842,
          0.1807646489621709,
          0.13533932690796527,
          -0.21977595094235577,
          0.2124509046089976,
          0.21398050118256828,
          -0.3014973959894067,
          -0.2184117137186888,
          -0.2199781066636991,
          0.17197657482977646,
          -0.21958652165402037,
          0.21560831534767733,
          0.20927145784549694,
          0.1642941780045373,
          0.1895665748344955,
          0.21267104359461683,
          -0.21976508142648832,
          0.14869703513376933,
          0.206635398856735,
          0.15718692404389312,
          -0.21882897986710023,
          -0.21912456376697778,
          -0.2453944042598855,
          0.1926255961459143,
          -0.2191756508572683,
          0.20710311374219015,
          0.1221332688931837,
          -0.21881428727302366,
          -0.21995556993063425,
          -0.2204670647919974,
          -0.2192670221171731,
          0.21206552696388312,
          0.22177793426571607,
          0.21217991624058957,
          0.2110478812777569,
          0.18936896335100756,
          0.21424436386765208,
          0.21601370720980642,
          -0.21886734465490057,
          -0.21955841760211475,
          0.20871001862313007,
          -0.21911454430174426,
          0.18173833457355393,
          -0.21995564550277952,
          -0.22387542202596897,
          -0.2368340156026644,
          -0.21948502434890058,
          0.18686013686290173,
          0.14409899438569282,
          0.21247483732997985,
          -0.21984005336608664,
          0.19216193803332368,
          -0.21868400527178924,
          -0.21954504219891544,
          -0.2183038153485136,
          -0.21943980465937943,
          0.0060528991032946155,
          -0.29913293740554897,
          -0.220205399921742,
          0.1785362724781415,
          -0.21930725368101445,
          0.13908477176954712,
          0.17148027948300998,
          -0.21819425111434562
        ],
        "bias": -0.19211113395610113
      },
      {
        "weights": [
          0.021434580115334716,
          0.018687214186300077,
          0.04299150671212389,
          0.020180905513445247,
          -0.013113639775674448,
          -0.01634958153284346,
          0.10243408168257374,
          0.01831060439899293,
          0.020230991810821955,
          0.01569716262839286,
          0.020394003975272905,
          -0.01804849912189051,
          -0.010711847186067037,
          0.03422970096568342,
          0.004126024650034987,
          -0.013748686064616465,
          0.0208670969492469,
          0.027548897629332016,
          -0.005922791903243523,
          0.030735650680404073,
          0.01930230601924783,
          0.019342513032653764,
          0.04527520205697033,
          0.0051429184931944625,
          0.019108668525071103,
          -0.009805217789243054,
          0.06836087712260429,
          0.01941175489600875,
          0.020320852994721833,
          0.02159159832070889,
          0.01955166673218864,
          -0.008916336872973047,
          -0.02168548599050881,
          -0.013134115657828783,
          -0.013505836021200795,
          0.012972048339203039,
          -0.018427033076094983,
          -0.01690283692294834,
          0.019082688251742343,
          0.01987007583025018,
          -0.01082702183325595,
          0.019587351831908437,
          0.016239258752867233,
          0.020472152255000625,
          0.024089953651297544,
          0.0363962558231109,
          0.020006147816934487,
          0.011239118650224082,
          0.046628149651335514,
          -0.01421558758087798,
          0.020696091506532777,
          0.011008270072770037,
          0.018955680575392174,
          0.019718768001017458,
          0.018961831969483384,
          0.019599540236292314,
          0.1252273684664433,
          0.0973103675555069,
          0.019890054978156064,
          0.014926266440992366,
          0.01976228242321892,
          0.046862839029905234,
          0.0280335554626145,
          0.018419979190804615
        ],
        "bias": 0.011569169760165459
      },
      {
        "weights": [
          -0.2189302974260844,
          0.17975625901228803,
          0.1383640221601397,
          -0.2174375997738993,
          0.20916753174698455,
          0.2121329910874272,
          -0.29414901061117416,
          -0.21546985618203998,
          -0.21744144688110334,
          0.17346602525788177,
          -0.21717669183930005,
          0.20489993065324236,
          0.20779928206781534,
          0.15573292849548157,
          0.18360052224148146,
          0.21130149720483135,
          -0.2177953925194488,
          0.1471608583119245,
          0.20232531761087247,
          0.15091423268598037,
          -0.2160788800753244,
          -0.2163690306042756,
          -0.2440746639123647,
          0.19301251650453757,
          -0.21624446642802958,
          0.2054438109722013,
          0.11629601079359493,
          -0.2165827193204877,
          -0.2174846747158348,
          -0.21897269562564517,
          -0.21691774270001493,
          0.2083950333325038,
          0.2176984646820528,
          0.21001705551461733,
          0.20987718873699565,
          0.18462653118758002,
          0.2127591505928469,
          0.21385324166822622,
          -0.21627198269967746,
          -0.2168624464071125,
          0.20558745414602053,
          -0.21685003732382377,
          0.17357795342881435,
          -0.21784402125501554,
          -0.22387971120804134,
          -0.2332224196275325,
          -0.21689002716536523,
          0.18114777620128936,
          0.14291241825344403,
          0.21061325370201553,
          -0.21797359841346345,
          0.18348998098885227,
          -0.21595479321994987,
          -0.21694469017030069,
          -0.21601662575301903,
          -0.21701677573384887,
          0.02108005481543245,
          -0.2976758236688129,
          -0.21775519926575473,
          0.1802893902228526,
          -0.21700155680921476,
          0.13886227375065216,
          0.16823890255623317,
          -0.21554355008089152
        ],
        "bias": -0.19060836338664813
      },
      {
        "weights": [
          -0.21872797665972282,
          0.17197278457053075,
          0.1411858787360788,
          -0.21770376304427377,
          0.20811235463539154,
          0.21044570578964747,
          -0.3019894567693526,
          -0.2159085567116516,
          -0.2176325671709768,
          0.1710057416947755,
          -0.21788725783453772,
          0.2055639950141274,
          0.2038569739261551,
          0.1570680340168911,
          0.18174587190100933,
          0.20880629379654086,
          -0.2183676292538856,
          0.15386062161596067,
          0.20076510568154385,
          0.15346805837346233,
          -0.21636217670760627,
          -0.21668818374628268,
          -0.2402377665281677,
          0.1827727467009598,
          -0.21685672949929966,
          0.20261009200473107,
          0.1148270716252227,
          -0.21714031122234537,
          -0.21765036906519555,
          -0.21867513199103586,
          -0.21701980502034388,
          0.2087225056973969,
          0.21892711346124763,
          0.20753072977604015,
          0.20776933486707316,
          0.1807782729279596,
          0.21200196023979875,
          0.21011985984923431,
          -0.21678765141173723,
          -0.2177082819449449,
          0.20452791743736154,
          -0.21731589330498913,
          0.18328235751219643,
          -0.21826588256633758,
          -0.2171359839099078,
          -0.2313934978034392,
          -0.21718094722461556,
          0.18236547793362523,
          0.13998492528830117,
          0.20883495115597478,
          -0.2180985898311971,
          0.18181733147982934,
          -0.2166054955611358,
          -0.21705919986849537,
          -0.21623662751624656,
          -0.2174934829113489,
          0.012609305873709892,
          -0.2911713670258901,
          -0.21781276490486196,
          0.17502023229755237,
          -0.2175142969758782,
          0.13885321004935,
          0.16494843340709375,
          -0.21600855020573645
        ],
        "bias": -0.18705275794634849
      },
      {
        "weights": [
          -0.23298080957533507,
          0.18579599381127346,
          0.1452697534492183,
          -0.23139998554773636,
          0.22167311321151528,
          0.22379553082988046,
          -0.31645244072770795,
          -0.2297209559812281,
          -0.23140276556670142,
          0.17764687876456187,
          -0.23182444495856133,
          0.22048533199918288,
          0.21954782873868875,
          0.16962306732238086,
          0.19325560553425572,
          0.22460031140691453,
          -0.23204687604925292,
          0.15924125128805888,
          0.21892500383493627,
          0.17602045109636938,
          -0.23021943250572408,
          -0.23070011925112874,
          -0.2567444176803175,
          0.20232703619384682,
          -0.23059498782520102,
          0.21799724802743245,
          0.12985790333966038,
          -0.23099367700121867,
          -0.2314724710050497,
          -0.23274042311486134,
          -0.23090487163278556,
          0.22175032532814412,
          0.23088050939326799,
          0.2227968834172786,
          0.22127766062667217,
          0.1932479350774329,
          0.22595336254571924,
          0.22729586004584718,
          -0.23041957763381968,
          -0.23154330827366748,
          0.21886451239541824,
          -0.2311234781343067,
          0.1927367943749589,
          -0.23206690759134924,
          -0.23597740055021516,
          -0.24876048124094474,
          -0.23094200203881887,
          0.19501430984165816,
          0.1604608777420773,
          0.22134109446035113,
          -0.23187665595892343,
          0.20001614619013924,
          -0.23025366221389673,
          -0.23093958934907824,
          -0.22985209716102648,
          -0.23140065606990068,
          0.030801276852918575,
          -0.31407989606056386,
          -0.23187262261695185,
          0.19538789999869594,
          -0.23141696572143178,
          0.147981504710162,
          0.19094110016981836,
          -0.22960139921451997
        ],
        "bias": -0.19882412236533287
      },
      {
        "weights": [
          0.009291603470526781,
          0.02987963437510874,
          0.06717032242578382,
          0.008855893482745713,
          -0.002757580812643798,
          -0.00483181155219793,
          0.10266442097440644,
          0.007826947831605341,
          0.00848614576233487,
          0.026106812953159936,
          0.00930410745017423,
          -0.007343643093124287,
          -0.0017915750406832262,
          0.03950503081919743,
          0.011920516327291627,
          -0.00407842297517516,
          0.00928388627308322,
          0.0390456243460758,
          0.0028750050213751767,
          0.030218632282848924,
          0.00872366402749953,
          0.00892651268629485,
          0.04001053860674551,
          0.014769047299272885,
          0.00877360352973846,
          0.002055420426715712,
          0.06354523920166301,
          0.008914346414072972,
          0.009002641198938783,
          0.009723635285747984,
          0.008743996117125877,
          -0.0016148283867082414,
          -0.012983513537968608,
          -0.0018366799931662547,
          -0.001479976452611896,
          0.016392977281870776,
          -0.006684347094054409,
          -0.006723016005640787,
          0.008141506937307426,
          0.009104856897490937,
          -8.623247497235689E-4,
          0.009074940210973171,
          0.017142233169194953,
          0.00953945546868729,
          0.01466026685274294,
          0.025271535354196555,
          0.00869239857066265,
          0.02166652036191825,
          0.04763923669943957,
          -0.0035128818658085553,
          0.009398333055965033,
          0.017401810312368423,
          0.00830868111688142,
          0.00890769277548711,
          0.008597424922940616,
          0.008406257021048977,
          0.15337696611410473,
          0.0883670243503686,
          0.009663893064518574,
          0.026410327707581813,
          0.009138527395781656,
          0.04962033594269243,
          0.029240582788759975,
          0.007777637773202287
        ],
        "bias": -2.975937549969137E-5
      },
      {
        "weights": [
          -0.24626207397257208,
          0.19930606090078457,
          0.1659044646582022,
          -0.24475029042731034,
          0.23951557857694114,
          0.24135279039876215,
          -0.326904080053277,
          -0.24390564724292668,
          -0.2450836330094786,
          0.19579008503638556,
          -0.24450986166206526,
          0.2371208896846223,
          0.2306449967649975,
          0.18373207755576595,
          0.20830215924691542,
          0.23979639491410457,
          -0.24534379195864592,
          0.18469295873997352,
          0.2311017269218142,
          0.17850153062208182,
          -0.24408436935686156,
          -0.24451831260070941,
          -0.26968205731794137,
          0.21646759099279764,
          -0.2441403679970486,
          0.23535929298830818,
          0.1296100703400518,
          -0.24460100584705452,
          -0.24488727851476444,
          -0.2463541987228812,
          -0.2445730107561991,
          0.23496630068640015,
          0.2490653205381839,
          0.23965759477530765,
          0.23882586086315857,
          0.21323169397009387,
          0.24321802987704233,
          0.24313219578067907,
          -0.2441694645598647,
          -0.24465854393086492,
          0.23604064627425092,
          -0.24482691235611892,
          0.21171244252829394,
          -0.24546355381663232,
          -0.2515180665187906,
          -0.25870940654773134,
          -0.24433770348488837,
          0.2066844704380787,
          0.17648613853204567,
          0.24061214580029228,
          -0.24527575126918852,
          0.21276404169253174,
          -0.2438631500351399,
          -0.24459038037620595,
          -0.2439086053546105,
          -0.2453241600163538,
          0.03555052426286372,
          -0.32117009834929433,
          -0.24506488108184513,
          0.20435028123543364,
          -0.2449573664753447,
          0.161863714359847,
          0.19842423330723943,
          -0.2435140127065067
        ],
        "bias": -0.2172371913794835
      },
      {
        "weights": [
          -0.23513517379924664,
          0.18257797204089965,
          0.15103674376593823,
          -0.2341724841339021,
          0.22642916920442327,
          0.22738094754041369,
          -0.3129519129049252,
          -0.23270487631406947,
          -0.23401932366752687,
          0.1825017647080347,
