[
  {
    "name": "INP",
    "activation": "ELU",
    "neurons": [
      {
        "weights": [
          -3.0188674004836638,
          4.999517130042238,
          6.343392173738145,
          6.515917543451045,
          6.488551277247516,
          6.29156630333805,
          6.262989623478952,
          6.263759570060886,
          6.321169637385058,
          6.345103172170138,
          6.217363031190952,
          6.446816555691358,
          6.442783400389,
          6.218649374092951,
          6.19690634516529,
          6.320906405479991,
          6.186469121278725,
          -0.00211370799147078
        ],
        "bias": 4.394367312111155
      },
      {
        "weights": [
          -3.0025179439157426,
          5.775268865703948,
          6.929689619665395,
          7.22321151097483,
          7.227278280183745,
          6.710738622805362,
          6.810539279056292,
          6.8883849271304864,
          6.865117138000168,
          6.752355553503236,
          6.630237892694427,
          6.763013860052976,
          6.616188446804873,
          6.92521107438281,
          6.710288210958363,
          6.780298898275042,
          6.6136734184396415,
          0.1846676809729764
        ],
        "bias": 5.0123504022041425
      },
      {
        "weights": [
          -3.05524460273297,
          4.974774615299702,
          5.06249461174518,
          5.4520594922293,
          4.918341872386628,
          5.151288645972558,
          5.479825927391992,
          5.236515839185455,
          5.441950506485382,
          5.463600647702431,
          5.0947379565538355,
          5.281929934492644,
          5.16322914641643,
          5.161429070304907,
          5.3842013314111625,
          5.4763096150513695,
          5.412791305915842,
          -0.10396361657471186
        ],
        "bias": 3.112731885920732
      },
      {
        "weights": [
          0.046193803325357295,
          -1.7480948362979067,
          -4.522170429960298,
          -3.4874282581902465,
          -4.143413569545511,
          -3.440029241101467,
          -3.337341783768422,
          -3.634420427107939,
          -3.761404858424776,
          -3.683442140470462,
          -4.451655542775496,
          -4.426997945352125,
          -4.424991517306825,
          -4.351089177324714,
          -3.4576988327573606,
          -3.4412845045331766,
          -3.0853197331035416,
          0.11341413995182423
        ],
        "bias": -0.1171237048436171
      },
      {
        "weights": [
          -4.143795404152574,
          6.161442773878169,
          6.724890423549262,
          6.507332281072849,
          6.35708410793393,
          6.428495732032573,
          6.624832571881703,
          6.6601179964601,
          6.699271463308538,
          6.794851765957877,
          6.6102547328991434,
          6.397988945759164,
          6.574766276096246,
          6.413047472803981,
          6.623538601144888,
          6.601842859216438,
          6.442430677406228,
          0.21831572788634043
        ],
        "bias": 4.274687218348588
      },
      {
        "weights": [
          0.2250886491740314,
          -2.2252222523603504,
          -4.648103065897852,
          -3.500279783486705,
          -4.440382175968127,
          -3.7055558256581085,
          -3.662316097261527,
          -3.8960821931641862,
          -4.083930607464458,
          -4.22897946196625,
          -4.8999718344019545,
          -5.033451659536333,
          -4.769960589744466,
          -4.865360434628376,
          -3.446009226094806,
          -3.0710283977383797,
          -2.913541540753439,
          -0.05752302890360778
        ],
        "bias": -0.14137961871157517
      },
      {
        "weights": [
          0.8636162677941445,
          -0.46321579011180297,
          -1.1026306911446146,
          -1.140932183987426,
          -1.0752930742397468,
          -1.0835360724658623,
          -1.0735144741550848,
          -1.1931988091905066,
          -1.2671370578553334,
          -1.2206431998976908,
          -1.4845358503472819,
          -1.8568014445469359,
          -1.1624473686106016,
          -1.3455485220146746,
          -1.3966670227841194,
          -1.0032086673730949,
          -1.1356406963751384,
          0.05254980763159227
        ],
        "bias": 0.07676216317937365
      },
      {
        "weights": [
          -5.036069145651761,
          5.247044100765635,
          5.211308907729999,
          5.1489710809752705,
          4.4574851838153595,
          4.949431181250451,
          5.147336994162221,
          5.068711759725903,
          4.941406388074637,
          5.369328584849346,
          5.2439217705398935,
          5.404006608789067,
          5.232299151029974,
          5.201539561693382,
          5.122412221806927,
          4.903597438781715,
          5.082386621739985,
          0.12498293232327647
        ],
        "bias": 1.9961626392652614
      },
      {
        "weights": [
          -3.808861211806959,
          5.8458315238037635,
          6.636686447131101,
          6.82170482810579,
          6.863984860494403,
          6.689271290931779,
          6.408359057355625,
          6.359338812172073,
          6.843004485562176,
          6.455194890285648,
          6.33435116587974,
          6.565953499671441,
          6.675824357743474,
          6.645270502325131,
          6.673536567830853,
          6.523501245149256,
          6.650903891806333,
          0.03609020951713952
        ],
        "bias": 4.709377782675061
      },
      {
        "weights": [
          -4.396473451511563,
          5.702640965248836,
          6.726033715950807,
          6.857100691149994,
          6.871621158472852,
          6.531569669350546,
          6.434867411336144,
          6.567361082668914,
          6.495183181607416,
          6.541012163285885,
          6.524836621650915,
          6.587056441771312,
          6.485504132910705,
          6.4531424045964565,
          6.504965704316644,
          6.482146903178144,
          6.324282700712113,
          -0.18836221378660362
        ],
        "bias": 4.491074895833616
      },
      {
        "weights": [
          -3.7422982570701735,
          5.99142706582731,
          6.690873352411434,
          7.108584734843764,
          7.047351409837377,
          6.974151858877015,
          6.959786985246426,
          7.029903673914594,
          6.933602229611206,
          6.814571244291854,
          6.891725273083377,
          6.947379845389201,
          6.976882988639637,
          7.033900166484142,
          6.96480416673158,
          6.558303146317058,
          6.981049035947547,
          -0.011140519925037886
        ],
        "bias": 5.125296297569184
      },
      {
        "weights": [
          -5.093970942808615,
          4.659992519620772,
          4.157997054137893,
          4.804315755441962,
          4.7838129622385175,
          4.619708493023577,
          4.921017773835248,
          4.758965123926615,
          4.366840574010337,
          4.363765244861558,
          4.488246631105359,
          4.105067966616874,
          4.102377562138204,
          4.359974449184939,
          4.840851152547042,
          4.979131957546439,
          5.038757149816464,
          0.1251203326199716
        ],
        "bias": 2.158935847653156
      },
      {
        "weights": [
          -0.2873757358579967,
          -2.1278351081247764,
          -4.923259920070781,
          -3.5514891720500303,
          -4.448245940564395,
          -4.1508236907224365,
          -3.871588385843327,
          -4.291264024547253,
          -4.618382797730205,
          -4.454043394517712,
          -5.069082646584329,
          -5.524548660129389,
          -5.185344242003373,
          -5.207587514553611,
          -3.6376832736214326,
          -3.6359892541227983,
          -3.1555139923759934,
          -0.02923820963472068
        ],
        "bias": -0.05136203701043653
      },
      {
        "weights": [
          -0.1219924321006987,
          -0.5563669795762889,
          -1.315109730966177,
          -0.8465115911906848,
          -1.101493792464765,
          -1.104872400089893,
          -0.9074192315602021,
          -1.025822331315287,
          -0.8962278942381471,
          -1.1080892688003294,
          -1.8741822386061424,
          -1.6291865930996285,
          -1.7720382544111721,
          -1.6865263039846925,
          -0.9193234441610117,
          -0.9042983795380656,
          -0.8782084864068377,
          -0.014875714002794012
        ],
        "bias": 0.10147815457164559
      },
      {
        "weights": [
          0.5347996958711579,
          -1.977164846193977,
          -3.5727526791172632,
          -2.4635290178225024,
          -2.959798074440816,
          -3.5705883433596495,
          -2.7583714490999256,
          -3.259850371025636,
          -3.4338340940445424,
          -3.799637056980479,
          -4.28433480463378,
          -4.41438670587038,
          -4.223160330948726,
          -4.217085914809542,
          -2.888133705660179,
          -2.6423637081283204,
          -2.430476686329107,
          0.10229297661600631
        ],
        "bias": -0.08929574168015317
      },
      {
        "weights": [
          -2.0785939710055437,
          4.653537572491549,
          5.076350626345967,
          4.9307734255047,
          4.785396633190354,
          4.844414530906426,
          4.968834493776044,
          5.045318886020619,
          4.966434294842705,
          4.868398146715076,
          4.78191554384685,
          4.690389730952194,
          4.877267724303517,
          4.564226676625023,
          4.873580214481393,
          4.70616833742219,
          4.452275985523065,
          0.04584711621972053
        ],
        "bias": 2.70371693556645
      },
      {
        "weights": [
          -3.2922121163846674,
          5.35529403807752,
          6.540042749991021,
          6.582615060760737,
          6.601188376101935,
          6.388136882059593,
          6.312523207576658,
          6.386305502997489,
          6.348818978299492,
          6.588677665918627,
          6.406206217456579,
          6.208405813600505,
          6.456158418690831,
          6.41008429008158,
          6.44234648682587,
          6.388105919997818,
          6.45096588098098,
          -0.13005094405039835
        ],
        "bias": 4.476374875587611
      },
      {
        "weights": [
          -6.8191370029006455,
          9.258166957498151,
          8.292923443644096,
          8.984854905024939,
          8.434542655414964,
          8.494111591485906,
          8.682232073088091,
          8.655387476381232,
          8.454287136829816,
          8.884858161319885,
          8.516859926903201,
          8.312995036748326,
          8.377702993239069,
          8.26359778104479,
          8.42315973415335,
          8.772527819136393,
          8.76715028582737,
          0.16562307760090533
        ],
        "bias": 5.881067969016542
      },
      {
        "weights": [
          -3.590780458360994,
          5.360849378603037,
          6.256314769852467,
          6.466080496547263,
          6.353915256714305,
          6.110472642471875,
          6.132327292088305,
          6.2948109891881705,
          6.170435817561088,
          6.171590507476656,
          6.214888925695342,
          6.319344043621017,
          6.077786189786213,
          6.287648227776765,
          6.158264317720407,
          6.135889018599316,
          6.016060950771544,
          -6.138737468030954E-4
        ],
        "bias": 4.131434438175726
      },
      {
        "weights": [
          -3.0699651317012187,
          5.467231157368065,
          6.103228350997093,
          6.164072260062341,
          6.525360985756006,
          6.259292405390801,
          6.252259143138417,
          6.106063063209529,
          6.025358125472816,
          6.216199491231713,
          6.173199113374244,
          6.272432337325345,
          6.215066410297999,
          6.422303384732002,
          6.294390565066047,
          5.984032283803545,
          6.228497847158481,
          0.03882823324623954
        ],
        "bias": 4.125207920768566
      },
      {
        "weights": [
          0.0359784033458149,
          -2.097498098853287,
          -4.271207193997846,
          -3.000592701674875,
          -3.7000474957582816,
          -3.6100978819569405,
          -3.8953290294549703,
          -3.772013460858774,
          -4.236097725798606,
          -3.7469839619252587,
          -4.929949957486054,
          -5.385359302305737,
          -4.897799783173156,
          -4.434882222753559,
          -2.9349507439070552,
          -3.043666953999173,
          -2.563619480154594,
          -0.09899730496126179
        ],
        "bias": -0.1283127275712694
      },
      {
        "weights": [
          -2.181465540754408,
          6.178170384548142,
          7.371072762867895,
          7.6711329135523965,
          7.584007896713317,
          7.136897131011941,
          7.194866822435913,
          7.136598488427069,
          7.077164171303926,
          7.234414163509689,
          7.305979494345731,
          7.15384636890973,
          7.256427326758053,
          7.268974065134996,
          7.023521018664915,
          7.105499992375956,
          6.957274809302969,
          0.18140711508008314
        ],
        "bias": 6.776629397948977
      },
      {
        "weights": [
          -2.578309449806404,
          5.364337447367615,
          5.904107904690859,
          6.271235664631502,
          6.1731568489784365,
          5.853167924166626,
          5.767165106588462,
          6.074172369894274,
          6.082784153417456,
          6.076743708050311,
          5.904447504749619,
          5.9224684209682845,
          5.814027076308645,
          5.68082843250439,
          6.200588471217597,
          5.961018546241152,
          6.167634078893352,
          -0.14305977714201298
        ],
        "bias": 3.9696063784919766
      },
      {
        "weights": [
          -3.2166325744202893,
          5.697278958835657,
          6.916821747052569,
          6.730801614586435,
          6.663717902537848,
          6.52166362411979,
          6.568829273226793,
          6.618300262443345,
          6.624463101531992,
          6.490810629464034,
          6.512376111158146,
          6.487756817864313,
          6.659298278770471,
          6.577429416940416,
          6.579812287999346,
          6.552727019267278,
          6.4095653891624425,
          0.1406434060510015
        ],
        "bias": 4.7581890525346715
      },
      {
        "weights": [
          -4.4937084309751345,
          6.42198037390913,
          7.854797315267111,
          8.16144094646977,
          8.09700112601414,
          7.67801467786958,
          7.525311750230868,
          7.647883413071564,
          7.587594244120853,
          7.741640713218803,
          7.550538843822351,
          7.502357393255868,
          7.907811380227465,
          7.8861858086955055,
          7.3666619411674485,
          7.225064397716726,
          7.286099487662253,
          -0.24614532848729057
        ],
        "bias": 6.587875168950111
      },
      {
        "weights": [
          -0.9416383967061429,
          -1.1563516573551849,
          -5.334395959860577,
          -4.056955775620719,
          -4.980493451361911,
          -3.761771186513447,
          -3.7240543880807353,
          -4.316430100371847,
          -4.208783441472686,
          -4.298426983817396,
          -5.025213659478834,
          -5.185159788372814,
          -4.913435659897719,
          -4.868649539851975,
          -3.3104110776334843,
          -3.268275497865711,
          -3.011397078414178,
          -0.10299599301606925
        ],
        "bias": -0.1577991749536856
      },
      {
        "weights": [
          0.9017878089377143,
          -0.7351900536733026,
          -0.8534097517679613,
          -0.6791214811488565,
          -1.0256910613763965,
          -0.7608620877855243,
          -0.8662892426184692,
          -0.8156490640600157,
          -1.0534594771342771,
          -0.847822493262348,
          -1.105824356347996,
          -1.3715912847995293,
          -1.0322223469561844,
          -1.148386915529022,
          -1.0627400888813328,
          -0.8793461596548799,
          -0.8476499491368881,
          -0.019196002891115286
        ],
        "bias": 0.04519108505282387
      },
      {
        "weights": [
          -0.12978777069499603,
          -2.2576913924122946,
          -4.9939174503740125,
          -3.32715651916441,
          -4.089562556320584,
          -4.231646055148836,
          -3.664007629328794,
          -4.282085000878817,
          -4.123752389235077,
          -4.257389377774665,
          -5.035603007211468,
          -5.505747897029767,
          -5.20620698508254,
          -4.812695260637049,
          -3.365386961816914,
          -3.209199470627843,
          -2.9528650585908793,
          -0.11113696448590864
        ],
        "bias": -0.028535082100347553
      },
      {
        "weights": [
          -1.9958811611814071,
          5.9674725955010475,
          7.196136624420472,
          7.549151692864135,
          7.300741608059854,
          7.299659677201838,
          7.224994646523117,
          7.315514337775795,
          7.2284472454121325,
          7.379189274606529,
          7.2018533727754015,
          7.330740699261093,
          7.254328123579132,
          7.305660837522281,
          7.291111694484162,
          7.097002050780993,
          7.170770313471448,
          -0.0731041942713963
        ],
        "bias": 6.93174018123172
      },
      {
        "weights": [
          0.6115405289619228,
          -1.8835195619028815,
          -3.393053422578832,
          -2.3919604792057276,
          -3.2506848667298787,
          -3.009525525284576,
          -2.7521713296456625,
          -3.0089695577163758,
          -3.186136658039135,
          -3.1307391812055805,
          -3.7911079007187247,
          -4.045028343061071,
          -3.6827253864239,
          -3.5248083256942677,
          -2.8789612118846204,
          -2.8311632782424736,
          -2.597087459304301,
          -0.06003445766716917
        ],
        "bias": -0.08327267732685828
      },
      {
        "weights": [
          -5.266403428442228,
          7.206676535669431,
          7.622081827325265,
          8.330112063099389,
          8.029805570973826,
          7.653547398240724,
          7.845751691453161,
          7.537371411598118,
          7.52008315404932,
          7.599980987479444,
          7.424120064508382,
          7.353929087374687,
          7.277271960415329,
          7.191857109535264,
          7.756072249012584,
          7.676296850601049,
          7.744095619442623,
          -0.1003804783125023
        ],
        "bias": 4.736283888796271
      },
      {
        "weights": [
          -3.44272296898363,
          5.6461071295615275,
          6.716036963177972,
          7.097649028575841,
          7.23494625850778,
          6.617505211776069,
          7.1105150863894435,
          6.679748661321464,
          6.819668281880519,
          6.691974624338722,
          6.651905460204254,
          6.544143343992853,
          6.662921434377784,
          6.680880434398201,
          6.858287330431363,
          6.772348654329581,
          6.625836600297278,
          -0.20243002493676318
        ],
        "bias": 4.898213003176814
      },
      {
        "weights": [
          -3.863013328903578,
          6.645919767658717,
          7.835594185184893,
          7.821840058805461,
          7.797769121851133,
          7.559751086457596,
          7.4875516387334935,
          7.4671552601651365,
          7.584619380666923,
          7.640987142011589,
          7.27495390844135,
          7.420338737271108,
          7.200556562774534,
          7.521824472598061,
          7.323477390577923,
          7.275688879009949,
          7.231849514992318,
          -0.1038697664992894
        ],
        "bias": 5.172617841545781
      },
      {
        "weights": [
          -5.461925129283446,
          6.8442044260989015,
          6.765907876059062,
          7.32683367691822,
          7.137038785594582,
          6.527395667730603,
          6.822550918489427,
          6.735216729769296,
          6.6242651738612555,
          7.048445168214267,
          6.70854135883711,
          6.786193514986985,
          6.665861161620252,
          6.624436596799025,
          6.908681740344162,
          6.732305589714452,
          6.510260016742993,
          0.019361920204356124
        ],
        "bias": 4.4169610897389635
      },
      {
        "weights": [
          -3.500400173424934,
          5.906539367063293,
          6.896906733490509,
          6.997741251226365,
          7.026792276374383,
          6.477036089061552,
          6.592008688114423,
          6.467292102190472,
          6.44899978369699,
          6.330290410083538,
          6.521259185051499,
          6.795682761156887,
          6.649103778709026,
          6.630944991854137,
          6.421426708652366,
          6.564385812173366,
          6.193256682020238,
          0.08459776287220237
        ],
        "bias": 4.81557852666323
      },
      {
        "weights": [
          -5.533619442863042,
          7.328904720008839,
          7.722870112077619,
          8.037892304418095,
          8.151121868465365,
          7.545155836450187,
          7.806837334380839,
          7.68704719885357,
          7.695266321395042,
          7.749111896074166,
          7.691518026211275,
          7.580894778856281,
          7.562275167568742,
          7.6766677187486065,
          7.671950865015937,
          7.611370380239711,
          7.60424980984255,
          0.01700918050730995
        ],
        "bias": 5.077051704403135
      },
      {
        "weights": [
          -6.204945028255567,
          6.618466813503679,
          6.570459769922824,
          7.419514923293095,
          7.338160930102518,
          7.07606713019503,
          7.07294267748853,
          7.32918492879158,
          7.100814435695843,
          6.737238198823158,
          6.756323807504767,
          6.521267942323713,
          6.425856389133697,
          6.69177989172594,
          7.314072774996241,
          7.666037293325636,
          7.591705036274087,
          0.15683309595075062
        ],
        "bias": 3.761469591462876
      },
      {
        "weights": [
          0.8600008210052918,
          -1.2270074702736034,
          -1.9917060779501052,
          -1.7489343496838698,
          -1.5253187964322972,
          -1.8236113053356773,
          -1.9338449096718644,
          -1.8275465513901274,
          -2.3037114238938616,
          -1.9918825126430197,
          -2.6411386924226052,
          -2.6758223904209455,
          -2.742908250855153,
          -2.450101237031447,
          -1.8137687994857927,
          -1.5466365654863157,
          -1.6354472844141767,
          -0.08003373780494207
        ],
        "bias": -0.08061933580238374
      },
      {
        "weights": [
          -3.37903992372713,
          5.798614765180527,
          6.800884742285964,
          6.837827227429447,
          6.970513411219143,
          6.5818509114650485,
          6.470007592831794,
          6.862795106000663,
          6.7506984342303875,
          6.480378553190017,
          6.624323052828972,
          6.718730939425771,
          6.504269548110743,
          6.687598613981547,
          6.510392317572743,
          6.533107801200195,
          6.59006843492966,
          0.01449227618398787
        ],
        "bias": 4.796351724259045
      },
      {
        "weights": [
          1.1090639667043447,
          -1.5086159494843445,
          -1.5723124309928913,
          -1.2709139351587766,
          -1.3213661291303347,
          -1.5833462002651504,
          -1.5872574478522472,
          -1.645524901750499,
          -1.7088399469107127,
          -1.658399086846114,
          -2.0755903667200464,
          -2.167628138163762,
          -2.0464337754201805,
          -1.6840165794468807,
          -1.2537414235149287,
          -1.5493758970235565,
          -1.2015520310797045,
          -0.0758768229680737
        ],
        "bias": 0.03350298749810055
      },
      {
        "weights": [
          1.2166223235644615,
          -2.047008443449231,
          -2.530119332756608,
          -1.893690666394128,
          -2.0181417277898097,
          -1.9152433903856376,
          -1.9951756128078262,
          -1.9332204601435834,
          -2.2170614521701433,
          -2.2266383098331306,
          -2.726173081481904,
          -2.9539046579150012,
          -2.7784134835070704,
          -2.7881957839207816,
          -2.1953000265827036,
          -2.148447728721608,
          -1.8494460282995484,
          -0.2793498936780849
        ],
        "bias": 0.015389842122609547
      },
      {
        "weights": [
          -6.179505744181593,
          6.171900711379838,
          8.166566034135819,
          8.74634322526122,
          8.823783354294896,
          8.53869529803476,
          8.392824503226056,
          8.487866176085575,
          8.448551984818936,
          7.336292016094636,
          7.369801098077613,
          7.253685265260139,
          7.143734456467051,
          7.711653507195914,
          8.157852480675459,
          8.504788581023808,
          8.51338419100961,
          0.11001617862249113
        ],
        "bias": 4.757347815328506
      },
      {
        "weights": [
          -8.19405430575339,
          7.20075405385296,
          8.372249942866388,
          8.481081779969875,
          8.269007081352429,
          8.166474279321413,
          8.191821882306309,
          8.102527701712768,
          7.8424460454002105,
          7.539596853877422,
          6.923993709359958,
          6.851905658646351,
          7.014606298432214,
          6.897113558945969,
          7.848335509984868,
          8.6161283418572,
          8.684437698130626,
          -0.12316545173436394
        ],
        "bias": 4.950224927804201
      },
      {
        "weights": [
          -3.622683076806609,
          5.815697192172954,
          7.074999980835468,
          7.013925072500852,
          7.329260359715485,
          6.833139261818307,
          6.657937049955671,
          6.598307027693113,
          6.7819696799801354,
          6.817928719827759,
          6.728458516559021,
          6.758472001344523,
          6.67482082075951,
          6.614780798215021,
          6.776282824721675,
          6.4907192125157,
          6.605222877836397,
          -0.11374090524268274
        ],
        "bias": 4.838083005644165
      },
      {
        "weights": [
          -4.159012723107856,
          5.959250549662321,
          7.684048070553459,
          8.098560807468015,
          7.938865998682878,
          7.417850530302659,
          7.397854594144868,
          7.364122763203166,
          7.477097217913179,
          7.1872356735834355,
          7.413570300684414,
          7.651029386168005,
          7.6818946925032865,
          7.391277069668507,
          7.36232378475393,
          7.2919542371817805,
          7.16498725795181,
          -0.12584759595314288
        ],
        "bias": 7.150520175866849
      },
      {
        "weights": [
          -4.472090755903363,
          6.036927075799082,
          6.00263894907506,
          6.264444064883968,
          5.934231737736591,
          5.546053322437566,
          5.5783585725004325,
          5.521960144992399,
          5.367834435831095,
          5.6927930505108435,
          5.628263006754226,
          5.886603980121061,
          5.677319303247087,
          5.817227167768172,
          6.040595450042532,
          5.820999653472665,
          6.090079512577603,
          0.057253327375337164
        ],
        "bias": 3.6813827130903274
      },
      {
        "weights": [
          -5.0280908543311424,
          5.020286296848202,
          4.820711418096153,
          5.269217487134382,
          5.270483645203699,
          4.930221450613099,
          5.005445682203387,
          5.064572174320739,
          4.723898920894422,
          4.945800438616192,
          4.759783517971142,
          4.574475043456199,
          4.804691084771611,
          4.9512621038191496,
          4.974440657145592,
          5.09111304451424,
          4.935387644102577,
          0.12583338421589
        ],
        "bias": 2.2820506642014724
      },
      {
        "weights": [
          -3.2302692504883845,
          5.464348772961198,
          5.344569634412668,
          5.944055135188113,
          5.907059805086734,
          5.5392108717186845,
          5.883956240031603,
          5.6416525492225125,
          5.8618065172065865,
          5.6935610960024965,
          5.735623870516527,
          5.576000770356941,
          5.8683826952235005,
          5.410638794278185,
          5.540176782077631,
          5.541230583807698,
          5.450249351482674,
          0.0439163084226152
        ],
        "bias": 3.2555703040636166
      },
      {
        "weights": [
          -0.7215896654023588,
          -1.1410059554296026,
          -4.857173825315147,
          -3.407761713540324,
          -4.321413008424561,
          -3.6777991022442875,
          -3.506253078132608,
          -3.6949224886433107,
          -3.917952826168186,
          -3.8267295933392074,
          -4.400932117487833,
          -4.883370564044747,
          -4.749211443165549,
          -4.2663255785832135,
          -2.830882719592905,
          -2.9657115032467716,
          -2.7291882200924236,
          0.08629395061503403
        ],
        "bias": -0.11474642188522295
      },
      {
        "weights": [
          -2.827744710470719,
          5.431501891573675,
          6.185848384435531,
          6.354269179471001,
          6.465881283066445,
          6.452441466728769,
          6.112199201822397,
          6.145894788455533,
          6.349483485617183,
          6.199661912232117,
          6.3689452751402635,
          6.176062702859111,
          6.32040766882913,
          6.213691610769493,
          6.167885884946928,
          6.011308372328501,
          6.327498514858714,
          -0.08999087465977802
        ],
        "bias": 4.327888324091823
      },
      {
        "weights": [
          1.033262940529887,
          -1.4972884449253412,
          -2.118157627452589,
          -1.7132699107374663,
          -1.8195491033821785,
          -1.9310039203494405,
          -1.932636620197054,
          -2.0130454504070205,
          -2.3403829778100467,
          -2.5516549102466977,
          -2.9561863959848727,
          -3.0056119301994295,
          -2.502632856024137,
          -2.566961295000831,
          -1.8136451691535191,
          -1.7089048030050082,
          -1.7444982549179444,
          0.003981775839039482
        ],
        "bias": -0.026595329812768066
      },
      {
        "weights": [
          0.15809757176229136,
          -1.3740473367548798,
          -3.136669407209447,
          -2.4881572720847847,
          -2.737730310093911,
          -3.1795512952432397,
          -3.029600251334283,
          -3.1797515476096168,
          -3.2683076920964207,
          -2.9968295403939473,
          -3.789313819570307,
          -3.8932417663209273,
          -3.7738256291180985,
          -3.0905820415896588,
          -2.1319204686597475,
          -2.2175621977081974,
          -2.1185684219003895,
          0.006584201532351266
        ],
        "bias": -0.08776296689229121
      },
      {
        "weights": [
          0.5955069181300159,
          -1.9549090200492,
          -2.9999763175464746,
          -2.117286617013157,
          -2.7242547903818153,
          -2.7788949633989346,
          -2.9941407434548464,
          -3.026079058448562,
          -3.249712373134205,
          -3.460518007841541,
          -4.158522675862426,
          -4.360902887265129,
          -4.157013063476167,
          -3.7527818496908902,
          -2.5338243738203694,
          -2.65342988489003,
          -2.3486097922970584,
          0.1651210190386844
        ],
        "bias": -0.062332262311256506
      },
      {
        "weights": [
          -6.0414655025645905,
          8.266407982691735,
          8.207862034343425,
          9.633670373992645,
          9.158542619522347,
          8.042139358927725,
          8.499003959394019,
          8.278656787971974,
          7.869053436938105,
          8.583489084206578,
          8.135425837347917,
          7.940997006679763,
          7.831845219996457,
          7.940492551555286,
          8.646188261554618,
          8.891947831427547,
          9.019761467685031,
          -0.14176562490984798
        ],
        "bias": 5.916472939890448
      },
      {
        "weights": [
          -2.924948462073296,
          5.396192055715981,
          6.070136854894353,
          6.611266213922701,
          6.1661988451778615,
          6.3643937831441,
          5.981217427881064,
          5.89643435081906,
          5.9534811581489215,
          6.291586851229688,
          6.279357268265617,
          6.2229590407255,
          5.863763404015715,
          6.383918084614233,
          6.142291211353422,
          6.156679263405248,
          5.966665103563199,
          -0.039410345702195655
        ],
        "bias": 4.02755125992608
      },
      {
        "weights": [
          -4.018611950161045,
          5.950394558908076,
          7.287310414140022,
          7.5008893232746345,
          7.372731128454645,
          6.872249388963061,
          6.92343139042227,
          7.058729418587644,
          6.938859459648585,
          6.934677533118859,
          6.879361461850573,
          7.158482720712632,
          6.9929282648689295,
          6.960488533913764,
          6.933751580446809,
          6.9801551668179,
          6.858770449795899,
          0.034009045076579744
        ],
        "bias": 5.691608150648798
      },
      {
        "weights": [
          -4.703540967276413,
          6.486065217667384,
          6.75337456216496,
          7.055468114973547,
          6.935890500949635,
          6.5579992742960265,
          6.671112276384958,
          6.5089286276595555,
          6.653432329728831,
          7.121533422234789,
          6.9439401112620445,
          6.957187849900478,
          6.636547045537854,
          6.609515331719714,
          6.681206037553054,
          6.405298592933748,
          6.478050329967544,
          0.0868448949985436
        ],
        "bias": 3.91000902425371
      },
      {
        "weights": [
          -4.658814843970464,
          6.028392428542681,
          6.801480900860274,
          7.196178690779605,
          7.079716078122626,
          6.549801757980047,
          6.519726654427012,
          6.388429869087999,
          6.53659800272855,
          7.300975556920372,
          7.012489440425227,
          6.966796420294127,
          6.838117639969735,
          6.646000366780026,
          6.675784033435316,
          6.353594623042629,
          6.3778017347298155,
          0.10818560283832744
        ],
        "bias": 4.159967191676921
      },
      {
        "weights": [
          -4.410018278194507,
          6.283829266184022,
          7.008282427690419,
          7.30636117493091,
          7.127463911879928,
          6.778764917899945,
          6.874123142186386,
          6.776549078251029,
          6.898422884637161,
          6.931164971357466,
          6.973691415245443,
          6.723039685215771,
          6.904386198674586,
          6.750909810771432,
          6.789431905305826,
          6.757708257925085,
          6.7624125359390534,
          0.008879923250476356
        ],
        "bias": 4.797656783555771
      },
      {
        "weights": [
          -3.6733079716447095,
          5.989721148286518,
          6.908817511362916,
          7.10291774790622,
          7.292782778846357,
          7.029200979335699,
          6.806230165984691,
          6.986837769988195,
          6.904392280728677,
          7.151373535054357,
          6.820061164150882,
          6.97634073244827,
          6.764808875455266,
          6.8981394612978475,
          7.1217590359557645,
          6.877004872444681,
          6.708494506643038,
          -0.22817684621064438
        ],
        "bias": 5.147555821380287
      },
      {
        "weights": [
          -2.58589906433928,
          5.098278959151157,
          5.304070884684917,
          5.165206499583629,
          4.962168142577214,
          5.397291201454378,
          5.316633057651988,
          5.341297174167101,
          5.171592173784913,
          5.4988318870669435,
          5.316016790272962,
          5.473414986375163,
          5.124836338781945,
          5.432820792142694,
          5.105801954105982,
          5.059601354912628,
          5.209746723575434,
          0.12253953235586572
        ],
        "bias": 3.175750757626428
      },
      {
        "weights": [
          1.0407977684006753,
          -1.091917370848425,
          -1.4531311180143043,
          -1.2771589815385032,
          -1.4424909041513205,
          -1.220325711202332,
          -1.338734456410356,
          -1.1517000791683658,
          -1.3338391368740692,
          -1.0219754005310808,
          -1.651781665669735,
          -2.0356125698026166,
          -1.5710251351365232,
          -1.6815939649075178,
          -1.3489489859461485,
          -1.3751238090349276,
          -1.3589217530831106,
          0.04705598805089146
        ],
        "bias": 0.02046480114757798
      },
      {
        "weights": [
          -3.511431125939126,
          5.885855923243829,
          7.025533224044288,
          7.210922407770791,
          6.929225722361399,
          6.981407582325112,
          6.674853577672961,
          6.6348812314735985,
          6.684352048184642,
          6.841816429751482,
          6.634613520817956,
          6.828902457638864,
          6.744685518879247,
          6.679138773161047,
          6.746728661673789,
          6.675967668717824,
          6.727873509402028,
          0.1431343062926442
        ],
        "bias": 4.916018896390575
      },
      {
        "weights": [
          -2.115071019752055,
          3.7886750691196167,
          3.937915174021072,
          4.0187762990644025,
          3.9016583740325506,
          3.8770950960302684,
          3.9335492227581352,
          4.010800209759332,
          3.63013729628024,
          4.080905636825085,
          3.8430214921619337,
          3.4558727437582615,
          3.8061178295822193,
          3.765591347694784,
          4.059085274566894,
          4.011372833501834,
          3.8245305978797903,
          -0.035776542881969214
        ],
        "bias": 1.8266409737555696
      }
    ]
  },
  {
    "name": "H1",
    "activation": "ELU",
    "neurons": [
      {
        "weights": [
          -7.081906360632959,
          -8.155819869641238,
          -7.459503008158466,
          1.0692623970090434,
          -7.553579998140401,
          1.1545296235305487,
          0.8151275126471907,
          -6.581321331463642,
          -7.649005102969112,
          -7.78704159288599,
          -8.183651812734544,
          -5.821176124664088,
          1.179683211194755,
          0.49305806854120005,
          1.0180733278476182,
          -5.287517320653842,
          -7.359734090112684,
          -9.935703817543908,
          -7.196240942336174,
          -7.029226730032067,
          1.0569845518572758,
          -9.614996455644762,
          -6.673089594546828,
          -7.675556171054785,
          -9.443734082748684,
          1.1590765100473364,
          0.9096791989509437,
          1.1986157061579155,
          -9.460413628535106,
          1.1094093942536243,
          -10.044870406873953,
          -7.949072978820715,
          -10.260658563085425,
          -10.134395738831056,
          -7.742846575442794,
          -9.956208913464708,
          -9.501907496865446,
          0.9694013328731524,
          -7.753363009114278,
          1.1039282963493684,
          0.8937157782943183,
          -9.737547363328028,
          -9.803191784261541,
          -7.986473550190865,
          -9.864827162794448,
          -8.870423099575737,
          -5.79908824626646,
          -7.937190982826761,
          1.2305967280460484,
          -7.163195541431458,
          1.0593208435678663,
          1.0426215897103686,
          1.1796256618644043,
          -9.76952026134761,
          -6.8282310224702,
          -9.29028983230972,
          -8.6630960362139,
          -7.932094122388797,
          -8.051501806880331,
          -8.10269441043377,
          -5.8586208192806035,
          0.892809863979862,
          -8.052833773190795,
          -4.965409714711923
        ],
        "bias": -0.11331083437421262
      },
      {
        "weights": [
          -7.179850837411085,
          -7.972537142826702,
          -6.450495530049066,
          0.2877326624719827,
          -7.412504247772529,
          0.37403385373006687,
          0.36540981542765644,
          -6.974880568637874,
          -7.589095443090199,
          -7.71401120932401,
          -7.966622125392191,
          -5.976949617959448,
          0.34673888102104583,
          0.2449116018330094,
          0.3224766750866148,
          -5.136627294823478,
          -7.2315379648379565,
          -7.612890810610518,
          -7.146355611112004,
          -6.988453212245442,
          0.28964171426943763,
          -9.472067586574157,
          -6.635972278101591,
          -7.320130615795197,
          -9.278133360362492,
          -0.11358119991242777,
          0.26036773664497287,
          0.3664716413817614,
          -9.351835067443977,
          0.5528153672384787,
          -7.043694908225545,
          -7.7734402483722125,
          -9.615429388639678,
          -7.111811184178932,
          -7.5350376063349875,
          -7.006723838559903,
          -8.320336191947376,
          0.290183982832147,
          -7.6994010272722315,
          0.4399729180465911,
          0.36323458761807886,
          -8.087527644260662,
          -9.260834793117573,
          -7.782208676608062,
          -9.39194502182094,
          -6.947945018264565,
          -6.37737104039074,
          -7.624470994165365,
          0.264652494823385,
          -7.1191956510251,
          0.3814908078354994,
          0.3659175992322815,
          0.32141020567780154,
          -7.185662994669416,
          -6.837667196916766,
          -9.136809184407506,
          -9.431596317817297,
          -9.110474758917919,
          -7.866476450866639,
          -7.951684718461031,
          -5.975759763396669,
          0.3697274220382218,
          -7.826557788760706,
          -4.7478309855152485
        ],
        "bias": 0.01761949457544577
      },
      {
        "weights": [
          4.837884792195205,
          5.461333278440765,
          4.032665848213033,
          -1.3114164525696685,
          4.7819506281128215,
          -1.2598567888693308,
          -0.9558229927221443,
          3.7025459802390324,
          4.9396786840773625,
          5.224947971780273,
          5.209993983000319,
          2.594613050906516,
          -1.4886300280347258,
          -2.6462685659153893,
          -1.1465476119857707,
          3.39593167905254,
          4.744342852600437,
          4.66211797297804,
          4.832727354099578,
          4.53247952986347,
          -1.356860921185634,
          5.775678204330874,
          4.472319393343968,
          5.0335058131454735,
          5.876176297381591,
          -1.7988603133373489,
          -0.890454875787248,
          -1.343645543616512,
          5.962643373441875,
          -1.1165491874887357,
          4.546034494924823,
          5.349053078963026,
          4.59098927789996,
          3.6147180227202527,
          4.988378006691141,
          4.149607034851099,
          4.865490411776071,
          -1.1693770360025497,
          5.029282974615723,
          -0.982862360145812,
          -1.0550264745212534,
          5.747565585797788,
          4.487413152848047,
          5.321671751508589,
          5.886046796576076,
          3.5990614184532332,
          2.3963663878346457,
          2.903170895844042,
          -1.5809504966287122,
          4.616468822370188,
          -1.0622976272210665,
          -1.2973823102369775,
          -1.1071171908507662,
          4.949216482971942,
          4.591543695152577,
          6.204128759626945,
          5.241832648803754,
          5.702877205073958,
          5.138548245827602,
          5.340690376285693,
          3.8055204529239512,
          -0.9531674628433771,
          5.159232763572273,
          0.6327421704672459
        ],
        "bias": 0.8638483418794579
      },
      {
        "weights": [
          -6.708348535648797,
          -7.721438352854809,
          -5.24744731352325,
          2.2606949412556654,
          -7.232441691667275,
          2.445295663678193,
          1.829940584501539,
          -4.575380731278269,
          -7.201215704479218,
          -7.301912449599107,
          -7.9676470615285275,
          -4.243091751406466,
          2.409944537184529,
          0.42572851682316226,
          2.4323495049935895,
          -4.531722910451624,
          -7.008597967162855,
          -7.492590644820304,
          -6.783461374463013,
          -6.605091241944977,
          2.311015718123865,
          -9.00215437301088,
          -6.474070388232619,
          -7.138509443612035,
          -9.011161525612247,
          2.5098008349285075,
          1.7545470070595084,
          2.342613428661334,
          -8.873302714603653,
          2.424385444199161,
          -6.1952684842868,
          -7.558099193945031,
          -7.173844184319151,
          -5.78622715597168,
          -7.375866815480231,
          -6.342619378437069,
          -5.942920020926375,
          2.1854983962043084,
          -7.303506526450538,
          2.058164811218845,
          2.218950988784329,
          -6.161207510914559,
          -7.12205334809126,
          -7.58058087660414,
          -9.099622785072135,
          -5.733976295694188,
          -4.711366679855323,
          -5.5379858383476925,
          2.070496791648743,
          -6.704886604341569,
          2.2301799331267227,
          2.2197131974365565,
          2.3504848321067726,
          -7.172131926502574,
          -6.51303227582252,
          -8.310574905198633,
          -6.287763979193191,
          -6.142939576205468,
          -7.685809664411151,
          -7.553359872549959,
          -5.163400236758216,
          1.8951886820359336,
          -7.4791035712655995,
          -4.204090503699897
        ],
        "bias": -0.973053900061331
      },
      {
        "weights": [
          -6.784900716284457,
          -7.017295607577862,
          -4.6539473327323035,
          0.5114601357299121,
          -6.780267877302974,
          0.5491815966647152,
          0.3934140723441246,
          -5.304248192445641,
          -6.757651892197829,
          -7.070761847816591,
          -7.379591055163506,
          -4.493323827351218,
          0.6029977535331611,
          0.691141257163627,
          0.4383510357160879,
          -4.853737669990251,
          -6.598914655957997,
          -6.269143743780536,
          -6.360064659250268,
          -6.42649881984813,
          0.5216802671254118,
          -8.263833387108102,
          -5.6790339829011645,
          -7.006930446947309,
          -8.678259368700527,
          0.8619034774893276,
          0.22939606987093383,
          0.7034813028370892,
          -7.598365662644612,
          0.45941856088319816,
          -5.793393956951213,
          -7.003681292176746,
          -6.194962055372764,
          -5.173065796392075,
          -7.085445363362008,
          -5.826572759373839,
          -5.88857378632306,
          0.49308239637454465,
          -6.692468094572798,
          0.38932295135778006,
          0.4109019379146316,
          -5.970550942116277,
          -7.419488898766912,
          -7.244913846385912,
          -8.424935112471116,
          -4.876081572649401,
          -5.074677673806324,
          -4.668513367340533,
          0.6920504932720514,
          -6.570639865014561,
          0.4789037993318008,
          0.5680397044584149,
          0.4888825041550301,
          -6.514536464725949,
          -6.256883344021041,
          -8.189753243530507,
          -6.477293633900981,
          -6.5832715908061,
          -7.236999831159133,
          -7.357778605142489,
          -5.4837357327222165,
          0.6023081812170816,
          -7.044949103567633,
          -3.290073859572892
        ],
        "bias": -0.09025903577605936
      },
      {
        "weights": [
          -6.328203212158041,
          -7.28879118897098,
          -4.7546178854387735,
          1.919730076104114,
          -6.747502774879025,
          2.2212484230227223,
          1.5313213226323794,
          -5.236061887939485,
          -6.769405092033188,
          -7.048263209827206,
          -7.259710114919713,
          -4.781156065542448,
          2.094132273119188,
          1.0273333025191085,
          1.98758974497017,
          -4.526982081323915,
          -6.453579068755184,
          -6.006342610266756,
          -6.376823565497134,
          -6.289240777382105,
          1.929547812004212,
          -7.984767661337626,
          -6.1226636039571565,
          -6.782314433225119,
          -8.531766445189295,
          2.271446105447038,
          1.4651492768099286,
          1.9789888262964928,
          -8.01117044796984,
          1.9628970460471553,
          -5.299280247102728,
          -7.137299989712133,
          -6.966928696712618,
          -4.699773912669677,
          -6.9942158882605385,
          -5.161336387912999,
          -6.239480038794162,
          1.844010150384805,
          -6.878776029977555,
          1.7340204376152546,
          1.8643290000203243,
          -6.897641278373367,
          -6.526085579942018,
          -7.277277544985949,
          -7.648654173651769,
          -4.94092607643208,
          -5.277163262095765,
          -4.867565772356427,
          2.056510380167961,
          -6.24968520125075,
          1.864064522602389,
          1.9313640499102116,
          1.934212890723428,
          -6.18446575727008,
          -6.09646133935255,
          -7.4658495528105355,
          -6.889476585542233,
          -7.386082897596549,
          -7.358994212746098,
          -7.328662718966763,
          -4.934450413536857,
          1.7435816815870442,
          -7.074294028268311,
          -3.6132843691031002
        ],
        "bias": -1.0764804182766636
      },
      {
        "weights": [
          -7.374235403350835,
          -8.109335070931298,
          -4.120936579986499,
          -0.5614028695072321,
          -7.242112334714691,
          -0.549104861105663,
          -0.7592033770152895,
          -5.7139186640147175,
          -7.606935808581799,
          -7.556297872044913,
          -8.123168678413432,
          -5.120950307368784,
          -0.46096821211544176,
          0.6219616524472303,
          -0.3889908888007498,
          -5.514821824991462,
          -7.326900850423329,
          -2.862956994484117,
          -7.065985881968579,
          -7.046110871495336,
          -0.4586542644889816,
          -5.389947446506957,
          -6.538413663882808,
          -7.549450027973143,
          -5.907543743287919,
          -0.3097861781890091,
          -0.7701516120324851,
          -0.343633103873507,
          -5.925267868108602,
          -0.6416198750507993,
          -3.335750676934976,
          -7.864559740182397,
          -5.019828751171725,
          -2.9391871742912343,
          -7.656554576839922,
          -2.981970027984935,
          -5.386887943845735,
          -0.5929328567441213,
          -7.5612520788987485,
          -0.7636202473690955,
          -0.4919541655435394,
          -4.680027978154643,
          -3.586732973657739,
          -7.992001155357971,
          -4.73023916682078,
          -3.9054587229106748,
          -5.924755233240785,
          -4.747640807565478,
          -0.4095287718839872,
          -7.239583744205422,
          -0.5070679954260913,
          -0.6322356641381786,
          -0.465986009832603,
          -2.775659486469854,
          -6.8027172564868765,
          -7.652856298802873,
          -7.0330160690547805,
          -7.676742104343222,
          -7.692399053571278,
          -8.031668778701599,
          -6.013279415269637,
          -0.7089196212063694,
          -7.775644528664312,
          -3.22378557904126
        ],
        "bias": 0.2890767647785347
      },
      {
        "weights": [
          -6.387995257125639,
          -7.449756078393824,
          -5.115724931275241,
          2.610991216055614,
          -6.968185200342038,
          2.7723220074080914,
          2.145228010223733,
          -4.550003384303753,
          -7.2142769640762205,
          -7.182825823885601,
          -7.503273161523339,
          -4.455688073267818,
          2.848441925807246,
          0.39777398406559633,
          2.6807116652483507,
          -4.335915614793359,
          -6.975169776289213,
          -6.843504600320478,
          -6.603257234506407,
          -6.183321624981313,
          2.6427474105525577,
          -8.326133444032697,
          -6.560913268071296,
          -6.991569293286106,
          -8.607319607912157,
          2.439397924494343,
          2.071119799019429,
          2.5782283281067198,
          -7.796686560605971,
          2.7241357120517056,
          -5.527985550939018,
          -7.4147521612638965,
          -7.006767120303316,
          -5.077161067046755,
          -7.181340556614024,
          -5.570671733545057,
          -5.484247379697844,
          2.4743210940797473,
          -7.258177150638066,
          2.3337315926721853,
          2.5663436837715228,
          -5.822949893453179,
          -6.9629720947182925,
          -7.333792558482612,
          -8.559882802826493,
          -5.305517930097888,
          -4.846585387389953,
          -5.524356130584374,
          2.328197125722315,
          -6.435346341761512,
          2.4661989634173023,
          2.4027225469402627,
          2.663877021293677,
          -6.406289748909234,
          -6.224083962238553,
          -7.4858921809861885,
          -6.0928922506955026,
          -6.493917387551829,
          -7.583118442778726,
          -7.53610390934212,
          -4.999593707180868,
          2.413844615494899,
          -7.304098060885199,
          -4.015553902331632
        ],
        "bias": -1.13386466422526
      },
      {
        "weights": [
          -6.662816576145288,
          -7.617458025704994,
          -6.39466167118961,
          0.22720244200062814,
          -6.856260681722923,
          0.3474905978081982,
          0.20234066703262654,
          -7.681086797119484,
          -6.956137365860836,
          -7.113929236024631,
          -7.398898166281413,
          -7.060326646999816,
          0.3188433339435809,
          -0.06585414128963858,
          0.3890986810817081,
          -4.950422216606096,
          -6.666185318946468,
          -5.46556280142905,
          -6.47096169147871,
          -6.492942794998606,
          0.32085839785203113,
          -7.244475599167141,
          -6.117853497365182,
          -6.843864361981222,
          -8.391465766508421,
          0.5417886628259242,
          0.20050658819059,
          0.40172821609802917,
          -8.47746852885037,
          0.30811525430534875,
          -5.936527863690004,
          -7.424408366194191,
          -9.214113399879427,
          -6.064695709985034,
          -7.124363927630601,
          -5.6226921605683104,
          -10.371303533474746,
          0.16812406480587538,
          -7.0289090871239335,
          0.31332731200057684,
          0.2840142802534509,
          -9.605451555624997,
          -7.42729417059224,
          -7.433871994265101,
          -6.107622786649891,
          -6.413751923060404,
          -7.481213402552885,
          -7.411132912796377,
          0.44799044355751466,
          -6.574497018504049,
          0.3117274476149953,
          0.3010571838982082,
          0.18716207800376877,
          -5.609671285800692,
          -6.266768926357257,
          -8.639311321215223,
          -10.075866802213614,
          -10.171459829455488,
          -7.422219225480081,
          -7.57342254039391,
          -5.176551467893561,
          0.24756224281845932,
          -7.373734913428813,
          -4.457847238718676
        ],
        "bias": -0.06231475517921157
      },
      {
        "weights": [
          -7.184578634701965,
          -8.006563294461241,
          -4.789250711286217,
          -0.04054482685421476,
          -7.277880807819383,
          -0.11432196319971714,
          -0.4211880909257732,
          -6.341661267989618,
          -7.453336320331354,
          -7.378117401842068,
          -8.000868829049635,
          -5.6603995840469725,
          0.0023090807525457434,
          0.7332212899017838,
          -0.04720889370548639,
          -5.340751327441827,
          -7.219296877275665,
          -4.290647409306395,
          -7.036639973449697,
          -6.821962755239566,
          -0.03941397348866912,
          -7.43540439900555,
          -6.424533525509913,
          -7.4589831095874075,
          -8.146252608408039,
          0.03234094052307989,
          -0.4351641640718618,
          0.1480587929439,
          -8.277182936144005,
          -0.1683838644404238,
          -4.549138210503153,
          -7.760502846118506,
          -7.490785950653292,
          -4.108836064093988,
          -7.552687152737796,
          -4.3414302014749895,
          -6.396339397128331,
          -0.1850257916242354,
          -7.543385966109265,
          -0.22347027052762317,
          -0.2007903659348838,
          -6.091008418671509,
          -5.155253902992645,
          -7.9903008561765105,
          -6.210895226398097,
          -5.031587325309194,
          -6.1221537489867295,
          -5.75182684047236,
          0.05216141424883244,
          -6.96847812719753,
          -0.18599557231328395,
          -0.12127114199930665,
          -0.04580466088510577,
          -4.23109699350182,
          -6.734932657840361,
          -8.550894540010189,
          -7.696603397416303,
          -8.030311454077513,
          -7.73786545534118,
          -7.95165786665969,
          -5.773126232577637,
          -0.21888714073048324,
          -7.774080804946829,
          -3.4681520397771886
        ],
        "bias": 0.07363421109770645
      },
      {
        "weights": [
          -7.026188922532126,
          -7.80601229142986,
          -7.333674182791574,
          1.6991929461661583,
          -7.113042402963824,
          1.8091245371257825,
          1.4631476146786433,
          -7.2346262860005455,
          -7.295113624002352,
          -7.333609593220098,
          -7.795225505231876,
          -6.136686467844747,
          1.7776805832696672,
          1.400350774033585,
          1.6457433206611982,
          -5.044356540162052,
          -7.011426341025732,
          -9.212376591836685,
          -7.012499143177955,
          -6.705933697482025,
          1.7046360484267848,
          -9.408967272709395,
          -6.46349432569024,
          -7.258488581011031,
          -9.151299623172669,
          1.949327705307765,
          1.255807513128639,
          1.8331568890053547,
          -9.27531145166123,
          1.6120511861695757,
          -9.160363977404952,
          -7.652636623656189,
          -9.54344288128278,
          -9.237726504382575,
          -7.548050311631068,
          -9.162579574977695,
          -9.879224320919036,
          1.5997698075998492,
          -7.3402686312586525,
          1.5124451285774543,
          1.635454118880867,
          -10.406161263424877,
          -9.882715204709147,
          -7.6899660013174715,
          -9.727372581501669,
          -8.500640794360187,
          -6.150488475815285,
          -7.936275579115808,
          1.9543105742806113,
          -6.903887874972779,
          1.4983963308511992,
          1.6817634094430918,
          1.6240862647175274,
          -9.38909347149259,
          -6.660670818302071,
          -9.000381985873721,
          -9.197474655168305,
          -8.761013050559527,
          -7.681970859829283,
          -7.78195348708273,
          -5.477428322297719,
          1.516904121064707,
          -7.567191911056958,
          -4.280451549317437
        ],
        "bias": -0.48923704700333137
      },
      {
        "weights": [
          -7.242048979691611,
          -7.942476593729804,
          -7.0906213536853455,
          0.7523138282487344,
          -7.613419075233168,
          0.6940651037957402,
          0.5934399436798847,
          -6.617988415003129,
          -7.729343855349592,
          -7.681469501244332,
          -7.999501556765813,
          -5.430984358752686,
          0.8319122717202083,
          0.4111257180323174,
          0.7120504200251544,
          -5.4271331634992395,
          -7.3370916024850015,
          -9.964744192032832,
          -7.123782331091472,
          -6.974752744508235,
          0.717460259029939,
          -9.531927481370976,
          -6.834218660269232,
          -7.634903323036581,
          -9.4755839478795,
          0.8371607318495231,
          0.4349051813342389,
          0.7893987941663344,
          -9.312564106573912,
          0.8765285985806117,
          -9.755152954228253,
          -7.745072980080445,
          -9.498793611860473,
          -9.947219469158094,
          -7.664412123755968,
          -9.995496414371075,
          -9.142053451577627,
          0.8049954317763864,
          -7.816313094540292,
          0.6422713941631463,
          0.4934629126114577,
          -9.560639969397261,
          -9.669216623501276,
          -7.940995643019252,
          -9.779815756937028,
          -8.084650099764595,
          -5.6813972855047945,
          -6.814674432729671,
          0.7015389559642068,
          -7.227207642270334,
          0.7392089512869132,
          0.6787466359997053,
          0.7541673288858628,
          -10.081247702025074,
          -6.885303305523666,
          -9.093599216348924,
          -8.233327528641249,
          -8.041306707171413,
          -8.003968649285508,
          -8.035760048266827,
          -5.9835374357222975,
          0.7910379531283854,
          -7.897940601860873,
          -4.621076883405884
        ],
        "bias": -0.02360221133436556
      },
      {
        "weights": [
          -6.909420413420881,
          -7.749453448408137,
          -6.471931123778211,
          0.3277661876184388,
          -7.0363983347243355,
          0.4832968272910219,
          0.23352008723459416,
          -6.577996570722905,
          -7.253162208793901,
          -7.245697512667018,
          -7.698507476980523,
          -6.132694209881188,
          0.3297125299635234,
          0.16003087704789914,
          0.31709522897616743,
          -5.11462334089174,
          -6.83909001248205,
          -6.5868245553465075,
          -6.606122762167194,
          -6.6308669120611405,
          0.2690676664318886,
          -9.046621928637151,
          -6.390705756850433,
          -7.361429910254451,
          -8.934045164002129,
          0.5931098802641613,
          0.2738039896122319,
          0.3401635036718969,
          -9.142775369368357,
          0.3330905563874801,
          -6.756377693791958,
          -7.55941455830568,
          -9.491960585288725,
          -6.828858482501105,
          -7.268979953630918,
          -6.549273264278287,
          -8.609464359741066,
          0.2841477300546175,
          -7.340546333032392,
          0.31765230294451413,
          0.259117535298597,
          -8.133757031089765,
          -7.7967392781578155,
          -7.622472909391009,
          -7.883237614818869,
          -6.938466337759123,
          -6.643643682516657,
          -7.444570634583683,
          0.4211628163799937,
          -6.8057528581895435,
          0.3244050126454867,
          0.3969087907226028,
          0.3106698193794667,
          -6.517268377347417,
          -6.617535349221531,
          -8.874050362970323,
          -9.123532342919065,
          -9.345411249124307,
          -7.646843093604677,
          -7.699067086650234,
          -5.423373755673918,
          0.3424591667008706,
          -7.509239354712401,
          -4.59472682962389
        ],
        "bias": -0.08950467742378412
      },
      {
        "weights": [
          -7.069425926817899,
          -7.904642710265676,
          -4.511219024807343,
          -0.2852183762925358,
          -7.086258824563706,
          -0.17404024632161275,
          -0.3705234727438177,
          -5.876242945240714,
          -7.444931594641313,
          -7.336859451000952,
          -7.966448760531781,
          -5.219905016780697,
          -0.2384237605339747,
          0.6578765709608347,
          -0.18245512045661896,
          -5.352440990560898,
          -7.099050630274976,
          -3.35436855540637,
          -6.740157917836729,
          -6.839995091552203,
          -0.2586708206981481,
          -6.001271322380225,
          -6.4492886904658695,
          -7.3139907731805005,
          -6.659461782919708,
          -0.050892018946796735,
          -0.3481184091191404,
          -0.22007080650210356,
          -6.732120125795635,
          -0.23110988013775835,
          -3.814356838735573,
          -7.627171022016857,
          -5.905262592612942,
          -3.3540128919909766,
          -7.4203450972171865,
          -3.326195472438396,
          -5.799655240503522,
          -0.25137543522557804,
          -7.329468442003246,
          -0.3955897362508819,
          -0.36989305936277805,
          -5.206127935128829,
          -3.7886231469790266,
          -7.813133186769916,
          -5.20543827948138,
          -4.308277329951072,
          -5.890488998214197,
          -5.319782035028206,
          -0.20899033423472912,
          -7.0170962521099725,
          -0.38310781097453195,
          -0.17781507844430228,
          -0.4840791275210034,
          -3.2874088150337477,
          -6.6919739355255405,
          -7.990100181894011,
          -7.449530462148516,
          -8.103251430727287,
          -7.442088172953279,
          -7.688010096990515,
          -5.889742403160255,
          -0.46613116359961526,
          -7.709930340894716,
          -3.4326505192251293
        ],
        "bias": 0.1435875593993935
      },
      {
        "weights": [
          -6.213090065038066,
          -6.842943310342784,
          -6.391227822133932,
          0.059379392704660555,
          -6.748930740363168,
          0.1704534210226792,
          0.12882008367655895,
          -6.878315769715873,
          -6.573519174768695,
          -6.670494314960729,
          -7.007913635672376,
          -6.170966023782994,
          0.20448481546716127,
          -1.0612139736844919,
          0.19554457223468516,
          -4.6915917489503025,
          -6.308810817624559,
          -4.463450235992445,
          -6.271506800547335,
          -6.158631615695053,
          0.19048765916461677,
          -5.468395254759818,
          -5.872907861025237,
          -6.627177617839444,
          -6.411233981517616,
          -0.13828501990936495,
          0.2656870448599513,
          0.08053950791310856,
          -6.2716309842895335,
          0.25620444618920885,
          -5.2940252295004395,
          -6.779020901682701,
          -8.486776317636547,
          -5.753252930572328,
          -6.768264678759508,
          -5.007204499329951,
          -6.572845852886863,
          0.33559453551117396,
          -6.751985451464511,
          0.28114511616812476,
          0.16995391578519775,
          -4.2960900975130665,
          -6.023847418581633,
          -6.857653208623063,
          -4.631951764239694,
          -6.895627082452761,
          -6.630165390621665,
          -8.48203441500723,
          -0.04618457281502068,
          -6.151629094115483,
          0.19318505206866013,
          0.19701800425780458,
          0.21058709554882582,
          -4.050967782502827,
          -6.1521819624161385,
          -7.167723017857285,
          -8.416919336911825,
          -8.238697080407382,
          -6.9850546024799955,
          -6.929699199386276,
          -5.248789843736736,
          0.12219413664349224,
          -6.8178557475741535,
          -5.583370436971576
        ],
        "bias": 0.3038673765848052
      },
      {
        "weights": [
          -6.683624330874904,
          -7.499183507526769,
          -4.646130650342479,
          0.2952459288072552,
          -6.817194048333099,
          0.3469598491312073,
          0.13363555993747325,
          -5.873312054510689,
          -6.947426767135469,
          -7.080371401366874,
          -7.600659165360371,
          -4.724103310196536,
          0.47508252358636577,
          1.0673862852987273,
          0.5588638054997372,
          -4.970301865356615,
          -6.778408480397689,
          -4.556018287510544,
          -6.735613178843372,
          -6.522722284298668,
          0.36220047712478853,
          -8.002477359563285,
          -6.020707700499695,
          -7.059856200610316,
          -8.442113216188613,
          0.6811534310776051,
          0.2110322793514779,
          0.4139970268052344,
          -8.930763223281588,
          0.3344574098250431,
          -4.82241985924037,
          -7.403384496801669,
          -7.3472703591217075,
          -4.292754191899976,
          -7.197021995624846,
          -4.4399666685193395,
          -5.855890956001846,
          0.2906221577992867,
          -7.101364578609467,
          0.3196162262123024,
          0.3024046127444571,
          -6.228483495190816,
          -5.391515602132876,
          -7.41293385253912,
          -6.684334944735382,
          -4.278277375771409,
          -5.395318532085537,
          -4.9522269625918875,
          0.5665331929935901,
          -6.6452892353440545,
          0.362834766584913,
          0.6021879938646342,
          0.248051711873782,
          -4.517760560293283,
          -6.390537176857687,
          -8.230669505880027,
          -7.826269147194937,
          -7.9298085629825055,
          -7.234914131162677,
          -7.474345248922586,
          -5.3850212668211075,
          0.1830808501355464,
          -7.323431466088053,
          -3.248640628015732
        ],
        "bias": -0.10014290745267362
      },
      {
        "weights": [
          -6.88398027748812,
          -7.9499006706876925,
          -6.140903683676553,
          0.3763111436318225,
          -7.2346044126592215,
          0.32565512604369135,
          0.29710302280884193,
          -7.109797324504726,
          -7.377730802455093,
          -7.381357911856098,
          -7.940585022648129,
          -6.051858171980042,
          0.20919217491041855,
          0.32862836217386227,
          0.33794838840400154,
          -5.0047286400679685,
          -6.9386695735120565,
          -6.919380149113594,
          -6.850027498869491,
          -6.753907432520234,
          0.2622281586086413,
          -9.324138996126017,
          -6.4003942427821885,
          -7.299353350368611,
          -8.871256597044336,
          0.24457411549670227,
          0.24838624178779983,
          0.2408088807554952,
          -9.23758836889872,
          0.2661293864576945,
          -6.581526798006725,
          -7.694804793436854,
          -9.404025358830067,
          -6.461092322755794,
          -7.358534752519057,
          -6.529204079626655,
          -8.096919152962325,
          0.0763574921889861,
          -7.325747423258333,
          0.3085117721447217,
          0.30692098957716113,
          -7.8773410819801795,
          -8.361881014286851,
          -7.6995912731845415,
          -8.633514787409501,
          -6.596954488540869,
          -6.313243490988407,
          -7.158046999460068,
          0.23889937219779264,
          -6.945433391798714,
          0.3952114040936588,
          0.2868655038742861,
          0.238116508711083,
          -6.568851182422966,
          -6.50328734588489,
          -9.04296618881511,
          -9.023480532005122,
          -8.989414166961733,
          -7.82941400904099,
          -7.89543686008539,
          -5.711117681275442,
          0.10977334023181781,
          -7.615139001482801,
          -4.322932451494521
        ],
        "bias": -0.04921034949786571
      },
      {
        "weights": [
          -8.063054803045958,
          -9.199452050366,
          -4.591874177683759,
          0.3105583477174263,
          -7.94867753331335,
          0.12863281672982332,
          -0.6611030267889715,
          -4.569658085586698,
          -8.216211625790692,
          -8.543842295549661,
          -8.976641404302356,
          -3.772767014189267,
          0.27351670780768367,
          0.11929094991638609,
          -0.15151203889672163,
          -5.968393338910377,
          -8.071363616828014,
          -5.1993293415281485,
          -8.014900133355043,
          -7.618905146423318,
          0.20303616699915808,
          -9.465840240816814,
          -7.044945510578004,
          -8.452380714632454,
          -10.100898678390857,
          0.25868128501705256,
          -0.9777313985718243,
          0.417906417287619,
          -10.35706957435284,
          -0.42157446018158673,
          -4.454330315898515,
          -8.939275405650829,
          -7.154623424045965,
          -3.9375294524441222,
          -8.669341062181058,
          -3.840730066203814,
          -4.588240021587096,
          -0.5228361752787509,
          -8.550539206073672,
          -0.713593619086846,
          -0.5649266369308539,
          -4.734881767066367,
          -5.357604521832022,
          -9.118475606731852,
          -8.69279213495769,
          -4.4663396278243495,
          -4.333069927236917,
          -5.289897440915698,
          0.62072362024217,
          -7.819886566679858,
          -0.32878378631643446,
          0.08304668255155295,
          -0.14676411668537917,
          -4.5199083389484445,
          -7.366144297234165,
          -9.545868723934568,
          -5.639560720533325,
          -5.805555252500113,
          -8.47587569556729,
          -8.990145396464206,
          -6.542152242372576,
          -0.7070457854149139,
          -8.834290455160264,
          -3.92929824929754
        ],
        "bias": -0.6698592840250317
      },
      {
        "weights": [
          -7.1472443735914215,
          -8.056901083401831,
          -7.525805800926255,
          1.3774853626782124,
          -7.480445296766024,
          1.4375150604755342,
          0.9342680258615514,
          -6.690804046330238,
          -7.534695782904389,
          -7.695536127628176,
          -8.101275013579636,
          -5.874278911546379,
          1.238238015691773,
          0.7076785169867605,
          1.3145152085689713,
          -5.085646300087584,
          -7.254448296399965,
          -9.681677916756424,
          -7.074513370341408,
          -6.9813723140149655,
          1.2832787819463922,
          -9.632222195314148,
          -6.611877921584488,
          -7.574403926746339,
          -9.436132520453398,
          1.6980565013417226,
          0.8585713777214184,
          1.3506837478119982,
          -9.436116819836654,
          1.302348900176311,
          -9.951615336778087,
          -7.8549717788340505,
          -10.128712991426987,
          -10.105917107057076,
          -7.678821680736853,
          -9.81550996378167,
          -9.63829071877802,
          1.2795234754543812,
          -7.7596386952925265,
          1.3007010267351613,
          1.2751479228408384,
          -9.784439070006549,
          -9.871446879439887,
          -8.067206958762112,
          -9.896359062458405,
          -8.96721095575009,
          -5.993249081494019,
          -7.9921260161479815,
          1.4436587961125686,
          -6.985025603873732,
          1.201485027818432,
          1.4133459729724156,
          1.2306897027909727,
          -9.804096404358836,
          -6.799454017489849,
          -9.220943135823712,
          -8.833069259166157,
          -7.955662957894243,
          -7.948226356110027,
          -8.08557599917621,
          -5.7036105014855,
          1.1850790376120548,
          -7.8621651180933565,
          -4.989197190599922
        ],
        "bias": -0.11609283218113267
      },
      {
        "weights": [
          -6.955978468461405,
          -8.015755644792025,
          -6.1131231884496335,
          0.3133486752568824,
          -7.3364410027320295,
          0.35828799056908583,
          0.2062161908110915,
          -7.793948855747576,
          -7.434576776823997,
          -7.499123414883397,
          -7.94953510059844,
          -6.642613057647773,
          0.37656847443517294,
          0.5409755328610983,
          0.30082182124244455,
          -5.2995045663817315,
          -7.041575804860144,
          -6.6986215470555965,
          -6.97370082814238,
          -6.8458002225751216,
          0.2414443420563023,
          -9.370217483403755,
          -6.5385127226954545,
          -7.3218528349622645,
          -9.100752033906096,
          0.4514665382161361,
          0.19635043957913828,
          0.3016588645050973,
          -9.340385837487867,
          0.2845785246747643,
          -6.310754400743621,
          -7.8438936011309615,
          -9.421957875030577,
          -6.473876414332751,
          -7.5063206714435955,
          -6.203880963329266,
          -8.657029447028666,
          0.24666495915249934,
          -7.413995049914472,
          0.24921577049618648,
          0.2756050942336707,
          -8.291740421698403,
          -9.275275347368124,
          -8.013651869657894,
          -8.994546756398337,
          -6.281069349138423,
          -6.686136238979162,
          -7.217056103132089,
          0.21405300289866036,
          -6.938405909320106,
          0.38152684032440415,
          0.3221226117802717,
          0.3182309015968488,
          -6.472945332717978,
          -6.573864591286287,
          -9.114674063293343,
          -9.622322708974096,
          -9.375946833916451,
          -7.769099775753676,
          -7.980221171254317,
          -5.804894614730364,
          0.2871066938569608,
          -7.879840130317488,
          -4.168364702886869
        ],
        "bias": -0.04958341555316852
      },
      {
        "weights": [
          -6.77729867361631,
          -7.677727565992579,
          -6.261523000483937,
          0.24268072010768738,
          -7.015047883554449,
          0.5486606336133524,
          0.17785259506042853,
          -6.816358650524446,
          -7.1002436926368295,
          -7.182327716343225,
          -7.749286820323485,
          -6.1382290524885725,
          0.356998334523224,
          0.09903787766916394,
          0.42865639134968436,
          -4.936874759113028,
          -6.940166138199184,
          -6.402038958985249,
          -6.673446630611224,
          -6.576020519628487,
          0.41021994139869106,
          -9.174429706080138,
          -6.3291256687606126,
          -6.989812891248263,
          -8.884128260710566,
          0.5341521920621344,
          0.24553450910414076,
          0.4290252189263394,
          -9.269051104813547,
          0.3199501693955694,
          -6.653930001819688,
          -7.593904272956623,
          -9.216510902331091,
          -6.5062536752092965,
          -7.3786665012731305,
          -6.451567644445872,
          -8.585553390418394,
          0.4027294298489865,
          -7.284212240869906,
          0.29093763229853026,
          0.25308481231941393,
          -8.313383188499559,
          -7.5180819228894435,
          -7.703972607316223,
          -7.944550511829287,
          -6.8103339049881635,
          -6.534702998018987,
          -7.14927878617092,
          0.5047954922399034,
          -6.711079450203953,
          0.3426232853710862,
          0.22617019732432217,
          0.18595581699171176,
          -6.452814821651212,
          -6.442316760018295,
          -8.679040572601071,
          -9.176114702890118,
          -9.834735634211743,
          -7.559909262819513,
          -7.631394344209598,
          -5.516301980116565,
          0.1765552301868578,
          -7.458408120192474,
          -4.598038656299422
        ],
        "bias": -0.1297565932877296
      },
      {
        "weights": [
          -8.229417885752508,
          -8.979746759539946,
          -4.543487838498448,
          -1.0266005451457803,
          -8.259719341206724,
          -1.2071918606955194,
          -1.951721183763761,
          -4.34857842153413,
          -8.614207449840533,
          -8.440870334167391,
          -8.826410873404948,
          -3.463490263233792,
          -0.96431070965867,
          -0.15030550303602813,
          -1.5609652463564145,
          -6.751804135001388,
          -8.335535873450233,
          -3.090892928158796,
          -8.064191427612416,
          -8.066367377326655,
          -0.9514715698784667,
          -8.05782926772153,
          -7.7461770015487925,
          -8.740453330668556,
          -8.81844637370294,
          -0.9916131480606746,
          -2.0606686276780235,
          -0.8951116905718622,
          -8.909397402038058,
          -1.785546670941461,
          -2.510175877408798,
          -8.895996748718858,
          -7.43254078148065,
          -2.1987091684845423,
          -8.830704613499307,
          -1.872759269934067,
          -3.1484686026691944,
          -1.6465395819160293,
          -8.615416148496882,
          -1.8460513804311707,
          -1.9064582550905038,
          -2.6740078786151114,
          -3.1372649413032523,
          -8.813175514886026,
          -5.751340649285211,
          -3.646469146294339,
          -4.410434827437969,
          -5.6166338218032905,
          -0.8006217039162623,
          -8.261123079999486,
          -1.6542331242446575,
          -1.3775588798356364,
          -1.6392173121384648,
          -2.5409340090988795,
          -7.982098022669312,
          -8.940817753797942,
          -5.519789030456108,
          -6.040961070390659,
          -8.871627684321881,
          -8.950309332337714,
          -7.012720696748379,
          -1.813199790160097,
          -8.656892115226942,
          -4.254832812241502
        ],
        "bias": 0.1306215719652191
      },
      {
        "weights": [
          -7.779745459623553,
          -9.339181942224972,
          -4.675471138558128,
          1.197916358440861,
          -7.874712794641401,
          1.1130268602559887,
          -0.08096691294042893,
          -4.682942193853736,
          -8.224017678992347,
          -8.473375061295206,
          -8.93554717889593,
          -4.045622091917182,
          1.0746958642950435,
          0.5899056599050783,
          0.7305478381706448,
          -5.7400091833036,
          -7.90410021472504,
          -6.06535769282577,
          -7.777274536165444,
          -7.3360695502857975,
          1.116867969050674,
          -9.923279909872102,
          -6.843737652970948,
          -8.222591494018326,
          -10.27326029404998,
          1.1975977921669378,
          -0.3729055202548633,
          1.342378227544336,
          -10.365204375437438,
          0.5435769872340431,
          -4.681792213214557,
          -9.115107827819115,
          -6.993540120959371,
          -4.557896082923716,
          -8.586580129577085,
          -4.27027173994698,
          -5.406876891995728,
          0.2894012797218141,
          -8.42913222049345,
          -0.0034842860100778718,
          0.30828139233123164,
          -5.493016764821198,
          -6.632290206066074,
          -9.237924674601492,
          -9.81032654564505,
          -5.167432850784983,
          -4.562932939861393,
          -5.47661371903958,
          1.2612332370347485,
          -7.651676432736822,
          0.4380625727782468,
          0.7444592628710044,
          0.6080242920051496,
          -6.221150595737843,
          -7.203585896995828,
          -9.255322331054627,
          -6.039079114969331,
          -6.026827257950679,
          -8.474936075103802,
          -9.01696917002134,
          -6.021097891570669,
          0.02371733492178685,
          -8.703593464505994,
          -3.687061688698321
        ],
        "bias": -0.9127874519393663
      },
      {
        "weights": [
          -8.050188792909516,
          -9.06195679382617,
          -4.16659697621528,
          1.3575245759528474,
          -7.905042753103477,
          1.350371810188778,
          -0.01487012720497682,
          -4.588272994941355,
          -8.218517980584519,
          -8.543705589438058,
          -8.885689271991804,
          -3.897315226614429,
          1.3252653931849547,
          1.9259810597486977,
          0.9185727271910485,
          -5.641272274388904,
          -7.9475803896670065,
          -6.616671371853931,
          -7.845192380828006,
          -7.3883948346308035,
          1.1383981088846165,
          -9.824502317949824,
          -6.778057607674992,
          -8.329683116515422,
          -10.257167561718314,
          1.261660081214942,
          -0.12553717353289343,
          1.351265200523516,
          -9.89971313385062,
          0.6767478127223199,
          -5.405556734666883,
          -8.93179719461766,
          -6.5686780414973445,
          -4.260262703396193,
          -8.504812111242233,
          -5.2444953535292385,
          -5.032965156621962,
          0.3558484161642013,
          -8.311063251179592,
          0.1556960902567196,
          0.41182281801755277,
          -4.979697883923391,
          -6.492849792686846,
          -8.900424035099668,
          -10.386429943577586,
          -4.50727467474616,
          -4.4377907948143696,
          -5.094836306489682,
          1.3540769624407805,
          -7.86632900907155,
          0.45530083791765297,
          0.8970721487856177,
          0.8726924659169429,
          -6.608871431988957,
          -7.213517387227731,
          -9.14798553590688,
          -5.98079512500416,
          -5.761279304287155,
          -8.547701178963166,
          -8.961507001676567,
          -6.064188618396779,
          0.05689350533805721,
          -8.653748815936593,
          -2.907692816232442
        ],
        "bias": -0.7232062117664282
      },
      {
        "weights": [
          -6.46275520939571,
          -6.8962638313515665,
          -4.646178908677685,
          0.6283332764241439,
          -6.661377232769223,
          0.5233370849296459,
          0.4764217048577908,
          -4.971988660083796,
          -6.604744868271835,
          -6.954905812913691,
          -7.1257070516609256,
          -4.539753473387054,
          0.5752193746326553,
          0.6936250092326562,
          0.728486021710494,
          -4.891278377045428,
          -6.37876570342604,
          -6.134505971902756,
          -6.218765216123409,
          -6.325724990191489,
          0.637426880877834,
          -8.048764915379996,
          -5.4762205346968,
          -6.795826135133466,
          -8.70561646930041,
          0.06457558925356092,
          0.3198800596153523,
          0.6579042517066931,
          -7.5604067258734915,
          0.6167079067488683,
          -5.88702930559459,
          -6.8012743403848965,
          -6.068364126364182,
          -5.053513427783177,
          -6.876510689937872,
          -5.747377467084325,
          -5.833665511814132,
          0.4639626741302718,
          -6.8623371571736955,
          0.6738009105515754,
          0.37057855419753244,
          -6.143158459685334,
          -7.145259078397127,
          -6.951889311891139,
          -8.253486324165614,
          -4.73147693001821,
          -5.009371705399021,
          -4.352453766740231,
          0.6143539249230419,
          -6.381631083893869,
          0.6053070980170926,
          0.520960471247336,
          0.633517991069239,
          -6.190331332213822,
          -6.116764691581491,
          -8.153452043079652,
          -6.2244258933296726,
          -6.556352284590374,
          -7.087811105924221,
          -7.105643708449132,
          -5.274221356136178,
          0.5965895543582244,
          -6.848508176052934,
          -3.091244499479487
        ],
        "bias": -0.027616899238674195
      },
      {
        "weights": [
          -6.733510870785842,
          -7.622635993470597,
          -6.237879578138293,
          0.24010857837446561,
          -7.019697935416904,
          0.4183810345874121,
          0.3436254247774073,
          -6.355828275685368,
          -7.106061114378933,
          -7.123742377723224,
          -7.617347133329476,
          -6.078716281651844,
          0.3375621911318306,
          0.08836935821743909,
          0.40131779408884233,
          -4.974395565138462,
          -6.771220805444078,
          -6.316584658993602,
          -6.633182145517221,
          -6.516979006270558,
          0.3217400346668149,
          -8.871802885397564,
          -6.267121701749819,
          -7.0683374781059936,
          -8.789401310202011,
          0.514179331979699,
          0.16186967296039517,
          0.4462323705579368,
          -9.090809119354708,
          0.23343412235347305,
          -6.389716617132341,
          -7.526055281910016,
          -9.27706666116512,
          -6.442560177157551,
          -7.1401261471117365,
          -6.266105328833725,
          -8.104460831390972,
          0.24811453407481507,
          -7.217006073870744,
          0.14291603610243497,
          0.37090498887314655,
          -7.832814980152389,
          -7.2983701707809825,
          -7.529912754936431,
          -7.675361522628653,
          -6.7948204881456205,
          -6.483088562704186,
          -7.208686089392905,
          0.45997167576414594,
          -6.639926752561702,
          0.3511536838444594,
          0.30053126555329546,
          0.3275337625935421,
          -6.271995731406018,
          -6.312909099010302,
          -8.671728512672784,
          -9.084222829447508,
          -9.333028636729562,
          -7.496879463757955,
          -7.525296098126356,
          -5.4721634475882395,
          0.289531293254155,
          -7.311088407595619,
          -4.5353943758060975
        ],
        "bias": -0.12068897432694418
      },
      {
        "weights": [
          -8.058761598577748,
          -9.191866839886409,
          -4.441368424713064,
          0.07891311120579837,
          -8.06723253102323,
          -0.0017328239449433856,
          -0.870592286633791,
          -4.510309506420708,
          -8.413854589801574,
          -8.629309131730153,
          -9.007369976932669,
          -3.6863823569579437,
          0.06984280548371515,
          0.19895197262680817,
          -0.27586422670707356,
          -6.213870881658537,
          -8.094933864540328,
          -4.83288830761111,
          -8.018267825201008,
          -7.784628733816393,
          0.13440877051040473,
          -9.361421335749203,
          -7.103328881557217,
          -8.453086331088771,
          -9.638184680902055,
          0.16522510266019863,
          -0.9571495852776902,
          0.23343925549780825,
          -10.080690765604016,
          -0.43754825037667083,
          -4.194426707324467,
          -8.966415696414677,
          -6.989919923745808,
          -3.7243117356816597,
          -8.737244971193977,
          -3.8448960389355187,
          -4.515440966551236,
          -0.686447184920873,
          -8.551957455790436,
          -0.7504503880685491,
          -0.7135809866970462,
          -4.493265861014942,
          -5.242561195778533,
          -9.076960530691366,
          -8.1021386784105,
          -4.445968188864878,
          -4.252950985332976,
          -5.330930500175434,
          0.3897410443954389,
          -7.9457184865738215,
          -0.5069999307408802,
          0.02659758472040205,
          -0.4628157174911102,
          -4.351904018813083,
          -7.580321127051155,
          -9.599285909510833,
          -5.634658855940675,
          -5.7145268476450575,
          -8.626036814498299,
          -8.973328248967098,
          -6.570538497128953,
          -0.9134405529605624,
          -8.939195704897191,
          -3.9485419192259092
        ],
        "bias": -0.5681777785235524
      },
      {
        "weights": [
          -6.774294243326246,
          -7.681144722804911,
          -5.883431593263817,
          0.37410465523223235,
          -6.929335630596636,
          0.311247231079507,
          0.14582621708560553,
          -6.651402143347411,
          -7.214257214454976,
          -7.3371145534304505,
          -7.560737867263332,
          -5.9212527207176295,
          0.3590118571002608,
          0.36840364862114044,
          0.3721383704007587,
          -5.044331402339839,
          -6.854599340126055,
          -6.462896160935695,
          -6.667776270317631,
          -6.592163449984032,
          0.14748794665016587,
          -9.118650101698321,
          -6.28314663232496,
          -7.070137963368491,
          -8.797920863840401,
          0.5098409136108463,
          0.1060687538270227,
          0.3093451685840207,
          -8.991937031685817,
          0.22417846634704705,
          -6.076422377762659,
          -7.426943867949519,
          -9.12050476123167,
          -6.192758213706931,
          -7.2632238450410584,
          -6.15907229158379,
          -7.695933082004679,
          0.296017037008318,
          -7.238818921646423,
          0.24929456939672026,
          0.20593476691855778,
          -7.469627285638865,
          -8.649524617509945,
          -7.538534365018466,
          -8.392961962660591,
          -5.867417250121318,
          -6.183671376317208,
          -6.9879071548279725,
          0.3143038503938488,
          -6.668067627508449,
          0.2810600453592623,
          0.37125439531031973,
          0.24413094637827856,
          -6.189682529137198,
          -6.409145838356527,
          -8.610983361532655,
          -8.690121061699585,
          -8.53699182097593,
          -7.560951848314591,
          -7.617637769201918,
          -5.47133275475774,
          0.1416811644943206,
          -7.411615857060177,
          -4.222803839209148
        ],
        "bias": 0.044792694565365984
      },
      {
        "weights": [
          -7.938828471477851,
          -9.233190395122993,
          -4.503057990689641,
          0.5788345080674352,
          -7.796603612052443,
          0.2767500519895572,
          -0.5808596532033578,
          -4.472723417112023,
          -8.35684003828033,
          -8.591849180208191,
          -8.96957805687957,
          -3.8958726785397584,
          0.5419525809503785,
          0.04360457239403988,
          0.07999414672022753,
          -5.9644462161783975,
          -7.844695408144479,
          -5.782930480902865,
          -7.868714176914114,
          -7.542038816391453,
          0.5863915641046318,
          -10.050866142316428,
          -6.754289845556649,
          -8.355574993701154,
          -10.217598697914267,
          0.670812607683468,
          -0.7133705196345157,
          0.524257319596413,
          -10.335352221508073,
          -0.0976412261223639,
          -4.475730084922039,
          -8.99347740875289,
          -6.799876379622896,
          -4.142337511084044,
          -8.766906445989521,
          -4.19527981032232,
          -4.810999527504842,
          -0.2933248951016826,
          -8.526053218052036,
          -0.5365258005976297,
          -0.314143633859833,
          -4.936514901103952,
          -5.800490766533278,
          -9.110279077311935,
          -9.228809048433412,
          -4.532181092882866,
          -4.521136396246431,
          -5.219068022780676,
          0.6149149248284129,
          -7.845208097661149,
          -0.11460573200610233,
          0.3740523005925021,
          0.044237399619627776,
          -5.009480571819324,
          -7.246705625775296,
          -9.54055250318541,
          -5.590972192550447,
          -5.873332793461166,
          -8.593017226827435,
          -8.973933228145368,
          -6.4639764712692305,
          -0.49280374715555614,
          -8.600418783120674,
          -4.0039481449864445
        ],
        "bias": -0.6995529105541463
      },
      {
        "weights": [
          -8.083572205511734,
          -9.149959024819598,
          -4.779938523684125,
          -0.03806789290778184,
          -8.040818718060622,
          -0.13263207772890315,
          -1.1002321864737827,
          -4.7185578764653835,
          -8.454967335337209,
          -8.535620702437768,
          -8.980285804818882,
          -4.106495365722973,
          0.17143577283292843,
          -0.04354002897625259,
          -0.6860044122321619,
          -6.144054137935244,
          -8.232794807340841,
          -4.971884556916836,
          -7.967102890342244,
          -7.797820458821146,
          0.025807534993922215,
          -9.566841097684293,
          -7.209096058049312,
          -8.46192189149865,
          -10.04605580664606,
          0.055957529113667984,
          -1.2099359673438779,
          0.1317626736733369,
          -10.187449433802641,
          -0.7175417406237257,
          -3.976864677331175,
          -8.95856480616141,
          -8.053311159214429,
          -3.5726114863576854,
          -8.738828319108146,
          -3.734388386947838,
          -4.406457368298937,
          -0.9246927644640196,
          -8.557056554373577,
          -1.0032125210288703,
          -0.9519623329663325,
          -4.44590527461723,
          -5.134299001972847,
          -8.875359079188861,
          -8.031705783030798,
          -4.526339660135331,
          -4.6593069580168756,
          -5.586133692090433,
          0.2600569994930145,
          -7.995268795697793,
          -0.6742539339396262,
          -0.39765281687986576,
          -0.5711860511539623,
          -4.437694817327004,
          -7.63778620925038,
          -9.657664819272917,
          -5.916836838635219,
          -6.156082545981387,
          -8.605186062101076,
          -8.865194408912314,
          -6.702121224594405,
          -1.0420813768469932,
          -8.789007541132996,
          -4.3544521452835
        ],
        "bias": -0.5062563248828389
      },
      {
        "weights": [
          -7.930388208534961,
          -9.261311869879995,
