[
  {
    "name": "INP",
    "activation": "ELU",
    "neurons": [
      {
        "weights": [
          0.0034309018750460466,
          -0.01681833223756459,
          -0.026296305535753704,
          -0.05307133798734721,
          -0.05019243299450198,
          -0.06946742613042411,
          -0.06868841523165427,
          -0.0640598492157448,
          -0.06240549370251733,
          -0.06153632359953494,
          -0.06110117364375902,
          -0.060834063881962656,
          -0.06126449562064208,
          -0.06216493624186692,
          -0.06314242092579006,
          -0.06760239434487758,
          -0.06726019200609443,
          2.677264961287918E-4
        ],
        "bias": -6.219845376918662E-5
      },
      {
        "weights": [
          2.3784895747101532E-4,
          -0.0191175652984045,
          -0.03155917360193552,
          -0.06595711336754449,
          -0.062427271904632715,
          -0.08634237555332193,
          -0.08442294903397597,
          -0.07859100059942269,
          -0.07705226362962748,
          -0.0759553891183591,
          -0.07471650367737694,
          -0.07536527063851825,
          -0.07622009473789522,
          -0.07670706473452647,
          -0.07728478146592338,
          -0.0834566393693664,
          -0.08286100264998734,
          1.19888521893737E-5
        ],
        "bias": -8.213221727612411E-5
      },
      {
        "weights": [
          -0.010051743001554973,
          -0.030798596499253147,
          -0.0528494418277597,
          -0.11703108713434199,
          -0.11679737071236916,
          -0.15187984443427735,
          -0.14925246821078625,
          -0.13726527253642992,
          -0.13474985461580727,
          -0.13242369065548226,
          -0.1318450581020088,
          -0.13195276851473497,
          -0.13270932251994558,
          -0.13419394335002843,
          -0.135694774220286,
          -0.1459551705281255,
          -0.14782216552997884,
          -1.0093106510168825E-4
        ],
        "bias": -1.5197174336449427E-4
      },
      {
        "weights": [
          -0.08701366254575185,
          -0.0548764929992362,
          -0.09162971589697815,
          -0.1675492092400189,
          -0.17612139620700368,
          -0.19100140298134377,
          -0.18631560930774435,
          -0.17846807372926804,
          -0.17700801233466815,
          -0.17524321958569675,
          -0.1746684724002471,
          -0.17509039469686985,
          -0.176372738287135,
          -0.1770250818644741,
          -0.17777361927221247,
          -0.18528916514558696,
          -0.18822443789212778,
          1.4738565891191276E-4
        ],
        "bias": -4.1508037925373537E-4
      },
      {
        "weights": [
          -0.008382683402143853,
          -0.027006769330282922,
          -0.0475752703324667,
          -0.10412139667579168,
          -0.10366474717724408,
          -0.13667470467862847,
          -0.13367704219743726,
          -0.12315307963857501,
          -0.12061193784195208,
          -0.11880641824375307,
          -0.11758801945084285,
          -0.11802590563111044,
          -0.11956076099463099,
          -0.12066023360937575,
          -0.1215014028439686,
          -0.13069408328719478,
          -0.13211647029608528,
          3.2617866930635985E-5
        ],
        "bias": -1.339348997380275E-4
      },
      {
        "weights": [
          -0.44753702460306827,
          0.29580921142711913,
          0.25501757738061204,
          0.23291346667881893,
          0.20872333071894078,
          0.2545423797577117,
          0.2629519141864052,
          0.26386625410300585,
          0.26290564017613005,
          0.2634825807835739,
          0.26328603011834484,
          0.2640754269346589,
          0.2643691421021875,
          0.26420947159755004,
          0.26445929143551933,
          0.2627953148560933,
          0.25549117246978587,
          -2.3616337348028666E-4
        ],
        "bias": 0.01408010170905938
      },
      {
        "weights": [
          -0.007412126843870475,
          -0.02689656314680191,
          -0.0462956309925015,
          -0.1023096961730858,
          -0.10045547182830036,
          -0.13397672174721903,
          -0.13075529164723726,
          -0.12100780352194308,
          -0.11807147929013559,
          -0.11619258600917398,
          -0.11542331573491929,
          -0.11566673950547532,
          -0.11703539813207377,
          -0.118399568971026,
          -0.11933226720659652,
          -0.12835959589554172,
          -0.1293520166171393,
          4.237407489116901E-4
        ],
        "bias": -1.3082405046726788E-4
      },
      {
        "weights": [
          -0.08042178301752938,
          -0.050411270172158754,
          -0.08668481008815307,
          -0.16083343063660746,
          -0.16908232648483504,
          -0.18559128277179548,
          -0.18127033866661338,
          -0.17273498257316833,
          -0.17061880468547128,
          -0.16846507742585903,
          -0.16838997137065934,
          -0.16871830027885593,
          -0.16921703510264016,
          -0.17071005652117732,
          -0.1714761800201222,
          -0.1788870399775163,
          -0.18240408563070698,
          4.532311290329403E-4
        ],
        "bias": -3.79881726532379E-4
      },
      {
        "weights": [
          -0.4531420460871706,
          0.29060076671072965,
          0.24920019711350289,
          0.22574916046391516,
          0.20206821400385427,
          0.24946311885344838,
          0.2572312070625902,
          0.2575522705733825,
          0.25762127893073994,
          0.2577516600764739,
          0.2577898026675534,
          0.2575646498354264,
          0.2583422891859154,
          0.2575113415216269,
          0.2574458005845282,
          0.25556324632034,
          0.2489712784888679,
          1.54407219744668E-4
        ],
        "bias": 0.01351196968067044
      },
      {
        "weights": [
          -0.02918946535624689,
          -0.04134003885981286,
          -0.07134101182711095,
          -0.1460858515445116,
          -0.14935447595731013,
          -0.1790226205801453,
          -0.1749324547594427,
          -0.16418943083447146,
          -0.16181745259442545,
          -0.159221191631397,
          -0.15848562403999025,
          -0.15916690309108508,
          -0.15964262955913297,
          -0.16110117311028835,
          -0.16199306364261964,
          -0.1725619365560947,
          -0.17469878783426523,
          -2.3656930558447207E-4
        ],
        "bias": -2.228518869098993E-4
      },
      {
        "weights": [
          -0.003977154652286515,
          -0.029577378393369182,
          -0.05002146575527624,
          -0.10532051755299057,
          -0.10267319632117293,
          -0.13846516561952465,
          -0.13585972430386736,
          -0.12567740704203173,
          -0.1229011318607717,
          -0.12098332224320135,
          -0.12027463544354791,
          -0.12047923926050355,
          -0.12080149127140243,
          -0.12308006216104013,
          -0.12387481492735543,
          -0.1326237748088238,
          -0.13381970043683844,
          -3.1812275633621225E-4
        ],
        "bias": -1.4091582259407852E-4
      },
      {
        "weights": [
          -0.01744542899044955,
          -0.03327357333059882,
          -0.05811421385251772,
          -0.12655502238852281,
          -0.12724880197558686,
          -0.1600829411252895,
          -0.15607507828333816,
          -0.14498562727689784,
          -0.14248579725973867,
          -0.14033565279838864,
          -0.1395947704641935,
          -0.13978969724964205,
          -0.14125268231890983,
          -0.14227823309939308,
          -0.14364012278534957,
          -0.1536341281565011,
          -0.15619552174658802,
          8.516893429566982E-5
        ],
        "bias": -1.704812276747559E-4
      },
      {
        "weights": [
          -0.387235224866433,
          0.33191615695514476,
          0.29421978816186606,
          0.2748506219125652,
          0.2519511725368473,
          0.298371758937817,
          0.3065019256233152,
          0.3074910292098468,
          0.30617631088893477,
          0.306415420171739,
          0.3060494840857896,
          0.3068764044028544,
          0.30682919917113705,
          0.30685892269072945,
          0.3069553989338484,
          0.306425756559839,
          0.29910297639050853,
          -4.2731414285156796E-4
        ],
        "bias": 0.013786024145190999
      },
      {
        "weights": [
          -0.0018301287016390187,
          -0.030123918417491975,
          -0.05082902286776569,
          -0.10564327773460322,
          -0.10193082915088791,
          -0.13774353747148185,
          -0.13585097192252557,
          -0.12588488948280957,
          -0.12381321704644312,
          -0.12123259240010677,
          -0.12037351619782027,
          -0.12029490795672802,
          -0.12116733423523718,
          -0.1233214301224018,
          -0.12370728115836174,
          -0.13326167607042924,
          -0.13317645684573476,
          -2.114402640978877E-4
        ],
        "bias": -1.4393531432777427E-4
      },
      {
        "weights": [
          -0.007780052433703529,
          -0.025823822118565157,
          -0.044737786011925545,
          -0.09739845747885495,
          -0.09663316313431054,
          -0.1289456195609746,
          -0.12548357790825473,
          -0.11557496319829547,
          -0.11339838557325149,
          -0.11191713520979045,
          -0.11062076986559627,
          -0.11087209204538613,
          -0.11186134732732535,
          -0.1132645017651243,
          -0.11437464867696666,
          -0.12276344582786629,
          -0.12394724649352443,
          2.0709348938514665E-6
        ],
        "bias": -1.2428353934853208E-4
      },
      {
        "weights": [
          0.0043941218162910365,
          -0.01518251026300827,
          -0.02461266879344866,
          -0.04770806550067231,
          -0.04424926185076001,
          -0.06274836778237557,
          -0.062082788118359884,
          -0.05790739487243035,
          -0.05686465091498684,
          -0.05570893076908273,
          -0.055444002373957295,
          -0.05581463975199025,
          -0.0556907222363067,
          -0.05601000890236126,
          -0.05657697981459981,
          -0.06130038934634559,
          -0.06072862719661126,
          -2.2501773161247174E-4
        ],
        "bias": -5.136545329824752E-5
      },
      {
        "weights": [
          0.7630483616905588,
          -0.04593179543938551,
          -0.019971433206247113,
          0.00899659228588079,
          0.02632999997642108,
          0.0055213831108663755,
          -5.746997079494096E-4,
          0.0011581143211489833,
          0.0019507460993395361,
          0.0021049978378696525,
          0.002309654465415012,
          0.0021188174286076015,
          0.0023090454628852002,
          0.002367310488301993,
          0.0021273072336654058,
          3.6038218531559096E-6,
          0.006507960608280118,
          1.5039226588508376E-4
        ],
        "bias": 0.02109221090132203
      },
      {
        "weights": [
          -0.4554471796228483,
          0.28813518493868373,
          0.24629279664022088,
          0.2212660256422909,
          0.19904426712534634,
          0.2462116444054364,
          0.2529429277731528,
          0.2548400902209054,
          0.25416797927856327,
          0.2540806040790722,
          0.25435665786533346,
          0.25447404493722814,
          0.2547189311313289,
          0.25455526175842624,
          0.2547030650560468,
          0.25316798362506654,
          0.24723020159696332,
          -6.380349261994085E-5
        ],
        "bias": 0.013925082409653147
      },
      {
        "weights": [
          -0.4421380534202556,
          0.30192089667661215,
          0.26032393107717405,
          0.23757805799331155,
          0.21511025503504586,
          0.26066811804074747,
          0.26822543014348627,
          0.26987244969360635,
          0.2681518929261532,
          0.2692168201643584,
          0.2689653063893024,
          0.26913988661314436,
          0.26952914050949284,
          0.2695475485500848,
          0.2698889544189178,
          0.2689192666029312,
          0.26135145885714467,
          5.666518799288054E-5
        ],
        "bias": 0.014722393036158837
      },
      {
        "weights": [
          -0.43437344981698,
          0.3052422988325023,
          0.26384588949098714,
          0.23984618407128866,
          0.21760690260136878,
          0.2653617062462921,
          0.2720648689742852,
          0.2735221068251925,
          0.27320161073356714,
          0.2733926323368447,
          0.27317134781112196,
          0.27312452369386053,
          0.2732518501613135,
          0.2736566548811269,
          0.27295006507375497,
          0.27217644907974836,
          0.2643537518445605,
          -5.019749767615171E-4
        ],
        "bias": 0.014519033225498367
      },
      {
        "weights": [
          0.2780704461039035,
          0.427086901436244,
          0.49087262929253844,
          0.5563359148401991,
          0.5562582071714918,
          0.5746368962261839,
          0.5753286342945639,
          0.5707191499777596,
          0.5693405474992774,
          0.5684899625325783,
          0.5690837700021173,
          0.5698290128436698,
          0.5701517721751588,
          0.5719141847554626,
          0.571870007354623,
          0.5757804723251273,
          0.5749740268248176,
          1.461565234740828E-4
        ],
        "bias": 0.007759075641396657
      },
      {
        "weights": [
          -0.11418220428135241,
          -0.07381444751904427,
          -0.11539197533245207,
          -0.1914131456813981,
          -0.20208217670534195,
          -0.21219058568176719,
          -0.2076478927640074,
          -0.20085863343289712,
          -0.199620056685143,
          -0.1974899022918702,
          -0.1969902482357477,
          -0.19833847009117908,
          -0.19809402374808788,
          -0.1997712018083903,
          -0.20001262764696645,
          -0.2070107040908993,
          -0.2109108371157865,
          -1.709794047449297E-4
        ],
        "bias": -5.796979734633166E-4
      },
      {
        "weights": [
          -0.03825436003651895,
          -0.04351292606218963,
          -0.07533248322377814,
          -0.1512159418221673,
          -0.15553383798241965,
          -0.18292125527070882,
          -0.17895037220725266,
          -0.16825358954701597,
          -0.1653476157975559,
          -0.16341317954635318,
          -0.16284202542489662,
          -0.1630510923056583,
          -0.1639805027399517,
          -0.16589164686116234,
          -0.16656601368544433,
          -0.17664623235756796,
          -0.17846227531785197,
          -1.1327177046176275E-5
        ],
        "bias": -2.473799077778209E-4
      },
      {
        "weights": [
          -0.01605163026821004,
          -0.034649333494131324,
          -0.06113074611589363,
          -0.13053009995330597,
          -0.1318227811935505,
          -0.16623836769712677,
          -0.16263478320347044,
          -0.15054475368786385,
          -0.14810225189225,
          -0.1456407643371162,
          -0.14481783950981977,
          -0.14552143295945433,
          -0.14657553446414592,
          -0.14810246138024735,
          -0.14928121158415927,
          -0.1591085293786596,
          -0.16083614288563125,
          5.401703263296308E-4
        ],
        "bias": -1.7603547057894647E-4
      },
      {
        "weights": [
          -0.023872074645107343,
          -0.0408571245342971,
          -0.07113934904122272,
          -0.14722985517965695,
          -0.15023958741552185,
          -0.18136366295124667,
          -0.17714477840560286,
          -0.16636919779639303,
          -0.16403904492500054,
          -0.16150115086703673,
          -0.1605573784195924,
          -0.16126246941432854,
          -0.161775094567617,
          -0.1638901428928403,
          -0.16500392042329698,
          -0.17515495261012168,
          -0.17741726750962242,
          -3.803431202316985E-4
        ],
        "bias": -2.1556266726040357E-4
      },
      {
        "weights": [
          -0.009691761174640616,
          -0.030237721542178093,
          -0.052688794717730275,
          -0.11549921586196589,
          -0.1154728802188302,
          -0.1499892982370681,
          -0.14653367465736666,
          -0.13581771862043568,
          -0.1333106527466842,
          -0.1303265695913924,
          -0.12943726578422463,
          -0.12968956988929173,
          -0.1307500187426383,
          -0.1325082341234945,
          -0.13318611359723534,
          -0.14359158065345826,
          -0.14579512123932886,
          -5.10192631474261E-4
        ],
        "bias": -1.485894400087446E-4
      },
      {
        "weights": [
          -0.0017635621385834418,
          -0.029658225727105067,
          -0.04994795633265516,
          -0.10423126407592953,
          -0.1010083582170927,
          -0.1366755016057029,
          -0.13486437579483274,
          -0.1254172044608657,
          -0.12238211778971785,
          -0.12051853859520303,
          -0.11921077879850199,
          -0.12006202781957998,
          -0.12047599665958945,
          -0.12234680700459254,
          -0.12316514659187212,
          -0.13200552860697268,
          -0.13240715940810074,
          5.132019998672471E-4
        ],
        "bias": -1.4124750988871274E-4
      },
      {
        "weights": [
          0.002799628543733929,
          -0.016877189826518348,
          -0.026150958427287443,
          -0.052886544105361116,
          -0.049425907239933425,
          -0.0704054137163184,
          -0.06861963977954545,
          -0.06444522907441014,
          -0.06281718821072187,
          -0.06160802228571366,
          -0.061109865045834155,
          -0.06171330621805569,
          -0.06198854930019382,
          -0.0625775415068248,
          -0.06345502330972394,
          -0.06730279222494914,
          -0.06731267865361683,
          -5.920059141686245E-5
        ],
        "bias": -6.115134124128504E-5
      },
      {
        "weights": [
          -0.43113169002530166,
          0.3083948086490948,
          0.26791696949866245,
          0.24469387305048765,
          0.2218528211053215,
          0.2685374073641207,
          0.2764957445883887,
          0.27760892249602875,
          0.27797311007873043,
          0.27791870076901687,
          0.27766935047744196,
          0.2769002862925643,
          0.27805356201802217,
          0.2771308845466007,
          0.2770999328672296,
          0.2756794230504191,
          0.26834749936721897,
          -6.581396608888246E-5
        ],
        "bias": 0.014602170216733837
      },
      {
        "weights": [
          -0.010105045106039936,
          -0.02862708340812932,
          -0.04986201083068059,
          -0.11022111753707832,
          -0.10975836300975164,
          -0.14361457961808272,
          -0.14038269253401653,
          -0.12948128595032748,
          -0.12738362750321616,
          -0.12474531484660607,
          -0.12370476921829206,
          -0.12445945191229106,
          -0.12501037197322143,
          -0.12649999407242501,
          -0.1278811643450404,
          -0.1373108707883114,
          -0.13877107028287142,
          -5.261025670211857E-4
        ],
        "bias": -1.4268365827894806E-4
      },
      {
        "weights": [
          -0.0490174823474296,
          -0.04393845816443756,
          -0.07696300802942836,
          -0.15202888739933879,
          -0.1574232302369315,
          -0.18144193690991298,
          -0.1767446303851222,
          -0.1674321221483044,
          -0.1645504598975171,
          -0.16256187205238026,
          -0.16224221421673,
          -0.1621608449165006,
          -0.1634866565370675,
          -0.16487359889345665,
          -0.1656070981650903,
          -0.1750813439242853,
          -0.17753824340043878,
          -1.2053504160602137E-4
        ],
        "bias": -2.7061465169970074E-4
      },
      {
        "weights": [
          -0.08650046204017102,
          -0.05496306076100795,
          -0.09040737305913503,
          -0.16614336121443046,
          -0.174873446477639,
          -0.19059818511379678,
          -0.18594549673317742,
          -0.17760686231845102,
          -0.17620344943938568,
          -0.17424258334499745,
          -0.1739997160961542,
          -0.17412474423365865,
          -0.17489272562125013,
          -0.17564616523652266,
          -0.17637041234050665,
          -0.18419377045869972,
          -0.1875921654615753,
          -4.822628917519259E-4
        ],
        "bias": -4.0596193901510725E-4
      },
      {
        "weights": [
          -0.037999962020940845,
          -0.04405646868449908,
          -0.07616268261474414,
          -0.1519208969378507,
          -0.15636616982467913,
          -0.18365616168441118,
          -0.17936452507900522,
          -0.16917037252117242,
          -0.16586047702875864,
          -0.16457498161085163,
          -0.16344103599162732,
          -0.16375953953303596,
          -0.16485068977073758,
          -0.16613967839827684,
          -0.16741290863401234,
          -0.17701791052166088,
          -0.17968410933956835,
          3.4766368630768785E-5
        ],
        "bias": -2.458060528492375E-4
      },
      {
        "weights": [
          -0.00362662063527407,
          -0.02927703512911339,
          -0.04989512901645566,
          -0.10669520008532969,
          -0.10407304193231047,
          -0.1390398856530064,
          -0.13628468007362313,
          -0.1264795976205627,
          -0.12410824584523057,
          -0.1212755158642759,
          -0.12093536184466526,
          -0.12104979842871529,
          -0.12206958250185349,
          -0.12337358035586297,
          -0.124477105789693,
          -0.13424031542748338,
          -0.13501135797150288,
          4.3707665754500694E-4
        ],
        "bias": -1.4211610588363229E-4
      },
      {
        "weights": [
          -0.0056882814805266114,
          -0.024307271470122925,
          -0.04269740300762877,
          -0.09201085881300423,
          -0.09067923074607005,
          -0.12103970873566772,
          -0.11839206824404365,
          -0.10951588967939314,
          -0.10702649769538046,
          -0.10546844974685171,
          -0.10543389137918975,
          -0.1052588331086852,
          -0.10533338124041142,
          -0.10720933735993467,
          -0.10802256802755464,
          -0.11693351782115582,
          -0.11713038153645716,
          2.038266299163719E-4
        ],
        "bias": -1.1637356541305109E-4
      },
      {
        "weights": [
          -0.0037935192787898627,
          -0.029373200369560933,
          -0.04964073331787867,
          -0.1062551279496529,
          -0.10373056421659975,
          -0.13893365049084613,
          -0.13635070398989074,
          -0.12681579245817035,
          -0.12377190768833408,
          -0.12197015137639744,
          -0.12105677586883659,
          -0.12070388779987022,
          -0.12257360125112483,
          -0.12348985800092928,
          -0.12458337185969216,
          -0.13462008807236273,
          -0.13454041543154313,
          -5.566630211970649E-4
        ],
        "bias": -1.4302848536349293E-4
      },
      {
        "weights": [
          -0.0038493713247152606,
          -0.029554861723177835,
          -0.050165412284930946,
          -0.10658714305263235,
          -0.10399490188256734,
          -0.13976907666810517,
          -0.13713229839738805,
          -0.12699457213936943,
          -0.12438640739379472,
          -0.1222609992740663,
          -0.121089881161224,
          -0.12150231090461407,
          -0.1224981427584939,
          -0.12383425525129273,
          -0.12509645288309285,
          -0.13498227197581553,
          -0.13505225263644474,
          -1.266375030057159E-4
        ],
        "bias": -1.4317591113677136E-4
      },
      {
        "weights": [
          -0.4362985144863622,
          0.3019426919223154,
          0.2615106356857268,
          0.23937608097311694,
          0.21567321545153503,
          0.262063321123067,
          0.2695521181912269,
          0.2708752208703714,
          0.27037581969482166,
          0.270082121339386,
          0.26998607468414915,
          0.2701785110911564,
          0.27030565194223694,
          0.2702694446619721,
          0.2703309965140061,
          0.26907163764479913,
          0.261722571120121,
          -3.5315453141799056E-4
        ],
        "bias": 0.014174044226363784
      },
      {
        "weights": [
          -0.2998531924519817,
          -0.0609810070676492,
          -0.08935161372469208,
          -0.13671414463985246,
          -0.15027097704144923,
          -0.14367690002879843,
          -0.13932527068042205,
          -0.1365301849444067,
          -0.13649576628146892,
          -0.1355248067529631,
          -0.13607313455549946,
          -0.1361010130149623,
          -0.13609978826213243,
          -0.13654827523507274,
          -0.1373121757913182,
          -0.13969913429831693,
          -0.1437562821473856,
          -2.9961181532433803E-5
        ],
        "bias": -0.002556240619947764
      },
      {
        "weights": [
          -0.038135805646820516,
          -0.04395747237544883,
          -0.07522879414852379,
          -0.15118428107728296,
          -0.15540303241768194,
          -0.18325902569216232,
          -0.17928893571870097,
          -0.16816920863993978,
          -0.16620188789563764,
          -0.16358721157885828,
          -0.16276328111871133,
          -0.16326961814246496,
          -0.16401871678321267,
          -0.1657254570416031,
          -0.16650529391323102,
          -0.17613466899859945,
          -0.1792271079126637,
          -1.799840687130627E-4
        ],
        "bias": -2.467907398943975E-4
      },
      {
        "weights": [
          0.004678491126227376,
          -0.03250732312849956,
          -0.05004940671937098,
          -0.09603077271794801,
          -0.09100606951423489,
          -0.12630947803142414,
          -0.12594213198247078,
          -0.11779349296506433,
          -0.11578810612817278,
          -0.11433797536651562,
          -0.11355706394036212,
          -0.11346626549301952,
          -0.11451289511229362,
          -0.11523997630066878,
          -0.11575487521840609,
          -0.12438452172212948,
          -0.12315429771552121,
          -1.1518117780947315E-4
        ],
        "bias": -1.4033118555390953E-4
      },
      {
        "weights": [
          -0.04523122632042531,
          -0.04874150124557787,
          -0.08235974575045407,
          -0.16033389221972216,
          -0.16604302443558228,
          -0.19145925194533722,
          -0.18681534789695356,
          -0.17710508749419368,
          -0.17453278622330123,
          -0.1725462739128668,
          -0.17144919796596053,
          -0.17233625735152217,
          -0.17344879354602774,
          -0.17462298681606608,
          -0.17557303247022446,
          -0.18549306605858984,
          -0.1880210111375374,
          -4.4813951855977785E-5
        ],
        "bias": -2.777681085651045E-4
      },
      {
        "weights": [
          -0.06801292646760614,
          -0.05628304362347337,
          -0.09376478804772745,
          -0.1727990296037622,
          -0.18045077776369897,
          -0.19941391181672816,
          -0.1945821753793843,
          -0.18575214320735542,
          -0.1842365641814649,
          -0.1822462029888136,
          -0.18175532344249593,
          -0.18256605641528345,
          -0.18320170578742595,
          -0.18457656742628037,
          -0.18549503687878657,
          -0.19347692042274975,
          -0.1966823163305235,
          3.053784554837059E-4
        ],
        "bias": -3.578817768700829E-4
      },
      {
        "weights": [
          -0.40793466079955515,
          0.31933655446963827,
          0.282194058950187,
          0.26038476205132244,
          0.2366478303062161,
          0.2842148986860341,
          0.291512001364574,
          0.29182859665746164,
          0.29111492778406634,
          0.2920057834845305,
          0.2910654130830182,
          0.2913253359431071,
          0.2922290882503237,
          0.2907515513636222,
          0.2913806789966629,
          0.2904746784087365,
          0.28312421431722834,
          7.878510560858751E-5
        ],
        "bias": 0.014234599662548673
      },
      {
        "weights": [
          -0.05860989251550644,
          -0.04901644482722699,
          -0.08513476017190544,
          -0.16158964412884108,
          -0.1684087686139588,
          -0.1893942885021411,
          -0.1848017878855778,
          -0.17533385535664284,
          -0.17377463703647,
          -0.17151058291874371,
          -0.17056897602642157,
          -0.17146584364655568,
          -0.1720722656413074,
          -0.17357837405942791,
          -0.17499963993635448,
          -0.183392410381856,
          -0.18609774069075544,
          1.4226205603428297E-4
        ],
        "bias": -3.139142559710016E-4
      },
      {
        "weights": [
          -0.006077990917234893,
          -0.026430159873443243,
          -0.04569399272971226,
          -0.09955656209117311,
          -0.09813660108544786,
          -0.13068104856636112,
          -0.12772594504444218,
          -0.11775881850381245,
          -0.1158306494015175,
          -0.11356179571534526,
          -0.11254605074421668,
          -0.11311650266976184,
          -0.11375033991920673,
          -0.11564386786989408,
          -0.1164872352549946,
          -0.12548526427106724,
          -0.12689653820874483,
          2.128128640194295E-4
        ],
        "bias": -1.2604408392190235E-4
      },
      {
        "weights": [
          -0.44945356057393676,
          0.291808420047814,
          0.25065150591147267,
          0.2267021017649889,
          0.20335583445069197,
          0.25019250478537075,
          0.25853587568937175,
          0.25988087977460317,
          0.25930381163239724,
          0.2592659545883102,
          0.26032108344587684,
          0.2597354462472725,
          0.26008941620793835,
          0.2597651097997423,
          0.25935241905816125,
          0.257898105776323,
          0.2512416545205385,
          1.604472457703483E-4
        ],
        "bias": 0.013940763433262903
      },
      {
        "weights": [
          0.0010202496889682982,
          -0.01911085199840587,
          -0.03155861356171867,
          -0.06470701306973803,
          -0.06161142552496659,
          -0.08503252938456383,
          -0.08324345378796068,
          -0.07706897384199762,
          -0.07548918797936208,
          -0.07453218125320517,
          -0.07378271591231167,
          -0.07455743868043166,
          -0.07491398750756079,
          -0.074616235120604,
          -0.07620759969921712,
          -0.08149845683605175,
          -0.08218643267613168,
          -1.6516969487839972E-4
        ],
        "bias": -7.797643464468906E-5
      },
      {
        "weights": [
          -0.0519933369024309,
          -0.05341032850637893,
          -0.08944272015305979,
          -0.16917400307596864,
          -0.1753066261030344,
          -0.19865937482474869,
          -0.194288423988495,
          -0.18425760259149848,
          -0.1820222425648783,
          -0.1799624221511871,
          -0.179744639016735,
          -0.18008796408699781,
          -0.18042377026280484,
          -0.18179929969864808,
          -0.18321415723321388,
          -0.1926283679587163,
          -0.1950717320282245,
          5.6888747213967554E-5
        ],
        "bias": -3.0707472757863195E-4
      },
      {
        "weights": [
          -0.04727037586122438,
          -0.04610711238894119,
          -0.07988135957848103,
          -0.15667746648109682,
          -0.16264799482137854,
          -0.18585757209386802,
          -0.18246866336528336,
          -0.17224910157116877,
          -0.1694955002663226,
          -0.16747997968536804,
          -0.1668593454716385,
          -0.16737270267367868,
          -0.16839858020126078,
          -0.16936573883494502,
          -0.17091188124095236,
          -0.17978233558857087,
          -0.18251851375315692,
          5.092423499700404E-4
        ],
        "bias": -2.787689630664053E-4
      },
      {
        "weights": [
          0.010270476001368418,
          -0.03420924802188816,
          -0.049871211833848884,
          -0.0901804600157088,
          -0.08362764324294976,
          -0.11900364115477267,
          -0.11899230586391524,
          -0.1121909719737444,
          -0.11076420061161152,
          -0.1085993659165175,
          -0.10839611753836105,
          -0.10863347873419227,
          -0.10934683461745545,
          -0.1099035839631358,
          -0.11120255268835551,
          -0.11789797940724621,
          -0.11644760453380382,
          -1.673613247424823E-5
        ],
        "bias": -1.3902269263548397E-4
      },
      {
        "weights": [
          0.01035569852370717,
          -0.009468420726271585,
          -0.013142463690713833,
          -0.020974629338739236,
          -0.01687257610283663,
          -0.02886356675275166,
          -0.029762945076869045,
          -0.027576332974433664,
          -0.027645131157854247,
          -0.026555193712311083,
          -0.026686346497785406,
          -0.026770453680753106,
          -0.026382647402380503,
          -0.02679925440629294,
          -0.027383042899577433,
          -0.029045962959262338,
          -0.027639586960266724,
          -4.1781137108309164E-4
        ],
        "bias": -1.1831516562862578E-5
      },
      {
        "weights": [
          -0.03994029043230624,
          -0.04567097492994793,
          -0.07824870101124062,
          -0.15372681887763703,
          -0.15892911374585555,
          -0.18520247939082296,
          -0.1809070421791699,
          -0.17032373686629473,
          -0.16835042961289098,
          -0.16635524168977758,
          -0.1656545896054768,
          -0.1655751937248358,
          -0.1676056984606929,
          -0.16792999220947524,
          -0.16966796150167274,
          -0.17868964440155405,
          -0.18142568164270043,
          -1.3183118042054936E-4
        ],
        "bias": -2.545204171493121E-4
      },
      {
        "weights": [
          -0.42832213976098404,
          0.3059839633477004,
          0.2672211667789924,
          0.24296689950087996,
          0.2209250830168318,
          0.2675529099697876,
          0.2756652862523392,
          0.2763207087575117,
          0.27603223685022493,
          0.2753507546824378,
          0.2763248392011702,
          0.2759320334099258,
          0.2762335750643253,
          0.27649730526123467,
          0.2757463744577105,
          0.27542517462987914,
          0.2675896363813626,
          -1.8581614605192202E-4
        ],
        "bias": 0.013576905786374554
      },
      {
        "weights": [
          -0.017966533488781095,
          -0.03266725470581023,
          -0.05832278836229008,
          -0.1256943239128668,
          -0.12667287701144675,
          -0.15961231975183698,
          -0.1550820742899212,
          -0.14477841820929932,
          -0.14228633698911217,
          -0.13970751292072137,
          -0.13902967247036413,
          -0.13992752043804788,
          -0.1401877430576363,
          -0.14248284728266233,
          -0.14303655920106037,
          -0.15342044944086272,
          -0.15470753450963126,
          1.5949427251611874E-4
        ],
        "bias": -1.6943897852155908E-4
      },
      {
        "weights": [
          -0.4429820091488791,
          0.2977075798298179,
          0.25711961527785776,
          0.2324302999425392,
          0.21014010510796977,
          0.2573688519869025,
          0.26436833593506265,
          0.26554292417636616,
          0.26552516265902015,
          0.2657970412502857,
          0.2657929808569555,
          0.26499840843430755,
          0.2659540258119519,
          0.26593509307595165,
          0.26644558787702866,
          0.2650654539980799,
          0.25774988816454425,
          -3.677608850394818E-4
        ],
        "bias": 0.01446484352223406
      },
      {
        "weights": [
          -0.01114635034484374,
          -0.030795953905919684,
          -0.053511245951938895,
          -0.11604867222414215,
          -0.11636887068746482,
          -0.15068023398882896,
          -0.1469557731411012,
          -0.13614473628005158,
          -0.1330327966343258,
          -0.13153593478852152,
          -0.13016648416613774,
          -0.1307760804894427,
          -0.13200919260213365,
          -0.1329971427478944,
          -0.13479985416873766,
          -0.1448503348510904,
          -0.146411100062838,
          3.291908660201483E-4
        ],
        "bias": -1.501564974240921E-4
      },
      {
        "weights": [
          -0.008491674189887072,
          -0.02722224688278453,
          -0.047277941535077056,
          -0.10464394867459903,
          -0.10424350553885198,
          -0.13716991137382858,
          -0.133958447980848,
          -0.12390780749241781,
          -0.12154062053766689,
          -0.11912596573340496,
          -0.11905581463261568,
          -0.1179897530948219,
          -0.11954958045528263,
          -0.12049699126197966,
          -0.12216582922463066,
          -0.13133860827145696,
          -0.1322089504865845,
          1.879178343697503E-4
        ],
        "bias": -1.3305626392207538E-4
      },
      {
        "weights": [
          -0.0016455790370666803,
          -0.02995733298234965,
          -0.049698705241417195,
          -0.10382440717445023,
          -0.10015829679113357,
          -0.1360337448863016,
          -0.1338426696288122,
          -0.12407959833882629,
          -0.12215913271791408,
          -0.11998244008795528,
          -0.11924958706780232,
          -0.118729334739436,
          -0.12018647126399347,
          -0.12210986147601761,
          -0.12266658114519073,
          -0.1317024861151566,
          -0.1319427887622453,
          4.579741185785793E-4
        ],
        "bias": -1.423386705678993E-4
      },
      {
        "weights": [
          -0.4518119355274418,
          0.29223042471514143,
          0.25210637971872035,
          0.22875383353049952,
          0.20568266263992632,
          0.25176834492965416,
          0.2582456335111894,
          0.25964646043236933,
          0.2595746581606796,
          0.26000220179372696,
          0.2596953232827516,
          0.25972895410960395,
          0.259874806073731,
          0.2595874597583785,
          0.2597407357392656,
          0.25846794820190094,
          0.2512407379703921,
          -3.6971163951290914E-5
        ],
        "bias": 0.01457750663949311
      },
      {
        "weights": [
          0.007729329203744237,
          -0.01144477988452058,
          -0.017479353357850717,
          -0.03214516809125654,
          -0.027617268938782375,
          -0.04272665686916767,
          -0.04355462096718238,
          -0.04043374450599189,
          -0.039074201877294525,
          -0.03892087578610984,
          -0.038540422441820606,
          -0.038024485374855706,
          -0.039275321236920534,
          -0.0387698436128473,
          -0.039492775706368215,
          -0.04182450382942643,
          -0.04168318690777099,
          5.1248728578196886E-5
        ],
        "bias": -2.533633056432102E-5
      },
      {
        "weights": [
          -0.44042459668699824,
          0.29984872958223185,
          0.25949387466297075,
          0.23694073075569397,
          0.21346383046178202,
          0.2608189495084732,
          0.2686199895373347,
          0.26993392769104374,
          0.2689970336150667,
          0.26912176480627303,
          0.2693256359759799,
          0.26867383616252216,
          0.2691837476965847,
          0.26894157265463625,
          0.2689044887876819,
          0.2680675169378458,
          0.2602584753883817,
          6.063548429686296E-4
        ],
        "bias": 0.013204392603036246
      },
      {
        "weights": [
          -0.0921224070952873,
          -0.05981317770068826,
          -0.09879051737030387,
          -0.17591921075462003,
          -0.18529077165489494,
          -0.19878140076759113,
          -0.1948330603464803,
          -0.18670682605901945,
          -0.1846328876656918,
          -0.1831021104769062,
          -0.1823081402576603,
          -0.18360160701166797,
          -0.1836139198240768,
          -0.18478145184105835,
          -0.1849329876436359,
          -0.19334768389169146,
          -0.19616632083666175,
          -3.7244609280588257E-4
        ],
        "bias": -4.5656284410298086E-4
      },
      {
        "weights": [
          -0.4598881176783884,
          0.2826692709465421,
          0.24228171039199253,
          0.2184704843324485,
          0.19464330814872013,
          0.24135835535866004,
          0.24849111291949516,
          0.25018256251035514,
          0.24954163863977885,
          0.24983052959810584,
          0.24936327500680353,
          0.24993378979074102,
          0.24955596516762948,
          0.24891628726101864,
          0.2494650877124406,
          0.2485207293092684,
          0.24086197946688068,
          2.5015649523656613E-4
        ],
        "bias": 0.013203302675185867
      },
      {
        "weights": [
          -0.4479410081459907,
          0.2992156887643762,
          0.2567748363328388,
          0.23326002403017349,
          0.21054831369997878,
          0.25709693600813655,
          0.26491370604467146,
          0.2660432336719166,
          0.2660347708986962,
          0.26598717112245884,
          0.26636129553703236,
          0.2659590329663452,
          0.2668902027321545,
          0.2658353828328225,
          0.2658158780530745,
          0.2646128845394317,
          0.2571893050543492,
          -7.990902678057493E-5
        ],
        "bias": 0.015045085359126617
      },
      {
        "weights": [
          -0.007020589098581888,
          -0.025593846771039718,
          -0.044431286888576095,
          -0.09650485007679008,
          -0.09542020340992495,
          -0.12662095023856274,
          -0.12401233556481536,
          -0.1137588252668069,
          -0.11192254084415071,
          -0.1101437877769946,
          -0.1089000212593538,
          -0.109616019059047,
          -0.11059128374315123,
          -0.1119175828702476,
          -0.11326739298617491,
          -0.12163081054020397,
          -0.12213244871239701,
          -2.4507713595822294E-4
        ],
        "bias": -1.2215325809411485E-4
      },
      {
        "weights": [
          0.015492455822611282,
          -0.0048240316843358695,
          -0.004446543607703284,
          -0.0035179965314889212,
          0.0015291424685231153,
          -0.008378650356281015,
          -0.008753567559397884,
          -0.008153410415683331,
          -0.008183496689746736,
          -0.007860305918126594,
          -0.007473101402167442,
          -0.007244271537465185,
          -0.007906436358010612,
          -0.007851403025636201,
          -0.00794965465444546,
          -0.008283409589653911,
          -0.007526462138993276,
          1.071111381438911E-6
        ],
        "bias": 2.3176333357526096E-5
      },
      {
        "weights": [
          -0.003238582425279014,
          -0.029375088834396452,
          -0.049527699881953546,
          -0.1056383106868536,
          -0.10289519526995868,
          -0.13833792210757354,
          -0.13573892531924087,
          -0.12576741506700265,
          -0.12373924236291757,
          -0.12114540535462509,
          -0.12038735852391907,
          -0.12044695673501048,
          -0.12178776477670207,
          -0.12293520886216971,
          -0.12428213711119859,
          -0.1333767720679467,
          -0.13419210801631729,
          -8.148244141462526E-5
        ],
        "bias": -1.4320912330177582E-4
      },
      {
        "weights": [
          -0.46615118208856815,
          0.27990764890246767,
          0.2374809848975018,
          0.21240807821580193,
          0.1895223156459475,
          0.2370292076918342,
          0.24379930409976888,
          0.24531670986506762,
          0.24565372730076013,
          0.24561208501217086,
          0.2457718110502016,
          0.2450210967737698,
          0.2456922189091625,
          0.24512953952549932,
          0.24568232265693926,
          0.24398638556156346,
          0.23652076740633107,
          3.5569146608026037E-4
        ],
        "bias": 0.013165540473455131
      },
      {
        "weights": [
          0.4691163486881639,
          0.21782559990264141,
          0.26508353294602316,
          0.311305195436839,
          0.32720113150096786,
          0.3094533309861732,
          0.30491504325384666,
          0.30292203727926054,
          0.303482797358591,
          0.30344519566524114,
          0.3036896493335413,
          0.3039984840895228,
          0.3044889979471707,
          0.30515360341203535,
          0.305849592680378,
          0.3074175024430438,
          0.3120126597909717,
          4.3039849971461866E-4
        ],
        "bias": 0.009084563143645252
      },
      {
        "weights": [
          -0.11641803121556653,
          -0.07542497584348477,
          -0.11740876939090403,
          -0.1943764024307721,
          -0.20420372136116763,
          -0.21407250944851022,
          -0.20952960449508673,
          -0.2026336973076431,
          -0.20106295086507817,
          -0.20023323730336112,
          -0.19980630983860972,
          -0.20051646638398915,
          -0.20106111626426768,
          -0.20237131595007257,
          -0.20253033549732133,
          -0.20899951928778632,
          -0.21246725583104037,
          4.5896111337797517E-4
        ],
        "bias": -5.999141825980326E-4
      },
      {
        "weights": [
          -0.4619581587524486,
          0.2880609409360374,
          0.24482119603429578,
          0.22125622704447195,
          0.19724034380462227,
          0.2444549682169379,
          0.2524849862914941,
          0.2538891209521776,
          0.2533776972080938,
          0.2536755120925734,
          0.2538410717280906,
          0.2537605701899246,
          0.2535420390008731,
          0.25314380158757527,
          0.25381831315842013,
          0.25220789746832234,
          0.24483983075535587,
          6.416523304849012E-4
        ],
        "bias": 0.013493959375545615
      }
    ]
  },
  {
    "name": "H1",
    "activation": "ELU",
    "neurons": [
      {
        "weights": [
          0.002621129498098596,
          0.004243102861463143,
          0.006646535601383321,
          0.01564252824575974,
          0.006426972464284554,
          0.00825636454165289,
          0.006354083517632993,
          0.014034155082096187,
          0.00842434471791258,
          0.009490718369967621,
          0.005757039058644286,
          0.00707550391252116,
          0.006196888332669105,
          0.005360136547193881,
          0.0059628208449378,
          0.002111078093101123,
          -0.38510797864443924,
          0.008415319387282795,
          0.00839083454740514,
          0.007711004506788672,
          -0.0010298484383109519,
          0.02148490663217616,
          0.010450677026603695,
          0.007483985046844885,
          0.009586895505217652,
          0.006430578059899149,
          0.005552307243763158,
          0.002984329744422352,
          0.007309353620410336,
          0.006991082885973176,
          0.010777156481798394,
          0.015191408343258923,
          0.010563366990183015,
          0.005870528938883539,
          0.005842731705219892,
          0.005753443983886561,
          0.0058080616759896815,
          0.008092070857712973,
          0.049744655255505685,
          0.01043667060333061,
          0.003974920267851225,
          0.011758886066615739,
          0.01476029472721385,
          0.007009482404902958,
          0.012744578912108477,
          0.0061117625318356916,
          0.008385518457954598,
          0.004069464475328456,
          0.01338815166999048,
          0.011464949292784023,
          0.0025219818564547795,
          -3.251341522111234E-4,
          0.010767123177905997,
          0.007503748981738173,
          0.007262251584278603,
          0.008116917112679724,
          0.006618149115560672,
          0.006463297285652384,
          0.005238020652406343,
          0.008582500100755935,
          3.4344089686461104E-4,
          0.007875191739439234,
          0.017102469074409505,
          0.008467331537286283,
          0.00863683545798581,
          0.005925272016650619,
          -0.00435148978705556,
          0.005355049063420955,
          0.008531342581629821,
          -0.004763980435145784,
          0.021980641258952955,
          0.008595659546635452
        ],
        "bias": -0.009582939131020592
      },
      {
        "weights": [
          0.0028121262168206568,
          0.0041010351102514445,
          0.007815241702907712,
          0.017154616970603092,
          0.006702405441268034,
          0.0074798093298247305,
          0.006677376757380026,
          0.01536269390223438,
          0.007418803668267145,
          0.01049132402352888,
          0.005927125357909314,
          0.007808079897473504,
          0.0052122167970487885,
          0.005721295782556401,
          0.006206987468206949,
          0.0018859262733975145,
          -0.3810442998667246,
          0.007501086768814619,
          0.0071762500530295655,
          0.006694560534036917,
          -0.002686259191291879,
          0.023258174083954374,
          0.011250850962105723,
          0.008230280873116435,
          0.01066556623830276,
          0.007441412299266237,
          0.005626015688403721,
          0.002933473787562841,
          0.0067621338481729356,
          0.0074626272708305085,
          0.01188369481349596,
          0.01696512845938223,
          0.011311476450000297,
          0.005890001621156443,
          0.005428013999652699,
          0.005947974667523327,
          0.006043913602227321,
          0.006915762520379936,
          0.05107980875638835,
          0.011345162241088329,
          0.004001811256124247,
          0.012760101883928614,
          0.015859857782873226,
          0.005801125393048603,
          0.013580185672093308,
          0.006381342615113993,
          0.007331744304407514,
          0.003996663644083633,
          0.014376519788620782,
          0.012532877984074178,
          0.0022527833441780814,
          4.4530287273089175E-4,
          0.011943452330708842,
          0.006288798115186149,
          0.008077871660986505,
          0.007272351542958686,
          0.007401610129731475,
          0.006750490929104868,
          0.005450194244711643,
          0.007625807278287232,
          9.120921126884358E-4,
          0.006366840689806947,
          0.01882761140101094,
          0.0075410725989101726,
          0.007393528474941691,
          0.0058971136574766155,
          -0.0034583163912023846,
          0.005778156276390392,
          0.00788808671054945,
          -0.0068341097307140376,
          0.023726479106250843,
          0.008001188562013312
        ],
        "bias": -0.008156879616253535
      },
      {
        "weights": [
          0.0021306209723735764,
          0.003160624312776825,
          0.006961469669673231,
          0.016079985705566843,
          0.005913703976767843,
          0.00734084300297144,
          0.006185282909983575,
          0.014282190479399822,
          0.007516803154749087,
          0.010254196268618693,
          0.0054654765494841755,
          0.007406765810333212,
          0.005461973537418195,
          0.005844827346852289,
          0.0059337272981414635,
          0.001447627352065727,
          -0.386578334334342,
          0.00759109361706641,
          0.007230219350333887,
          0.006784508779347741,
          -0.0016036260332868773,
          0.021853035831847493,
          0.010793130704468861,
          0.007798136252681173,
          0.009717492760818023,
          0.006847747524204531,
          0.005377997580072159,
          0.002376974947589766,
          0.0066498303192951145,
          0.006934264798177164,
          0.011289062542375277,
          0.01570957180057756,
          0.010968921597830429,
          0.005826943375397746,
          0.00494864073209905,
          0.005919263941633664,
          0.005839110562142325,
          0.007074455032698205,
          0.050850313649134414,
          0.010974879858694045,
          0.00346358814460887,
          0.011842730430892994,
          0.014766069971594235,
          0.0061195987759978905,
          0.013390941988577664,
          0.005819427507531857,
          0.007512559522142031,
          0.0032671282210907852,
          0.013330106722810948,
          0.011697417494868932,
          0.0022115242022252564,
          -9.921514756327866E-4,
          0.010915815531154748,
          0.006284221077445921,
          0.007208778445694548,
          0.0074041745508881636,
          0.006796858209786066,
          0.006176832866266817,
          0.00533984606030049,
          0.007821414766937464,
          -3.6764553748911137E-4,
          0.0067246186711360225,
          0.0172596505865424,
          0.0076982033526394045,
          0.007726811415694586,
          0.005554172274518374,
          -0.004076407355691743,
          0.0055218339169958875,
          0.007463312324104409,
          -0.005590982740308252,
          0.022470615378548855,
          0.007769160080027638
        ],
        "bias": -0.008991417950502399
      },
      {
        "weights": [
          0.003355262389333425,
          0.00451973158791516,
          0.008555007828627729,
          0.01750322368307364,
          0.008373029041671295,
          0.007501949722747056,
          0.00797512806130365,
          0.01593394971293572,
          0.007702923705813375,
          0.011879805443713521,
          0.007423468316168484,
          0.00941337864353275,
          0.005424905120584023,
          0.0071455348018661475,
          0.007811387350129068,
          0.0031032460268042715,
          -0.3841263291524356,
          0.007849159853395885,
          0.006924398537992407,
          0.0068157567749811505,
          -0.002434083931221095,
          0.024224424463591892,
          0.012624287216547346,
          0.009830340427937944,
          0.0118000243587525,
          0.008448000360669984,
          0.007028049211951265,
          0.0034268934834723627,
          0.0067922286937527636,
          0.008442836118199014,
          0.013452985004362511,
          0.017427962498034896,
          0.012654930936014684,
          0.007482077245001859,
          0.0067281716478116,
          0.007186860289229042,
          0.007474596111663719,
          0.007270296631467004,
          0.049744484627177545,
          0.012584770418370653,
          0.005545136536667849,
          0.013547528396002121,
          0.017321011798032523,
          0.005895583751177358,
          0.014997791194364327,
          0.007609754009677993,
          0.0073468615322855434,
          0.004526022687687894,
          0.015562846910535003,
          0.01341042926782236,
          0.0036285097126763006,
          4.8399033166443664E-4,
          0.012580810380041798,
          0.006389036683030962,
          0.00945956819837499,
          0.007566427477626423,
          0.008738537093083682,
          0.008330957320418915,
          0.007148368179079391,
          0.007473172886527974,
          0.00137496369896135,
          0.006731110196475864,
          0.019351893973527056,
          0.007664395974944634,
          0.007632541610301176,
          0.0070157307109637015,
          -0.0027465597807948094,
          0.007116695444672406,
          0.0076610655331202275,
          -0.005404779295888172,
          0.024463204405220082,
          0.007947470436285011
        ],
        "bias": -0.01073098129527307
      },
      {
        "weights": [
          0.0018442964848464983,
          0.002730745405867008,
          0.00748653364245328,
          0.017404774710735683,
          0.006811313328418679,
          0.007213767202628698,
          0.006794433938857556,
          0.01518353307643712,
          0.007251107192222541,
          0.011004556961683842,
          0.006280849290383833,
          0.007943399616302483,
          0.005482385886152603,
          0.006215433080811552,
          0.005926527263322854,
          0.0016347384424651,
          -0.3852482285771871,
          0.007425711417453607,
          0.007296102608006022,
          0.006696581190233617,
          -0.0018965899746729482,
          0.022957694031926053,
          0.011865196272179314,
          0.00867832882025992,
          0.010754146969212747,
          0.006978690461745463,
          0.005845219111532986,
          0.0021288236306613844,
          0.006714302039654062,
          0.007219512663398595,
          0.012369292349389374,
          0.016861307945909402,
          0.011512714442621037,
          0.0062629789635474525,
          0.005963270042139334,
          0.006169430224278407,
          0.006184548978317607,
          0.006780010836138624,
          0.049729323220530114,
          0.011493581912552415,
          0.0039766870857029565,
          0.012470902110492671,
          0.015894102330317152,
          0.006198873960119465,
          0.01394478523272803,
          0.00667212206977186,
          0.0074801905125063675,
          0.0030807388067176067,
          0.014384650569640728,
          0.012475152573521555,
          0.0019635186220516338,
          -3.084611233721958E-4,
          0.011720891575338784,
          0.0064635186002724295,
          0.00831874647962613,
          0.007040103487956677,
          0.007355287636358416,
          0.006830528390464794,
          0.005862801474668532,
          0.007358381393922846,
          -5.0868686848217755E-5,
          0.006833356075604992,
          0.018776118875393048,
          0.007344744329144002,
          0.007284681039624982,
          0.006215918037720945,
          -0.0034631189713518963,
          0.006112328477410235,
          0.007532922198124931,
          -0.00413409592257975,
          0.023808405250613382,
          0.007369153689126349
        ],
        "bias": -0.011084577889297781
      },
      {
        "weights": [
          0.2818370239558555,
          0.2790520909335779,
          0.2743943058378017,
          0.23187889888006716,
          0.2748167850460946,
          -0.29626479613059165,
          0.27543604151946066,
          0.23338589726716968,
          -0.29600013081977694,
          0.26598322360443705,
          0.27750856868772983,
          0.2700848738568488,
          -0.2941580776021843,
          0.27782966455106395,
          0.27437818820162246,
          0.28184443379232077,
          0.13065976954803454,
          -0.2963936800940047,
          -0.29541181118888626,
          -0.29551376478737246,
          -0.2507960545889423,
          0.22599898810931557,
          0.2619109067034936,
          0.2729432205450165,
          0.27068827749847063,
          0.274741313624972,
          0.2775745613539147,
          0.2817971744946304,
          -0.29535145278573416,
          0.273675298284125,
          0.25419337851608925,
          0.23256660902586915,
          0.2620668210551069,
          0.27718873992216336,
          0.27562179585421603,
          0.2772782626296323,
          0.2771990287601785,
          -0.29575348466335377,
          0.011446772191282935,
          0.26195361619550434,
          0.2792475157151144,
          0.26067244275328627,
          0.2493838497075324,
          -0.29447089940110893,
          0.25079292677639226,
          0.27616175277229077,
          -0.29647091029746936,
          0.28010426032648983,
          0.25909006653874134,
          0.25537069824110514,
          0.28056579920973496,
          0.28574801028418745,
          0.2618604326802014,
          -0.2948363692165285,
          0.27003514635598397,
          -0.2955679358413429,
          0.2741284012773951,
          0.27454298930512244,
          0.2774956869451065,
          -0.29665179114749923,
          0.28458434869579746,
          -0.2951620863237934,
          0.23036709214588144,
          -0.29644401836569334,
          -0.2959840635982712,
          0.2749044282128991,
          0.29126833323552975,
          0.27735682823739466,
          -0.29676625421388236,
          -0.13350204586633324,
          0.22704923048136694,
          -0.296096781430897
        ],
        "bias": -0.12890223574335494
      },
      {
        "weights": [
          0.0032508471326018014,
          0.004715454358716763,
          0.008851260903877828,
          0.01894892052553905,
          0.007956691820986048,
          0.008319738971071178,
          0.007493548409453027,
          0.016649879353220518,
          0.008105652786538539,
          0.0122278254886253,
          0.007021548691274601,
          0.009703571517367806,
          0.006375977523594367,
          0.006648920035271518,
          0.007109982154796235,
          0.0027345578420121495,
          -0.3829535038403194,
          0.008379019797780309,
          0.008028431048914202,
          0.007438452174233093,
          -0.0013517658566419702,
          0.02429388538755513,
          0.012920694331337095,
          0.009774583983420784,
          0.011863571262931753,
          0.008815408270811328,
          0.006573121723734802,
          0.0033356607436293715,
          0.007237455499630219,
          0.008584126859036907,
          0.013245279480393505,
          0.018512614444881385,
          0.012881578537575093,
          0.007157614173369742,
          0.006337738458454598,
          0.006677447762122074,
          0.007218993544323639,
          0.007707301244117568,
          0.052854164473004686,
          0.012918735505610296,
          0.005094645017513454,
          0.014400241799071144,
          0.017513446947985668,
          0.007154505582229404,
          0.015629367235366266,
          0.00693949824594379,
          0.007889007653197666,
          0.004647449680197974,
          0.016314256721698756,
          0.013912704020286501,
          0.0035923079066747824,
          -8.281874390889316E-4,
          0.013064747713747046,
          0.007118625493737865,
          0.009497439871729862,
          0.00789182625108347,
          0.00839657764080625,
          0.007935755564095271,
          0.006368339791758158,
          0.008547692042982368,
          8.759503722946185E-4,
          0.007654134089756014,
          0.02049024048704167,
          0.00806260009077236,
          0.008270124404355816,
          0.006859799910417577,
          -0.004440777518047533,
          0.006569478797329721,
          0.008609680062712698,
          -0.004255090601933568,
          0.024888448733030106,
          0.008278871493403799
        ],
        "bias": -0.011451696717165064
      },
      {
        "weights": [
          -5.018886410733629E-4,
          0.0010343655053504605,
          0.0049747543194226425,
          0.014802782869174304,
          0.003907605781410159,
          0.0098214043057925,
          0.003739602396743907,
          0.012925679333510036,
          0.009870339975273045,
          0.00823092968969624,
          0.0031403546737433902,
          0.005481548235298901,
          0.00806982965646337,
          0.0028193547991042425,
          0.00310210446988401,
          -7.791210344441421E-4,
          -0.3858698466149177,
          0.009942901885171029,
          0.009631299407403385,
          0.009353247825019471,
          6.09233592810421E-4,
          0.02080233207419449,
          0.00945363014923612,
          0.006436401933865713,
          0.008366140249009349,
          0.004611740064578289,
          0.002718455702037199,
          -4.4313147522443704E-5,
          0.009188092590124344,
          0.004435661857401809,
          0.010168669597690016,
          0.014797048348765355,
          0.009395593512457874,
          0.0030200919144167102,
          0.00279103834378546,
          0.0031205269977372125,
          0.0033710575775749885,
          0.009477822053005309,
          0.048216786119460835,
          0.009528897351399102,
          0.0010694072050068523,
          0.010550891544665904,
          0.014111785659310669,
          0.008800765297236788,
          0.011528504463396008,
          0.0035450119152856496,
          0.010001223859657193,
          0.0012265838577693955,
          0.012490217198821877,
          0.01023644843429742,
          -2.994690809599005E-5,
          -0.0025323244127273695,
          0.009487160238487563,
          0.008988744061334115,
          0.005568047907939451,
          0.009501031557357056,
          0.00479142598972636,
          0.003960705109411342,
          0.0028625740932073833,
          0.009825937990755087,
          -0.002817584779720568,
          0.009239093703707183,
          0.01654599978469264,
          0.00975039659651171,
          0.009883396403770058,
          0.002818800497235763,
          -0.0058331894606064505,
          0.0031694222460281647,
          0.010288912894110694,
          -0.003361583450281475,
          0.021672805006127945,
          0.0100961776115516
        ],
        "bias": -0.00798221978235631
      },
      {
        "weights": [
          0.28138450297337986,
          0.27816446163712444,
          0.2731031392784199,
          0.22943359375532152,
          0.2731150946738552,
          -0.2944835194855475,
          0.27411017611071037,
          0.230423912609066,
          -0.2946770756701594,
          0.2636911912364836,
          0.27585674454946035,
          0.268356673243323,
          -0.29278420076419787,
          0.27619645483647537,
          0.2730297595382615,
          0.28116010737629943,
          0.1346447887822591,
          -0.29475237213484706,
          -0.29414698590418575,
          -0.2938888014416039,
          -0.2505822574069285,
          0.22419487571694732,
          0.25931180649183455,
          0.27061918815916447,
          0.2680072663937472,
          0.27325939909785385,
          0.2760602276084743,
          0.2811200951809888,
          -0.2939058157924316,
          0.27224276164969363,
          0.25174181821165154,
          0.2300380321094904,
          0.25950904010121667,
          0.27553666252140563,
          0.27430996399723556,
          0.2758658216659595,
          0.2757500144986877,
          -0.2941679474757206,
          0.013709151789796238,
          0.2593266310045107,
          0.27816812962160026,
          0.2576088285362331,
          0.24688654964107248,
          -0.293034889081286,
          0.24809997029006417,
          0.2746299436300665,
          -0.29492268215735207,
          0.2794206634687506,
          0.2566542863352609,
          0.2531389545969526,
          0.2800744703937119,
          0.2848957915545175,
          0.25935231810231646,
          -0.2938369634566998,
          0.2682812743635563,
          -0.29434467821596105,
          0.27271682763683863,
          0.2733630363505625,
          0.2762179233338584,
          -0.2946814655685313,
          0.2844689164699784,
          -0.29367352268740876,
          0.22820101395656975,
          -0.2948727901554078,
          -0.29460991461945935,
          0.27321042180999777,
          0.28993818617449973,
          0.2759954992960455,
          -0.29502444370964326,
          -0.13958259490985414,
          0.2243262253430706,
          -0.2949239307509406
        ],
        "bias": -0.12848485297543674
      },
      {
        "weights": [
          0.0019687694895687796,
          0.0037864822250823506,
          0.008233532762990164,
          0.0178190207867749,
          0.007078142333754797,
          0.0074120817899000066,
          0.00666111190441856,
          0.01603255976827787,
          0.007388728631967456,
          0.011645501866071996,
          0.006550424419826776,
          0.008562892975584914,
          0.005604595670606421,
          0.00633457495556725,
          0.006682308815855302,
          0.0016133518112179032,
          -0.38733859001791476,
          0.0075217893253671725,
          0.007072631229091647,
          0.00675585241885466,
          -0.00204400602715001,
          0.02344747427444611,
          0.012316285697342956,
          0.009235088780224424,
          0.011464952103500263,
          0.00807366496288648,
          0.006378580810479733,
          0.002501889700851473,
          0.006796012462783861,
          0.007572085841577334,
          0.012963100010455674,
          0.01722602470263022,
          0.011935606728915985,
          0.006703690394561015,
          0.005952310155544269,
          0.006615021097226438,
          0.006716475486811786,
          0.006672582840124536,
          0.05261046771290018,
          0.012224293456801826,
          0.004944322208215434,
          0.013608823844406249,
          0.01680201607196538,
          0.006104831285434211,
          0.01470196930922938,
          0.006945181708259153,
          0.0072149414848073235,
          0.00397824568862546,
          0.014890735331034258,
          0.013415336640615021,
          0.003176881085522189,
          -6.9926505849121E-4,
          0.012720458316800609,
          0.006600956003156523,
          0.00845616572431495,
          0.007271885345412785,
          0.00840302729321849,
          0.007410634469126888,
          0.005963254757089539,
          0.007338588461079318,
          -3.347557126982613E-5,
          0.007058015581964226,
          0.019112526481344035,
          0.00759389420892774,
          0.0074139419227961375,
          0.006369214512002367,
          -0.0036314811646859175,
          0.006244374128220935,
          0.007846782791652128,
          -0.0056642569151077425,
          0.024145783813478528,
          0.007502217359336214
        ],
        "bias": -0.009517922102485253
      },
      {
        "weights": [
          0.28226815960227447,
          0.2794700117073081,
          0.27480942557481863,
          0.23104444454246134,
          0.2746337215078224,
          -0.2956539271762711,
          0.27546410021355094,
          0.23274671530461097,
          -0.2958146526619771,
          0.2658061611936576,
          0.277224552221706,
          0.2701520631673035,
          -0.2936675341155262,
          0.2773115957564017,
          0.27400219515106256,
          0.2827817429495156,
          0.13464533531346642,
          -0.2958757289266403,
          -0.29528922101963323,
          -0.29474894999961665,
          -0.2512121772487592,
          0.22510700748418197,
          0.26223617748629996,
          0.2722775072636028,
          0.270063045634212,
          0.27492256705967794,
          0.2775081030622174,
          0.2823518333713668,
          -0.2947625456868093,
          0.27378103547205745,
          0.25324687312151906,
          0.2315099251231664,
          0.2619209839148442,
          0.27701616840053117,
          0.2757588485522022,
          0.2771092512930667,
          0.2771160648257887,
          -0.2950631438650553,
          0.01528251078165325,
          0.2619159947992055,
          0.27910484021209747,
          0.2598295946406123,
          0.24808134181610764,
          -0.2940447028003477,
          0.2500097566646026,
          0.27602270723952466,
          -0.2955100338889506,
          0.28088804714454524,
          0.2587356862329783,
          0.2549816859297308,
          0.28112500973970206,
          0.28632317262711854,
          0.26158210152110534,
          -0.2945634574840987,
          0.2699638876457353,
          -0.29519249847781454,
          0.27434385853724,
          0.27457770007988686,
          0.2776131870012212,
          -0.29604068336873257,
          0.2860996238615442,
          -0.29474600118204386,
          0.22960094857642846,
          -0.29568534851592776,
          -0.29558745945748577,
          0.27442277622017525,
          0.29090792426660045,
          0.2771905106726939,
          -0.29614679734457944,
          -0.1412348366861876,
          0.22568318793554498,
          -0.29575915357913163
        ],
        "bias": -0.1260944175365138
      },
      {
        "weights": [
          0.0014567718279291646,
          0.002528714186809645,
          0.006388739363708197,
          0.01596185141661972,
          0.004711714593211445,
          0.008149283594277194,
          0.005059894812998012,
          0.014360287623204692,
          0.00817895646974949,
          0.00962222064401796,
          0.0044595814351076485,
          0.006749670239131817,
          0.0060156921649475075,
          0.003910037322522596,
          0.004582813033242687,
          0.0010273676502884504,
          -0.38596695084977106,
          0.00795746264499226,
          0.007801773205695322,
          0.007494690354177655,
          -8.93803494732007E-4,
          0.022016633481350367,
          0.010725544952138951,
          0.007484168420272631,
          0.009589769917380735,
          0.006059185187702494,
          0.0038724512872107012,
          0.0016385434259550279,
          0.0069863350778481504,
          0.0052942234195394915,
          0.010786210459553372,
          0.015741794864685094,
          0.010618921343763537,
          0.0045647373826437285,
          0.00440570668890733,
          0.004332390364367523,
          0.004573570174115238,
          0.007615512539230263,
          0.05002300308366705,
          0.01073303824222279,
          0.00263825017126408,
          0.011935703953265459,
          0.014950155300181204,
          0.006868761236739736,
          0.012642824570743645,
          0.004587886421268265,
          0.008265103193235911,
          0.002141133211016278,
          0.013657823868259016,
          0.011586366640593109,
          0.001383379753274366,
          -0.0010220713392128508,
          0.010920983833731931,
          0.007154176320428551,
          0.006771325756542763,
          0.0079192565116042,
          0.006208319280484418,
          0.004828472187150914,
          0.004270798351728213,
          0.008328348958426315,
          -8.284245613951777E-4,
          0.007174078750739112,
          0.017956495431817703,
          0.008347663991992625,
          0.008157686074996017,
          0.0044164281415994796,
          -0.004366674802224424,
          0.004062941475621768,
          0.008457569772568252,
          -0.004437864469377378,
          0.02226009442829516,
          0.00830572037730945
        ],
        "bias": -0.00906500070065947
      },
      {
        "weights": [
          0.2728022964228299,
          0.2698792996034386,
          0.26508738365454426,
          0.22167825450386452,
          0.26479414413777574,
          -0.2853342343712362,
          0.26562155488573946,
          0.22405624833043125,
          -0.2856006986791307,
          0.25577990995282707,
          0.26732115310990245,
          0.2608631159334212,
          -0.28324196262831414,
          0.26757606812284,
          0.2649165242406688,
          0.2727090773101138,
          0.14123577502917442,
          -0.28562543542494523,
          -0.2851424469023887,
          -0.28485913666213786,
          -0.24084943541614734,
          0.2163270357452461,
          0.2517647790943425,
          0.26289009465362695,
          0.2609772244461691,
          0.26509879919924084,
          0.2678957027137662,
          0.2728064627057659,
          -0.28436031560957387,
          0.26469855273206155,
          0.2435063735573862,
          0.22224736824334357,
          0.25212185863934927,
          0.267446937765748,
          0.26613041732606935,
          0.26753627966648547,
          0.2677619046176299,
          -0.28456505220767053,
          0.0076316430370706725,
          0.25178770236896825,
          0.2697952825961158,
          0.2503178895326132,
          0.2388417543749601,
          -0.2835907359578635,
          0.23979385059422093,
          0.2665772192653421,
          -0.2856928322687469,
          0.27112287820624903,
          0.2490789676571043,
          0.24482038976293882,
          0.27164430552289687,
          0.27587273376672133,
          0.2519938281157953,
          -0.28445431127250553,
          0.26028264284000824,
          -0.2851814698150785,
          0.2646513439752065,
          0.2652287361054932,
          0.2677468216396194,
          -0.28580965977937495,
          0.27535455171268614,
          -0.2847039100187497,
          0.22049148072257782,
          -0.28585765603008795,
          -0.2853354123116524,
          0.264984835312236,
          0.28087547744608643,
          0.26763183364425563,
          -0.2861902018916342,
          -0.1292151056589125,
          0.21605454702903967,
          -0.2859033953426051
        ],
        "bias": -0.1239230777570616
      },
      {
        "weights": [
          0.2811338275503985,
          0.27831756601646157,
          0.2728533049859904,
          0.22982688697990278,
          0.27263919277863896,
          -0.2937872229734281,
          0.27404835741204175,
          0.23155267236157526,
          -0.29401004243062456,
          0.26311170645210014,
          0.27578152383893334,
          0.26835672949315537,
          -0.291949593493736,
          0.27598964260554665,
          0.2727180637840161,
          0.2813811018526049,
          0.13961228395032735,
          -0.2939002551554742,
          -0.2933564256928775,
          -0.29320552800766003,
          -0.24968821728526042,
          0.2235680808712667,
          0.25958292212140593,
          0.2706832555718143,
          0.2681198368574049,
          0.2729819667016355,
          0.2756724530372677,
          0.28108029351017055,
          -0.29290022431134055,
          0.2721747582027905,
          0.2514449539435925,
          0.2302778906970466,
          0.2599863714241938,
          0.2754605121618084,
          0.2735966487279136,
          0.2753276799201234,
          0.27522945121664294,
          -0.293206824380167,
          0.011344351299849394,
          0.25994369180512994,
          0.2776921828344342,
          0.2581163023414452,
          0.24660595883446382,
          -0.29182244434183746,
          0.2476605470586746,
          0.2743809055376594,
          -0.29409564774691305,
          0.27922525916340823,
          0.25672031527913647,
          0.25304518552942223,
          0.27971815329879257,
          0.2847486722377913,
          0.25974709940193974,
          -0.292710350704066,
          0.2681845944472101,
          -0.2936382436488276,
          0.272224617063023,
          0.27326332998430325,
          0.276047654654583,
          -0.29404567584184094,
          0.2839022611509065,
          -0.29298333180816677,
          0.2280722110495517,
          -0.2940406332196578,
          -0.29393493638158663,
          0.2731163941362181,
          0.2895599184143209,
          0.2755210348684809,
          -0.29440518990532055,
          -0.13265040965833014,
          0.22437751824945473,
          -0.2944223735992033
        ],
        "bias": -0.12760422742005603
      },
      {
        "weights": [
          0.0017050943221880808,
          0.003275404347649717,
          0.006491386575824581,
          0.01632330457477148,
          0.0060396939407612584,
          0.008159953064141103,
          0.005947659380977229,
          0.014376308803641014,
          0.008475534307531181,
          0.010225442314458504,
          0.0053829650167759,
          0.007515091071240266,
          0.006136987845192167,
          0.005198419921655683,
          0.005614906270358003,
          0.0010856314704175618,
          -0.3773664300706221,
          0.008450508108800285,
          0.008048441123383978,
          0.007444759048238526,
          -0.002052406102205897,
          0.022350912115599343,
          0.01081316617181855,
          0.008020955449351575,
          0.010071631757882319,
          0.006615169626787309,
          0.005150044610306964,
          0.002080560689656537,
          0.00759728906032751,
          0.0062329223711128185,
          0.01164543323849865,
          0.01568374881555008,
          0.010866164476267247,
          0.0053751085764275185,
          0.005112945672762861,
          0.005533174439439266,
          0.005350327061891084,
          0.00817822158869861,
          0.04911784472010614,
          0.010804892303496627,
          0.003702014272936167,
          0.011607567288721211,
          0.015403591749155107,
          0.006885443692400776,
          0.013408117713742696,
          0.0053190781654126875,
          0.008344711075939815,
          0.003362220449377921,
          0.013628437230427282,
          0.012041253545668077,
          0.002058917799839123,
          -3.7995344002151026E-4,
          0.011070954087376517,
          0.0071598316956556,
          0.0076701814585025535,
          0.007627786579185959,
          0.006323463985279439,
          0.0057961633549068504,
          0.005154731771710922,
          0.00842154587569632,
          -2.5349524543460885E-4,
          0.007317752352143404,
          0.018051001205392065,
          0.008438343340138304,
          0.008394542947849493,
          0.00557684664927101,
          -0.00412889547576564,
          0.0054785688184465844,
          0.00848677651970851,
          -0.005446817480167128,
          0.022285447333832885,
          0.008578735194501525
        ],
        "bias": -0.008720142458236074
      },
      {
        "weights": [
          0.004075953791144324,
          0.005300095721752396,
          0.00875406879983383,
          0.017029791490740385,
          0.00813996820186529,
          0.005828833782224594,
          0.007847800615752121,
          0.015538473952269965,
          0.005867357400618015,
          0.011540651785708286,
          0.007241286062881248,
          0.009175249431496847,
          0.004103662616137498,
          0.007031427453102516,
          0.0075828067343710615,
          0.0033865097743288773,
          -0.38112199971523325,
          0.005798636586806874,
          0.0055928417985438225,
          0.005190428029004753,
          -0.0028709095988604994,
          0.02280034739161606,
          0.012097709925256292,
          0.009595889489696268,
          0.011340227451169716,
          0.008280345246664536,
          0.006999261797390662,
          0.0043693853848240215,
          0.005200513755857605,
          0.008118596986073874,
          0.012423262918159449,
          0.016591325045287535,
          0.012600321207420185,
          0.007280701118346839,
          0.0070405241098930255,
          0.007316261882142945,
          0.007407317263563193,
          0.0053173276124440175,
          0.0497567711656598,
          0.012180667860228974,
          0.005831326260800153,
          0.01311616607744825,
          0.015986354419585583,
          0.004480255572496246,
          0.014272761502246717,
          0.007868816824427482,
          0.0057456709568828365,
          0.005196388320338028,
          0.014686260227780369,
          0.012820161468576043,
          0.004596120538947823,
          0.0012873004335406896,
          0.012550182812652978,
          0.004762953628208159,
          0.00891048060041049,
          0.005552640135228787,
          0.00851254214089793,
          0.007739334905817595,
          0.006764791214337548,
          0.005852230762961541,
          0.0021587774113519375,
          0.005196558668137334,
          0.01877209363047593,
          0.005576901031468584,
          0.005968087210008587,
          0.007192027925896497,
          -0.0021021994392672605,
          0.007060530253145726,
          0.006005844521172573,
          -0.006804387224821161,
          0.023826588754053912,
          0.0058867614872205945
        ],
        "bias": -0.012227880894455413
      },
      {
        "weights": [
          0.29071505097786265,
          0.28745182912608314,
          0.2822498672203614,
          0.23651419536850687,
          0.28252263472690403,
          -0.3039055739721776,
          0.28368420278618767,
          0.23861309059820532,
          -0.30421542516737143,
          0.2732788474003871,
          0.28537738433711807,
          0.2777750156251023,
          -0.3018938003757094,
          0.2856524993706835,
          0.28234926701635615,
          0.29044442181560115,
          0.1238093096902997,
          -0.3042493767898688,
          -0.3032801374248295,
          -0.303003175317313,
          -0.25711499118618875,
          0.2310807376867407,
          0.26960958391111545,
          0.2801840217610661,
          0.278446303983953,
          0.28243406110789876,
          0.2854796429232961,
          0.2905182626335617,
          -0.3030864989485527,
          0.28203413553285706,
          0.26093915710165005,
          0.23682975397417014,
          0.2698595340085469,
          0.2851625071686715,
          0.283380267756053,
          0.2852083309225068,
          0.28518419626371355,
          -0.30341061399384756,
          0.01466341500597232,
          0.26932155056624996,
          0.287752083258503,
          0.26764736892901736,
          0.2560976675917338,
          -0.30248317492407384,
          0.2569419466679224,
          0.2843402467633683,
          -0.3040910125071634,
          0.2886549290550374,
          0.26662189331992825,
          0.2625620672445233,
          0.28918165574025,
          0.29430620050881456,
          0.2696129326922611,
          -0.30268131790552055,
          0.2776933340197157,
          -0.3039048154443227,
          0.2817311093817177,
          0.28252198803990114,
          0.28537828168163343,
          -0.30428532017273646,
          0.29373803118329633,
          -0.30302527328271517,
          0.23526418123144027,
          -0.3039594245357987,
          -0.30398741741176893,
          0.2824578933975482,
          0.2996204418652629,
          0.2854511986966276,
          -0.30441564769621626,
          -0.14197985990251993,
          0.23188704311372269,
          -0.3041231804133174
        ],
        "bias": -0.13087161279952148
      },
      {
        "weights": [
          0.26796935019767804,
          0.26454834051035003,
          0.2600248844209907,
          0.2171169741843184,
          0.25940318809505375,
          -0.281676985008896,
          0.26073169326006324,
          0.219211154632894,
          -0.28165586492327827,
          0.25041486290740106,
          0.26234596684487077,
          0.2554524277753045,
          -0.2792317196765138,
          0.2622398055153703,
          0.2593026434175897,
          0.26800805744781153,
          0.14832095672364265,
          -0.28176215784947056,
          -0.28127947751398374,
          -0.2805147302105765,
          -0.23834797942022126,
          0.211100990718221,
          0.24690187750011428,
          0.257850670643099,
          0.2556494500593018,
          0.2600758696774921,
          0.2621813525791788,
          0.26743905219279784,
          -0.28051970979767915,
          0.2591333367240714,
          0.23873028278195177,
          0.21758364532335467,
          0.24659221728377587,
          0.2616471174616862,
          0.2606173809114204,
          0.26195848629516666,
          0.2619179489611352,
          -0.28108055116529146,
          -0.0011184503775203514,
          0.2467020514225287,
          0.26422480375946394,
          0.24477974567195213,
          0.23348095241641195,
          -0.27982873946246284,
          0.2346910000524453,
          0.26116035544452554,
          -0.2817749197588193,
          0.2658437633727187,
          0.24339654970627733,
          0.24003361339527407,
          0.26620090404560603,
          0.27150086619726066,
          0.24635720452017842,
          -0.28032496523090744,
          0.2550208818493512,
          -0.28106704950792516,
          0.2596169456871223,
          0.2596673746630626,
          0.2622763264010259,
          -0.28187560203637296,
          0.2706550169799639,
          -0.2808008987055706,
          0.21547090774915376,
          -0.28175953850735447,
          -0.28162020895005835,
          0.259355736710822,
          0.27677789938459907,
          0.26219211237369167,
          -0.28173835089568816,
          -0.12451857149433401,
          0.21092848752081536,
          -0.28191285814081957
        ],
        "bias": -0.11888974701390895
      },
      {
        "weights": [
          0.28980253530843375,
          0.2869331174921236,
          0.281670583730543,
          0.23816534751101365,
          0.2818230424844775,
          -0.30321726764114365,
          0.2828173816428765,
          0.24044844538299015,
          -0.3032996061752094,
          0.27250805781655757,
          0.28456732054026507,
          0.2769176590886097,
          -0.3007996636184018,
          0.2846919233928955,
          0.2814584730408877,
          0.2896899021679974,
          0.12543570400694296,
          -0.30298931253195666,
          -0.30314961125625894,
          -0.3023953341433402,
          -0.25861684176749894,
          0.23261129389308718,
          0.26849491950874915,
          0.2796338136592421,
          0.27739292180516045,
          0.28193788515693813,
          0.2850360267075027,
          0.2897427331340424,
          -0.3023792533791521,
          0.2813732401969561,
          0.2607134092734287,
          0.238794592701211,
          0.26866531417307127,
          0.2844001191093543,
          0.28321026670744104,
          0.284911913669187,
          0.284617066884427,
          -0.30263111356857736,
          0.01416882528906361,
          0.26857168701846623,
          0.2870147832203571,
          0.2667437395470499,
          0.2557686651864823,
          -0.30139358067114325,
          0.2566863034810923,
          0.2836919570182205,
          -0.30308545495401956,
          0.28815629183574293,
          0.2653970388508073,
          0.2616221980097484,
          0.2887881110347573,
          0.29347072297164045,
          0.268521576486878,
          -0.3018599613473625,
          0.2765352783207412,
          -0.3027200584109417,
          0.2812125619347142,
          0.2821485191945773,
          0.28485530085397964,
          -0.3031241651778237,
          0.29248874463434626,
          -0.3022430961793201,
          0.23667494042533233,
          -0.3031098569568469,
          -0.3032461026065436,
          0.2815963132598214,
          0.2983521690249049,
          0.2846216175208858,
          -0.30357700141181493,
          -0.144905607681089,
          0.23341292118433676,
          -0.303366023365698
        ],
        "bias": -0.13140019681992374
      },
      {
        "weights": [
          0.28232700993777593,
          0.2794467213247619,
          0.2756966070930157,
          0.23060403029642612,
          0.27522490781918696,
          -0.2957522865611456,
          0.2762318487444254,
          0.23256772394962172,
          -0.2955867263248834,
          0.2661655288606376,
          0.2779407910600928,
          0.27102456853968143,
          -0.2933471483400502,
          0.27847545193274664,
          0.274991852065823,
          0.2821060652721876,
          0.13173943735603424,
          -0.29565343985445924,
          -0.2953071627576976,
          -0.29485139001982463,
          -0.24909362162033985,
          0.2241627442659887,
          0.262219133383192,
          0.2733605276509343,
          0.2710690292015726,
          0.27575113547597274,
          0.27831954218515675,
          0.28212172372969413,
          -0.2946889531872513,
          0.274617643471869,
          0.25445358341800556,
          0.23108969078383737,
          0.26266503236684013,
          0.27748172190541226,
          0.27639158229088884,
          0.2774984646145463,
          0.27792534335253644,
          -0.29506957386215676,
          0.011918916175608318,
          0.2624361679370969,
          0.2796683243779354,
          0.260549196873591,
          0.24913020581671563,
          -0.29370908950293423,
          0.2502356431788763,
          0.27733911195673894,
          -0.2956178463024377,
          0.2807284810565906,
          0.2593615926157813,
          0.25569472035363056,
          0.28090851935161726,
          0.2860585025348679,
          0.26238677381840536,
          -0.2942511175246112,
          0.27089387021631556,
          -0.29553266637465175,
          0.2752750425618981,
          0.275519289679529,
          0.27800411025302757,
          -0.2958431367433125,
          0.28477261679331384,
          -0.29452848532377185,
          0.22869692790707877,
          -0.29563034897205315,
          -0.2953102940041216,
          0.27507249237542586,
          0.29068534344487773,
          0.27787284292522246,
          -0.2958759319317992,
          -0.13516750432426602,
          0.22535443791321474,
          -0.2957152861184193
        ],
        "bias": -0.12582991290741816
      },
      {
        "weights": [
          4.696320807849844E-4,
          0.0015229232030927586,
          0.006310175501242698,
          0.016231912152818974,
          0.005257704680451796,
          0.008446039021331342,
          0.005402347834197932,
          0.014049156571096526,
          0.008621985842769714,
          0.00966158020961619,
          0.0047011199312302085,
          0.007269140847410091,
          0.006716655891707678,
          0.004532213055638653,
          0.00482685528387499,
          2.1443104783248784E-4,
          -0.38314034639549116,
          0.008361869830918123,
          0.008524706407450835,
          0.007807073146823787,
          -4.2521496849001885E-4,
          0.022294612962882317,
          0.010450494465024305,
          0.00768427725151699,
          0.009599884655615546,
          0.006008553769934818,
          0.004462674139138111,
          6.753818762450753E-4,
          0.007638379877769628,
          0.006114935202554596,
          0.011120696574021736,
          0.015489507731581979,
          0.010574922068100154,
          0.004614683394846942,
          0.004177455043646794,
          0.004746503886803345,
          0.004833062650151169,
          0.00782522217417616,
          0.05044654534285087,
          0.010766066579408753,
          0.002949442986652294,
          0.011981752783074442,
          0.015250909197856396,
          0.007332716778048579,
          0.012915375217763817,
          0.004956638714681692,
          0.00838099349149032,
          0.0018422730631121023,
          0.013863508060810876,
          0.011523815210173339,
          9.846119575774325E-4,
          -0.0022219193954540447,
          0.010807202802772158,
          0.007738921119066737,
          0.00713772199572766,
          0.008085509133310244,
          0.006038199658739337,
          0.004876720221459219,
          0.004471564968716704,
          0.008805322045985142,
          -0.001652953443922686,
          0.0077255476171683,
          0.017696923989024015,
          0.008464482524447143,
          0.008733692896212241,
          0.004582758552051767,
          -0.004549795878368127,
          0.004590225991134029,
          0.008795482241720186,
          -0.004155080614718186,
          0.02327801812202806,
          0.00907201884475284
        ],
        "bias": -0.010089892663520974
      },
      {
        "weights": [
          0.0020845378326599545,
          0.003325541770990174,
          0.0070403289534631775,
          0.015919886899715123,
          0.006409776923365032,
          0.008707938230160623,
          0.006327748636416026,
          0.014163061176243896,
          0.008714313432597013,
          0.009558667653985652,
          0.00561894317980469,
          0.007575673595128984,
          0.006995314195114736,
          0.005432863073568026,
          0.005464687388866446,
          0.0015068114820385068,
          -0.38512462933277214,
          0.008652071126809952,
          0.008483515448032448,
          0.007943870306977829,
          -9.777764484588452E-4,
          0.021852888856243664,
          0.010590591713517976,
          0.007921631335565817,
          0.009887257372239847,
          0.006914795015143548,
          0.0054708111536201885,
          0.0022415361071762676,
          0.007768970732638183,
          0.00685001003971631,
          0.010977297124445586,
          0.015369492736368577,
          0.010282735062393964,
          0.005454347197960621,
          0.005113070484115179,
          0.00555665439969565,
          0.005736492147784911,
          0.00805046419220019,
          0.05148841747899359,
          0.010554624288050795,
          0.003985792222414251,
          0.011857000813225774,
          0.01527949359823947,
          0.007304716947404296,
          0.01283738595800842,
          0.006190210497171555,
          0.008628494273971912,
          0.0030916478982042617,
          0.013381652664114249,
          0.011407475347295075,
          0.0022850382418783534,
          -7.068402173510646E-4,
          0.010746234990471653,
          0.00776824585281129,
          0.007921333041496259,
          0.007962037887211362,
          0.007038874876300813,
          0.0062698318993828816,
          0.005103680237877631,
          0.008774481167998062,
          -1.4550987697270698E-4,
          0.007944732885897936,
          0.0180108590459354,
          0.008596599028764335,
          0.008899428249037894,
          0.0053239193572202645,
          -0.004330463959702608,
          0.005191416423110622,
          0.0089298180969081,
          -0.004922874682705933,
          0.022512905718389077,
          0.008692744863299582
        ],
        "bias": -0.010220044814876494
      },
      {
        "weights": [
          0.0018444492046099836,
          0.003344776740876566,
          0.007694330816358665,
          0.016283573654742412,
          0.007045199388916928,
          0.00886645290864007,
          0.006542438687886788,
          0.015196180675539952,
          0.008714979162410808,
          0.011097321723714602,
          0.0060902559587398125,
          0.008253650072280383,
          0.0064382318306348794,
          0.0056964305875595094,
          0.006340608777229922,
          0.001516265773234208,
          -0.3828183135234169,
          0.008968540996417997,
          0.008245520494696032,
          0.008214482852292147,
          -0.0010305011330213442,
          0.022486989962578058,
          0.011602595320093261,
          0.00885803719731578,
          0.010741184134843776,
          0.007595275482611998,
          0.005443522888625989,
          0.0019640037799625565,
