[
  {
    "name": "INP",
    "activation": "RELU",
    "neurons": [
      {
        "weights": [
          0.9097630705298251,
          -0.1168800723728605,
          0.013632676275398225,
          -0.07127966424784343,
          -0.24975299630430528,
          0.013144329815116223
        ],
        "bias": 1.2582164738273411
      },
      {
        "weights": [
          0.13341157548830834,
          0.06930988369175002,
          -0.15728179655474833,
          -0.27122746066445547,
          -0.11775940104244324,
          -0.08431399481158118
        ],
        "bias": -2.019258268784858
      },
      {
        "weights": [
          0.46989875734790276,
          -0.11028377432580809,
          -0.09034305371044488,
          -0.17867565240018854,
          -0.06002419783855824,
          0.10207176300276244
        ],
        "bias": -2.003286155553279
      },
      {
        "weights": [
          0.13537433112466576,
          0.06640583261449602,
          -0.15625781649923706,
          -0.2687990840672145,
          -0.1207061287523208,
          -0.07832340225465115
        ],
        "bias": -2.021272815758865
      },
      {
        "weights": [
          0.36415557700403833,
          -0.05372470344488578,
          -0.1414378281479406,
          -0.17840029667325072,
          -0.06477116086958583,
          0.043703677387221876
        ],
        "bias": -2.0455293280504145
      },
      {
        "weights": [
          -8.09613950638402E-7,
          -2.0654168866682584E-6,
          5.859390557681896E-5,
          4.647004701664687E-5,
          -6.24980612205097E-5,
          -2.6954479330897793E-6
        ],
        "bias": 4.3234368407810877E-5
      },
      {
        "weights": [
          -1.0691010876376817E-5,
          -1.0838356027238268E-5,
          5.605384027456822E-5,
          3.3085687963466405E-6,
          -2.002796982244444E-5,
          4.310776498893994E-6
        ],
        "bias": -7.14003817676777E-5
      },
      {
        "weights": [
          0.32437025692873567,
          -0.023288463281950344,
          -0.14726814483910544,
          -0.19910858249669058,
          -0.08471961481699647,
          0.01736252918340739
        ],
        "bias": -2.053582465086798
      },
      {
        "weights": [
          0.4586960611441929,
          -0.11365737103974648,
          -0.0933018325762526,
          -0.1764076105353724,
          -0.056541324688954925,
          0.10193701712897114
        ],
        "bias": -2.0037819697382124
      },
      {
        "weights": [
          0.42549464644411544,
          -0.08652058326053241,
          -0.1076453053933501,
          -0.17589491500330842,
          -0.0653551463839501,
          0.0758040901079847
        ],
        "bias": -2.033879350627933
      },
      {
        "weights": [
          -2.874382727675779E-4,
          -8.39853468396969E-7,
          -3.999706637982631E-6,
          3.1228318197464484E-5,
          2.6386729740211326E-7,
          -2.2179620856371625E-6
        ],
        "bias": 3.189040937189603E-5
      },
      {
        "weights": [
          -1.1351660205040523E-6,
          2.696441506053304E-5,
          1.671424264782887E-5,
          3.7124803054426442E-6,
          -1.6117971987330492E-5,
          -1.099749971666049E-5
        ],
        "bias": -7.634318184181598E-5
      },
      {
        "weights": [
          2.5485208733760898E-5,
          -5.947071590884368E-6,
          -9.412686327761319E-6,
          5.1260377093233345E-6,
          -1.2532276009832729E-5,
          -1.2740418608709602E-5
        ],
        "bias": -2.8431401213626246E-5
      },
      {
        "weights": [
          -0.0011550869858859708,
          5.812735771708651E-5,
          0.0011268860667305173,
          0.0011907176784290918,
          -0.001174209002305256,
          -0.0011879774265725796
        ],
        "bias": -9.491105014685366E-5
      },
      {
        "weights": [
          1.0413059737902561,
          -0.08171647127515766,
          0.033486571643464046,
          -0.053574682042986446,
          -0.43257100422149836,
          0.06781460156321768
        ],
        "bias": 1.1173753600592005
      },
      {
        "weights": [
          0.9622440448955285,
          -0.017849567617513263,
          -0.04629737190168755,
          -0.09047708894886572,
          -0.042195384048242544,
          0.004381196930838444
        ],
        "bias": 1.4391884801886285
      },
      {
        "weights": [
          1.2244725903420632,
          0.1701028805146312,
          -0.11206826073043843,
          -0.0745028234355585,
          0.023611630278011907,
          0.1360597807176448
        ],
        "bias": 0.9832010686926694
      },
      {
        "weights": [
          0.27673468161859455,
          -0.05826308010481557,
          -0.14589119218502083,
          -0.16076649026330586,
          -0.03347407773071665,
          0.05479212955435601
        ],
        "bias": -2.032062514924077
      },
      {
        "weights": [
          0.9581470463327071,
          -0.013311196377049337,
          -0.03959949002332769,
          -0.09017110169149681,
          -0.04222414709125332,
          0.005278392473122357
        ],
        "bias": 1.44294537181431
      },
      {
        "weights": [
          -8.1769943693331E-6,
          5.157728752409421E-6,
          -1.3006006879250132E-5,
          2.249486748229705E-5,
          -8.718402838873897E-6,
          1.8977728510584965E-5
        ],
        "bias": -1.1024574454934397E-4
      },
      {
        "weights": [
          0.9482965631402339,
          -0.029055253807764272,
          -0.03453216089637806,
          -0.09576913416920055,
          -0.035228715929529024,
          -0.014246463336327508
        ],
        "bias": 1.4350347061758129
      },
      {
        "weights": [
          0.9388090254662633,
          -0.028492589984722094,
          -0.026633956918258143,
          -0.09254925140664631,
          -0.04120303639616845,
          -0.023628111243324135
        ],
        "bias": 1.4487723246160826
      },
      {
        "weights": [
          0.9601388726273054,
          -0.017737640280400205,
          -0.04215031567720021,
          -0.09029166090568207,
          -0.041286216373660284,
          0.003197912745862172
        ],
        "bias": 1.4378852469701635
      },
      {
        "weights": [
          -8.613067778170965E-4,
          9.552663697133664E-4,
          9.21133129646546E-4,
          0.0011419940921564094,
          -0.001103243050125623,
          -0.0010938617435529729
        ],
        "bias": -2.9201046625111323E-4
      },
      {
        "weights": [
          0.44277730241117075,
          -0.09361270367510546,
          -0.10141979280913337,
          -0.17835406499473402,
          -0.06773471037898263,
          0.0832083714962479
        ],
        "bias": -2.0275974781434662
      },
      {
        "weights": [
          0.30231857177823723,
          -0.01694481158806714,
          -0.14645704391748285,
          -0.20665599045604546,
          -0.09137959033651352,
          0.005400814601481641
        ],
        "bias": -2.0573362033581915
      },
      {
        "weights": [
          -2.867423304243036E-4,
          -1.9079499903680488E-5,
          5.659345612594629E-6,
          2.259959887578494E-5,
          -5.06874498813505E-5,
          -1.616242624409853E-5
        ],
        "bias": 1.0424885056960476E-4
      },
      {
        "weights": [
          -8.892895668457151E-5,
          -1.967239500222515E-5,
          -2.185232031377645E-5,
          1.6875642172875423E-5,
          -2.226134519912379E-5,
          8.04531679397268E-6
        ],
        "bias": -3.9326434129062434E-5
      },
      {
        "weights": [
          0.31502081105958096,
          -0.05042972115495635,
          -0.15200051626138378,
          -0.17625069325542858,
          -0.05739984804985597,
          0.03976353401990385
        ],
        "bias": -2.042313332963443
      },
      {
        "weights": [
          0.422022457011338,
          -0.09013879068595619,
          -0.11298459288186938,
          -0.17521474343976012,
          -0.06420295221851097,
          0.07389821543977657
        ],
        "bias": -2.0355480422551504
      },
      {
        "weights": [
          0.4313099369079338,
          -0.08655264784401066,
          -0.108863899022176,
          -0.17699512000188647,
          -0.06749825484552216,
          0.07425763950291568
        ],
        "bias": -2.0351908617917647
      },
      {
        "weights": [
          -5.998729957020044E-7,
          1.6712903514745387E-5,
          -7.578256923991215E-7,
          -1.5920435849142741E-6,
          -2.1137791179787776E-5,
          -4.802293151064064E-6
        ],
        "bias": -7.89579382621404E-5
      },
      {
        "weights": [
          2.790263783643264E-5,
          -1.1182679685318736E-5,
          9.589826989414361E-6,
          3.073174616715554E-5,
          -1.6693395756203783E-5,
          -4.982069895147491E-6
        ],
        "bias": -1.7253053839427288E-4
      },
      {
        "weights": [
          0.3955046318287006,
          -0.06880115459235427,
          -0.13455728497531144,
          -0.17625037653724968,
          -0.06333888528865597,
          0.055009738812060366
        ],
        "bias": -2.0439319174335884
      },
      {
        "weights": [
          -9.195677505648636E-7,
          2.793692914776091E-6,
          6.51537681658113E-7,
          1.808199982789174E-5,
          4.750485628325273E-6,
          -1.7230064472995555E-5
        ],
        "bias": -5.0235404356530284E-5
      },
      {
        "weights": [
          -2.536747583498996E-5,
          1.2215282378984815E-5,
          -5.275875056728491E-6,
          4.388802289119847E-5,
          -5.0918796693866785E-5,
          -5.4357613361223494E-5
        ],
        "bias": -8.612591159925697E-5
      },
      {
        "weights": [
          0.9752802619416446,
          -0.013647140606769576,
          -0.04524515424199978,
          -0.08805919672971967,
          -0.04330045398121178,
          0.004262752531593629
        ],
        "bias": 1.4199385875220532
      },
      {
        "weights": [
          0.0867691977716728,
          0.07900362377059619,
          -0.14225412781886998,
          -0.2542678018186778,
          -0.09129564592090154,
          -0.07839628960761362
        ],
        "bias": -2.0016007599775825
      },
      {
        "weights": [
          1.211146396952708,
          0.36884480103603484,
          0.06938355180312185,
          -0.0471967112114533,
          0.04957626866856399,
          0.07710139048543524
        ],
        "bias": 0.8883881104170824
      },
      {
        "weights": [
          1.1988318034992518E-5,
          9.747268650873859E-6,
          -2.444594935614171E-5,
          3.7847843456700065E-5,
          1.2068545641411367E-5,
          1.1993016840650306E-5
        ],
        "bias": -1.4016836551645568E-4
      },
      {
        "weights": [
          -4.965239741822528E-6,
          1.7743243964744385E-5,
          3.3664292499968014E-5,
          2.7514844934778503E-5,
          4.0838259503414474E-7,
          -3.279028153916634E-5
        ],
        "bias": -1.4105490265198262E-7
      },
      {
        "weights": [
          0.7695917403189656,
          -0.1821481319872421,
          -0.12541310274468692,
          -0.16665803444424312,
          -0.03566759818470243,
          0.16462684438067685
        ],
        "bias": -1.7951841591849798
      },
      {
        "weights": [
          3.748688350088715E-6,
          2.875738972344963E-5,
          2.804141540907789E-5,
          7.352631566125057E-6,
          2.6026132861009088E-5,
          -9.776523849278844E-5
        ],
        "bias": -5.0021015207506737E-5
      },
      {
        "weights": [
          0.958516640201726,
          -0.015264292074307564,
          -0.039063547008487076,
          -0.08969412358520179,
          -0.043344076205248876,
          0.0025888507816249464
        ],
        "bias": 1.4430368466438992
      },
      {
        "weights": [
          0.9568926358928673,
          -0.015646796032200136,
          -0.04391761742185612,
          -0.090861403533582,
          -0.04177171384421797,
          0.003176399394225612
        ],
        "bias": 1.4385487374946275
      },
      {
        "weights": [
          -0.5566960015681303,
          -0.5019942242495323,
          -0.5006260524330579,
          0.18288378929264246,
          0.10835964196724174,
          0.20249006885643947
        ],
        "bias": 1.2701201618813036
      },
      {
        "weights": [
          0.47447574999436815,
          -0.11097472428175534,
          -0.09133781451680249,
          -0.17939314655808788,
          -0.060457720715049415,
          0.10258950148692683
        ],
        "bias": -2.001142930290027
      },
      {
        "weights": [
          0.9620174613126821,
          -0.018566622287198745,
          -0.04776317846204993,
          -0.08917185194648042,
          -0.04108370755111352,
          0.0035502637128564628
        ],
        "bias": 1.4324009776278512
      },
      {
        "weights": [
          4.223310088890901E-6,
          -7.904480656343919E-6,
          -1.2105194312349475E-5,
          1.919746138010558E-5,
          -3.4970954790071495E-5,
          -2.0207224153495422E-5
        ],
        "bias": 6.037911826316792E-5
      },
      {
        "weights": [
          -4.4416071761909765E-5,
          -1.0939119649561815E-5,
          4.597844150321589E-5,
          1.1793729280215629E-4,
          -1.42291051739144E-4,
          -9.997008230837907E-5
        ],
        "bias": -1.1105641719941598E-4
      },
      {
        "weights": [
          -1.047992555924283E-5,
          2.825725436908604E-5,
          7.406161015734836E-6,
          6.210954107278255E-6,
          6.7388593012352715E-6,
          -2.9810554597372632E-5
        ],
        "bias": -1.0317289604276225E-6
      },
      {
        "weights": [
          0.6236857754963745,
          -0.14551514800157855,
          -0.10469805008449044,
          -0.18277114939056652,
          -0.05693960083067179,
          0.1343596069211715
        ],
        "bias": -1.9036879741225219
      },
      {
        "weights": [
          0.3436533288598852,
          -0.05432994584213188,
          -0.14377988046854948,
          -0.17467548996790558,
          -0.05613806807609609,
          0.04519323322664296
        ],
        "bias": -2.0418028449123087
      },
      {
        "weights": [
          0.3019952043795967,
          -0.012022031467292853,
          -0.14627951508514572,
          -0.20831252554964508,
          -0.090507841053174,
          0.004616172536315343
        ],
        "bias": -2.0566456555908017
      },
      {
        "weights": [
          0.4124927826446036,
          -0.06354420576165537,
          -0.13144026772566555,
          -0.1790574106752679,
          -0.06838966333467258,
          0.054383414824879545
        ],
        "bias": -2.0448015451393333
      },
      {
        "weights": [
          0.3123218375735565,
          -0.015026546372894167,
          -0.1466509260971944,
          -0.20747446465601524,
          -0.09250835139644376,
          0.005537729489340599
        ],
        "bias": -2.057519274509741
      },
      {
        "weights": [
          0.268216698816453,
          -0.13541798574231145,
          -0.09587480657362342,
          -0.13217377713637543,
          0.02452315143135384,
          0.1496692474677394
        ],
        "bias": -1.954168211860522
      },
      {
        "weights": [
          -1.5050013889307873E-5,
          2.711482044192586E-5,
          2.085764065520792E-5,
          -1.0165727851821697E-6,
          3.6764299586917266E-6,
          -2.923057595610752E-6
        ],
        "bias": -3.354451461116391E-5
      },
      {
        "weights": [
          -1.2273417720418884E-5,
          1.625068406383362E-5,
          1.49025360998963E-5,
          2.525915280014997E-6,
          -1.310190641114389E-5,
          -3.156901442348513E-5
        ],
        "bias": -4.722566042209636E-5
      },
      {
        "weights": [
          -8.566971489870214E-4,
          1.0727915865137166E-5,
          0.0038906152351521153,
          0.004272250403842219,
          -0.003327979119452648,
          -0.0033368869003224653
        ],
        "bias": -6.400334838625524E-6
      },
      {
        "weights": [
          1.3161186337437838E-5,
          -2.9180719398999642E-5,
          1.880780604334536E-5,
          1.3371759579851675E-5,
          -2.7295859288736735E-5,
          -2.0447765591127555E-5
        ],
        "bias": -4.2611667743482946E-5
      },
      {
        "weights": [
          0.6929061257455101,
          -0.1568063538917768,
          -0.11508785021978521,
          -0.1818593868975197,
          -0.055685166369140206,
          0.14208341152983142
        ],
        "bias": -1.8685705214582617
      },
      {
        "weights": [
          1.0815074910947314E-5,
          -1.2593242246937162E-5,
          -5.688291620737314E-6,
          7.6146169771777185E-6,
          1.6417857189037316E-5,
          -2.5212985285828388E-5
        ],
        "bias": -1.518893284737368E-4
      },
      {
        "weights": [
          0.14384497830866824,
          0.05331801894693006,
          -0.15127487413689863,
          -0.26268035285314517,
          -0.12252368428480684,
          -0.06452598950911016
        ],
        "bias": -2.0338161815447875
      }
    ]
  },
  {
    "name": "H1",
    "activation": "RELU",
    "neurons": [
      {
        "weights": [
          -0.001281010588954962,
          -6.527798013307419E-4,
          -6.557499915476287E-4,
          -6.041294581470407E-4,
          -6.152635527782912E-4,
          2.8508720080748988E-5,
          -9.66376552990035E-6,
          -6.174191390608699E-4,
          -6.110732171497986E-4,
          -6.26970130301665E-4,
          -8.662643975305164E-6,
          -6.123112469203284E-7,
          -1.9967650326351202E-5,
          2.3360228646855545E-5,
          -0.0013570413444903386,
          -0.0013680868311423825,
          5.450292009840988E-4,
          -6.218626859252917E-4,
          -0.0013512671861177074,
          -1.6371358757090203E-6,
          -0.001324377004023362,
          -0.0012456445976247064,
          -0.001428672494611452,
          -4.4438234617088395E-6,
          -6.203277314670413E-4,
          -6.574617426663257E-4,
          -4.196856376534401E-5,
          1.0439434530980421E-5,
          -6.151256670788349E-4,
          -6.390423497477813E-4,
          -6.289093559894677E-4,
          1.5715464156343753E-5,
          -6.967914946070867E-6,
          -6.473266939778054E-4,
          1.2480862972892626E-5,
          4.422447361506289E-6,
          -0.0014193486504312047,
          -6.217478640012855E-4,
          5.268823701596688E-4,
          -8.335020137079588E-6,
          -9.304012548862182E-6,
          -6.153135628205869E-4,
          -7.780441758627942E-6,
          4.4434922087933313E-4,
          -0.0013810310270300518,
          -9.971789690250536E-4,
          -6.102545676757317E-4,
          -0.0014629885215282185,
          -7.0880843240756776E-6,
          -4.880415717341868E-6,
          -7.824967369367977E-6,
          -6.313079667928759E-4,
          -6.507879805200032E-4,
          -6.132509322943953E-4,
          -6.315831079287765E-4,
          -6.517314733473909E-4,
          -6.233778541888668E-4,
          1.5856742536922173E-5,
          -1.5580150993068833E-7,
          -7.759523038407397E-6,
          1.240243408527573E-5,
          -6.013057174521658E-4,
          9.286536121265602E-6,
          -6.257447529502425E-4
        ],
        "bias": -0.0012825504232679005
      },
      {
        "weights": [
          -0.0011884214513108015,
          -4.171241320941934E-4,
          -4.3843157403391207E-4,
          -4.443122543690772E-4,
          -4.377137680715847E-4,
          7.446415220060301E-6,
          1.7529425659928398E-6,
          -4.3885195523808956E-4,
          -4.584865349614635E-4,
          -4.3001131226200185E-4,
          -6.355692724634411E-6,
          2.754420279953735E-5,
          2.0725774143925676E-7,
          -1.5028592636686322E-5,
          -8.933238608827527E-4,
          -0.0014527260564229992,
          -5.524388166104542E-5,
          -4.8251397637215154E-4,
          -0.0014597137182453112,
          -1.9719508298493764E-6,
          -8.957987226583064E-4,
          -0.0013885259253761096,
          -7.793026810366068E-4,
          -8.097892939722173E-6,
          -4.0833139690330883E-4,
          -4.313449420501554E-4,
          1.1322496228921133E-5,
          3.0188032960809934E-5,
          -4.1830674249875927E-4,
          -4.3564824020519397E-4,
          -4.3368232469742044E-4,
          3.6220411911029567E-6,
          -9.252105025761133E-6,
          -4.116084037273547E-4,
          -2.9018261736285216E-6,
          1.0614407004000628E-5,
          -0.0011718297151805702,
          -5.202921658458644E-4,
          -0.001407927176518081,
          -3.4569877190344986E-5,
          9.603679379060478E-6,
          -5.094399701707788E-4,
          2.156497101403169E-6,
          -0.0022205259933397743,
          -9.105837227036019E-4,
          -0.00155572250390269,
          -4.2602470189575804E-4,
          -4.035099386698416E-4,
          -9.166803904209145E-6,
          -2.7242668761968187E-6,
          2.7294610748595842E-5,
          -4.211361680390414E-4,
          -4.3556789735318285E-4,
          -4.290274766800277E-4,
          -4.523502155407145E-4,
          -4.2866737568291813E-4,
          -5.793325045612902E-4,
          -7.445374059291602E-6,
          -4.4383228364749235E-6,
          -1.3586438744813314E-5,
          3.05288305808083E-5,
          -4.2394822801784717E-4,
          -1.2519285885476896E-5,
          -4.419440307569293E-4
        ],
        "bias": -0.0011446174091230335
      },
      {
        "weights": [
          -0.0027848675303183104,
          -6.594486425149458E-4,
          -6.264802350626936E-4,
          -6.676222759684859E-4,
          -6.074378172927408E-4,
          -2.4237828234305017E-5,
          2.683385425317993E-5,
          -6.006822879725225E-4,
          -6.35764712935776E-4,
          -6.247006735557513E-4,
          -1.43169837838029E-5,
          -4.843193070590301E-6,
          6.9524546142443155E-6,
          -7.287610305277767E-6,
          -0.0021219765364692365,
          -0.0027961432165030486,
          4.7271857976620847E-4,
          -6.084393315363319E-4,
          -0.0016430442865496056,
          -1.709729435268234E-5,
          -5.968760817054517E-4,
          -0.0027859453369588373,
          -0.001126163599424615,
          5.685421636184596E-6,
          -6.361087797202433E-4,
          -6.751892610494597E-4,
          -1.3748430787050207E-5,
          -2.1443784256359765E-5,
          -6.380167423517102E-4,
          -5.851956416283387E-4,
          -6.333202790871138E-4,
          -7.9160427397281E-6,
          4.317975483963212E-6,
          -6.366559658372996E-4,
          1.2041131107467889E-6,
          -2.4680778429990538E-6,
          -0.002786800096572717,
          -0.0022585130939321413,
          1.7549226318852682E-4,
          -2.8356975587855287E-6,
          -1.903036970410109E-5,
          -6.155614023897604E-4,
          1.4995410602022826E-5,
          -0.0011249106263666422,
          -0.002533650531088022,
          -0.001603841533584724,
          -6.209430548822132E-4,
          -0.001108804015497328,
          -4.80908286421839E-6,
          -1.1546113218449782E-5,
          1.345381379671197E-5,
          -6.340773453254113E-4,
          -6.262329858921718E-4,
          -6.16199529519666E-4,
          -6.227030166239193E-4,
          -6.257244638137152E-4,
          -0.0016546527115858343,
          -1.0185347480902015E-7,
          -7.980240237572164E-6,
          -1.4346184570896194E-5,
          6.693138658594975E-7,
          -6.324606641443676E-4,
          -1.0357354447981265E-5,
          -6.30456276266427E-4
        ],
        "bias": -5.341708906991453E-4
      },
      {
        "weights": [
          -6.754337575893515E-4,
          -6.647779067079228E-4,
          -4.651299005380772E-6,
          -6.677289841282187E-4,
          2.0663759181988696E-5,
          -5.800625936653395E-6,
          2.2556005635147997E-5,
          -5.625436023668272E-7,
          -5.409095757392429E-6,
          -8.081521365908688E-6,
          -2.5187940670478087E-5,
          -4.127972596390499E-6,
          -8.978219345627969E-6,
          1.1599566945345006E-5,
          -6.904698852169955E-4,
          -6.518792522125815E-4,
          4.683564897241665E-6,
          -3.985567170371366E-7,
          -6.788168173302454E-4,
          2.5130626298868214E-5,
          -6.269466878585553E-4,
          -6.697809687542932E-4,
          -6.639109634669701E-4,
          -6.626173313352159E-5,
          -4.227383454857172E-6,
          -6.690975481159685E-4,
          1.207890281324953E-6,
          2.4834326830973404E-5,
          -6.525536164293978E-4,
          8.596948130616032E-6,
          -7.0462174900164275E-6,
          -1.7105236368432E-5,
          -3.16368851515754E-6,
          -6.748620866389934E-4,
          -2.0326661750090144E-6,
          -2.7994079510859675E-5,
          -6.40410974214334E-4,
          1.1663182947186683E-6,
          -5.442288033096195E-6,
          8.43164881210176E-6,
          -2.5230190081175484E-5,
          3.443109474569078E-5,
          1.528724841711126E-5,
          4.49040161728733E-5,
          -6.773784569738501E-4,
          -6.730141466936843E-4,
          5.0426754041615454E-6,
          -6.559822381781924E-4,
          -1.1369585330188985E-5,
          3.416956793846928E-5,
          8.832310614345754E-6,
          4.417261320670501E-6,
          2.62730834941048E-6,
          -6.289490525776776E-4,
          2.2506325078434143E-5,
          -6.272404007172519E-4,
          3.810851544383179E-6,
          7.009281840402966E-6,
          1.3412089897031549E-5,
          1.0619225321304168E-5,
          -6.409817550196989E-6,
          -2.5352198174143678E-5,
          1.570190517742415E-5,
          -6.351829480899453E-4
        ],
        "bias": -3.339278171665387E-5
      },
      {
        "weights": [
          5.206721309677495E-6,
          4.42302935321732E-6,
          2.002027685392894E-6,
          4.786516767450828E-6,
          -9.066696042020486E-6,
          1.0291867968266452E-5,
          1.1860243410259185E-5,
          1.4187045974697766E-5,
          1.3868771465758648E-6,
          2.6690337574926084E-7,
          2.155054087521169E-8,
          -1.1031221067228694E-5,
          -6.334614973242536E-6,
          -1.07624710171046E-5,
          5.768088056649273E-6,
          -1.0627374449447638E-5,
          -9.478091653117179E-6,
          -6.6353234899895215E-6,
          -3.125879655726877E-4,
          -9.151981043935897E-6,
          8.201652873439586E-6,
          6.05463414644364E-6,
          -5.37050815378972E-4,
          -2.13402289821455E-5,
          -2.2974441628653657E-5,
          1.8898150836720492E-5,
          -2.048853323655163E-6,
          -1.607314672346148E-5,
          -1.190114323702726E-5,
          -3.2367984251289686E-6,
          -1.757663263604623E-5,
          -9.448555588443063E-6,
          8.430071745850794E-6,
          4.3664476034683366E-7,
          -1.711380190976873E-5,
          5.449637925164756E-6,
          -3.6448643566816E-4,
          -2.1146530178278142E-5,
          1.0286973666107548E-5,
          -1.4037714331795876E-5,
          -6.459394820051696E-6,
          1.854535053897283E-5,
          1.4345223665037955E-5,
          -5.024492339790669E-4,
          -1.8367553905037054E-4,
          -0.008752481075506543,
          2.1148416230407174E-5,
          -3.53988921727879E-5,
          8.478079462643111E-6,
          2.3390207322218713E-5,
          1.3097662876994174E-5,
          -1.1258199268909804E-5,
          -2.074414600653619E-5,
          8.00208659111042E-6,
          2.9446582724308926E-6,
          -1.0078854379727159E-5,
          -6.340442821809492E-6,
          8.351750414317464E-6,
          -7.419215037206229E-7,
          -1.2673334012139626E-5,
          1.9898841577894582E-6,
          -1.757699944820224E-5,
          -1.9172260829983367E-5,
          -4.768799476698023E-6
        ],
        "bias": 3.555021437667046E-5
      },
      {
        "weights": [
          4.5499929627479546E-7,
          -1.4952369744535909E-5,
          -1.7589237225964638E-5,
          -1.1067999928292352E-5,
          -4.908227935277079E-6,
          -1.4988167274664958E-5,
          -8.38923390128249E-6,
          -7.671177375649563E-6,
          -9.763146606918123E-6,
          5.8273068165219276E-6,
          -2.2674364397718154E-6,
          -1.879489099288834E-5,
          -7.178086411164399E-7,
          -2.6530079786343075E-5,
          -2.561227368872979E-5,
          4.294173005056073E-6,
          1.206663054319268E-6,
          -1.6129210368416136E-7,
          -2.2794160829936E-6,
          7.786654149392731E-6,
          -1.282976387078357E-5,
          4.639060437227164E-6,
          -9.198358614926568E-6,
          -1.5805906181393678E-5,
          -6.805813866687651E-6,
          -3.1931292826917914E-6,
          -2.2556328793726795E-5,
          6.4199143732851965E-6,
          1.2570587606536742E-5,
          -5.547088226478414E-7,
          3.5913795240512215E-5,
          -2.551664189590491E-6,
          7.897683539573874E-7,
          5.566933812682147E-6,
          -1.0328574106411192E-6,
          -1.2417555560954848E-5,
          -9.186859061307822E-6,
          -5.677688202989101E-6,
          -1.3860079407503771E-6,
          1.2037309134033606E-5,
          1.5694468016248216E-5,
          -1.109446540854664E-5,
          -4.762187921083643E-6,
          -1.4295328588647747E-5,
          -2.506216206177226E-5,
          -1.02661308491019E-5,
          8.488366155359314E-6,
          1.1594195412279812E-5,
          1.256282252072434E-5,
          6.576147362221359E-6,
          2.019222212608992E-5,
          -2.7361881784236118E-5,
          2.211305719198368E-5,
          8.174492457819371E-7,
          -7.349493534566923E-6,
          -5.312923549054878E-7,
          9.947096436049233E-6,
          1.6953902645533675E-5,
          -1.0836809061683267E-5,
          3.0131470819102587E-5,
          -4.073422250612069E-6,
          -1.2060134642865887E-5,
          8.07540333106322E-6,
          -1.49183355407895E-6
        ],
        "bias": -5.2009942141203875E-5
      },
      {
        "weights": [
          -0.007855837463646608,
          -0.003885811455334037,
          -0.003873870883825153,
          -0.0038586081621610336,
          -0.003907059779208157,
          8.411810310922753E-6,
          1.3614072517883714E-5,
          -0.003862688594135748,
          -0.0038957173173802266,
          -0.003895982587995347,
          2.602832316249501E-5,
          -5.12794441040238E-6,
          -6.122163002232029E-6,
          -3.7959347936809178E-6,
          -0.008732626772476645,
          -0.007800237384872021,
          -0.008821183381439017,
          -0.0038646313736538846,
          -0.01397852814227243,
          -6.1169233964699775E-6,
          -0.007654996815566393,
          -0.007756962673905227,
          -0.011230785160697086,
          -1.56019715367289E-4,
          -0.0038931979520104446,
          -0.0038670506941060213,
          8.359961872922749E-5,
          1.3818131824851196E-5,
          -0.0038715054192028763,
          -0.0038552464079587897,
          -0.0038709181043522804,
          -8.33293176282845E-6,
          -1.828509521357292E-5,
          -0.00400569574685904,
          4.421287614304999E-6,
          7.292098993770303E-6,
          -0.014198685636732189,
          -0.003910935286175116,
          -0.007279632804859693,
          -1.2312126243167521E-5,
          7.9115815034122E-6,
          -0.0039259686550726725,
          3.223688228662187E-5,
          -0.014201958525754944,
          -0.012689297089327431,
          -0.014860504983184248,
          -0.003887596519884305,
          -0.00804680662275477,
          -2.0873076198699357E-5,
          9.623604248725215E-5,
          1.2507719727529491E-5,
          -0.004007560276128465,
          -0.003876415565999032,
          -0.0038775115205445933,
          -0.0039017161644608936,
          -0.0038866673121677312,
          -0.003884046095714777,
          -2.0280310986524414E-5,
          -4.367626965939378E-6,
          -2.2558899389967158E-5,
          2.054802683312276E-5,
          -0.0039925018330965,
          -4.1734542214132324E-6,
          -0.003883911891260478
        ],
        "bias": -0.0015362040366906778
      },
      {
        "weights": [
          3.34621020101224E-6,
          -7.87261319207145E-6,
          1.3236056177312673E-5,
          1.1931382055428689E-5,
          -8.262607287996264E-6,
          -1.22078854421963E-5,
          5.947768748519853E-7,
          -2.229655280396882E-6,
          -1.2777410054634922E-5,
          -3.301729524498255E-6,
          -4.822706183149533E-6,
          3.8620555120504936E-6,
          6.001529045994047E-6,
          8.566448898404468E-6,
          -4.709101565479462E-6,
          9.469039907268332E-6,
          5.96045316466784E-6,
          -9.97888021406215E-6,
          -8.33267021631685E-6,
          -3.608554368217535E-6,
          -1.5219734477214152E-5,
          5.949282014555354E-6,
          7.087280201211493E-7,
          1.390945049821997E-5,
          8.61970263764091E-6,
          -1.0662308078619248E-5,
          -4.285708112981551E-6,
          1.2560267678488267E-5,
          -8.678267755357383E-6,
          -8.898078643645136E-6,
          -7.953236944205477E-6,
          2.0909841004304364E-5,
          2.8667545116865857E-5,
          2.4575125507142556E-5,
          2.0436223689028876E-6,
          -6.953504383479997E-6,
          7.518237965832573E-6,
          -2.00446671505539E-5,
          1.5245541511785052E-5,
          -3.223222617216334E-7,
          2.4716662264423135E-6,
          2.7132917543254456E-5,
          -2.4741692373874567E-6,
          4.085645003127704E-6,
          1.5254452915557996E-6,
          -9.37078185697992E-6,
          4.250934757540721E-6,
          -1.1261818939334221E-5,
          6.030542308426298E-6,
          -6.281310205683608E-6,
          1.0775938384120982E-5,
          -7.99765791689366E-6,
          4.511282199790821E-6,
          -6.889839119094693E-6,
          -1.0003287956776265E-5,
          -7.173678497665186E-6,
          8.760806661908984E-6,
          -1.7190893427906096E-5,
          2.9056043851128875E-5,
          2.3730483330268645E-5,
          -8.275480093108363E-6,
          -2.2617341597814038E-5,
          9.896276241592133E-6,
          -1.7496515330195644E-5
        ],
        "bias": -1.3019243167378838E-4
      },
      {
        "weights": [
          -0.0010794416441333048,
          -1.861766413607191E-4,
          1.6357212777296135E-5,
          -3.0385748019380143E-4,
          -1.5209809537856358E-5,
          -1.122486033575931E-5,
          -2.3976095116559877E-5,
          7.294517616977674E-7,
          -2.461450020939741E-5,
          3.300399209158613E-8,
          4.930922504874809E-6,
          7.250663192726463E-6,
          1.2472735853926017E-5,
          1.7410138708774875E-5,
          -8.395603669392873E-4,
          -0.0010855977421067443,
          5.350928711778868E-7,
          -1.3355726835674477E-5,
          -0.0011768193479446292,
          -2.4969647554806786E-6,
          -1.7378094146687568E-4,
          -0.0010704035278450543,
          -0.001025189466575104,
          6.059758659566552E-6,
          -1.524255563352193E-5,
          -3.730886818303807E-4,
          -5.451227377682807E-6,
          6.275959328438263E-7,
          -1.8650274819517775E-4,
          -1.679199954413235E-5,
          1.1883357022385327E-5,
          -2.4026517238854093E-5,
          -1.943598715278072E-6,
          1.4928577114504958E-5,
          -2.0352755979236748E-5,
          1.754864196740959E-5,
          -0.0010350643119600956,
          -5.351174706707584E-5,
          -2.096879996438421E-5,
          -3.036412834000987E-7,
          -3.767848996324276E-5,
          1.7228118996316925E-6,
          2.2500183561260272E-5,
          -0.0010537408280189443,
          -0.001060695655692507,
          -0.0013770011772036154,
          -3.589971284222048E-6,
          -0.0010542208114678292,
          1.650994298748085E-5,
          3.830795420776853E-6,
          -1.4877069622360147E-6,
          2.238208677032721E-6,
          -1.0383689342754933E-5,
          1.4671801185485193E-6,
          -1.4104904393797427E-5,
          3.627997145653998E-7,
          -4.186390056388262E-6,
          -1.6807023729834707E-5,
          -1.6353573977753372E-5,
          4.4743688870582405E-6,
          -1.1792254295062285E-5,
          4.507388443829661E-6,
          -2.056086911547792E-6,
          -4.095658304858853E-6
        ],
        "bias": 8.36322900787174E-5
      },
      {
        "weights": [
          -8.997505645983558E-6,
          -2.3807275801823746E-5,
          6.553880512093665E-6,
          3.4849921405067484E-7,
          3.11956758880534E-6,
          5.829444253328462E-6,
          -7.09381253352878E-7,
          1.5106335274036414E-5,
          -8.838093475125148E-6,
          -5.04091464379812E-6,
          -2.228097139064359E-5,
          1.1554572383942979E-5,
          2.5590437227472922E-6,
          -2.094540868163845E-6,
          1.0494498996089223E-5,
          -7.28991428280979E-6,
          -4.875125900644713E-6,
          -1.1959095940901445E-5,
          -9.687976663500363E-6,
          -1.883062317920019E-5,
          3.885617250559129E-7,
          8.64102255213547E-6,
          -3.276483418179282E-6,
          -8.614157361326702E-6,
          -2.2057818862378276E-6,
          9.722264103636075E-6,
          -9.677441703407175E-6,
          -1.1655349010264165E-5,
          -1.4360757472181878E-5,
          3.352920381475905E-6,
          -6.767463477705724E-8,
          -1.8122261240304573E-5,
          -6.984352767382574E-6,
          -1.6008083915532322E-5,
          2.4125266669914365E-5,
          8.614698850403705E-6,
          6.646883862023404E-6,
          -1.0558746075571346E-5,
          2.5547873523044575E-6,
          -7.6223903347768876E-6,
          1.5788970944964778E-5,
          -2.5571337235090178E-6,
          -4.762042891636296E-6,
          7.639317742184512E-6,
          -8.200995934292623E-6,
          -1.9381225347727623E-5,
          1.381648897622533E-5,
          4.568866700903809E-7,
          -9.468390017565159E-7,
          -8.360241048490631E-6,
          -5.522198933330982E-6,
          -1.4135368483399736E-5,
          7.667716154096358E-7,
          -8.86628542049596E-6,
          -3.955713287880817E-6,
          1.751224772808322E-6,
          2.1211612871473447E-5,
          5.815774336789591E-6,
          1.4976294396149479E-5,
          9.044175383028718E-6,
          -3.483072366714996E-6,
          -3.634155391323034E-5,
          1.766086998948079E-5,
          -1.0527264458514069E-5
        ],
        "bias": -4.3026050919081917E-5
      },
      {
        "weights": [
          -0.5672965475561215,
          0.1749893430171819,
          0.20831988159629275,
          0.17571006351642443,
          0.20615514076962527,
          1.4339526239462311E-5,
          -2.104951251753118E-5,
          0.19835217985394263,
          0.20989092406873605,
          0.2093168537311536,
          -3.4892149469297054E-4,
          1.0822281552422553E-5,
          -3.637263301458416E-5,
          -3.330200044230785E-5,
          -0.5953181364791833,
          -0.43398712686297475,
          -0.9839836884594957,
          0.21412421940389642,
          -0.44696612098242,
          -2.864301672820611E-6,
          -0.45074494871424525,
          -0.47273629508714693,
          -0.43821549343323823,
          -7.637135599075657E-5,
          0.20857845633684954,
          0.1954610379426633,
          -4.637589857262613E-4,
          -4.7891099261450733E-4,
          0.20712717754871326,
          0.21033464120302853,
          0.20894694714980197,
          -1.6297589405042114E-5,
          1.1822949563475165E-6,
          0.20874273650321712,
          -3.068018476901856E-6,
          3.764087601634676E-5,
          -0.44728078868398785,
          0.18031942957173738,
          -1.1855879454620748,
          1.9171381603954816E-6,
          7.976727480803172E-6,
          0.21139647281092086,
          -1.888978650042018E-5,
          -0.4539398854111333,
          -0.43611378757131897,
          1.750536414898014,
          0.20808376077932048,
          -0.4318180579731514,
          -1.3530594467777661E-5,
          -8.151494517892058E-4,
          -2.5487954797170474E-5,
          0.2061017865930457,
          0.20761359537260374,
          0.19487257712532632,
          0.20695005762703034,
          0.19533235253397685,
          0.23895581450979245,
          -1.671401268105971E-5,
          -2.5207667059441417E-5,
          -8.809535758140019E-5,
          -1.8381537712251162E-5,
          0.2066505761084418,
          5.068240629825075E-6,
          0.17914676571598817
        ],
        "bias": -1.8273109624040658
      },
      {
        "weights": [
          -6.504751697655672E-6,
          -2.613003080459442E-5,
          8.29019540373E-6,
          -6.569024516161319E-6,
          -2.1732224914489053E-5,
          -2.322637688946181E-6,
          2.0797338389156222E-5,
          6.5395125635758195E-6,
          -2.48702670235738E-6,
          -7.918983335670216E-6,
          -3.277602023611554E-4,
          6.0512573861585326E-6,
          6.177009069366873E-6,
          2.653876494986816E-5,
          -0.0013265470121756717,
          -1.616606074148869E-5,
          -0.0012053330593670248,
          -1.9764619912513586E-6,
          -2.0375690056027236E-4,
          -1.217356478923329E-6,
          -0.0011523752176055694,
          -1.6781825689423945E-5,
          -5.5532097842828826E-5,
          2.1745018342745995E-5,
          1.6476525046845705E-5,
          -3.7419029562486184E-6,
          -4.50585028468153E-4,
          -3.2055622667820805E-4,
          1.5555124415427196E-5,
          -1.775524013622895E-5,
          -9.685099806717119E-6,
          -2.1561904768824225E-5,
          1.2599732497400804E-5,
          -1.1021941983945192E-5,
          -1.4037011827976676E-5,
          -1.2364961205396294E-5,
          -6.590710960496488E-4,
          -4.21269089576786E-5,
          -9.725009891283209E-4,
          -2.6672153898565183E-6,
          -6.929324658226274E-7,
          -2.7983303039790794E-5,
          -5.573058669631748E-6,
          -0.0019371231340657268,
          -4.518569290008771E-7,
          7.475828392538703E-6,
          7.745079833026784E-6,
          3.7058700255146136E-6,
          -1.3726199588404979E-5,
          -6.240652312344138E-4,
          1.9807617351426648E-5,
          1.55972527912523E-5,
          -1.524280475124203E-5,
          -2.2650860945574615E-6,
          -2.1390777974923124E-5,
          1.0064455337672095E-5,
          2.1208331412669935E-5,
          -1.1780939790217515E-6,
          -1.614481915123171E-5,
          1.663336506506006E-5,
          -1.3972201403686629E-5,
          2.300629559108107E-5,
          1.632701917462034E-5,
          1.0977904664331166E-5
        ],
        "bias": -5.673614016618241E-4
      },
      {
        "weights": [
          -2.787031199501351E-4,
          -6.96257209834838E-4,
          -8.485329808859011E-6,
          -6.865745872739929E-4,
          1.8203743487446334E-5,
          7.558058921139521E-6,
          7.934488277159564E-6,
          -1.1588193991456346E-6,
          -1.5305178354237544E-5,
          1.4493887599711491E-5,
          1.628613003322796E-5,
          -1.5379843186275202E-5,
          -4.067414053736372E-6,
          4.905160439738729E-6,
          -4.514660835018709E-4,
          -6.222626022485875E-4,
          7.012858985450157E-6,
          -1.4164996268380873E-5,
          -3.394460088731637E-6,
          1.4128042198398842E-5,
          -5.47442570590507E-4,
          -6.409266170440471E-4,
          -5.323715021825935E-4,
          5.894932776758038E-7,
          7.586065682496959E-6,
          -6.629185119079097E-4,
          -3.3162069827266364E-5,
          6.501295085201304E-6,
          -6.457153751578594E-4,
          -5.549334921722197E-4,
          -6.391662699818212E-6,
          -5.378775472870864E-7,
          1.1299130750634518E-5,
          -6.20853573819563E-4,
          -1.1831039162890664E-5,
          -1.2625581682329498E-5,
          -4.965612390006107E-4,
          -5.627342742095467E-6,
          -4.821354950267203E-6,
          -7.792734795232987E-6,
          1.0141000789126217E-5,
          -1.9875939338067664E-6,
          1.0122018838331869E-5,
          5.187717378178334E-6,
          -6.081277228866047E-4,
          -7.239214272238971E-4,
          9.239855264743695E-6,
          -1.0701733873150276E-4,
          -1.5695829538113356E-5,
          -1.161033197889049E-5,
          3.1425740592088154E-6,
          -1.2531430353128555E-6,
          -9.923888678297875E-7,
          -6.111331870098695E-4,
          -2.771618221391463E-5,
          -6.170071830524597E-4,
          8.385494938738077E-6,
          5.2826245692246876E-8,
          -5.6369830141757585E-6,
          -8.829509804898407E-6,
          4.588129559481202E-6,
          2.427451745802561E-6,
          9.633276658497815E-6,
          -6.394956207383001E-4
        ],
        "bias": 1.3485239011003568E-6
      },
      {
        "weights": [
          -6.815180422243757E-4,
          -6.724771164863333E-4,
          3.292163648845666E-5,
          -6.710544264414393E-4,
          1.494704232407208E-7,
          9.19795017748626E-6,
          7.466039915657668E-6,
          8.909586169031542E-6,
          -2.3264964060890017E-5,
          1.9961331454885344E-6,
          -1.7977236447179785E-5,
          6.037920097143207E-6,
          3.5179386134838053E-6,
          -5.647532409839578E-6,
          -6.716546487588757E-4,
          -6.692743895395726E-4,
          7.520924666311078E-6,
          -1.5503579360540263E-5,
          -6.757230524463944E-4,
          -2.7381215041049553E-5,
          -6.106304978904732E-4,
          -6.89183851476209E-4,
          -6.206411813319356E-4,
          -5.0069703897491494E-5,
          -4.195230724799617E-6,
          -6.656450783268074E-4,
          5.532343877159571E-5,
          2.005366884808132E-5,
          -6.61715315346325E-4,
          -4.40042423769311E-4,
          2.4756781430753926E-6,
          -1.8278628831056772E-5,
          1.2472955370612774E-5,
          -6.87148842162807E-4,
          -5.107918695064638E-6,
          -1.4611827806253674E-5,
          -6.392126567134922E-4,
          1.3397136348320506E-6,
          -1.988327618818879E-6,
          1.6956177183892146E-6,
          1.3544822168124798E-5,
          2.750604917808269E-5,
          4.010833614854637E-6,
          3.943016028360022E-5,
          -6.484832927081826E-4,
          -6.736490503582298E-4,
          -6.088786379158816E-6,
          -6.815881194390063E-4,
          -4.49398191491402E-6,
          3.294405313674591E-5,
          -7.1149093668022865E-6,
          7.468455530984618E-7,
          1.7965103252998958E-6,
          -6.196093782292458E-4,
          1.0207974542290534E-5,
          -6.195299706549765E-4,
          1.0257661366857562E-5,
          2.1457032902440502E-5,
          -2.0788979821627888E-5,
          1.3699918304270513E-5,
          -1.1618676093450887E-5,
          -5.570004366541427E-5,
          -1.3844152303868546E-5,
          -6.426368991813263E-4
        ],
        "bias": -3.9298550901373384E-5
      },
      {
        "weights": [
          -3.2052818701792014E-6,
          -3.549089872409745E-6,
          1.0308452333446158E-5,
          -1.1053065374447332E-5,
          1.9862854915690382E-5,
          1.336388272563625E-6,
          -2.2377594793435017E-5,
          -3.361627279167425E-5,
          -1.1883737635158066E-5,
          -2.3012358557048736E-5,
          -4.604124004337234E-6,
          -2.342528801405167E-5,
          -1.036844001206383E-5,
          -1.2391656263454277E-5,
          -2.177808750310702E-5,
          1.5242387697457018E-5,
          -1.5944814205860094E-5,
          7.759579947012051E-6,
          -6.189913751668633E-7,
          -1.641663757811983E-5,
          -9.057569494996071E-6,
          -9.642554983763962E-7,
          -7.982537981804773E-6,
          -2.9160976529364E-5,
          -1.9679281382535947E-5,
          -1.192583257968756E-5,
          1.2238671335361502E-5,
          7.689624819094252E-6,
          4.54108445623847E-6,
          1.5641011983653546E-5,
          -5.461385609501128E-6,
          -7.614618759888333E-6,
          -1.1555334411220981E-5,
          1.6054084546193216E-5,
          -1.1617990554861591E-6,
          -9.18021144055135E-6,
          -1.5134616847459213E-5,
          1.8284395498361614E-6,
          -8.488855832190045E-6,
          -5.706197446291422E-6,
          -4.123220668639938E-6,
          -3.1957432084774286E-6,
          4.715233839487769E-6,
          -1.93362635318192E-5,
          -1.95397446899956E-5,
          -1.7107752075532104E-5,
          6.9464686457500205E-6,
          -5.854804730153751E-7,
          -1.378375757968675E-5,
          5.392585452282416E-6,
          -2.9173020955166326E-6,
          -7.745515783433902E-6,
          1.552639457642291E-5,
          -1.7354008488024794E-5,
          6.3602993943617636E-6,
          3.375096180298048E-6,
          -7.461743811630874E-6,
          9.73754727296161E-6,
          1.0629570291435115E-5,
          -1.712145510334089E-5,
          -2.2708119254144557E-5,
          3.300414780589145E-6,
          -1.6926496763062147E-5,
          -9.402016582533123E-6
        ],
        "bias": 2.3299180042934993E-5
      },
      {
        "weights": [
          -2.486475927843985E-5,
          3.7230511131998594E-7,
          9.487217307985375E-6,
          9.043239168135429E-6,
          -1.3185806220946747E-5,
          -1.6430424077926272E-5,
          3.0227789708088148E-5,
          -2.935872132476014E-5,
          -3.081965324856311E-5,
          1.9830879069767427E-5,
          -3.4291976432336573E-4,
          -1.6861950748382827E-5,
          -1.4614075437113476E-7,
          4.140952623327966E-5,
          -0.0018560525197700614,
          -5.17210099332459E-6,
          -0.0013436283696266426,
          -3.4762514539455425E-6,
          -2.2017049969582245E-4,
          -1.555559827151464E-5,
          -0.0013508221402901849,
          -5.097799358949532E-6,
          -1.0253313906875428E-4,
          2.8968879703001434E-5,
          2.5354106915180476E-5,
          2.3767446865956793E-5,
          -4.505589010233879E-4,
          -3.2420528238765367E-4,
          1.1340062654560693E-6,
          -5.182750763356188E-6,
          5.59022417354818E-7,
          -2.5578608509895693E-6,
          -2.070559388074931E-6,
          2.1681500827254704E-6,
          -1.1121121689094613E-5,
          -2.0725474098074874E-5,
          -0.0011261128426357713,
          -1.0290646714932283E-5,
          -0.0011509124922671077,
          1.2266450485436813E-5,
          -1.4763365566251648E-5,
          -4.534881049980242E-5,
          -8.882122616768274E-7,
          -0.002065698434275182,
          1.2454732798240235E-5,
          -2.3016429711275665E-5,
          2.3869672962619476E-5,
          1.7669903163706122E-5,
          1.677068260260315E-5,
          -6.347078486609152E-4,
          2.675581306561857E-6,
          1.3499137712030141E-5,
          -2.1642068736885965E-6,
          -1.994424410972348E-5,
          -2.107689627120276E-5,
          -2.0536050541187247E-5,
          -8.451526537548482E-6,
          -2.1643959917212523E-5,
          1.1329789608264522E-5,
          -2.6884647430162655E-5,
          -9.736658314971737E-6,
          8.643887577619668E-6,
          -2.2559970889759632E-5,
          -1.891167519414593E-6
        ],
        "bias": -0.0010445499387575668
      },
      {
        "weights": [
          0.4177009421475183,
          -0.11392243195522342,
          -0.09566209231227167,
          -0.11402124289749167,
          -0.11091108922653616,
          1.72975285447202E-5,
          -1.251838197998432E-5,
          -0.1115925791218074,
          -0.09747922565707036,
          -0.10319370552891843,
          2.1034499705355878E-4,
          -5.6626387606016E-6,
          -1.128192517137768E-5,
          4.273846875599717E-5,
          0.5685298060270743,
          0.4031174292350666,
          1.0076239062761285,
          -0.13070030026494456,
          0.4125337730924955,
          -1.7268690379241705E-5,
          0.38783550691234214,
          0.4074712253980857,
          0.4081381730793226,
          -6.087564800634077E-5,
          -0.09945031337668278,
          -0.1106345089657348,
          3.5144977575887466E-4,
          2.1575731092021377E-4,
          -0.11801392896007493,
          -0.10422086057647853,
          -0.10239450468559341,
          3.2443522418729544E-6,
          -1.7096702015919592E-5,
          -0.10873619651185346,
          2.3377744101900644E-5,
          2.2415585691107665E-5,
          0.4127958229667341,
          -0.12653896904669437,
          1.1320244458870392,
          -7.450500816639704E-6,
          -3.099979259169708E-6,
          -0.07047510395992183,
          2.00602928347812E-5,
          0.41516772547552855,
          0.40882237286572215,
          -2.1798385371224933,
          -0.09482540373368664,
          0.40972325066947796,
          -5.853267933096716E-6,
          3.6030370342153524E-4,
          -3.6060907349032803E-6,
          -0.07631431850746338,
          -0.11450568583768186,
          -0.11029166403551868,
          -0.1058011465781831,
          -0.10965448007571321,
          -0.141376794867875,
          -5.473113873652487E-6,
          1.0393998796648755E-5,
          -0.0036223966558289024,
          -6.53724911398671E-6,
          -0.07112850936171938,
          -3.1912888993381644E-5,
          -0.11507591995545012
        ],
        "bias": 1.100584703076629
      },
      {
        "weights": [
          -0.5920411380383758,
          0.17738482316127954,
          0.20290715382622776,
          0.17829314131049906,
          0.20649924102784187,
          -1.2380490650254216E-5,
          -1.6968804459204388E-5,
          0.20060509059639975,
          0.2046600763117235,
          0.20748184980017467,
          -3.339074115242187E-4,
          2.9835632349532505E-8,
          -2.802544614572477E-6,
          -1.7767679122833454E-5,
          -0.6221999705201453,
          -0.4576470183802696,
          -1.0509173097550266,
          0.21613135632898164,
          -0.47605632521704144,
          -1.2816450573762506E-6,
          -0.4702794829022934,
          -0.49957393228024927,
          -0.46897867236003865,
          2.60555068323374E-4,
          0.20551045543418714,
          0.19754141616770388,
          -4.81225800021095E-4,
          -3.548160193849709E-4,
          0.20850414765998485,
          0.20860245874734837,
          0.2070322052101052,
          -6.220516847381799E-6,
          1.0946107331657039E-5,
          0.2085082602680168,
          7.946439565271111E-7,
          3.267094282795305E-5,
          -0.4755600907717687,
          0.1817785821594016,
          -1.1933502409110897,
          1.0867285698843343E-5,
          2.1726886733931974E-5,
          0.19623219560397984,
          -7.180505590022283E-6,
          -0.4913203595910218,
          -0.464105379196121,
          1.74033618821241,
          0.20248294619625318,
          -0.4561444160526139,
          1.2705556435717282E-5,
          -7.759637002854536E-4,
          1.902947308878431E-5,
          0.1953195662165087,
          0.20834725390781056,
          0.1970020310700842,
          0.20643641737771942,
          0.19744124475541652,
          0.23659218014036698,
          6.300958946047351E-6,
          1.2588003280671261E-7,
          -8.212307199977508E-5,
          3.5243925101348513E-6,
          0.19421991988964193,
          -2.968469862259798E-6,
          0.1809708349580819
        ],
        "bias": -1.784501036850389
      },
      {
        "weights": [
          -0.0178619873975207,
          -0.008615401930043225,
          -0.007895362358591779,
          -0.00861175526532003,
          -0.008202819330094924,
          -1.4107277726896082E-5,
          1.8975423084664562E-5,
          -0.008359291035185044,
          -0.00792175727011178,
          -0.008004635709985995,
          -4.125953300631267E-6,
          -1.5046934632875332E-5,
          1.948979256751165E-6,
          1.2950035591689697E-5,
          -0.020080267316553956,
          -0.015790964942548648,
          -0.006668561848607431,
          -0.0082045514196652,
          -0.015754396464343075,
          3.832251510411624E-6,
          -0.016239508352919138,
          -0.016443571870757845,
          -0.015689651177960645,
          -2.8235420357116367E-5,
          -0.007978543247343295,
          -0.008421655810544285,
          1.5161056356588981E-5,
          3.512889690624136E-5,
          -0.008270618843268771,
          -0.008041375491072013,
          -0.008054217535609282,
          6.093378006834719E-6,
          1.544693388923745E-5,
          -0.008191685893540976,
          1.5186910526999532E-5,
          7.535605600308344E-7,
          -0.01548214860827122,
          -0.008534001742666338,
          -0.009540380795564941,
          1.4400221053198493E-5,
          2.3800204383357588E-7,
          -0.0070995484466026175,
          1.8157858107309164E-5,
          -0.01563086339678987,
          -0.0156929092895086,
          -0.035184572628869044,
          -0.007927369267010851,
          -0.01580951591117034,
          -1.770910019006802E-5,
          3.144054015976293E-5,
          3.4960599654494838E-6,
          -0.0077572273231690456,
          -0.008202660104777645,
          -0.00842492925348324,
          -0.008130150570883208,
          -0.008406659208552042,
          -0.008063713872800604,
          -1.0640798840087503E-5,
          -1.380686732212699E-6,
          9.8807653933593E-6,
          8.972188293979963E-6,
          -0.007619667049632122,
          -4.630373966162484E-6,
          -0.008557784126462126
        ],
        "bias": -0.032681160968871754
      },
      {
        "weights": [
          -7.215182267855871E-4,
          -2.7580367597768543E-5,
          2.461334180562146E-6,
          -2.4008841828582783E-6,
          -3.9247711301901515E-6,
          1.3242757735849997E-5,
          -2.5436302894314334E-5,
          -9.566160122217151E-6,
          -9.51810245003049E-6,
          1.0865977260126155E-5,
          2.0719304540910372E-5,
          -1.2722697494484807E-5,
          2.0537684130269433E-5,
          4.873629889937364E-6,
          -6.999935054007563E-4,
          -7.113359521267649E-4,
          1.5284853131382741E-6,
          7.3827885408277166E-6,
          -7.047466911879939E-4,
          4.61465242370193E-6,
          -9.236119137973502E-6,
          -7.306166723333055E-4,
          -7.005583279872023E-4,
          -1.4202814870503862E-6,
          -8.952473614235288E-6,
          -6.854079767791846E-6,
          6.2843995948175566E-6,
          1.8770662535299716E-5,
          -1.6831830818612145E-5,
          -1.838951466831136E-7,
          -2.7609859944667454E-6,
          -8.18624927179516E-6,
          1.4335905279156106E-5,
          -2.1293817699564263E-5,
          -4.205649389385306E-6,
          3.128270028837202E-5,
          -6.929780889364217E-4,
          -2.1081070761843146E-5,
          1.320082431165027E-5,
          8.566820811870327E-7,
          -9.457093467385762E-6,
          2.1868477415989704E-5,
          -1.5282509140451056E-5,
          -4.472389286168097E-4,
          -7.083804806786138E-4,
          -7.430716348789903E-4,
          -1.7917404492503394E-5,
          -6.911617372236016E-4,
          -1.0283819662800156E-5,
          2.7569873614516563E-5,
          1.6585264817607069E-6,
          -6.03644890649509E-6,
          -7.69289525428146E-6,
          -1.3165138824534774E-5,
          -8.231189212452168E-7,
          2.237879985145472E-6,
          -5.043789648141818E-6,
          -7.129300583464516E-6,
          -1.99640808160366E-5,
          4.89653593297062E-6,
          -6.256102906025217E-6,
          -1.8284321508659676E-7,
          7.401599792298101E-6,
          -1.8424134302626378E-5
        ],
        "bias": 3.068569597068845E-5
      },
      {
        "weights": [
          0.41379757384917626,
          0.009602570315386876,
          0.032086658667618076,
          0.009409819184038068,
          0.016897265034104693,
          7.481111800536421E-6,
          -6.178936637998911E-6,
          0.015804556845196525,
          0.03090725134851692,
          0.023637476522053526,
          7.420402525881843E-7,
          -3.2826138250768324E-5,
          -4.8444292615656E-6,
          -2.7820707190807377E-5,
          0.5525445166023488,
          0.3941674080957934,
          0.5339508321341995,
          2.4652076274539063E-4,
          0.3952453539203598,
          6.2827560674706075E-6,
          0.3907623542284702,
          0.39923319734290874,
          0.3922415914413643,
          9.813377963992993E-6,
          0.0277111437213237,
          0.016559894982314517,
          -2.5577000940860148E-5,
          5.386320805292865E-6,
          0.012322866116001826,
          0.023741624759820397,
          0.02475092388707479,
          -1.3741623178773333E-6,
          -3.2789228027884665E-6,
          0.019754518760349823,
          -2.1102211504315794E-6,
          -9.857386016281076E-6,
          0.3900501199081917,
          -0.006986751237427777,
          0.8215081982955781,
          -4.5709681229287675E-6,
          8.548732082215971E-6,
          0.05819424377196969,
          8.848694390667532E-6,
          0.39528924308333224,
          0.39170102947600666,
          -2.175498208625109,
          0.032946990078720075,
          0.3923878440819318,
          -1.4806797871808682E-5,
          -4.723959470804222E-6,
          1.6335404810185317E-5,
          0.05033873917383703,
          0.014180101848110528,
          0.016203341561879345,
          0.021672002578711647,
          0.017446751191459928,
          -0.0043391665905947,
          -1.0659349187337417E-5,
          1.2021874162926145E-5,
          -1.9202927567197958E-7,
          -3.0100206763522166E-6,
          0.05567100079945432,
          7.997458730572955E-6,
          0.008307472454488912
        ],
        "bias": 1.1392190864231755
      },
      {
        "weights": [
          -6.719470430502673E-4,
          -5.901641192546825E-4,
          -1.0694073392940593E-5,
          -6.326664014559184E-4,
          -1.880306068976412E-6,
          -8.979428998923687E-6,
          -2.61194318083638E-5,
          -2.228927316990995E-5,
          -2.2163948546140835E-5,
          -4.217643758087714E-6,
          -2.8139860813762193E-5,
          -6.824808773742187E-6,
          4.403797151523308E-6,
          1.046672112895849E-7,
          -6.533139976794619E-4,
          -6.42989977484034E-4,
          -1.3398557634405817E-5,
          -1.3269260540711243E-5,
          -6.459774245820811E-4,
          1.6372436229739047E-6,
          1.4248586821233792E-6,
          -6.638359529297615E-4,
          -6.625399180299632E-4,
          6.420708833394609E-6,
          -7.88300584528158E-6,
          -6.712329172516787E-4,
          -8.633406543115907E-6,
          -2.1501356805272486E-6,
          -5.68699461361403E-4,
          -7.90581415718269E-6,
          3.161495235594309E-7,
          6.7973928329077065E-6,
          9.479997109974311E-7,
          -1.4599863967888641E-5,
          7.265813436072123E-6,
          -2.569463140936285E-6,
          -6.243713531969689E-4,
          1.4477699325556113E-5,
          -1.5303691722485167E-6,
          3.3731084268101292E-6,
          9.334243958555965E-6,
          -3.2250409245866155E-6,
          -3.513740331289645E-6,
          -6.857149729308132E-6,
          -6.431996813758804E-4,
          -6.73941380135068E-4,
          8.238258764895106E-6,
          -6.576518203960519E-4,
          3.063223779768812E-6,
          -1.0218507123570948E-5,
          1.4810831581807373E-6,
          -1.198641734816016E-5,
          -2.1047492748376614E-5,
          -2.105972293829476E-5,
          3.9579941849291106E-6,
          -9.297025771815797E-6,
          -6.834871556536544E-6,
          -2.33286624882567E-6,
          2.1380161050127344E-5,
          9.494771161290855E-6,
          -1.4184147769811761E-5,
          -2.6043226873555174E-7,
          -1.1039729088612934E-5,
          -2.803019749964471E-4
        ],
        "bias": 3.347438587912989E-5
      },
      {
        "weights": [
          -0.004367358358190325,
          -0.004874341801700412,
          -0.004745080278152893,
          -0.0048535229001432055,
          -0.004862742081811417,
          -5.501481971256951E-6,
          -1.0182198990542728E-5,
          -0.004862465777826459,
          -0.004742213543332018,
          -0.004799309691109512,
          -7.506324126333821E-6,
          -7.007932698122552E-6,
          1.4417552894150952E-5,
          4.622011450814268E-6,
          -0.004219599561851183,
          -0.00431792391947484,
          0.004713726974913705,
          -0.00474940114840296,
          -0.004351192661404462,
          -1.3856542053912895E-5,
          -0.004023860478652162,
          -0.00417408165382649,
          -0.004287211479061896,
          -4.265561787766958E-6,
          -0.004783663259602898,
          -0.004841217862495917,
          9.766568362379206E-7,
          -1.2060205789711648E-5,
          -0.004843995917972871,
          -0.004766100195783582,
          -0.004802511565403842,
          4.171736374664226E-6,
          1.1835854568857995E-5,
          -0.0048231750371620485,
          1.4582048784927938E-6,
          2.9464350270735004E-6,
          -0.004311774671722301,
          -0.00470721827134609,
          0.005177916872421028,
          -1.786442691081575E-5,
          3.35397679366057E-5,
          -0.004600537118897874,
          1.599173952353152E-5,
          -0.004262633412440418,
          -0.004323674583975445,
          -0.004146740165073712,
          -0.00477512922525203,
          -0.004276769853395345,
          1.4715118222154653E-5,
          1.82315020683982E-6,
          1.951522859688465E-5,
          -0.004716053613793587,
          -0.004852377609850979,
          -0.004835917907247972,
          -0.004826661517246507,
          -0.004839538994228811,
          -0.004580483152488224,
          2.0648441321238588E-6,
          2.6200918325322693E-6,
          -1.619230300615084E-5,
          1.7781913934544907E-5,
          -0.004692153061525398,
          -2.5382254529123084E-6,
          -0.004842579288049911
        ],
        "bias": -1.3007538462312028E-4
      },
      {
        "weights": [
          -1.152702687411164E-5,
          1.3516995895592302E-6,
          1.3175927168793698E-5,
          -2.3680051389388825E-6,
          2.3276448042850822E-5,
          6.10080455775214E-6,
          1.5043952807304311E-5,
          6.2189648556386495E-6,
          -2.313676347300449E-6,
          -1.50010334974985E-5,
          2.1434862003622255E-5,
          5.671693710390626E-6,
          -1.6759559371579153E-5,
          4.2856204145359436E-7,
          -1.5078784154762457E-6,
          -1.1199103101970138E-5,
          6.152680724265682E-7,
          -2.295188618873279E-6,
          -6.615291836684818E-4,
          1.1965027011645853E-6,
          -2.462831174190796E-6,
          -1.9516560027465018E-4,
          1.1305050661722158E-5,
          -1.3766012757920248E-5,
          -2.095025057261091E-5,
          1.493477006967127E-5,
          2.3039703561572047E-5,
          1.2272628081290812E-5,
          -9.16226313310218E-6,
          -5.3517615413303796E-6,
          -1.2893984812165051E-5,
          -1.1430577481147517E-5,
          -8.73329686541753E-6,
          2.7933421829780888E-6,
          1.2416209960246106E-6,
          -1.2865940310273003E-5,
          -9.768945694370235E-5,
          1.321146348933789E-5,
          -6.468546329794441E-6,
          -2.673344856826391E-5,
          -6.59981627073934E-6,
          -8.545183923789832E-4,
          9.209636280477065E-6,
          -4.536396289719916E-4,
          -1.7751821036486807E-4,
          -0.0029232139289179725,
          -1.4164036954687854E-5,
          -5.9142376665385945E-6,
          -4.431655314201149E-6,
          2.965681747640651E-5,
          2.87701490617882E-5,
          -4.055960579466425E-6,
          -6.378470092387748E-7,
          1.094383674249142E-5,
          -1.7148923361793583E-5,
          -1.0109180155780347E-5,
          5.452052176062134E-6,
          -7.692953811063107E-6,
          -1.4194716466225379E-6,
          -1.4489543922895222E-5,
          -1.4229826351067411E-5,
          -3.957157798732947E-4,
          1.582376235670616E-5,
          -1.5892635179925427E-5
        ],
        "bias": 1.1830948049467222E-4
      },
      {
        "weights": [
          -3.828090173686426E-4,
          -3.965929613280603E-4,
          -4.0710045099670155E-4,
          -4.0667439345045336E-4,
          -3.9776737679170183E-4,
          -7.414934046353597E-6,
          -2.0012215021865883E-5,
          -3.9170872406790123E-4,
          -3.9242319184706415E-4,
          -4.292636284622964E-4,
          -5.1229241040026265E-6,
          -1.4095262474733124E-5,
          1.083550363549219E-5,
          -1.3553703506922961E-5,
          -3.338501154508577E-4,
          -3.8848273484217246E-4,
          -1.4455583450172054E-5,
          -4.0561521548231516E-4,
          -3.805925147647798E-4,
          -9.941395237299972E-7,
          5.402723360079839E-6,
          -3.854682539962008E-4,
          -3.1398156064188834E-4,
          4.613749018341017E-6,
          -3.936500875730596E-4,
          -4.315972948037919E-4,
          -1.2358706631857661E-5,
          8.256215653271079E-6,
          -3.958337712034518E-4,
          -3.7982102180054343E-4,
          -3.982019049515845E-4,
          -2.2308911674613068E-5,
          -1.3332769318115225E-5,
          -3.9876650956524677E-4,
          -6.548530407521743E-7,
          1.3128130108999443E-5,
          -3.4072344425462866E-4,
          -3.957821604816173E-4,
          -1.1708448637241595E-5,
          -2.8996684399953953E-6,
          1.4117693911571297E-5,
          -2.057055793035958E-6,
          -1.4379487740068306E-6,
          -3.4280162548433896E-4,
          -3.588143533421282E-4,
          -3.728354040938959E-4,
          -3.948241407474972E-4,
          -3.4127212309099605E-4,
          1.2332701351863689E-5,
          7.737201582627942E-6,
          -1.7468417034771304E-6,
          -4.076504630778031E-4,
          -4.0391004670170907E-4,
          -4.2175889706370207E-4,
          -3.8662745845059596E-4,
          -4.2015107723332326E-4,
          -3.728390211053227E-4,
          -6.3571761538741525E-6,
          1.0816956348345016E-5,
          1.346403912003966E-5,
          -7.199676948104921E-6,
          -3.919789167226393E-4,
          -9.521422175808519E-7,
          -4.0361730724420484E-4
        ],
        "bias": 3.573704122438847E-5
      },
      {
        "weights": [
          -1.879025743683694E-5,
          -1.748079998334794E-5,
          -8.65534683917539E-6,
          -9.96726309488898E-6,
          1.200608317889813E-5,
          -5.108892954504104E-6,
          -3.977749843688427E-6,
          -1.1024161934501178E-5,
          -5.752411208355634E-6,
          7.1944894920530055E-6,
          4.039274491627229E-6,
          -7.893720234880901E-6,
          1.7252282310624466E-5,
          -3.202533901687543E-5,
          -1.0378904294065613E-5,
          -1.9969167322760138E-5,
          7.086818278952975E-6,
          4.02669049457829E-6,
          3.7340280275363043E-6,
          -2.478704418843042E-6,
          -7.479708431486083E-7,
          2.420196452810395E-6,
          -2.056339983101683E-5,
          -6.371995161477172E-6,
          2.3871297897613635E-6,
          -1.281843675195266E-6,
          2.0392083073534258E-5,
          -2.9105511200248234E-6,
          -2.489937051462841E-7,
          1.8778879767153126E-5,
          1.1480719501082301E-5,
          1.6093403400912026E-6,
          -2.5673097246717114E-5,
          4.1794834418647935E-6,
          -3.844686488097358E-5,
          7.63510482861505E-6,
          5.097586642056065E-6,
          -9.981584385897718E-6,
          2.6862480864727904E-5,
          -3.368881983056099E-7,
          -2.59830299786907E-5,
          -1.207219609303284E-5,
          -1.6473974589239323E-6,
          -1.740187518656424E-5,
          1.2089648701740037E-5,
          -1.0689503640981742E-5,
          8.007216591018139E-6,
          3.5465415856389483E-7,
          7.336872855290793E-6,
          -1.6672114973364744E-5,
          1.1085880112488427E-5,
          -5.134362751347563E-6,
          -4.660980956541012E-6,
          -2.864736218605987E-5,
          1.183926139752554E-5,
          -1.953794542831838E-5,
          1.2750212272917493E-5,
          2.0039166849768144E-6,
          -9.86365349717824E-6,
          3.6556171374169545E-6,
          -6.9306418258868915E-6,
          -9.212487052719317E-6,
          -1.4700638017385046E-5,
          5.577355330412379E-6
        ],
        "bias": -2.0501829527309624E-5
      },
      {
        "weights": [
          -4.1690415952646653E-4,
          -3.874520986466005E-4,
          -3.932135091603573E-4,
          -3.725798859494872E-4,
          -3.763850842075704E-4,
          1.3479500229471443E-5,
          -2.9421960032473333E-5,
          -3.9553482680394823E-4,
          -3.9118980417682334E-4,
          -3.929363532460345E-4,
          1.4593606358667335E-5,
          -8.130561609057438E-6,
          -7.498789828867802E-6,
          -3.488997542143177E-6,
          3.5968607860126407E-4,
          -3.7088993984553045E-4,
          -4.353785637694802E-4,
          -3.978991872208174E-4,
          -3.5651923611131086E-4,
          3.4736992196436562E-6,
          4.3081628217611195E-4,
          -3.57728206938418E-4,
          -4.002193871005752E-4,
          -3.4150449784823E-6,
          -3.829214701277422E-4,
          -3.6631291354516024E-4,
          -1.2762885252090437E-6,
          4.617718806539493E-6,
          -3.617019539583038E-4,
          -3.8644072370410683E-4,
          -3.7459700227047353E-4,
          -6.4233320556520315E-6,
          3.046516174703153E-6,
          -3.612968222758916E-4,
          5.582302375528393E-6,
          7.881066616482966E-6,
          4.2620153941148116E-4,
          -4.081338558137837E-4,
          -4.122401209052624E-4,
          -1.029591698025164E-5,
          2.7220341138277674E-5,
          -3.926448261670391E-4,
          -3.970204601896402E-7,
          4.204323855488002E-4,
          -4.083191258836071E-4,
          -3.7877989997409323E-4,
          -3.975541274395221E-4,
          -3.907126426506023E-4,
          1.1513493209674532E-5,
          -1.4285287092776718E-5,
          -1.0849859520399762E-5,
          -4.0059612087777667E-4,
          -3.9360808688601855E-4,
          -3.7457109511526574E-4,
          -3.8145730976897813E-4,
          -3.876743888068676E-4,
          -4.126002741821725E-4,
          9.270441603784022E-6,
          -1.2675613237814607E-5,
          -1.973786704265285E-5,
          3.454290931176662E-6,
          -4.088990763977431E-4,
          -8.074705436480997E-7,
          -3.5670218744728564E-4
        ],
        "bias": -1.7015943808656162E-4
      },
      {
        "weights": [
          2.1187170821928516E-7,
          5.6860246171466274E-6,
          3.360325823210597E-5,
          -3.38704105339426E-5,
          -2.2298242498815718E-5,
          3.0161222783576944E-5,
          -5.524569145697505E-6,
          -5.0517493361433735E-6,
          9.26524166326672E-6,
          2.209465758550618E-6,
          -2.655172880892979E-4,
          -2.5557630402316545E-6,
          -1.3843554009012766E-5,
          -1.2103618315163917E-5,
          -0.003160655772016489,
          -3.5153999965506226E-5,
          -0.0017246006583936325,
          -2.9168136670347215E-5,
          -8.619562428262696E-4,
          -7.781843909320463E-7,
          -0.001840176197848254,
          6.597541551601731E-6,
          7.285863842975837E-5,
          -1.555458172905052E-4,
          1.190187783885047E-5,
          6.243970555608887E-6,
          -3.702791329960206E-4,
          -3.8632817859694845E-4,
          8.741484572349524E-6,
          2.538608302876088E-5,
          2.103245546006624E-6,
          1.7860774670349554E-5,
          3.6563453819098767E-6,
          -6.506563237794504E-6,
          -1.2112569565568458E-5,
          9.717518198118086E-6,
          -0.0016271400742493068,
          2.6943752464372464E-5,
          -0.0013848377825564193,
          7.21953474562353E-6,
          4.5798791324356325E-6,
          2.7859910917149497E-6,
          4.177269330345584E-5,
          -0.0020102963322646637,
          -2.6566502864923567E-5,
          -9.245407509683889E-7,
          1.6894952000291375E-5,
          -3.7982752817721955E-5,
          -9.68455818613642E-6,
          -6.979113722752903E-4,
          8.002138352940884E-6,
          -5.4579773284433735E-6,
          -1.355146238633558E-6,
          8.775643298602152E-7,
          -3.1022189472295006E-5,
          -5.583329054798742E-6,
          -1.9858740207112183E-5,
          -2.9850863230850155E-6,
          -1.1413689139092665E-5,
          -1.624783690398443E-4,
          3.380527480104742E-5,
          -3.152756238570254E-5,
          1.6518515739561668E-6,
          8.52218097842964E-6
        ],
        "bias": -0.0016614183516501897
      },
      {
        "weights": [
          -4.468713117451855E-4,
          -4.8701358490665334E-4,
          -2.542699209316701E-4,
          -4.5892928700259233E-4,
          -4.5278119810886484E-4,
          -3.8705556234081084E-6,
          2.2210997410656398E-7,
          -4.666148488986349E-4,
          -4.035988597013513E-4,
          -3.608191830276401E-4,
          1.5548329247716765E-5,
          -9.679248798899082E-6,
          -1.5409777253113353E-5,
          -1.9285492655194736E-6,
          -4.006135502866517E-4,
          -4.614414974894881E-4,
          -6.376435399248394E-6,
          4.629953965156579E-6,
          -4.658582110506542E-4,
          7.698482997729785E-6,
          -2.8863521974745143E-5,
          -4.6937877367093825E-4,
          -4.1513832071865184E-4,
          -6.986857744175388E-6,
          -4.374285112928008E-4,
          -4.592457305962463E-4,
          8.453737157790472E-6,
          -1.3713772459391062E-5,
          -4.993046054533366E-4,
          -4.4876415620259024E-4,
          -4.3273241682957353E-4,
          8.309235563769575E-7,
          -5.766459738197325E-6,
          -4.885799906370066E-4,
          -2.833702269938739E-6,
          -8.668320712184722E-6,
          -4.52112487501781E-4,
          -1.3151464347320794E-5,
          -4.9684487979726924E-6,
          -2.204214191563819E-5,
          1.334080866767998E-5,
          -1.4125161523868843E-5,
          -1.7848320903563019E-6,
          -4.333710382392023E-4,
          -4.629886165066176E-4,
          -4.655884022643739E-4,
          -4.135479615261042E-4,
          -4.4248725237581424E-4,
          -2.8360851950994336E-5,
          -1.2723353136759274E-5,
          1.6436548205899177E-5,
          -2.623429146127016E-4,
          -4.618167603047722E-4,
          -4.701384315670783E-4,
          -4.428165844464076E-4,
          -4.703813671075406E-4,
          -2.2954919407637744E-7,
          1.0333513615254464E-5,
          -1.4663079817865086E-5,
          -8.859144433291073E-6,
          -1.948587534224364E-5,
          5.983653822664005E-5,
          -4.0185659761301777E-7,
          -4.746393424992752E-4
        ],
        "bias": 7.130702111045851E-5
      },
      {
        "weights": [
          -0.0017864450740696864,
          -8.736409489759113E-5,
          -1.019432708471372E-4,
          -9.937165249313154E-5,
          -8.681715396958768E-5,
          -1.4759113695783039E-6,
          8.402591560842256E-6,
          -8.802307804312232E-5,
          -8.752689914065717E-5,
          -9.125343789479847E-5,
          -7.023875871071789E-6,
          1.1177718373219512E-5,
          -9.682676321455284E-6,
          -5.12830051852608E-6,
          -0.001089061239822598,
          -0.001297212418816306,
          -3.822732540022193E-4,
          -1.0837017092203189E-4,
          -4.1827401289188407E-4,
          -9.470797447098944E-6,
          -0.0014674456961205342,
          -0.0011726399681724294,
          -0.0015385846316885521,
          -1.07490185710932E-5,
          -7.00723989246672E-5,
          -1.045744098235414E-4,
          7.1433228011521854E-6,
          1.3747785603024622E-5,
          -8.608675893885908E-5,
          -9.533188186800137E-5,
          -8.714585154860902E-5,
          -1.281995277586461E-5,
          1.1222739101900769E-5,
          -7.979614156792934E-5,
          -1.077813752764261E-5,
          6.111847159116205E-6,
          -0.0013554275766368398,
          -1.4326701442837146E-4,
          -2.230165385923953E-4,
          -2.7049468217537704E-6,
          1.6813643435460115E-5,
          -1.4029864054255966E-4,
          -1.715488721407522E-6,
          -0.0029244663004526794,
          -7.586438622357831E-4,
          -0.002655705209420962,
          -6.440562860225151E-5,
          -6.675953945840469E-4,
          1.064152561177101E-5,
          -9.293132766146102E-6,
          -2.8083253464054693E-6,
          -7.253714635795076E-5,
          -9.236629911105518E-5,
          -7.445293867722677E-5,
          -9.70634498120707E-5,
          -8.592160748811785E-5,
          -1.8240103803045585E-4,
          -1.8612081086332592E-5,
          4.344734241005711E-7,
          -1.0962458897873073E-5,
          -1.6981824962829605E-5,
          -8.521421749713088E-5,
          -8.275433512352956E-6,
          -9.351382871683918E-5
        ],
        "bias": -0.003644389030153637
      },
      {
        "weights": [
          -1.1481834465227923E-4,
          -9.260799696779908E-5,
          -1.1027177938111664E-4,
          -1.1402260896703764E-4,
          -1.2837318623658658E-4,
          8.458489043618931E-6,
          -2.3250750316589515E-5,
          -1.0932046988612392E-4,
          -1.012279323014456E-4,
          -1.1608117903885282E-4,
          3.773558991623672E-6,
          1.1497745431890123E-5,
          1.6663054976077963E-5,
          -6.384622284222299E-6,
          -6.709302770733042E-5,
          -1.3225535710147877E-4,
          -6.2170253566260175E-6,
          -1.1961755657213537E-4,
          2.2644197907963985E-5,
          -3.456843998631438E-6,
          8.00503045377778E-6,
          -1.1982660225644586E-4,
          -1.3438146968875565E-4,
          4.581588125729628E-6,
          -1.169024614049355E-4,
          -1.2830364310604004E-4,
          1.342177271514702E-6,
          3.1101127403159125E-6,
          -1.0532232073200404E-4,
          -1.1756809164621659E-4,
          -1.2128569385199344E-4,
          1.429538944677143E-5,
          2.2832665886840165E-6,
          -1.170006573475101E-4,
          8.430394964652525E-6,
          1.1348106107696555E-5,
          -1.0967511128025001E-4,
          -1.191983181253741E-4,
          -1.666583478246334E-5,
          -1.2596655481638134E-5,
          -3.1278082772220685E-5,
          -1.1241192737874925E-4,
          -3.11479991737942E-6,
          1.2169010447131043E-5,
          -1.3376060658803473E-4,
          -1.1308806771149322E-4,
          -1.1064689359231645E-4,
          -1.1777827734135646E-4,
          -2.4329615556386564E-5,
          1.9806275815883574E-5,
          -1.0974102086795015E-5,
          -1.177693456976617E-4,
          -1.120165209397354E-4,
          -1.3608618449822908E-4,
          -1.253422065652915E-4,
          -1.0889405721507714E-4,
          -1.2544126532812604E-4,
          -3.903383898707691E-6,
          1.520644654379701E-5,
          -1.174692509359279E-5,
          -4.914552428923839E-6,
          -1.0949828725875E-4,
          -1.0060823543208192E-5,
          -9.757631526087333E-5
        ],
        "bias": 1.3498004964198997E-4
      },
      {
        "weights": [
          -0.003194985215972077,
          4.490918733146258E-5,
          -2.3869012305842324E-5,
          4.368715308791217E-5,
          3.1446494378769906E-5,
          -1.2008536244868464E-5,
          1.316826123145566E-5,
          -6.916804575559353E-6,
          -3.436989646698825E-5,
          -1.4554845255021893E-5,
          6.6588255339621675E-6,
          -4.7893903771025354E-6,
          1.9753120236177723E-5,
          1.618893009005721E-5,
          -0.002559293270200594,
          -0.003302297081019559,
          -0.004805183577534656,
          -2.0911113205050418E-4,
          -0.004062623338870878,
          3.2169778225236016E-6,
          -0.003218572153310027,
          -0.002955603241128954,
          -0.0033513767346197527,
          3.440777418105768E-6,
          1.3908002485544215E-5,
          2.6065006023025207E-5,
          1.161967206721916E-5,
          -2.0808165182767205E-5,
          9.784827211578563E-6,
          -1.3216326941981956E-7,
          -7.005877868726032E-6,
          1.6633936547203165E-6,
          8.661547750578897E-6,
          5.44450130612759E-5,
          -8.433014765904728E-6,
          -7.354972282130945E-6,
          -0.0027988435060556727,
          -3.3989731427943557E-4,
          -0.0036388922363496594,
          1.0219507953129148E-5,
          5.347559143469125E-6,
          -4.219371930214355E-4,
          -3.378074770555595E-6,
          -0.00295601439134397,
          -0.004012694145385987,
          -0.0039081060519681275,
          -3.761548605882285E-5,
          -0.0026922762461118977,
          -1.4679108900713501E-5,
          -1.3429275761118258E-5,
          2.9211343291451833E-5,
          1.8268738024854712E-5,
          -1.0232841477454051E-5,
          3.03498073291257E-5,
          1.9123897212624843E-5,
          3.596502678823783E-5,
          -5.734318526141039E-4,
          -1.8030384982497466E-6,
          2.998644381360456E-6,
          3.640234686589988E-6,
          -1.6270843382816833E-5,
          -1.8816624963964556E-5,
          5.097393924701737E-7,
          1.1819143653771416E-6
        ],
        "bias": -0.004849925719638987
      },
      {
        "weights": [
          -4.815364718045029E-4,
          -5.242414440688457E-4,
          4.722887592646907E-6,
          -5.521077764019486E-4,
          1.0150924625888483E-5,
          -1.5270662375317177E-5,
          -8.88277103002703E-6,
          -8.549818923066763E-6,
          4.133723959909732E-6,
          3.7537194074235346E-6,
          9.002895776714457E-6,
          3.391182156178267E-6,
          8.414042456420381E-6,
          -7.114274304673686E-7,
          -4.517657556012986E-4,
          -4.887670977884138E-4,
          -2.1139537348302114E-6,
          -7.913603392921386E-6,
          -4.610840899161455E-4,
          -2.7654104162647918E-5,
          -3.229710820452295E-5,
          -5.603641624549109E-4,
          -4.596849752704479E-4,
          -1.8123182175027558E-5,
          -1.430296185254785E-5,
          -5.753356693081366E-4,
          -4.878571490879138E-7,
          -4.8628093512648265E-6,
          -4.805127204630811E-4,
          -2.5779559585304313E-4,
          -2.7315107043191675E-5,
          -1.7617893060751204E-6,
          1.806537503189255E-5,
          -4.745188927806238E-4,
          8.917188566356226E-6,
          -6.582329895396718E-7,
          -4.7548392534386665E-4,
          -4.091969646310391E-5,
          -6.803374552750638E-6,
          -1.2451467886334884E-5,
          8.977899971082093E-6,
          -8.56237294740448E-7,
          -2.4955273336622204E-5,
          -2.268510097156245E-5,
          -4.987314883195043E-4,
          -6.062412064739112E-4,
          -2.2627071800942543E-5,
          -5.059213144058295E-4,
          -9.825044427578971E-6,
          6.661456711401202E-6,
          -1.490209052669557E-5,
          -4.701544270515839E-6,
          -1.3390914348240296E-5,
          -4.58911958150726E-4,
          7.563523063260582E-7,
          -4.7767702970353583E-4,
          2.8480866111890322E-5,
          -7.73522669687677E-6,
          2.8245648997938904E-6,
          1.3863267153724313E-5,
          1.0897309588125017E-5,
          -9.429245318852222E-6,
          -5.607602884566243E-6,
          -4.8510538336957155E-4
        ],
        "bias": -8.358844508878544E-5
      },
      {
        "weights": [
          -3.925441990146392E-4,
          -4.7846063054695346E-4,
          -5.018472787269697E-4,
          -4.842765691400181E-4,
          -4.917520220778136E-4,
          -2.172342911198622E-5,
          -1.845712494203255E-5,
          -5.017986535201345E-4,
          -5.009608385368313E-4,
          -5.145923913847073E-4,
          -1.2512021104997926E-6,
          4.940774575416039E-6,
          -1.2759915271726728E-5,
          -7.5371448153311465E-6,
          -4.938925570371472E-4,
          -4.3235083272926474E-4,
          1.4453292744293388E-5,
          -5.339816755800258E-4,
          -4.5555650902143576E-4,
          -1.709605338267371E-5,
          4.898171163918328E-4,
          -4.6917477997699883E-4,
          5.555928845793957E-4,
          -1.593392578296571E-5,
          -4.8385059155452343E-4,
          -4.648490827544871E-4,
          -1.0795449579021107E-5,
          5.9383144349209374E-6,
          -4.96490000988914E-4,
          -4.6440945838182235E-4,
          -4.922527560517906E-4,
          1.3026034830942144E-5,
          -7.49708549019081E-6,
          -4.762155114652826E-4,
          -5.490626682888846E-6,
          1.878545415869134E-5,
          -4.793050618861863E-4,
          -5.356064215678169E-4,
          4.8430367721169026E-4,
          -1.1418173741707619E-5,
          1.3881147053597895E-5,
          -5.155883325097649E-4,
          -1.2213016199381947E-5,
          -4.662400968553011E-4,
          -4.383715604578431E-4,
          -4.519743277525343E-4,
          -5.027089860095629E-4,
          -4.3847059667516093E-4,
          6.622494083577048E-6,
          9.632214736967449E-6,
          -7.148759661527145E-6,
          -5.26738493846694E-4,
          -4.846571415971424E-4,
          -4.495833882381033E-4,
          -4.678435671098235E-4,
          -4.7946566893891044E-4,
          -5.29947907431641E-4,
          7.955007892390677E-6,
          6.94573466263819E-6,
          -1.3481693920629186E-5,
          -2.847005359933881E-6,
          -5.189800329391575E-4,
          -2.526205220189066E-6,
          -4.942242932018737E-4
        ],
        "bias": -5.414756859764817E-5
      },
      {
        "weights": [
          -2.787308800076333E-5,
          -8.880874376000353E-6,
          2.6623286785848662E-5,
          4.872849182719896E-6,
          -2.002582722197468E-5,
          -2.9755181119310856E-6,
          1.866559277516141E-6,
          -1.5004970825805076E-5,
          -2.761659900123427E-5,
          7.698640307351405E-7,
          -2.268428866798673E-5,
          2.409151730682162E-5,
          1.973689266063111E-6,
          -2.392410593684121E-5,
          -1.8457509296737497E-5,
          -0.0013683612976319,
          -3.0702773658586385E-5,
          -1.0178553151526714E-5,
          -0.0015434744720215486,
          -3.8505398297285E-6,
          -2.438469693181099E-5,
          -1.0636384432001057E-5,
          -0.001587554871938561,
          -2.531759049216724E-5,
          -1.2728164544032046E-5,
          -6.8891692835496216E-6,
          -1.9038986420180736E-5,
          5.293254043166869E-6,
          -1.6452979501230455E-5,
          -1.1252471948390755E-5,
          -2.6544167903678742E-5,
          -4.6478968557457745E-6,
          -7.337950217160832E-6,
          -1.7551556392867663E-5,
          -6.130238620778486E-6,
          7.933290234036565E-6,
          -0.0017944928381721582,
          -1.4191018490086329E-5,
          -9.83097981493561E-6,
          9.020410497853545E-6,
          1.3850227278729263E-5,
          -7.94406624217033E-6,
          1.093545577992407E-5,
          -0.0015790794121051225,
          -0.0016058690250308658,
          -0.005582979593010539,
          -9.049566250404775E-7,
          -0.0014910664497807214,
          -5.274342247711695E-6,
          -2.5039586421344066E-5,
          -1.0322344523689634E-5,
          -1.8449199567947914E-5,
          3.454301245722689E-6,
          1.5561008834373864E-5,
          6.299619298167816E-6,
          1.9601275025772653E-6,
          -7.287591705751985E-6,
          3.1887587282865657E-6,
          5.022462405919031E-6,
          -2.4844507731822614E-5,
          1.8740993671317963E-7,
          -1.0368767231378977E-5,
          -1.959862601655258E-5,
          -2.8206395719159278E-5
        ],
        "bias": 1.0333495110667889E-5
      },
      {
        "weights": [
          -6.480774790566168E-4,
          -6.774092122802015E-4,
          1.5256615543506485E-5,
          -6.291641492838931E-4,
          1.1295402384736057E-5,
          -1.1088410995703773E-5,
          2.339566221045568E-5,
          -4.937560491086607E-4,
          -9.281368656547855E-7,
          6.802443773662094E-6,
          2.0938624822844534E-5,
          -9.947779612574508E-6,
          5.668789871037945E-6,
          -4.023887630457682E-6,
          -6.492639642506081E-4,
          -6.392028377905132E-4,
          9.887762588996689E-7,
          7.99004006975942E-6,
          -6.729821313619645E-4,
          5.6942424137122235E-6,
          -4.880728285164078E-4,
          -6.591068312791678E-4,
          -6.084415204735902E-4,
          -1.9858872384913795E-5,
          3.8111597894075933E-6,
          -6.422070955036487E-4,
          4.602436232396209E-5,
          1.9907579015745744E-5,
          -6.261554811507603E-4,
          -6.275831109110352E-4,
          -2.86301338937574E-6,
          3.091698416928254E-5,
          -1.9105074844040004E-5,
          -7.242982792216357E-4,
          -2.0475842874215146E-5,
          -3.1795867750309314E-7,
          -6.155619497906223E-4,
          3.496857433222984E-6,
          -2.8549487928735272E-6,
          -1.0629305796941386E-5,
          -1.5114809667759242E-5,
          1.4668661587939154E-5,
          2.5891646024790347E-5,
          2.8121073310716215E-5,
          -6.606917057204236E-4,
          -6.492783917295293E-4,
          4.357571676092496E-7,
          -6.42809484805581E-4,
          3.2966422524699143E-6,
          3.894722563484325E-5,
          -8.122784473448069E-7,
          -3.2778031953705846E-5,
          1.2358569646457117E-6,
          -6.757963547952631E-4,
          -6.155648615926139E-6,
          -6.622405651316287E-4,
          -2.0574915761021735E-5,
          6.481544621338053E-6,
          8.139143654750655E-6,
          -3.633261032559758E-6,
          9.434035377330285E-7,
          -5.495076249475586E-5,
          -1.2693439619100113E-5,
          -6.368587049142784E-4
        ],
        "bias": 1.959032448320611E-5
      },
      {
        "weights": [
          0.878476764585082,
          -1.0556221060379507,
          -0.28571407087466755,
          -1.0488724581212021,
          -0.5733634751210928,
          1.1984613041003407E-5,
          -7.210018723785678E-6,
          -0.7104351402873036,
          -0.2895187072406624,
          -0.39977523478009663,
          -3.9783756363035216E-6,
          -1.771972708248886E-5,
          -8.783276777207543E-6,
          -2.2310675148050373E-6,
          1.1210183001556646,
          0.9546527081775275,
          0.3545757480884772,
          -0.6465388127229379,
          0.9587707946819973,
          5.090215323301288E-6,
          0.9786527221099374,
          0.9931520285250371,
          0.952928795814832,
          8.109302422881893E-6,
          -0.360325089858177,
          -0.7354383178573383,
          7.886341419292559E-6,
          -1.2058059486161004E-5,
          -0.6458098455089776,
          -0.4058402830017641,
          -0.3998879486305957,
          2.2908132972710833E-5,
          1.23638802055723E-5,
          -0.5113802117532052,
          1.609361609631922E-6,
          -1.0809017495448084E-6,
          0.9287211166564904,
          -1.1888224364023294,
          0.13734613975016519,
          -3.089733315032106E-6,
          8.761345097389348E-6,
          -0.0019402487479237406,
          1.2140406167019484E-5,
          0.9615487918699718,
          0.9427491781082741,
          1.8124745088716785,
          -0.2810685095688552,
          0.9526038715198267,
          -1.7006564143965456E-5,
          3.300272642388074E-5,
          1.4788442629813808E-5,
          -0.12020446190475645,
          -0.5918015742912976,
          -0.7431559283148983,
          -0.5052004006277732,
          -0.7309846151050301,
          -0.2685028288829465,
          -8.191926133888944E-6,
          -8.596184820690823E-6,
          -9.984723306525353E-6,
          -2.804679069462896E-6,
          -0.07541242939459797,
          5.602167006026776E-6,
          -1.0256469958271854
        ],
        "bias": 1.608342705750002
      },
      {
        "weights": [
          -5.401169343593694E-4,
          -5.746757259699336E-4,
          -8.628684919578665E-7,
          -5.732214738429957E-4,
          -4.2112407199624397E-4,
          4.800662963097032E-6,
          5.8221897261809E-6,
          -5.370660181132151E-4,
          1.2630825031547647E-5,
          -8.585462454169663E-6,
          7.787282766520002E-6,
          5.312528805977207E-6,
          -2.689034053524133E-8,
          -1.2767871457769657E-5,
          -5.291620324176455E-4,
          -5.683644722819005E-4,
          -4.270533033305607E-6,
          4.392333724625023E-6,
          -5.635524404740829E-4,
          -1.2268701782317078E-5,
          2.801328024881454E-6,
          -5.64947061910662E-4,
          -5.426148362534523E-4,
          1.2043142151150332E-5,
          -7.4210088495737225E-6,
          -5.599056576447916E-4,
          -1.772944510086622E-5,
          -2.1393604338710143E-6,
          -5.861841994126263E-4,
          -5.270753347696001E-4,
          -3.652410692549806E-4,
          1.4577794324145714E-5,
          1.7026982611236073E-5,
          -5.562298173736591E-4,
